-4.638310623054449078e-01 5.653024535171897735e-01 -2.578806897741423576e-01 -6.859237246650349284e-01 5.005914004580589438e-01 -9.835673956578605548e-01 4.653426214928237936e-01 1.060498432233498711e-01
-2.218426320079103231e-01 4.519071812556403334e-01 7.663489457195904464e-01 8.663882664511106668e-01 5.161902245689382607e-01 3.228314775381235791e-01 9.575678016979538576e-01 6.497495297773328016e-01
-9.082797783580427442e-01 1.718250499109266194e-01 7.069692368032174379e-01 -4.078220163208645666e-01 4.456240315966160104e-01 -4.172401026437786431e-01 -6.429027573582384303e-01 9.807507028047039999e-01
-9.915407305884382794e-02 -3.699666492800948170e-01 -6.515960367389252994e-01 9.250559605765411586e-01 8.803394871732195259e-01 -9.083587838193729613e-01 1.999688306369133972e-01 4.430826270458163574e-01
-6.956484944598932962e-01 -5.064339398369477330e-02 9.184938923994645510e-01 -9.474846194165986724e-01 -8.318178873190142930e-01 2.972961877642679163e-01 5.385657819473812502e-01 -8.112808696042037582e-01
2.612261968355822361e-02 6.605435828850541036e-01 6.550235987320380815e-01 -8.210836839382680274e-01 5.216402641333479639e-01 -3.781235284237773886e-01 5.945984695546280285e-01 -4.540122555288594874e-01
1.496453708597011989e-02 9.165672422507471495e-01 7.209618509420736565e-01 -1.717404981831864852e-01 7.039474967229897295e-01 -5.666737463842821398e-01 3.813396064529770424e-01 9.435779734481388736e-01
9.536284064357709589e-01 -4.110588604064526752e-01 9.460331260159486888e-01 2.167585852398099533e-01 3.858082193793126446e-01 8.756007064413122709e-01 5.626384555927210762e-01 -3.325243260744212836e-01
3.289694888571805809e-01 1.020474506159929629e-01 -6.152129752556232400e-01 8.571006067958160113e-01 -2.257620015189307772e-01 2.155509636841181909e-01 -4.010254130500772174e-01 -1.411904260614476048e-01
-2.181129870911542312e-01 3.569932888962730200e-01 7.231477724092938431e-01 -3.541120601522007583e-01 7.424482347679295380e-02 1.960875876112573302e-01 4.606637053416982042e-01 3.211873174809944942e-01
