3.318192526822567601e-01 -1.950139660047807144e-01 -5.084147785716175427e-02 2.206391485350811532e-01 -2.331085744548753169e-01 -7.942114715100965228e-01 -2.631770566884195084e-01 2.851458831860367305e-01
-5.967068921922438207e-01 -9.599869635816737912e-01 9.268841051148235533e-01 -3.485799508569065175e-01 6.442666598561550551e-01 -2.503433654459954472e-01 -4.959510840206271531e-01 -6.448290451379579125e-02
-2.053109465335360984e-01 -6.484976900638517172e-01 -9.820478125740230713e-01 1.236210222533307146e-01 -7.561756041274727558e-01 5.657855638317932367e-02 -4.373396458784706287e-01 8.180247455688720581e-01
-4.517195901753703335e-01 1.556140885591759115e-01 -2.218582143766307802e-01 -6.323723766041240424e-01 7.176491284670742932e-01 -1.428171020969037919e-02 -5.539936195784629369e-01 2.204202154026690952e-01
-8.751591304687367234e-02 5.853765391959240283e-01 6.191111497087093962e-01 9.626925817918932093e-01 -6.983238464865959561e-01 -5.927996896118650216e-01 9.454635597789180501e-01 7.994859471407596008e-01
9.141529465657343145e-01 3.159015380830425546e-01 -8.353447123834600863e-01 -9.864254662717695243e-01 -4.749633730185991443e-01 6.196234633661676927e-01 9.717420584162614894e-01 3.387300282933760620e-01
-6.899152662981387074e-01 3.553647696640258591e-01 2.594067039264542629e-01 7.689588508896232355e-01 6.347268886834775969e-01 -4.807922486224907033e-01 4.288802537137870186e-01 3.986562480266739872e-01
-9.775832238270500962e-01 7.051634410707603440e-01 -7.823952771891582447e-01 -5.182830652380383540e-01 3.814780235282846377e-01 9.391373513163385756e-01 -1.974085808304433254e-01 -5.134550393194918794e-01
-1.380617659609739700e-01 -1.290827095151372284e-01 6.642246649836780481e-01 -3.064734665454333928e-01 -2.566407093319678090e-01 2.498475277715370702e-01 6.639631754539940811e-01 3.859837067002731548e-01
1.500073887179773635e-01 8.086334139616495609e-01 3.735495624519922231e-01 -1.888086413501559591e-01 -8.884398539862023991e-01 -5.495954796542021903e-01 -7.203586303468816343e-01 -5.599469569696358118e-01
