1.343160822655120601e-01 -5.619639520828227930e-01 -7.321637203197040034e-01 -6.434617368414432548e-01 5.383215327852945986e-01 6.927745118418753290e-01 -3.266799799491983958e-01 3.770785871378503629e-01
1.658107605965608577e-01 6.085637155609620041e-01 -2.614790631078014460e-01 -9.730506134361420756e-01 2.355540934104949358e-02 -5.720934190100468442e-01 9.023293851004332566e-01 1.937158034234085502e-01
-8.589801791057172231e-01 8.538068768808249054e-02 3.852547547092803892e-01 -2.965255476418304781e-02 -4.717626071263647525e-01 -6.205013453775722887e-01 -1.934849366160980022e-01 -5.228734569649293729e-01
-5.382905331470733135e-01 -8.656090344605749110e-01 -5.307625411556244899e-01 1.172793782094043724e-01 -2.115189128351884218e-01 6.204882690105384402e-01 -3.862204275795009245e-01 8.793650017568928057e-01
-7.404975968198934666e-01 -6.007530711123336697e-01 8.624346480401008375e-01 -8.390629774864348800e-01 -1.990621326918178280e-01 -7.970763619913718845e-01 -1.229617826722988472e-01 7.283360294578766769e-01
-1.430079016006688963e-01 4.259630581585671649e-01 -1.403073694567080754e-01 -6.789920343746222997e-01 6.182866664055834960e-01 7.478484442109472052e-01 9.163431938765067564e-01 2.858934691138255157e-01
9.711055599248978876e-01 -9.130599225603688307e-01 -7.181226092752546197e-01 -2.408706332918786330e-02 5.846746998935035133e-01 8.237489721325808034e-01 9.874768941143585721e-03 4.311441630848098505e-01
-4.282984727448642115e-01 -6.884855211379607987e-01 -6.412320647973339671e-01 7.330465746112546643e-01 -4.905825829910201996e-01 4.806794050512657179e-01 -6.487273758257363632e-01 7.492294039852218646e-01
-2.972177463868090896e-01 -9.359094280330784166e-01 5.080864559335493968e-01 -1.633471132205142062e-01 5.205618275399712669e-01 -6.171788861307385687e-01 6.684989683047768416e-01 6.401870144790784423e-01
-5.469910938411279844e-01 -6.480684298138739141e-01 2.361489367293754249e-01 7.768577283996334071e-01 -1.526884622305813011e-02 -7.188641292615671752e-01 -8.774942325963428491e-01 3.334941222250022985e-01
