-8.008155664339320357e-01 -8.331811604077152822e-01 2.132875078093610099e-02 2.518459647489890152e-02 -2.819119982529378898e-01 9.392827988187191224e-03 -3.613258884775809587e-01 6.270111779800520146e-01
2.466844828566352454e-01 4.693672817166114619e-01 -3.747618632200964139e-01 4.724656674635796527e-01 8.748779263813786233e-01 -9.972942318980799747e-01 -4.871635446856210638e-01 9.039762305729224234e-01
4.184744300710272480e-01 -5.786905077288970745e-01 5.797622351001845420e-01 -9.179847071884024157e-01 4.973202387984414496e-01 8.949360647253363776e-01 3.306548431485341055e-01 -8.001200701477508836e-01
-1.117626791891590532e-01 7.338113871577522929e-02 2.888596080310577019e-01 -2.699741014275536255e-01 8.045824231554381534e-01 -1.909329659416389990e-01 -3.885329306911164959e-01 -1.648150021436669554e-01
-8.026412353097216457e-01 -4.118440080832996841e-01 1.309698978654119106e-01 -2.185720198461840180e-01 4.578113113193620354e-01 -5.664871417160002309e-01 9.054556307886547639e-01 2.981628957141744252e-01
4.246227518215923702e-01 2.356950127030867925e-01 9.997889332696521247e-01 1.802990743116370531e-01 7.337529248361258638e-01 -5.436193763192338491e-01 7.631852373307053128e-01 6.193012273655775779e-01
-6.485358785199948350e-01 -6.404303006485863037e-01 9.263247286186966356e-01 5.346909790400620199e-01 -2.078424984471158865e-01 6.210610123586166598e-01 -6.214755320466993638e-01 6.793605707669931881e-01
9.262834104356461040e-01 3.042108166078074660e-01 -3.526533652467760405e-01 8.023104929940210184e-01 -1.810939531458490848e-01 9.731740836548374851e-01 -6.021900974873288792e-01 -7.204308486019195268e-01
5.288061816158449169e-01 -8.831765478698123673e-01 -7.331893738842001351e-01 8.805566209835586911e-01 -7.876364050070108203e-01 -1.511679614609828803e-02 -1.410720185560829787e-01 9.784794974967203629e-03
-9.685364064487951286e-01 -3.574487100677623541e-01 -9.286075269661675513e-02 6.747839490547606900e-01 6.140423445986162854e-01 -8.019209042737065474e-01 -9.945291801613260763e-01 -9.817087169228111421e-01
