5.857933484427715332e-01 -3.110422860187822547e-01 -7.219244725273934460e-01 9.018930335731600856e-02 -4.293312575440650924e-01 -9.897665096411274455e-01 -6.451590788435208612e-01 2.782123873279791493e-01
-3.631736605621982417e-01 -3.369320799338715311e-02 -1.607742465817230126e-02 3.885097711839988754e-01 1.458216484304439842e-01 6.490343989659026480e-01 -8.940629662226982077e-01 4.628255019673703785e-01
2.812868984484551138e-01 -9.900213153349408657e-01 -7.119771494187931982e-01 -7.800735057107566206e-02 7.437525948143479670e-01 -8.480512317481581075e-01 -8.415940043122782654e-01 4.792367090248639272e-01
-4.498903327547620901e-01 2.481782313055269640e-02 2.631502522162392221e-01 -5.639139875622949383e-01 -5.608532546643880679e-01 4.639974971175155893e-01 -2.310703624454291116e-03 -8.874838662343531581e-01
9.190102501712849037e-01 2.317346321289448507e-01 3.304866692363885861e-01 5.448069421680163948e-01 -1.532381325780656223e-01 -3.919531263914965979e-01 4.575414817968401771e-01 4.423627148606181780e-01
-3.821115903879988007e-01 5.994270050354302271e-01 1.333064229375389154e-01 -4.668929694288137533e-02 6.971834518395483293e-01 6.479860343141179424e-01 2.186452616345511135e-01 -7.407704575694762372e-01
7.752814514837316207e-01 -3.773262602804861032e-01 -8.074829815414064083e-01 -2.055080336801740071e-01 7.821604966884050381e-01 4.426176123290990194e-01 4.284595230992624959e-01 -5.898867181234646040e-02
7.184987212833009451e-01 -8.408636511087395071e-01 -4.039972935807698562e-01 -5.029158976477909881e-02 -8.942352228598633435e-01 6.938928840492948336e-01 -2.530840676750119034e-01 3.848152841127809864e-01
4.244992204592321627e-01 -6.711655198399448796e-01 -9.727937332417480043e-01 1.146465737613726610e-01 6.511369839891185674e-01 9.997494094127949982e-01 4.167454061437634305e-01 -5.225610269176161893e-02
-2.882607359977062966e-01 -3.228114944423710053e-01 9.043677408326926681e-01 -4.822160160696582487e-01 6.013077970384428372e-01 8.323274645796880922e-01 8.549849335797303773e-01 1.489662643349558557e-01
