2.842018298938293608e-01 -8.823242894913985168e-01 -8.358356235427140124e-01 8.548408666810851653e-01 -9.477374497854198498e-01 -9.606014448811741602e-01 9.237426494846785463e-01 1.510734521293528587e-01
-4.109369198265244716e-01 -1.724100267989907564e-01 8.976404101232240418e-01 6.582627465640034092e-01 6.979614926350994342e-01 2.714562272867657722e-01 -3.344120526937008897e-01 -9.571013460888933011e-02
-7.482022964849048829e-01 2.516345985309769162e-01 -3.032317155158446020e-01 3.189447126937452470e-01 4.985313074553798796e-01 9.515194538113471712e-01 -6.612664347373478080e-01 -8.113345991914855393e-01
6.740083874337765568e-01 -2.173344307582714130e-01 -1.336609722202073414e-01 2.308613356015971618e-01 2.621820420521143724e-01 -1.273834272380023336e-01 5.766362237999198559e-01 -2.582343539350131500e-01
8.424021585564749337e-01 2.558320431312559595e-01 5.460498299256937305e-01 5.619909760429464551e-01 8.082092398911879805e-01 -2.483050556636097195e-01 3.597322655667696267e-01 -3.681829228857254055e-01
1.769363771167591359e-01 -7.645187654447289649e-01 -1.708189265111244026e-01 -4.539991786635015902e-01 -8.107477088666648068e-01 -3.961201647028425032e-01 2.472005866144517672e-01 4.983821092292848309e-01
-4.100756147859065948e-01 5.201833449236170637e-01 2.902247756022280356e-02 6.295455780148055958e-01 5.788829087984197486e-01 -5.397145931915341421e-01 -3.875752743861742289e-01 7.500750856695725943e-01
-2.031031655597084207e-01 6.958236602298906170e-02 -5.097950797068488971e-01 3.196663471241731891e-01 2.722394975282527163e-01 -3.695918297957769827e-01 -3.741017074302659395e-01 6.677056177558973182e-01
4.678642660712855061e-01 -1.956394193104094015e-02 -4.150591596969228636e-01 -9.380543503972273989e-01 -1.497000877971186306e-01 -3.563319901067243389e-01 -7.121366991938400393e-01 -8.607176327816896677e-01
-3.094425574441181936e-01 2.564070437567513849e-01 -3.818205809311603360e-02 7.165273627344255214e-01 -6.186775758338203257e-01 4.578389131479960739e-01 6.551790580667351538e-01 -8.716667609914985348e-01
