1.006412822918718586e-01 -9.618011551161635975e-01 -4.778979393581737067e-01 7.699862294458310608e-01 9.118494055854187152e-01 2.107068857399867490e-01 -4.087574236967954633e-01 5.660557452273344836e-01
-1.268478369740242417e-01 8.675635230785476715e-01 7.825121357387430088e-01 2.441258645271400241e-01 2.557658023188191798e-01 4.738457958975221818e-01 -9.792287854141696890e-01 8.246274647680416070e-01
5.187973537008365721e-01 4.793634968484603576e-01 -2.272559247860341802e-01 6.327841624811285648e-01 3.440281085033687347e-01 -6.813932857291962186e-01 -6.573321985812796697e-01 -6.239656229668419929e-01
2.251996726508620483e-01 8.090738645308226396e-01 -1.138154007517599986e-01 -7.905434456091968709e-01 -9.896845944359105030e-01 1.614009622217207340e-01 -3.493920382448432171e-01 -4.900315890920263762e-01
2.261698268359348951e-01 -5.143754912392854983e-01 1.214786002909440388e-01 4.041418551447395480e-02 -9.730374483732693314e-01 1.034048036632422285e-01 7.055756220791133959e-01 9.483537961116259574e-01
2.293657653482170655e-01 5.112574422089126713e-01 -2.021002663559499091e-01 -1.833123484287877414e-01 -7.872769945800692781e-01 -6.935703130248671577e-01 2.332086093972867147e-01 -4.813087410318717119e-01
-8.891964422770979315e-01 9.888359240903150660e-01 -3.876179556464547371e-01 -6.384896793275804949e-01 -6.650256607002233977e-01 -8.422928066339778752e-01 -9.078892829367890549e-02 -3.089894075591699263e-01
-5.846451141223818482e-01 -7.138742543507492488e-01 2.494179832473017999e-01 -4.953033273556288751e-01 -8.903512912970998894e-01 4.660366655458667573e-01 2.531402632502111061e-01 1.153114562675434662e-01
9.248978860921630574e-01 -7.068254589517417585e-01 1.305086934953543221e-01 -9.735931382440903281e-01 4.163341218952272271e-01 4.198143151428053166e-01 6.482048027433289228e-01 -1.694913559385491375e-02
3.897234427375604326e-01 -2.720715757328024953e-01 -5.918230206878907218e-01 9.828795107153160959e-01 9.762157689100237068e-01 -3.356627626592254554e-01 9.875125565904492309e-01 9.638707855678576575e-01
