-1.668372092247576433e-01 -7.716405293532324627e-01 5.499132722322164213e-03 -8.285217864353078276e-01 -2.822927261049223979e-01 -9.003615344843436397e-01 6.001694563932824522e-02 5.185479034555529054e-02
-1.822452304851245319e-01 -4.192061107134605891e-01 4.254032831885155019e-01 -3.006525981100243161e-01 7.704030696008792312e-01 4.553672284736109965e-01 -7.223837418339427163e-01 9.594757693290116851e-01
-9.470775796686867753e-01 -1.340352237201645202e-01 7.249501306258026023e-01 -2.472886180611302276e-01 9.968301858039634311e-01 -6.259231173902726209e-01 -4.320061440356459670e-02 -9.002390727570586115e-01
8.757193655125949938e-01 7.794231032909726409e-01 -9.601414381481772065e-01 9.483572314967732009e-01 3.039287188416663898e-01 6.103570294882678660e-01 -6.201416392879033346e-02 8.375810251302751031e-01
6.275728919024861074e-01 9.786410505594089759e-01 2.531390490027762841e-01 -7.031634376434323652e-01 8.392425229661548691e-01 3.850386828287291063e-01 -6.054322072903981500e-01 -8.481723667343494810e-01
9.690925747553287284e-01 -5.522884930470701725e-01 -4.446269817831052240e-01 7.086649248949379309e-01 -1.924203575692495782e-01 6.140821551556017166e-01 -6.775461363441090956e-01 -2.999677578821162705e-01
6.028706240365926394e-01 -4.288252530563965159e-01 -8.418486059470922100e-01 -1.717874328379185300e-01 -4.502630643684901735e-01 4.129435101884759707e-01 8.464025181843053414e-01 -1.212035139603586664e-01
1.014238630692156917e-01 -5.336048394136509998e-01 -5.761610497886957560e-01 5.349254008093402568e-01 -1.982190085690247461e-01 -4.643784123150471732e-01 -5.747489302381296739e-01 6.225404701871897206e-01
-9.135689875485297762e-02 6.044471228856829192e-01 -5.171017806970041875e-01 1.354955187357396174e-01 5.263315280217795156e-02 -6.756362815271836908e-01 -8.604654143380181530e-01 -7.049774481898134493e-01
-8.709931373360439988e-01 7.636742188437795065e-02 -4.257471814672098009e-01 -5.100508329727231338e-01 -4.640139563914185139e-01 -2.543317840146357423e-01 -8.739944448637471108e-01 9.263861262516188688e-01
