-8.577107520142353003e-01 7.263610116338776734e-01 5.834889804466032448e-01 -1.165301155279381273e-01 -8.960554472828037298e-01 9.704605117039799556e-01 -6.000806917406256158e-01 8.268603151675213425e-01
-3.743712151882427897e-01 3.942448009007477605e-01 -1.178800280405727374e-01 -3.487284219808739483e-01 -8.452516522709194735e-01 4.695793219682051767e-01 -2.973531565662608234e-01 2.708123407458762344e-02
6.544235648771352665e-01 7.424487189547424038e-02 1.732653200250666714e-02 -5.277607333066220985e-01 9.053186276068769800e-01 4.538812081158536405e-01 6.579941251511922662e-01 -2.982620297823657118e-02
-4.257783516468593987e-01 -2.293611458415263371e-01 8.331702414076991303e-02 -4.442299643034597345e-01 5.974664490050605181e-01 -4.640163700899500032e-01 5.432146745077388594e-01 5.675315137259702158e-01
-3.116477698373798511e-02 2.425839906256419543e-01 -2.637406068626115818e-01 -9.146170368410733165e-01 7.102794081760104294e-01 9.827905214262835365e-01 -5.059860865396552665e-01 6.373794161599513064e-01
-8.421315974627021639e-01 -8.594354400348478418e-01 3.901319699808158958e-02 4.867159376866014853e-02 -8.596725150204820309e-02 -3.105666818115506711e-01 8.259895570116986274e-01 9.989133695017597958e-01
-4.322599794952497465e-01 9.562370986712780407e-01 -1.397961332583630423e-02 2.335124294441923709e-01 6.079813479183839853e-01 9.672119923891626669e-01 -7.038655495861834144e-01 8.554130918324065469e-02
7.877720248282638060e-02 -4.057843345456426665e-01 -7.399283150892421723e-01 -1.011965809489170365e-01 -5.145919085562442596e-01 -9.240549704726306324e-01 -5.122091483652968513e-02 -6.120010672342819369e-01
3.192276275655023809e-01 1.803582938857988260e-01 8.325807690765636426e-01 9.941060657169205061e-01 6.128818923775212202e-01 1.159169340355279409e-01 9.339109554851352524e-01 -3.402411498280999425e-02
6.263156241929213053e-02 5.976190689528644295e-01 -6.702461229555163325e-01 9.768447865991369827e-01 -9.597634397009440210e-01 -2.373995897186769177e-01 -4.537769295092060062e-01 -2.155227388083269524e-01
