-9.873304014977786203e-01 7.631896617012374762e-01 -8.169298417162211834e-01 6.427792801330522998e-02 7.650637597205820484e-01 -5.226635477274714781e-01 1.774721812293833523e-02 -4.913186037083565605e-01
-5.439818073496969220e-01 1.930752317650359373e-01 9.305510832834482660e-01 -2.270091616287439606e-02 -1.395874584127001494e-01 -1.010718081638319887e-01 3.231798968858428101e-01 2.693966071908882043e-02
-2.485378975849701355e-01 8.834340495447268182e-02 7.981317274997332678e-01 5.490520690634286272e-01 6.876715256613274985e-01 -5.899985507219243086e-01 -4.741943620549735616e-01 6.527152710022228188e-01
-2.095776681552934395e-01 5.452252038670022394e-01 4.524032452539359372e-01 -2.875392304455641757e-01 -5.724330788704390383e-01 -1.585668269606501646e-01 5.316784260946600948e-01 -6.936020521197234778e-01
3.931605198948546764e-01 -4.534259012756969298e-01 -5.179246823301539848e-01 9.580148960178547224e-01 -8.958141573219802201e-01 2.382346358705553779e-01 3.313636822445498176e-01 -9.983766958113018397e-01
-2.179806967845083765e-01 -8.073818260222476173e-01 -7.659117396363257502e-01 9.225644306654066096e-01 -9.350957647407354134e-01 1.592824460415598331e-02 2.446531103944986629e-01 -3.388744524940792147e-01
-6.039480800472467603e-01 -6.572884320162661886e-01 6.006215203058300478e-01 2.356268361802822398e-01 6.913776715783737092e-01 9.182449711125533209e-01 -2.513984417032688601e-01 -8.195538624353995161e-01
9.814798679344749477e-01 -5.050299418809642837e-01 -4.201214916758806428e-01 -9.421989854138344000e-01 -1.417013225547538724e-01 3.706262207499853023e-01 -4.010923744145460379e-01 -5.897184441191516413e-01
9.926908658300537258e-01 -5.238601424556077468e-01 4.486182123611124339e-01 -2.581734945913451984e-01 2.726886524497995623e-02 -4.011069782918683657e-01 9.015288090102795415e-01 -7.923449137284024335e-01
1.795093378322658584e-01 9.799876855869706915e-01 -8.781815009437652364e-01 4.823336562405233785e-01 5.370447769584574260e-01 4.979527711860478600e-01 -7.609373481875894019e-01 4.568566082394658334e-01
