6.956259961397690539e-01 -5.167621908923643037e-01 8.766916733776839443e-01 6.110718618479766828e-01 -2.574874523619803401e-01 4.288621247113548751e-01 1.081333429073652042e-01 4.242695692474327540e-01
-9.772949066406597662e-01 3.048735710467778137e-01 -4.189491146490282869e-01 8.736093342482142976e-01 3.246888072398814717e-01 4.577102399313308645e-01 -9.256419784375924387e-01 8.060779753463231945e-01
-6.481087166801891009e-02 -8.209978798398762656e-01 2.191946857120612435e-01 5.341975073648153050e-02 -2.850813478794382849e-01 -6.748880639499970080e-01 -4.618772624730780318e-01 -2.866804328252281486e-01
4.034046467681664527e-01 -9.384173970274820586e-01 9.969337683416972240e-01 4.764580367770827607e-01 -6.749638035668736880e-01 6.309027875762343029e-01 -6.614421429868426738e-01 -5.546796020689175322e-01
2.545326374901502042e-01 6.635759559026987997e-01 -2.228938969832168215e-01 -8.296043501288596911e-01 -2.747127176623089806e-01 -4.106672646403046745e-01 4.149275254036237648e-01 -9.479675284585042938e-02
8.504167134839564213e-01 1.732885896654849933e-01 -2.317126561785811667e-01 2.880354279216439384e-01 4.172406501502536891e-01 3.201359463965103291e-01 4.202480988641139614e-01 3.597927529543478720e-01
-4.393920675065585701e-01 5.177185068677299107e-01 -4.443578452664980194e-01 -1.460660217102693892e-01 -1.428897292666349017e-01 3.228009055521674497e-01 1.527565166554134546e-01 -8.355340566220981202e-02
-1.239671272254097012e-01 -7.074943186109248217e-01 8.997248921886717987e-01 -4.360752870127055925e-01 9.761668789589814654e-01 -3.196147740463042286e-01 5.172292878207944700e-01 9.027223477375754257e-01
7.535562972058935660e-01 -4.464719707798656678e-01 1.308475148835808177e-01 7.202568107727325142e-02 5.434227760933940665e-01 8.115333628364371776e-01 8.647669714008225927e-01 1.769952372006078356e-02
3.993036641135645493e-01 2.656941125556167016e-02 -2.556556389632875792e-01 -2.437942330192408580e-01 6.657161892688348015e-01 -3.887013817084732370e-01 7.755854667696844285e-01 -5.362665399094832530e-01
