-4.658798048347692067e-01 8.495634710541926093e-01 1.784224263856233339e-01 6.933176924650454875e-01 -4.482881737555466373e-02 -9.785182902119280435e-01 6.226906525496496148e-01 8.633688033442110665e-01
-3.366099498412289392e-01 7.125151420554103332e-01 -9.505393966314308329e-01 5.905133274438234547e-01 -5.952766947533705277e-02 -5.223087403431321274e-01 -7.175858162643042881e-01 2.654329172796017211e-01
-8.467060992344912496e-01 9.171309701866858788e-01 -2.917083233469974779e-02 4.872480559199503514e-01 -6.995460024163790980e-01 -4.227531509314481628e-01 -3.624235559539448204e-01 3.157635565579877124e-01
3.546273353300715137e-01 4.971892822848860138e-01 -9.597254274302802202e-04 4.199330512046350883e-02 -1.600893475927733789e-01 6.409748103523593699e-02 5.173013238569252881e-01 5.161637324070171839e-01
-8.802857121253060413e-02 -6.578208886024317081e-01 9.762756252757327502e-01 -6.658251807308257497e-01 -9.517933170416510436e-01 9.730119616608461364e-01 4.527066280896161476e-01 -3.954853292096258688e-01
-8.727463495840703800e-02 -5.452696985481968461e-01 6.656580020197266911e-01 5.075562077660269455e-01 3.175983458719395802e-01 -7.786305572251055462e-01 -2.438489268716614866e-01 2.710181056482374728e-01
-9.400629368972801547e-01 -2.311547602194574669e-01 -5.179108223879504980e-01 6.140805895168757189e-01 1.348190608570798421e-01 -1.986913968018022558e-01 2.318936568267138121e-02 9.127873059045992221e-01
5.845060968020110437e-02 1.089288861868364933e-01 5.177980949096281371e-01 9.920804725783383127e-01 8.550388195688896076e-01 2.647130433365190161e-01 3.707379607036875857e-01 3.862107505467344826e-01
3.982363093764866857e-01 -1.064610081128600783e-01 4.715131383405646304e-01 4.764481820019652591e-01 -1.004710872983147762e-01 4.030231798490047090e-02 -3.194898028214934183e-01 4.631680642646767154e-01
-5.545850567903765072e-01 4.025689963826855067e-01 5.644266865070213246e-01 7.646042415507179335e-01 7.545282515060141026e-01 7.390599257136598599e-01 4.548925290368983632e-01 6.139484599214342087e-01
