-4.359857319055375768e-01 8.323337340093346359e-01 3.798981662354803390e-01 7.322788431636242379e-01 5.831110410393185450e-01 -8.783751940982886808e-02 4.784276650587564461e-01 6.835942127061644946e-01
-1.420278912175190200e-01 -2.387459347822105116e-01 7.058760376841390904e-01 6.447757122019268650e-01 7.637432266202059949e-03 -6.116508065329901989e-01 9.409754538714665273e-01 -3.689740553676257306e-02
-9.702251505569696732e-01 -2.136751407375341305e-01 -6.660793385408703138e-01 -7.504744113670702710e-01 6.034025183565858708e-01 -9.987033240629505926e-01 -8.919134004483730838e-01 5.695256218136233173e-01
-5.165274713366843073e-01 3.950312141561391766e-01 -5.100789107047103421e-01 -4.053319687537368932e-01 3.240921841839636830e-01 6.355215283515631697e-01 2.689283855798241252e-01 8.287743496593413806e-01
3.063307108536144074e-01 -9.817711573703353789e-01 1.581477940698226003e-01 -9.127162112304534336e-01 -3.041565417253899728e-01 9.967280942516705267e-01 6.834989777855715598e-01 5.786080309537353639e-01
-3.654065155148467081e-01 9.050125482875028826e-01 8.277469583375496320e-02 4.014295446176683324e-01 7.589391908690164001e-01 5.376082855374293423e-01 9.077398043560840346e-01 5.341526138273315905e-01
-8.769651800426592203e-02 3.143330770834755761e-01 -1.986826531206331570e-01 -9.085145511523753381e-01 -8.054098208313404950e-01 5.294748739482864064e-01 9.215616107560369308e-01 -4.284479562310015144e-01
7.009919748712702958e-01 6.077089432293458771e-03 -9.250057510604328126e-01 1.672498398442126000e-01 -4.458074383878853908e-01 -7.785072138492499239e-01 -9.155152500706431606e-01 3.266944441500521101e-01
8.931627695409507517e-01 6.387774453018044696e-01 6.620915026307871987e-01 5.542465411760169047e-01 -2.342647958432027000e-01 -5.991287038631631923e-01 -3.241004056658018939e-01 -8.119785250134634591e-01
-9.723897602319950817e-01 1.433402382872683845e-02 -5.186937392235844158e-01 8.236888614845976342e-01 5.297235090784035982e-01 -5.136749343395869971e-01 1.880141054959265645e-01 8.289888659457247400e-01
