<neuralNetwork>
    <neuron name = "0" type = "sensor" linkName = "Torso" />
    <neuron name = "1" type = "sensor" linkName = "BackLeg" />
    <neuron name = "2" type = "sensor" linkName = "FrontLeg" />
    <neuron name = "3" type = "sensor" linkName = "LeftLeg" />
    <neuron name = "4" type = "sensor" linkName = "RightLeg" />
    <neuron name = "5" type = "sensor" linkName = "BackLowerLeg" />
    <neuron name = "6" type = "sensor" linkName = "FrontLowerLeg" />
    <neuron name = "7" type = "sensor" linkName = "LeftLowerLeg" />
    <neuron name = "8" type = "sensor" linkName = "RightLowerLeg" />
    <neuron name = "9" type = "motor"  jointName = "Torso_BackLeg" />
    <neuron name = "10" type = "motor"  jointName = "Torso_FrontLeg" />
    <neuron name = "11" type = "motor"  jointName = "Torso_LeftLeg" />
    <neuron name = "12" type = "motor"  jointName = "Torso_RightLeg" />
    <neuron name = "13" type = "motor"  jointName = "BackLeg_BackLowerLeg" />
    <neuron name = "14" type = "motor"  jointName = "FrontLeg_FrontLowerLeg" />
    <neuron name = "15" type = "motor"  jointName = "LeftLeg_LeftLowerLeg" />
    <neuron name = "16" type = "motor"  jointName = "RightLeg_RightLowerLeg" />
    <synapse sourceNeuronName = "0" targetNeuronName = "9" weight = "-0.45915929569451097" />
    <synapse sourceNeuronName = "0" targetNeuronName = "10" weight = "-0.63478810858999" />
    <synapse sourceNeuronName = "0" targetNeuronName = "11" weight = "-0.8076765998111872" />
    <synapse sourceNeuronName = "0" targetNeuronName = "12" weight = "-0.7144366862385325" />
    <synapse sourceNeuronName = "0" targetNeuronName = "13" weight = "-0.9048302445541228" />
    <synapse sourceNeuronName = "0" targetNeuronName = "14" weight = "-0.31039656309891894" />
    <synapse sourceNeuronName = "0" targetNeuronName = "15" weight = "-0.7823499134432816" />
    <synapse sourceNeuronName = "0" targetNeuronName = "16" weight = "0.4648813695768137" />
    <synapse sourceNeuronName = "1" targetNeuronName = "9" weight = "0.11624098286822826" />
    <synapse sourceNeuronName = "1" targetNeuronName = "10" weight = "0.14868775576016668" />
    <synapse sourceNeuronName = "1" targetNeuronName = "11" weight = "0.33030468039034666" />
    <synapse sourceNeuronName = "1" targetNeuronName = "12" weight = "-0.7682443585243537" />
    <synapse sourceNeuronName = "1" targetNeuronName = "13" weight = "-0.027914821718528993" />
    <synapse sourceNeuronName = "1" targetNeuronName = "14" weight = "0.7476431788288183" />
    <synapse sourceNeuronName = "1" targetNeuronName = "15" weight = "-0.22737704859171837" />
    <synapse sourceNeuronName = "1" targetNeuronName = "16" weight = "-0.5414550477118356" />
    <synapse sourceNeuronName = "2" targetNeuronName = "9" weight = "0.5435924499198814" />
    <synapse sourceNeuronName = "2" targetNeuronName = "10" weight = "0.5825341024635273" />
    <synapse sourceNeuronName = "2" targetNeuronName = "11" weight = "-0.7706557166752346" />
    <synapse sourceNeuronName = "2" targetNeuronName = "12" weight = "0.5423217675797125" />
    <synapse sourceNeuronName = "2" targetNeuronName = "13" weight = "-0.7645071323318495" />
    <synapse sourceNeuronName = "2" targetNeuronName = "14" weight = "0.803031242083259" />
    <synapse sourceNeuronName = "2" targetNeuronName = "15" weight = "-0.2729977923786189" />
    <synapse sourceNeuronName = "2" targetNeuronName = "16" weight = "-0.8051850522979216" />
    <synapse sourceNeuronName = "3" targetNeuronName = "9" weight = "0.02065900524952391" />
    <synapse sourceNeuronName = "3" targetNeuronName = "10" weight = "-0.6274843324824322" />
    <synapse sourceNeuronName = "3" targetNeuronName = "11" weight = "0.19799061296223308" />
    <synapse sourceNeuronName = "3" targetNeuronName = "12" weight = "-0.9758873740800524" />
    <synapse sourceNeuronName = "3" targetNeuronName = "13" weight = "-0.503676627870459" />
    <synapse sourceNeuronName = "3" targetNeuronName = "14" weight = "-0.6766530344330055" />
    <synapse sourceNeuronName = "3" targetNeuronName = "15" weight = "0.5365026189793485" />
    <synapse sourceNeuronName = "3" targetNeuronName = "16" weight = "0.9306579629961595" />
    <synapse sourceNeuronName = "4" targetNeuronName = "9" weight = "-0.32608338854647867" />
    <synapse sourceNeuronName = "4" targetNeuronName = "10" weight = "0.9432940260885776" />
    <synapse sourceNeuronName = "4" targetNeuronName = "11" weight = "0.8412373003431273" />
    <synapse sourceNeuronName = "4" targetNeuronName = "12" weight = "-0.13518999072050297" />
    <synapse sourceNeuronName = "4" targetNeuronName = "13" weight = "-0.18875100209712126" />
    <synapse sourceNeuronName = "4" targetNeuronName = "14" weight = "0.3071151671783383" />
    <synapse sourceNeuronName = "4" targetNeuronName = "15" weight = "-0.40606445172030026" />
    <synapse sourceNeuronName = "4" targetNeuronName = "16" weight = "0.3959461108216733" />
    <synapse sourceNeuronName = "5" targetNeuronName = "9" weight = "0.7144248841227265" />
    <synapse sourceNeuronName = "5" targetNeuronName = "10" weight = "0.9380009505149269" />
    <synapse sourceNeuronName = "5" targetNeuronName = "11" weight = "0.4066977998780714" />
    <synapse sourceNeuronName = "5" targetNeuronName = "12" weight = "-0.4958282006895851" />
    <synapse sourceNeuronName = "5" targetNeuronName = "13" weight = "-0.06974208406130744" />
    <synapse sourceNeuronName = "5" targetNeuronName = "14" weight = "0.9196584478975922" />
    <synapse sourceNeuronName = "5" targetNeuronName = "15" weight = "-0.4769943936927512" />
    <synapse sourceNeuronName = "5" targetNeuronName = "16" weight = "-0.0810776759689138" />
    <synapse sourceNeuronName = "6" targetNeuronName = "9" weight = "0.9795430070541347" />
    <synapse sourceNeuronName = "6" targetNeuronName = "10" weight = "-0.21987299363190438" />
    <synapse sourceNeuronName = "6" targetNeuronName = "11" weight = "0.08856169385336199" />
    <synapse sourceNeuronName = "6" targetNeuronName = "12" weight = "0.14305293349180048" />
    <synapse sourceNeuronName = "6" targetNeuronName = "13" weight = "-0.6554308128241242" />
    <synapse sourceNeuronName = "6" targetNeuronName = "14" weight = "0.8667717739802709" />
    <synapse sourceNeuronName = "6" targetNeuronName = "15" weight = "-0.4764548644350959" />
    <synapse sourceNeuronName = "6" targetNeuronName = "16" weight = "-0.09079624881918646" />
    <synapse sourceNeuronName = "7" targetNeuronName = "9" weight = "-0.499956219538217" />
    <synapse sourceNeuronName = "7" targetNeuronName = "10" weight = "-0.0035483248576120285" />
    <synapse sourceNeuronName = "7" targetNeuronName = "11" weight = "-0.7565858979910693" />
    <synapse sourceNeuronName = "7" targetNeuronName = "12" weight = "-0.5883028549895168" />
    <synapse sourceNeuronName = "7" targetNeuronName = "13" weight = "0.8330807252182681" />
    <synapse sourceNeuronName = "7" targetNeuronName = "14" weight = "-0.9814513650576409" />
    <synapse sourceNeuronName = "7" targetNeuronName = "15" weight = "0.8379599852704394" />
    <synapse sourceNeuronName = "7" targetNeuronName = "16" weight = "-0.04730627429078815" />
    <synapse sourceNeuronName = "8" targetNeuronName = "9" weight = "0.7672188484253089" />
    <synapse sourceNeuronName = "8" targetNeuronName = "10" weight = "-0.6532316231500712" />
    <synapse sourceNeuronName = "8" targetNeuronName = "11" weight = "0.5775084359208758" />
    <synapse sourceNeuronName = "8" targetNeuronName = "12" weight = "-0.8640142721122783" />
    <synapse sourceNeuronName = "8" targetNeuronName = "13" weight = "0.3894882698478692" />
    <synapse sourceNeuronName = "8" targetNeuronName = "14" weight = "0.9388749504518603" />
    <synapse sourceNeuronName = "8" targetNeuronName = "15" weight = "-0.8432631242847315" />
    <synapse sourceNeuronName = "8" targetNeuronName = "16" weight = "0.23562316505128833" />
</neuralNetwork>