<neuralNetwork>
    <neuron name = "0" type = "sensor" linkName = "Torso" />
    <neuron name = "1" type = "sensor" linkName = "BackLeg" />
    <neuron name = "2" type = "sensor" linkName = "FrontLeg" />
    <neuron name = "3" type = "sensor" linkName = "LeftLeg" />
    <neuron name = "4" type = "sensor" linkName = "RightLeg" />
    <neuron name = "5" type = "sensor" linkName = "BackLowerLeg" />
    <neuron name = "6" type = "sensor" linkName = "FrontLowerLeg" />
    <neuron name = "7" type = "sensor" linkName = "LeftLowerLeg" />
    <neuron name = "8" type = "sensor" linkName = "RightLowerLeg" />
    <neuron name = "9" type = "motor"  jointName = "Torso_BackLeg" />
    <neuron name = "10" type = "motor"  jointName = "Torso_FrontLeg" />
    <neuron name = "11" type = "motor"  jointName = "Torso_LeftLeg" />
    <neuron name = "12" type = "motor"  jointName = "Torso_RightLeg" />
    <neuron name = "13" type = "motor"  jointName = "BackLeg_BackLowerLeg" />
    <neuron name = "14" type = "motor"  jointName = "FrontLeg_FrontLowerLeg" />
    <neuron name = "15" type = "motor"  jointName = "LeftLeg_LeftLowerLeg" />
    <neuron name = "16" type = "motor"  jointName = "RightLeg_RightLowerLeg" />
    <synapse sourceNeuronName = "0" targetNeuronName = "9" weight = "-0.2580669494272829" />
    <synapse sourceNeuronName = "0" targetNeuronName = "10" weight = "0.8268434925715429" />
    <synapse sourceNeuronName = "0" targetNeuronName = "11" weight = "0.014685836876078273" />
    <synapse sourceNeuronName = "0" targetNeuronName = "12" weight = "0.49785383961881857" />
    <synapse sourceNeuronName = "0" targetNeuronName = "13" weight = "0.9850456239502907" />
    <synapse sourceNeuronName = "0" targetNeuronName = "14" weight = "0.6073663412522268" />
    <synapse sourceNeuronName = "0" targetNeuronName = "15" weight = "-0.6708851432587268" />
    <synapse sourceNeuronName = "0" targetNeuronName = "16" weight = "-0.0311917113481619" />
    <synapse sourceNeuronName = "1" targetNeuronName = "9" weight = "-0.17617188434498843" />
    <synapse sourceNeuronName = "1" targetNeuronName = "10" weight = "-0.15010693834553113" />
    <synapse sourceNeuronName = "1" targetNeuronName = "11" weight = "0.9757436460969724" />
    <synapse sourceNeuronName = "1" targetNeuronName = "12" weight = "-0.4529158306898269" />
    <synapse sourceNeuronName = "1" targetNeuronName = "13" weight = "0.1432579521666275" />
    <synapse sourceNeuronName = "1" targetNeuronName = "14" weight = "0.5541538361614102" />
    <synapse sourceNeuronName = "1" targetNeuronName = "15" weight = "0.3979153900046335" />
    <synapse sourceNeuronName = "1" targetNeuronName = "16" weight = "-0.6295733197613655" />
    <synapse sourceNeuronName = "2" targetNeuronName = "9" weight = "0.0713560980918635" />
    <synapse sourceNeuronName = "2" targetNeuronName = "10" weight = "0.34983707662347885" />
    <synapse sourceNeuronName = "2" targetNeuronName = "11" weight = "-0.39868561457107754" />
    <synapse sourceNeuronName = "2" targetNeuronName = "12" weight = "-0.9085095380553752" />
    <synapse sourceNeuronName = "2" targetNeuronName = "13" weight = "-0.6607893346596927" />
    <synapse sourceNeuronName = "2" targetNeuronName = "14" weight = "-0.9932782989666993" />
    <synapse sourceNeuronName = "2" targetNeuronName = "15" weight = "-0.4880808700363066" />
    <synapse sourceNeuronName = "2" targetNeuronName = "16" weight = "-0.6778127486732131" />
    <synapse sourceNeuronName = "3" targetNeuronName = "9" weight = "-0.5523905856333027" />
    <synapse sourceNeuronName = "3" targetNeuronName = "10" weight = "-0.7180994079590555" />
    <synapse sourceNeuronName = "3" targetNeuronName = "11" weight = "0.41218397232453574" />
    <synapse sourceNeuronName = "3" targetNeuronName = "12" weight = "-0.7382298162240637" />
    <synapse sourceNeuronName = "3" targetNeuronName = "13" weight = "-0.5951150178439077" />
    <synapse sourceNeuronName = "3" targetNeuronName = "14" weight = "-0.5517852391569407" />
    <synapse sourceNeuronName = "3" targetNeuronName = "15" weight = "-0.18874419189442948" />
    <synapse sourceNeuronName = "3" targetNeuronName = "16" weight = "0.9431288174223151" />
    <synapse sourceNeuronName = "4" targetNeuronName = "9" weight = "-0.857997230535051" />
    <synapse sourceNeuronName = "4" targetNeuronName = "10" weight = "0.6051915701165982" />
    <synapse sourceNeuronName = "4" targetNeuronName = "11" weight = "-0.464500892786325" />
    <synapse sourceNeuronName = "4" targetNeuronName = "12" weight = "-0.601609930781924" />
    <synapse sourceNeuronName = "4" targetNeuronName = "13" weight = "-0.8511122976081149" />
    <synapse sourceNeuronName = "4" targetNeuronName = "14" weight = "-0.08073123948252348" />
    <synapse sourceNeuronName = "4" targetNeuronName = "15" weight = "0.07517138452850847" />
    <synapse sourceNeuronName = "4" targetNeuronName = "16" weight = "0.4047028170221232" />
    <synapse sourceNeuronName = "5" targetNeuronName = "9" weight = "-0.1533563858497422" />
    <synapse sourceNeuronName = "5" targetNeuronName = "10" weight = "0.9944375514104449" />
    <synapse sourceNeuronName = "5" targetNeuronName = "11" weight = "-0.019298579550580452" />
    <synapse sourceNeuronName = "5" targetNeuronName = "12" weight = "0.37995152059431025" />
    <synapse sourceNeuronName = "5" targetNeuronName = "13" weight = "-0.985852945325558" />
    <synapse sourceNeuronName = "5" targetNeuronName = "14" weight = "-0.010787929936505014" />
    <synapse sourceNeuronName = "5" targetNeuronName = "15" weight = "-0.8711397793020588" />
    <synapse sourceNeuronName = "5" targetNeuronName = "16" weight = "-0.2696741353169567" />
    <synapse sourceNeuronName = "6" targetNeuronName = "9" weight = "-0.7194817606543609" />
    <synapse sourceNeuronName = "6" targetNeuronName = "10" weight = "-0.33455713280966903" />
    <synapse sourceNeuronName = "6" targetNeuronName = "11" weight = "-0.6755167128677884" />
    <synapse sourceNeuronName = "6" targetNeuronName = "12" weight = "0.11321466618956233" />
    <synapse sourceNeuronName = "6" targetNeuronName = "13" weight = "0.47187432951176267" />
    <synapse sourceNeuronName = "6" targetNeuronName = "14" weight = "0.8454166448778699" />
    <synapse sourceNeuronName = "6" targetNeuronName = "15" weight = "0.10254626063569816" />
    <synapse sourceNeuronName = "6" targetNeuronName = "16" weight = "-0.08881948365391223" />
    <synapse sourceNeuronName = "7" targetNeuronName = "9" weight = "0.8800321531088673" />
    <synapse sourceNeuronName = "7" targetNeuronName = "10" weight = "0.17849432075426797" />
    <synapse sourceNeuronName = "7" targetNeuronName = "11" weight = "-0.790697209845179" />
    <synapse sourceNeuronName = "7" targetNeuronName = "12" weight = "0.06341273917066159" />
    <synapse sourceNeuronName = "7" targetNeuronName = "13" weight = "0.7721875992875589" />
    <synapse sourceNeuronName = "7" targetNeuronName = "14" weight = "-0.889740498455599" />
    <synapse sourceNeuronName = "7" targetNeuronName = "15" weight = "-0.3757109226989901" />
    <synapse sourceNeuronName = "7" targetNeuronName = "16" weight = "-0.6034930132592022" />
    <synapse sourceNeuronName = "8" targetNeuronName = "9" weight = "-0.42632762192357276" />
    <synapse sourceNeuronName = "8" targetNeuronName = "10" weight = "0.5642275338273768" />
    <synapse sourceNeuronName = "8" targetNeuronName = "11" weight = "0.23030136378282595" />
    <synapse sourceNeuronName = "8" targetNeuronName = "12" weight = "-0.7347671146085366" />
    <synapse sourceNeuronName = "8" targetNeuronName = "13" weight = "0.6766380707245623" />
    <synapse sourceNeuronName = "8" targetNeuronName = "14" weight = "-0.05040584559603034" />
    <synapse sourceNeuronName = "8" targetNeuronName = "15" weight = "-0.6155844958679637" />
    <synapse sourceNeuronName = "8" targetNeuronName = "16" weight = "0.4681071639423211" />
</neuralNetwork>