<neuralNetwork>
    <neuron name = "0" type = "sensor" linkName = "Torso" />
    <neuron name = "1" type = "sensor" linkName = "BackLeg" />
    <neuron name = "2" type = "sensor" linkName = "FrontLeg" />
    <neuron name = "3" type = "sensor" linkName = "LeftLeg" />
    <neuron name = "4" type = "sensor" linkName = "RightLeg" />
    <neuron name = "5" type = "sensor" linkName = "BackLowerLeg" />
    <neuron name = "6" type = "sensor" linkName = "FrontLowerLeg" />
    <neuron name = "7" type = "sensor" linkName = "LeftLowerLeg" />
    <neuron name = "8" type = "sensor" linkName = "RightLowerLeg" />
    <neuron name = "9" type = "motor"  jointName = "Torso_BackLeg" />
    <neuron name = "10" type = "motor"  jointName = "Torso_FrontLeg" />
    <neuron name = "11" type = "motor"  jointName = "Torso_LeftLeg" />
    <neuron name = "12" type = "motor"  jointName = "Torso_RightLeg" />
    <neuron name = "13" type = "motor"  jointName = "BackLeg_BackLowerLeg" />
    <neuron name = "14" type = "motor"  jointName = "FrontLeg_FrontLowerLeg" />
    <neuron name = "15" type = "motor"  jointName = "LeftLeg_LeftLowerLeg" />
    <neuron name = "16" type = "motor"  jointName = "RightLeg_RightLowerLeg" />
    <synapse sourceNeuronName = "0" targetNeuronName = "9" weight = "-0.6663663579667727" />
    <synapse sourceNeuronName = "0" targetNeuronName = "10" weight = "-0.45814950471897165" />
    <synapse sourceNeuronName = "0" targetNeuronName = "11" weight = "0.29186872722887136" />
    <synapse sourceNeuronName = "0" targetNeuronName = "12" weight = "-0.08597361837403761" />
    <synapse sourceNeuronName = "0" targetNeuronName = "13" weight = "0.32523719252312877" />
    <synapse sourceNeuronName = "0" targetNeuronName = "14" weight = "-0.8541193972788053" />
    <synapse sourceNeuronName = "0" targetNeuronName = "15" weight = "-0.8295773921419032" />
    <synapse sourceNeuronName = "0" targetNeuronName = "16" weight = "-0.1727724551897185" />
    <synapse sourceNeuronName = "1" targetNeuronName = "9" weight = "0.5547798295006623" />
    <synapse sourceNeuronName = "1" targetNeuronName = "10" weight = "0.5951862129650098" />
    <synapse sourceNeuronName = "1" targetNeuronName = "11" weight = "0.10508163600586529" />
    <synapse sourceNeuronName = "1" targetNeuronName = "12" weight = "-0.5664115098130451" />
    <synapse sourceNeuronName = "1" targetNeuronName = "13" weight = "-0.33219995017994086" />
    <synapse sourceNeuronName = "1" targetNeuronName = "14" weight = "0.794798505074261" />
    <synapse sourceNeuronName = "1" targetNeuronName = "15" weight = "-0.5424222483116681" />
    <synapse sourceNeuronName = "1" targetNeuronName = "16" weight = "-0.46832463573355887" />
    <synapse sourceNeuronName = "2" targetNeuronName = "9" weight = "-0.6054124311173243" />
    <synapse sourceNeuronName = "2" targetNeuronName = "10" weight = "0.9075044131099645" />
    <synapse sourceNeuronName = "2" targetNeuronName = "11" weight = "-0.48716582606091574" />
    <synapse sourceNeuronName = "2" targetNeuronName = "12" weight = "-0.9261551394616003" />
    <synapse sourceNeuronName = "2" targetNeuronName = "13" weight = "0.8657556571462042" />
    <synapse sourceNeuronName = "2" targetNeuronName = "14" weight = "0.3722621645751787" />
    <synapse sourceNeuronName = "2" targetNeuronName = "15" weight = "0.40431367768281445" />
    <synapse sourceNeuronName = "2" targetNeuronName = "16" weight = "0.7523425470096434" />
    <synapse sourceNeuronName = "3" targetNeuronName = "9" weight = "0.4015461121842756" />
    <synapse sourceNeuronName = "3" targetNeuronName = "10" weight = "0.5315388150751068" />
    <synapse sourceNeuronName = "3" targetNeuronName = "11" weight = "0.3320602249424356" />
    <synapse sourceNeuronName = "3" targetNeuronName = "12" weight = "-0.3747223836940914" />
    <synapse sourceNeuronName = "3" targetNeuronName = "13" weight = "0.9881491636819781" />
    <synapse sourceNeuronName = "3" targetNeuronName = "14" weight = "0.9585689875401702" />
    <synapse sourceNeuronName = "3" targetNeuronName = "15" weight = "0.5349335021970829" />
    <synapse sourceNeuronName = "3" targetNeuronName = "16" weight = "0.4176872949977639" />
    <synapse sourceNeuronName = "4" targetNeuronName = "9" weight = "0.3825296445821986" />
    <synapse sourceNeuronName = "4" targetNeuronName = "10" weight = "-0.22235267048160168" />
    <synapse sourceNeuronName = "4" targetNeuronName = "11" weight = "0.5077335710621751" />
    <synapse sourceNeuronName = "4" targetNeuronName = "12" weight = "-0.11042820278527898" />
    <synapse sourceNeuronName = "4" targetNeuronName = "13" weight = "-0.6522369500690373" />
    <synapse sourceNeuronName = "4" targetNeuronName = "14" weight = "-0.6025864733313948" />
    <synapse sourceNeuronName = "4" targetNeuronName = "15" weight = "-0.14732997102274425" />
    <synapse sourceNeuronName = "4" targetNeuronName = "16" weight = "-0.8931554467467131" />
    <synapse sourceNeuronName = "5" targetNeuronName = "9" weight = "0.5538047164458311" />
    <synapse sourceNeuronName = "5" targetNeuronName = "10" weight = "0.8324442913881203" />
    <synapse sourceNeuronName = "5" targetNeuronName = "11" weight = "0.05802636063130184" />
    <synapse sourceNeuronName = "5" targetNeuronName = "12" weight = "0.9694315678519114" />
    <synapse sourceNeuronName = "5" targetNeuronName = "13" weight = "-0.3209358517250409" />
    <synapse sourceNeuronName = "5" targetNeuronName = "14" weight = "-0.7146780519341434" />
    <synapse sourceNeuronName = "5" targetNeuronName = "15" weight = "-0.6142063738898764" />
    <synapse sourceNeuronName = "5" targetNeuronName = "16" weight = "-0.28580068989572105" />
    <synapse sourceNeuronName = "6" targetNeuronName = "9" weight = "-0.14218619913700414" />
    <synapse sourceNeuronName = "6" targetNeuronName = "10" weight = "0.07052267445480553" />
    <synapse sourceNeuronName = "6" targetNeuronName = "11" weight = "0.34517359409723625" />
    <synapse sourceNeuronName = "6" targetNeuronName = "12" weight = "0.870238316781309" />
    <synapse sourceNeuronName = "6" targetNeuronName = "13" weight = "0.31989856469309697" />
    <synapse sourceNeuronName = "6" targetNeuronName = "14" weight = "-0.3664450408151254" />
    <synapse sourceNeuronName = "6" targetNeuronName = "15" weight = "-0.9201758577927304" />
    <synapse sourceNeuronName = "6" targetNeuronName = "16" weight = "-0.799751898943498" />
    <synapse sourceNeuronName = "7" targetNeuronName = "9" weight = "-0.5438397161410617" />
    <synapse sourceNeuronName = "7" targetNeuronName = "10" weight = "-0.22509820203520525" />
    <synapse sourceNeuronName = "7" targetNeuronName = "11" weight = "-0.9483588926638495" />
    <synapse sourceNeuronName = "7" targetNeuronName = "12" weight = "0.7393237646249056" />
    <synapse sourceNeuronName = "7" targetNeuronName = "13" weight = "0.4948468953425782" />
    <synapse sourceNeuronName = "7" targetNeuronName = "14" weight = "0.6772608482983238" />
    <synapse sourceNeuronName = "7" targetNeuronName = "15" weight = "-0.5799690722379593" />
    <synapse sourceNeuronName = "7" targetNeuronName = "16" weight = "-0.21122593052011673" />
    <synapse sourceNeuronName = "8" targetNeuronName = "9" weight = "-0.06610287682729199" />
    <synapse sourceNeuronName = "8" targetNeuronName = "10" weight = "0.5696701760490044" />
    <synapse sourceNeuronName = "8" targetNeuronName = "11" weight = "-0.6085957647781479" />
    <synapse sourceNeuronName = "8" targetNeuronName = "12" weight = "0.018994131388758495" />
    <synapse sourceNeuronName = "8" targetNeuronName = "13" weight = "-0.47560474000361785" />
    <synapse sourceNeuronName = "8" targetNeuronName = "14" weight = "0.33059248111031536" />
    <synapse sourceNeuronName = "8" targetNeuronName = "15" weight = "-0.5223584064351188" />
    <synapse sourceNeuronName = "8" targetNeuronName = "16" weight = "0.2183417060186812" />
</neuralNetwork>