<neuralNetwork>
    <neuron name = "0" type = "sensor" linkName = "Torso" />
    <neuron name = "1" type = "sensor" linkName = "BackLeg" />
    <neuron name = "2" type = "sensor" linkName = "FrontLeg" />
    <neuron name = "3" type = "sensor" linkName = "LeftLeg" />
    <neuron name = "4" type = "sensor" linkName = "RightLeg" />
    <neuron name = "5" type = "sensor" linkName = "BackLowerLeg" />
    <neuron name = "6" type = "sensor" linkName = "FrontLowerLeg" />
    <neuron name = "7" type = "sensor" linkName = "LeftLowerLeg" />
    <neuron name = "8" type = "sensor" linkName = "RightLowerLeg" />
    <neuron name = "9" type = "motor"  jointName = "Torso_BackLeg" />
    <neuron name = "10" type = "motor"  jointName = "Torso_FrontLeg" />
    <neuron name = "11" type = "motor"  jointName = "Torso_LeftLeg" />
    <neuron name = "12" type = "motor"  jointName = "Torso_RightLeg" />
    <neuron name = "13" type = "motor"  jointName = "BackLeg_BackLowerLeg" />
    <neuron name = "14" type = "motor"  jointName = "FrontLeg_FrontLowerLeg" />
    <neuron name = "15" type = "motor"  jointName = "LeftLeg_LeftLowerLeg" />
    <neuron name = "16" type = "motor"  jointName = "RightLeg_RightLowerLeg" />
    <synapse sourceNeuronName = "0" targetNeuronName = "9" weight = "0.3409099304497958" />
    <synapse sourceNeuronName = "0" targetNeuronName = "10" weight = "0.8607299689060959" />
    <synapse sourceNeuronName = "0" targetNeuronName = "11" weight = "-0.057413895954896876" />
    <synapse sourceNeuronName = "0" targetNeuronName = "12" weight = "0.693077309761718" />
    <synapse sourceNeuronName = "0" targetNeuronName = "13" weight = "0.8390420994883798" />
    <synapse sourceNeuronName = "0" targetNeuronName = "14" weight = "-0.7977248720414474" />
    <synapse sourceNeuronName = "0" targetNeuronName = "15" weight = "0.21096795606111574" />
    <synapse sourceNeuronName = "0" targetNeuronName = "16" weight = "-0.28956985253461087" />
    <synapse sourceNeuronName = "1" targetNeuronName = "9" weight = "0.597502200341955" />
    <synapse sourceNeuronName = "1" targetNeuronName = "10" weight = "-0.08525387718931898" />
    <synapse sourceNeuronName = "1" targetNeuronName = "11" weight = "0.5730995782355273" />
    <synapse sourceNeuronName = "1" targetNeuronName = "12" weight = "-0.3637075373516434" />
    <synapse sourceNeuronName = "1" targetNeuronName = "13" weight = "0.16395677923222451" />
    <synapse sourceNeuronName = "1" targetNeuronName = "14" weight = "0.3937105425302565" />
    <synapse sourceNeuronName = "1" targetNeuronName = "15" weight = "-0.8338287504084261" />
    <synapse sourceNeuronName = "1" targetNeuronName = "16" weight = "0.040545670061608474" />
    <synapse sourceNeuronName = "2" targetNeuronName = "9" weight = "0.8912837395151063" />
    <synapse sourceNeuronName = "2" targetNeuronName = "10" weight = "-0.07920702395537949" />
    <synapse sourceNeuronName = "2" targetNeuronName = "11" weight = "0.41743619570274926" />
    <synapse sourceNeuronName = "2" targetNeuronName = "12" weight = "0.3254521444629468" />
    <synapse sourceNeuronName = "2" targetNeuronName = "13" weight = "-0.004540642929536931" />
    <synapse sourceNeuronName = "2" targetNeuronName = "14" weight = "0.24948425381531658" />
    <synapse sourceNeuronName = "2" targetNeuronName = "15" weight = "0.9841420600322686" />
    <synapse sourceNeuronName = "2" targetNeuronName = "16" weight = "0.4706095463346833" />
    <synapse sourceNeuronName = "3" targetNeuronName = "9" weight = "-0.22781771495115044" />
    <synapse sourceNeuronName = "3" targetNeuronName = "10" weight = "0.7581714286640424" />
    <synapse sourceNeuronName = "3" targetNeuronName = "11" weight = "0.8025273743918675" />
    <synapse sourceNeuronName = "3" targetNeuronName = "12" weight = "0.8998400149262624" />
    <synapse sourceNeuronName = "3" targetNeuronName = "13" weight = "-0.9183131972006464" />
    <synapse sourceNeuronName = "3" targetNeuronName = "14" weight = "-0.6484346742487286" />
    <synapse sourceNeuronName = "3" targetNeuronName = "15" weight = "-0.3959363522168631" />
    <synapse sourceNeuronName = "3" targetNeuronName = "16" weight = "0.3498994237491433" />
    <synapse sourceNeuronName = "4" targetNeuronName = "9" weight = "0.2177146941404835" />
    <synapse sourceNeuronName = "4" targetNeuronName = "10" weight = "-0.5802927219540857" />
    <synapse sourceNeuronName = "4" targetNeuronName = "11" weight = "-0.6950305134595669" />
    <synapse sourceNeuronName = "4" targetNeuronName = "12" weight = "0.7403036423783584" />
    <synapse sourceNeuronName = "4" targetNeuronName = "13" weight = "0.4895189978027543" />
    <synapse sourceNeuronName = "4" targetNeuronName = "14" weight = "-0.47361658732678147" />
    <synapse sourceNeuronName = "4" targetNeuronName = "15" weight = "0.1261686258742034" />
    <synapse sourceNeuronName = "4" targetNeuronName = "16" weight = "0.7211131881946029" />
    <synapse sourceNeuronName = "5" targetNeuronName = "9" weight = "0.9529534798741379" />
    <synapse sourceNeuronName = "5" targetNeuronName = "10" weight = "0.3115298547825507" />
    <synapse sourceNeuronName = "5" targetNeuronName = "11" weight = "-0.6003214294400827" />
    <synapse sourceNeuronName = "5" targetNeuronName = "12" weight = "0.30956138402780087" />
    <synapse sourceNeuronName = "5" targetNeuronName = "13" weight = "-0.43148537646207896" />
    <synapse sourceNeuronName = "5" targetNeuronName = "14" weight = "0.6365727287677188" />
    <synapse sourceNeuronName = "5" targetNeuronName = "15" weight = "-0.420906097617747" />
    <synapse sourceNeuronName = "5" targetNeuronName = "16" weight = "0.20024830882879363" />
    <synapse sourceNeuronName = "6" targetNeuronName = "9" weight = "-0.8661121844911679" />
    <synapse sourceNeuronName = "6" targetNeuronName = "10" weight = "-0.37838951587069247" />
    <synapse sourceNeuronName = "6" targetNeuronName = "11" weight = "0.7841215681238103" />
    <synapse sourceNeuronName = "6" targetNeuronName = "12" weight = "-0.18220392783232597" />
    <synapse sourceNeuronName = "6" targetNeuronName = "13" weight = "0.3996894581270496" />
    <synapse sourceNeuronName = "6" targetNeuronName = "14" weight = "-0.42688757308098935" />
    <synapse sourceNeuronName = "6" targetNeuronName = "15" weight = "0.7742437157355977" />
    <synapse sourceNeuronName = "6" targetNeuronName = "16" weight = "0.9576103542380721" />
    <synapse sourceNeuronName = "7" targetNeuronName = "9" weight = "-0.08651903653289428" />
    <synapse sourceNeuronName = "7" targetNeuronName = "10" weight = "0.24373884929207978" />
    <synapse sourceNeuronName = "7" targetNeuronName = "11" weight = "0.30594169533230486" />
    <synapse sourceNeuronName = "7" targetNeuronName = "12" weight = "0.5027499785546921" />
    <synapse sourceNeuronName = "7" targetNeuronName = "13" weight = "-0.791901364650142" />
    <synapse sourceNeuronName = "7" targetNeuronName = "14" weight = "-0.8551789760873918" />
    <synapse sourceNeuronName = "7" targetNeuronName = "15" weight = "-0.7902090693866102" />
    <synapse sourceNeuronName = "7" targetNeuronName = "16" weight = "0.3566140569465066" />
    <synapse sourceNeuronName = "8" targetNeuronName = "9" weight = "-0.0889968030602386" />
    <synapse sourceNeuronName = "8" targetNeuronName = "10" weight = "0.7681057135915408" />
    <synapse sourceNeuronName = "8" targetNeuronName = "11" weight = "0.9644226080329585" />
    <synapse sourceNeuronName = "8" targetNeuronName = "12" weight = "-0.6371311263226749" />
    <synapse sourceNeuronName = "8" targetNeuronName = "13" weight = "-0.30842992801283686" />
    <synapse sourceNeuronName = "8" targetNeuronName = "14" weight = "-0.9861946461752329" />
    <synapse sourceNeuronName = "8" targetNeuronName = "15" weight = "-0.7404205025994988" />
    <synapse sourceNeuronName = "8" targetNeuronName = "16" weight = "-0.8346373061839989" />
</neuralNetwork>