<neuralNetwork>
    <neuron name = "0" type = "sensor" linkName = "Torso" />
    <neuron name = "1" type = "sensor" linkName = "BackLeg" />
    <neuron name = "2" type = "sensor" linkName = "FrontLeg" />
    <neuron name = "3" type = "sensor" linkName = "LeftLeg" />
    <neuron name = "4" type = "sensor" linkName = "RightLeg" />
    <neuron name = "5" type = "sensor" linkName = "BackLowerLeg" />
    <neuron name = "6" type = "sensor" linkName = "FrontLowerLeg" />
    <neuron name = "7" type = "sensor" linkName = "LeftLowerLeg" />
    <neuron name = "8" type = "sensor" linkName = "RightLowerLeg" />
    <neuron name = "9" type = "motor"  jointName = "Torso_BackLeg" />
    <neuron name = "10" type = "motor"  jointName = "Torso_FrontLeg" />
    <neuron name = "11" type = "motor"  jointName = "Torso_LeftLeg" />
    <neuron name = "12" type = "motor"  jointName = "Torso_RightLeg" />
    <neuron name = "13" type = "motor"  jointName = "BackLeg_BackLowerLeg" />
    <neuron name = "14" type = "motor"  jointName = "FrontLeg_FrontLowerLeg" />
    <neuron name = "15" type = "motor"  jointName = "LeftLeg_LeftLowerLeg" />
    <neuron name = "16" type = "motor"  jointName = "RightLeg_RightLowerLeg" />
    <synapse sourceNeuronName = "0" targetNeuronName = "9" weight = "-0.9615378953426821" />
    <synapse sourceNeuronName = "0" targetNeuronName = "10" weight = "-0.31509917311207714" />
    <synapse sourceNeuronName = "0" targetNeuronName = "11" weight = "0.49200448065918456" />
    <synapse sourceNeuronName = "0" targetNeuronName = "12" weight = "-0.5825787917888046" />
    <synapse sourceNeuronName = "0" targetNeuronName = "13" weight = "0.13846870145324863" />
    <synapse sourceNeuronName = "0" targetNeuronName = "14" weight = "-0.5539392836332286" />
    <synapse sourceNeuronName = "0" targetNeuronName = "15" weight = "-0.0787045903332817" />
    <synapse sourceNeuronName = "0" targetNeuronName = "16" weight = "0.3361643114356292" />
    <synapse sourceNeuronName = "1" targetNeuronName = "9" weight = "-0.3628000873147379" />
    <synapse sourceNeuronName = "1" targetNeuronName = "10" weight = "0.934934466103976" />
    <synapse sourceNeuronName = "1" targetNeuronName = "11" weight = "0.9003353880763232" />
    <synapse sourceNeuronName = "1" targetNeuronName = "12" weight = "-0.10052207538957258" />
    <synapse sourceNeuronName = "1" targetNeuronName = "13" weight = "-0.4811706189273841" />
    <synapse sourceNeuronName = "1" targetNeuronName = "14" weight = "-0.8812614043884399" />
    <synapse sourceNeuronName = "1" targetNeuronName = "15" weight = "-0.2939360872142296" />
    <synapse sourceNeuronName = "1" targetNeuronName = "16" weight = "-0.6371050936551084" />
    <synapse sourceNeuronName = "2" targetNeuronName = "9" weight = "-0.6554835190422632" />
    <synapse sourceNeuronName = "2" targetNeuronName = "10" weight = "-0.5825159909171822" />
    <synapse sourceNeuronName = "2" targetNeuronName = "11" weight = "-0.10990733771329353" />
    <synapse sourceNeuronName = "2" targetNeuronName = "12" weight = "-0.19600834057757055" />
    <synapse sourceNeuronName = "2" targetNeuronName = "13" weight = "-0.07040498293199282" />
    <synapse sourceNeuronName = "2" targetNeuronName = "14" weight = "0.1731484318086185" />
    <synapse sourceNeuronName = "2" targetNeuronName = "15" weight = "-0.17953858352397" />
    <synapse sourceNeuronName = "2" targetNeuronName = "16" weight = "-0.20986149756854577" />
    <synapse sourceNeuronName = "3" targetNeuronName = "9" weight = "0.5485694233081213" />
    <synapse sourceNeuronName = "3" targetNeuronName = "10" weight = "0.796310469003308" />
    <synapse sourceNeuronName = "3" targetNeuronName = "11" weight = "-0.7603263414904446" />
    <synapse sourceNeuronName = "3" targetNeuronName = "12" weight = "-0.2852938837880641" />
    <synapse sourceNeuronName = "3" targetNeuronName = "13" weight = "-0.8042297839075139" />
    <synapse sourceNeuronName = "3" targetNeuronName = "14" weight = "-0.007630506706945317" />
    <synapse sourceNeuronName = "3" targetNeuronName = "15" weight = "0.6400213045467973" />
    <synapse sourceNeuronName = "3" targetNeuronName = "16" weight = "0.41938031762089456" />
    <synapse sourceNeuronName = "4" targetNeuronName = "9" weight = "-0.41510360079942976" />
    <synapse sourceNeuronName = "4" targetNeuronName = "10" weight = "-0.14726233241249043" />
    <synapse sourceNeuronName = "4" targetNeuronName = "11" weight = "-0.639103612903668" />
    <synapse sourceNeuronName = "4" targetNeuronName = "12" weight = "-0.6719106735340954" />
    <synapse sourceNeuronName = "4" targetNeuronName = "13" weight = "0.46918296267132176" />
    <synapse sourceNeuronName = "4" targetNeuronName = "14" weight = "-0.5384858434107611" />
    <synapse sourceNeuronName = "4" targetNeuronName = "15" weight = "0.6726580436799283" />
    <synapse sourceNeuronName = "4" targetNeuronName = "16" weight = "-0.12477702567807514" />
    <synapse sourceNeuronName = "5" targetNeuronName = "9" weight = "0.649137534532785" />
    <synapse sourceNeuronName = "5" targetNeuronName = "10" weight = "-0.2729290623334093" />
    <synapse sourceNeuronName = "5" targetNeuronName = "11" weight = "0.7289194959265055" />
    <synapse sourceNeuronName = "5" targetNeuronName = "12" weight = "-0.8157241017250121" />
    <synapse sourceNeuronName = "5" targetNeuronName = "13" weight = "0.8230708068984598" />
    <synapse sourceNeuronName = "5" targetNeuronName = "14" weight = "-0.644705836407734" />
    <synapse sourceNeuronName = "5" targetNeuronName = "15" weight = "0.2541978704714176" />
    <synapse sourceNeuronName = "5" targetNeuronName = "16" weight = "-0.0641838378972881" />
    <synapse sourceNeuronName = "6" targetNeuronName = "9" weight = "-0.15341796661082063" />
    <synapse sourceNeuronName = "6" targetNeuronName = "10" weight = "0.3527245922142037" />
    <synapse sourceNeuronName = "6" targetNeuronName = "11" weight = "0.40755085616050835" />
    <synapse sourceNeuronName = "6" targetNeuronName = "12" weight = "0.9149374261596479" />
    <synapse sourceNeuronName = "6" targetNeuronName = "13" weight = "-0.6409862316241166" />
    <synapse sourceNeuronName = "6" targetNeuronName = "14" weight = "0.94805833635044" />
    <synapse sourceNeuronName = "6" targetNeuronName = "15" weight = "-0.2687369168368179" />
    <synapse sourceNeuronName = "6" targetNeuronName = "16" weight = "0.7301751342235066" />
    <synapse sourceNeuronName = "7" targetNeuronName = "9" weight = "0.41647782437052605" />
    <synapse sourceNeuronName = "7" targetNeuronName = "10" weight = "-0.45428966412463034" />
    <synapse sourceNeuronName = "7" targetNeuronName = "11" weight = "0.7465223411598816" />
    <synapse sourceNeuronName = "7" targetNeuronName = "12" weight = "-0.7600549271373618" />
    <synapse sourceNeuronName = "7" targetNeuronName = "13" weight = "0.7133914419282863" />
    <synapse sourceNeuronName = "7" targetNeuronName = "14" weight = "0.5116335082071786" />
    <synapse sourceNeuronName = "7" targetNeuronName = "15" weight = "0.5656951899930822" />
    <synapse sourceNeuronName = "7" targetNeuronName = "16" weight = "-0.23161956084940627" />
    <synapse sourceNeuronName = "8" targetNeuronName = "9" weight = "0.8496049420106608" />
    <synapse sourceNeuronName = "8" targetNeuronName = "10" weight = "-0.24818530931879645" />
    <synapse sourceNeuronName = "8" targetNeuronName = "11" weight = "0.6145382802288013" />
    <synapse sourceNeuronName = "8" targetNeuronName = "12" weight = "-0.2093135032190403" />
    <synapse sourceNeuronName = "8" targetNeuronName = "13" weight = "-0.4373304508025804" />
    <synapse sourceNeuronName = "8" targetNeuronName = "14" weight = "-0.9705454427117983" />
    <synapse sourceNeuronName = "8" targetNeuronName = "15" weight = "-0.22700147913827018" />
    <synapse sourceNeuronName = "8" targetNeuronName = "16" weight = "0.5109157130166719" />
</neuralNetwork>