<neuralNetwork>
    <neuron name = "0" type = "sensor" linkName = "Torso" />
    <neuron name = "1" type = "sensor" linkName = "BackLeg" />
    <neuron name = "2" type = "sensor" linkName = "FrontLeg" />
    <neuron name = "3" type = "sensor" linkName = "LeftLeg" />
    <neuron name = "4" type = "sensor" linkName = "RightLeg" />
    <neuron name = "5" type = "sensor" linkName = "BackLowerLeg" />
    <neuron name = "6" type = "sensor" linkName = "FrontLowerLeg" />
    <neuron name = "7" type = "sensor" linkName = "LeftLowerLeg" />
    <neuron name = "8" type = "sensor" linkName = "RightLowerLeg" />
    <neuron name = "9" type = "motor"  jointName = "Torso_BackLeg" />
    <neuron name = "10" type = "motor"  jointName = "Torso_FrontLeg" />
    <neuron name = "11" type = "motor"  jointName = "Torso_LeftLeg" />
    <neuron name = "12" type = "motor"  jointName = "Torso_RightLeg" />
    <neuron name = "13" type = "motor"  jointName = "BackLeg_BackLowerLeg" />
    <neuron name = "14" type = "motor"  jointName = "FrontLeg_FrontLowerLeg" />
    <neuron name = "15" type = "motor"  jointName = "LeftLeg_LeftLowerLeg" />
    <neuron name = "16" type = "motor"  jointName = "RightLeg_RightLowerLeg" />
    <synapse sourceNeuronName = "0" targetNeuronName = "9" weight = "0.5388088175623285" />
    <synapse sourceNeuronName = "0" targetNeuronName = "10" weight = "-0.049226379828348765" />
    <synapse sourceNeuronName = "0" targetNeuronName = "11" weight = "-0.06885107407357882" />
    <synapse sourceNeuronName = "0" targetNeuronName = "12" weight = "-0.42052648610775445" />
    <synapse sourceNeuronName = "0" targetNeuronName = "13" weight = "0.05363631350394371" />
    <synapse sourceNeuronName = "0" targetNeuronName = "14" weight = "-0.9412653099430788" />
    <synapse sourceNeuronName = "0" targetNeuronName = "15" weight = "0.28200282031753776" />
    <synapse sourceNeuronName = "0" targetNeuronName = "16" weight = "-0.9808103565235584" />
    <synapse sourceNeuronName = "1" targetNeuronName = "9" weight = "0.33390032918033197" />
    <synapse sourceNeuronName = "1" targetNeuronName = "10" weight = "-0.9523176069217303" />
    <synapse sourceNeuronName = "1" targetNeuronName = "11" weight = "-0.680361136648006" />
    <synapse sourceNeuronName = "1" targetNeuronName = "12" weight = "-0.8056988823473634" />
    <synapse sourceNeuronName = "1" targetNeuronName = "13" weight = "0.8834376802817363" />
    <synapse sourceNeuronName = "1" targetNeuronName = "14" weight = "-0.28153943826876127" />
    <synapse sourceNeuronName = "1" targetNeuronName = "15" weight = "-0.6585491101053622" />
    <synapse sourceNeuronName = "1" targetNeuronName = "16" weight = "0.461551479251757" />
    <synapse sourceNeuronName = "2" targetNeuronName = "9" weight = "0.4184459606645554" />
    <synapse sourceNeuronName = "2" targetNeuronName = "10" weight = "0.6171435531586853" />
    <synapse sourceNeuronName = "2" targetNeuronName = "11" weight = "0.36652274888776093" />
    <synapse sourceNeuronName = "2" targetNeuronName = "12" weight = "-0.30499789655941223" />
    <synapse sourceNeuronName = "2" targetNeuronName = "13" weight = "-0.24194621507236813" />
    <synapse sourceNeuronName = "2" targetNeuronName = "14" weight = "0.9970317711577954" />
    <synapse sourceNeuronName = "2" targetNeuronName = "15" weight = "0.08563930584283752" />
    <synapse sourceNeuronName = "2" targetNeuronName = "16" weight = "0.4793797837189482" />
    <synapse sourceNeuronName = "3" targetNeuronName = "9" weight = "0.324445729556881" />
    <synapse sourceNeuronName = "3" targetNeuronName = "10" weight = "-0.7071538138769404" />
    <synapse sourceNeuronName = "3" targetNeuronName = "11" weight = "0.9810625720727801" />
    <synapse sourceNeuronName = "3" targetNeuronName = "12" weight = "0.7282151651189102" />
    <synapse sourceNeuronName = "3" targetNeuronName = "13" weight = "-0.6135031962614121" />
    <synapse sourceNeuronName = "3" targetNeuronName = "14" weight = "0.5313192505786044" />
    <synapse sourceNeuronName = "3" targetNeuronName = "15" weight = "0.04078216930240819" />
    <synapse sourceNeuronName = "3" targetNeuronName = "16" weight = "0.7595005316075318" />
    <synapse sourceNeuronName = "4" targetNeuronName = "9" weight = "0.4701463579393388" />
    <synapse sourceNeuronName = "4" targetNeuronName = "10" weight = "0.17804953173579463" />
    <synapse sourceNeuronName = "4" targetNeuronName = "11" weight = "-0.5394637020982771" />
    <synapse sourceNeuronName = "4" targetNeuronName = "12" weight = "-0.8119886418239564" />
    <synapse sourceNeuronName = "4" targetNeuronName = "13" weight = "0.3579353612225056" />
    <synapse sourceNeuronName = "4" targetNeuronName = "14" weight = "0.1589581134557123" />
    <synapse sourceNeuronName = "4" targetNeuronName = "15" weight = "-0.7775026183166378" />
    <synapse sourceNeuronName = "4" targetNeuronName = "16" weight = "-0.7246063291842679" />
    <synapse sourceNeuronName = "5" targetNeuronName = "9" weight = "0.46522099054897037" />
    <synapse sourceNeuronName = "5" targetNeuronName = "10" weight = "0.8795665051404802" />
    <synapse sourceNeuronName = "5" targetNeuronName = "11" weight = "0.6810716498072542" />
    <synapse sourceNeuronName = "5" targetNeuronName = "12" weight = "0.5540866110840792" />
    <synapse sourceNeuronName = "5" targetNeuronName = "13" weight = "-0.293868357517733" />
    <synapse sourceNeuronName = "5" targetNeuronName = "14" weight = "0.15412928293353834" />
    <synapse sourceNeuronName = "5" targetNeuronName = "15" weight = "0.9832833161081604" />
    <synapse sourceNeuronName = "5" targetNeuronName = "16" weight = "0.868146371835619" />
    <synapse sourceNeuronName = "6" targetNeuronName = "9" weight = "0.5850691980579872" />
    <synapse sourceNeuronName = "6" targetNeuronName = "10" weight = "-0.32767715113208773" />
    <synapse sourceNeuronName = "6" targetNeuronName = "11" weight = "0.032509845269336424" />
    <synapse sourceNeuronName = "6" targetNeuronName = "12" weight = "-0.8953947352541847" />
    <synapse sourceNeuronName = "6" targetNeuronName = "13" weight = "-0.7993572432634979" />
    <synapse sourceNeuronName = "6" targetNeuronName = "14" weight = "-0.09862364453706074" />
    <synapse sourceNeuronName = "6" targetNeuronName = "15" weight = "-0.06719430108029667" />
    <synapse sourceNeuronName = "6" targetNeuronName = "16" weight = "0.8650253016769631" />
    <synapse sourceNeuronName = "7" targetNeuronName = "9" weight = "-0.8272978901894152" />
    <synapse sourceNeuronName = "7" targetNeuronName = "10" weight = "0.17291612969461423" />
    <synapse sourceNeuronName = "7" targetNeuronName = "11" weight = "-0.9078041679057722" />
    <synapse sourceNeuronName = "7" targetNeuronName = "12" weight = "0.12103405611466345" />
    <synapse sourceNeuronName = "7" targetNeuronName = "13" weight = "-0.6364415652337791" />
    <synapse sourceNeuronName = "7" targetNeuronName = "14" weight = "0.37910943209014936" />
    <synapse sourceNeuronName = "7" targetNeuronName = "15" weight = "0.8957585586176429" />
    <synapse sourceNeuronName = "7" targetNeuronName = "16" weight = "-0.7711209605889779" />
    <synapse sourceNeuronName = "8" targetNeuronName = "9" weight = "0.48378551143194826" />
    <synapse sourceNeuronName = "8" targetNeuronName = "10" weight = "-0.3062099804123546" />
    <synapse sourceNeuronName = "8" targetNeuronName = "11" weight = "0.9579116414459272" />
    <synapse sourceNeuronName = "8" targetNeuronName = "12" weight = "0.06601245487529361" />
    <synapse sourceNeuronName = "8" targetNeuronName = "13" weight = "0.2905634182509962" />
    <synapse sourceNeuronName = "8" targetNeuronName = "14" weight = "0.0775425998855499" />
    <synapse sourceNeuronName = "8" targetNeuronName = "15" weight = "-0.6104153683381601" />
    <synapse sourceNeuronName = "8" targetNeuronName = "16" weight = "0.5228086097743003" />
</neuralNetwork>