<neuralNetwork>
    <neuron name = "0" type = "sensor" linkName = "Torso" />
    <neuron name = "1" type = "sensor" linkName = "BackLeg" />
    <neuron name = "2" type = "sensor" linkName = "FrontLeg" />
    <neuron name = "3" type = "sensor" linkName = "LeftLeg" />
    <neuron name = "4" type = "sensor" linkName = "RightLeg" />
    <neuron name = "5" type = "sensor" linkName = "BackLowerLeg" />
    <neuron name = "6" type = "sensor" linkName = "FrontLowerLeg" />
    <neuron name = "7" type = "sensor" linkName = "LeftLowerLeg" />
    <neuron name = "8" type = "sensor" linkName = "RightLowerLeg" />
    <neuron name = "9" type = "motor"  jointName = "Torso_BackLeg" />
    <neuron name = "10" type = "motor"  jointName = "Torso_FrontLeg" />
    <neuron name = "11" type = "motor"  jointName = "Torso_LeftLeg" />
    <neuron name = "12" type = "motor"  jointName = "Torso_RightLeg" />
    <neuron name = "13" type = "motor"  jointName = "BackLeg_BackLowerLeg" />
    <neuron name = "14" type = "motor"  jointName = "FrontLeg_FrontLowerLeg" />
    <neuron name = "15" type = "motor"  jointName = "LeftLeg_LeftLowerLeg" />
    <neuron name = "16" type = "motor"  jointName = "RightLeg_RightLowerLeg" />
    <synapse sourceNeuronName = "0" targetNeuronName = "9" weight = "-0.4057270713972443" />
    <synapse sourceNeuronName = "0" targetNeuronName = "10" weight = "0.0883574373836411" />
    <synapse sourceNeuronName = "0" targetNeuronName = "11" weight = "0.5171612915525616" />
    <synapse sourceNeuronName = "0" targetNeuronName = "12" weight = "0.017173912700619853" />
    <synapse sourceNeuronName = "0" targetNeuronName = "13" weight = "0.5278263830785843" />
    <synapse sourceNeuronName = "0" targetNeuronName = "14" weight = "-0.1931670228370581" />
    <synapse sourceNeuronName = "0" targetNeuronName = "15" weight = "0.29505793130015134" />
    <synapse sourceNeuronName = "0" targetNeuronName = "16" weight = "-0.907421678001239" />
    <synapse sourceNeuronName = "1" targetNeuronName = "9" weight = "0.7816975541959437" />
    <synapse sourceNeuronName = "1" targetNeuronName = "10" weight = "0.6342618643391171" />
    <synapse sourceNeuronName = "1" targetNeuronName = "11" weight = "0.34401024823287085" />
    <synapse sourceNeuronName = "1" targetNeuronName = "12" weight = "0.5257405545054128" />
    <synapse sourceNeuronName = "1" targetNeuronName = "13" weight = "-0.5196860704652213" />
    <synapse sourceNeuronName = "1" targetNeuronName = "14" weight = "0.7539865040462435" />
    <synapse sourceNeuronName = "1" targetNeuronName = "15" weight = "0.7334801651454326" />
    <synapse sourceNeuronName = "1" targetNeuronName = "16" weight = "-0.5049015543551711" />
    <synapse sourceNeuronName = "2" targetNeuronName = "9" weight = "-0.5499966831716414" />
    <synapse sourceNeuronName = "2" targetNeuronName = "10" weight = "-0.4342419512483626" />
    <synapse sourceNeuronName = "2" targetNeuronName = "11" weight = "-0.5348329361478721" />
    <synapse sourceNeuronName = "2" targetNeuronName = "12" weight = "0.6496216200561677" />
    <synapse sourceNeuronName = "2" targetNeuronName = "13" weight = "0.016787842461208236" />
    <synapse sourceNeuronName = "2" targetNeuronName = "14" weight = "0.7265894168240847" />
    <synapse sourceNeuronName = "2" targetNeuronName = "15" weight = "-0.3774312081208311" />
    <synapse sourceNeuronName = "2" targetNeuronName = "16" weight = "0.9495770641146153" />
    <synapse sourceNeuronName = "3" targetNeuronName = "9" weight = "0.8545590944990282" />
    <synapse sourceNeuronName = "3" targetNeuronName = "10" weight = "-0.021342059204583208" />
    <synapse sourceNeuronName = "3" targetNeuronName = "11" weight = "-0.7779501960663577" />
    <synapse sourceNeuronName = "3" targetNeuronName = "12" weight = "-0.043927565933219226" />
    <synapse sourceNeuronName = "3" targetNeuronName = "13" weight = "0.20256758073976688" />
    <synapse sourceNeuronName = "3" targetNeuronName = "14" weight = "-0.064322193619476" />
    <synapse sourceNeuronName = "3" targetNeuronName = "15" weight = "0.06731636419872333" />
    <synapse sourceNeuronName = "3" targetNeuronName = "16" weight = "0.4636955478896134" />
    <synapse sourceNeuronName = "4" targetNeuronName = "9" weight = "-0.15502011261020154" />
    <synapse sourceNeuronName = "4" targetNeuronName = "10" weight = "-0.10938448957355296" />
    <synapse sourceNeuronName = "4" targetNeuronName = "11" weight = "0.6457128684005851" />
    <synapse sourceNeuronName = "4" targetNeuronName = "12" weight = "0.4560009664397702" />
    <synapse sourceNeuronName = "4" targetNeuronName = "13" weight = "-0.8988501398160611" />
    <synapse sourceNeuronName = "4" targetNeuronName = "14" weight = "0.6879207206652571" />
    <synapse sourceNeuronName = "4" targetNeuronName = "15" weight = "-0.01273864710359196" />
    <synapse sourceNeuronName = "4" targetNeuronName = "16" weight = "0.34503412679496703" />
    <synapse sourceNeuronName = "5" targetNeuronName = "9" weight = "0.2133958797206481" />
    <synapse sourceNeuronName = "5" targetNeuronName = "10" weight = "-0.9733458161236808" />
    <synapse sourceNeuronName = "5" targetNeuronName = "11" weight = "0.8870342488662875" />
    <synapse sourceNeuronName = "5" targetNeuronName = "12" weight = "0.8984964447603361" />
    <synapse sourceNeuronName = "5" targetNeuronName = "13" weight = "-0.3552019444941752" />
    <synapse sourceNeuronName = "5" targetNeuronName = "14" weight = "-0.03531046640730473" />
    <synapse sourceNeuronName = "5" targetNeuronName = "15" weight = "-0.7809799680655165" />
    <synapse sourceNeuronName = "5" targetNeuronName = "16" weight = "-0.7400396320675582" />
    <synapse sourceNeuronName = "6" targetNeuronName = "9" weight = "-0.7467229365342916" />
    <synapse sourceNeuronName = "6" targetNeuronName = "10" weight = "0.2699729719303823" />
    <synapse sourceNeuronName = "6" targetNeuronName = "11" weight = "-0.8897862634946914" />
    <synapse sourceNeuronName = "6" targetNeuronName = "12" weight = "-0.37946678974161974" />
    <synapse sourceNeuronName = "6" targetNeuronName = "13" weight = "-0.8962999961012181" />
    <synapse sourceNeuronName = "6" targetNeuronName = "14" weight = "0.832916880213058" />
    <synapse sourceNeuronName = "6" targetNeuronName = "15" weight = "0.9449156974100859" />
    <synapse sourceNeuronName = "6" targetNeuronName = "16" weight = "-0.4253552502357856" />
    <synapse sourceNeuronName = "7" targetNeuronName = "9" weight = "0.16552657003181848" />
    <synapse sourceNeuronName = "7" targetNeuronName = "10" weight = "-0.744412922641982" />
    <synapse sourceNeuronName = "7" targetNeuronName = "11" weight = "0.023211115572516983" />
    <synapse sourceNeuronName = "7" targetNeuronName = "12" weight = "-0.9054389055753784" />
    <synapse sourceNeuronName = "7" targetNeuronName = "13" weight = "0.10503276660760874" />
    <synapse sourceNeuronName = "7" targetNeuronName = "14" weight = "-0.6422204242585814" />
    <synapse sourceNeuronName = "7" targetNeuronName = "15" weight = "-0.03295080620173718" />
    <synapse sourceNeuronName = "7" targetNeuronName = "16" weight = "-0.21220051941062623" />
    <synapse sourceNeuronName = "8" targetNeuronName = "9" weight = "0.6249951867469259" />
    <synapse sourceNeuronName = "8" targetNeuronName = "10" weight = "-0.2779592540468454" />
    <synapse sourceNeuronName = "8" targetNeuronName = "11" weight = "-0.7048632105504671" />
    <synapse sourceNeuronName = "8" targetNeuronName = "12" weight = "-0.3252622990435077" />
    <synapse sourceNeuronName = "8" targetNeuronName = "13" weight = "0.7149555515907888" />
    <synapse sourceNeuronName = "8" targetNeuronName = "14" weight = "0.5082514484797505" />
    <synapse sourceNeuronName = "8" targetNeuronName = "15" weight = "0.21622829929940468" />
    <synapse sourceNeuronName = "8" targetNeuronName = "16" weight = "0.0338607189228215" />
</neuralNetwork>