<neuralNetwork>
    <neuron name = "0" type = "sensor" linkName = "Torso" />
    <neuron name = "1" type = "sensor" linkName = "BackLeg" />
    <neuron name = "2" type = "sensor" linkName = "FrontLeg" />
    <neuron name = "3" type = "sensor" linkName = "LeftLeg" />
    <neuron name = "4" type = "sensor" linkName = "RightLeg" />
    <neuron name = "5" type = "sensor" linkName = "BackLowerLeg" />
    <neuron name = "6" type = "sensor" linkName = "FrontLowerLeg" />
    <neuron name = "7" type = "sensor" linkName = "LeftLowerLeg" />
    <neuron name = "8" type = "sensor" linkName = "RightLowerLeg" />
    <neuron name = "9" type = "motor"  jointName = "Torso_BackLeg" />
    <neuron name = "10" type = "motor"  jointName = "Torso_FrontLeg" />
    <neuron name = "11" type = "motor"  jointName = "Torso_LeftLeg" />
    <neuron name = "12" type = "motor"  jointName = "Torso_RightLeg" />
    <neuron name = "13" type = "motor"  jointName = "BackLeg_BackLowerLeg" />
    <neuron name = "14" type = "motor"  jointName = "FrontLeg_FrontLowerLeg" />
    <neuron name = "15" type = "motor"  jointName = "LeftLeg_LeftLowerLeg" />
    <neuron name = "16" type = "motor"  jointName = "RightLeg_RightLowerLeg" />
    <synapse sourceNeuronName = "0" targetNeuronName = "9" weight = "0.12324950299036663" />
    <synapse sourceNeuronName = "0" targetNeuronName = "10" weight = "-0.03085922500664795" />
    <synapse sourceNeuronName = "0" targetNeuronName = "11" weight = "-0.8714445471636305" />
    <synapse sourceNeuronName = "0" targetNeuronName = "12" weight = "0.753963132906053" />
    <synapse sourceNeuronName = "0" targetNeuronName = "13" weight = "-0.662821282868441" />
    <synapse sourceNeuronName = "0" targetNeuronName = "14" weight = "-0.21959899725865029" />
    <synapse sourceNeuronName = "0" targetNeuronName = "15" weight = "-0.31902568531643105" />
    <synapse sourceNeuronName = "0" targetNeuronName = "16" weight = "0.20400463743255837" />
    <synapse sourceNeuronName = "1" targetNeuronName = "9" weight = "-0.7314462137053859" />
    <synapse sourceNeuronName = "1" targetNeuronName = "10" weight = "-0.5575453700573012" />
    <synapse sourceNeuronName = "1" targetNeuronName = "11" weight = "0.4794133862472658" />
    <synapse sourceNeuronName = "1" targetNeuronName = "12" weight = "-0.3553530113038772" />
    <synapse sourceNeuronName = "1" targetNeuronName = "13" weight = "0.7346498785236173" />
    <synapse sourceNeuronName = "1" targetNeuronName = "14" weight = "0.45304697172345043" />
    <synapse sourceNeuronName = "1" targetNeuronName = "15" weight = "0.7549191448126433" />
    <synapse sourceNeuronName = "1" targetNeuronName = "16" weight = "-0.2530307115783281" />
    <synapse sourceNeuronName = "2" targetNeuronName = "9" weight = "-0.5159803546650936" />
    <synapse sourceNeuronName = "2" targetNeuronName = "10" weight = "0.878319649784371" />
    <synapse sourceNeuronName = "2" targetNeuronName = "11" weight = "-0.6955556750870335" />
    <synapse sourceNeuronName = "2" targetNeuronName = "12" weight = "0.27010241520515743" />
    <synapse sourceNeuronName = "2" targetNeuronName = "13" weight = "0.438352987865982" />
    <synapse sourceNeuronName = "2" targetNeuronName = "14" weight = "-0.9049920978506594" />
    <synapse sourceNeuronName = "2" targetNeuronName = "15" weight = "-0.0862778812532059" />
    <synapse sourceNeuronName = "2" targetNeuronName = "16" weight = "0.1941422665982202" />
    <synapse sourceNeuronName = "3" targetNeuronName = "9" weight = "0.7781254391951402" />
    <synapse sourceNeuronName = "3" targetNeuronName = "10" weight = "-0.7137849301909034" />
    <synapse sourceNeuronName = "3" targetNeuronName = "11" weight = "0.5980514811073103" />
    <synapse sourceNeuronName = "3" targetNeuronName = "12" weight = "-0.6573528675350715" />
    <synapse sourceNeuronName = "3" targetNeuronName = "13" weight = "-0.0067027530861187845" />
    <synapse sourceNeuronName = "3" targetNeuronName = "14" weight = "-0.34587205133172216" />
    <synapse sourceNeuronName = "3" targetNeuronName = "15" weight = "0.2638516605558494" />
    <synapse sourceNeuronName = "3" targetNeuronName = "16" weight = "0.12147398245028129" />
    <synapse sourceNeuronName = "4" targetNeuronName = "9" weight = "-0.8079263458954125" />
    <synapse sourceNeuronName = "4" targetNeuronName = "10" weight = "0.46952191893303574" />
    <synapse sourceNeuronName = "4" targetNeuronName = "11" weight = "0.47040319633622585" />
    <synapse sourceNeuronName = "4" targetNeuronName = "12" weight = "0.870030811679344" />
    <synapse sourceNeuronName = "4" targetNeuronName = "13" weight = "0.6360749774081571" />
    <synapse sourceNeuronName = "4" targetNeuronName = "14" weight = "0.6834366301580079" />
    <synapse sourceNeuronName = "4" targetNeuronName = "15" weight = "0.7751422975620272" />
    <synapse sourceNeuronName = "4" targetNeuronName = "16" weight = "0.3081588127587336" />
    <synapse sourceNeuronName = "5" targetNeuronName = "9" weight = "-0.1335834876843267" />
    <synapse sourceNeuronName = "5" targetNeuronName = "10" weight = "-0.40250299164676173" />
    <synapse sourceNeuronName = "5" targetNeuronName = "11" weight = "0.22077873532901426" />
    <synapse sourceNeuronName = "5" targetNeuronName = "12" weight = "-0.2791183485438744" />
    <synapse sourceNeuronName = "5" targetNeuronName = "13" weight = "-0.5123753223221792" />
    <synapse sourceNeuronName = "5" targetNeuronName = "14" weight = "0.793091413049996" />
    <synapse sourceNeuronName = "5" targetNeuronName = "15" weight = "0.6611105690636114" />
    <synapse sourceNeuronName = "5" targetNeuronName = "16" weight = "0.1834868181569278" />
    <synapse sourceNeuronName = "6" targetNeuronName = "9" weight = "-0.3867390896826981" />
    <synapse sourceNeuronName = "6" targetNeuronName = "10" weight = "0.3798861520005081" />
    <synapse sourceNeuronName = "6" targetNeuronName = "11" weight = "-0.08702466780148632" />
    <synapse sourceNeuronName = "6" targetNeuronName = "12" weight = "0.35731998154355016" />
    <synapse sourceNeuronName = "6" targetNeuronName = "13" weight = "0.755685900534476" />
    <synapse sourceNeuronName = "6" targetNeuronName = "14" weight = "-0.8492357189586377" />
    <synapse sourceNeuronName = "6" targetNeuronName = "15" weight = "-0.7309104831831683" />
    <synapse sourceNeuronName = "6" targetNeuronName = "16" weight = "-0.8156820507853539" />
    <synapse sourceNeuronName = "7" targetNeuronName = "9" weight = "-0.2822174055641409" />
    <synapse sourceNeuronName = "7" targetNeuronName = "10" weight = "0.34701926591890375" />
    <synapse sourceNeuronName = "7" targetNeuronName = "11" weight = "0.5016523134918607" />
    <synapse sourceNeuronName = "7" targetNeuronName = "12" weight = "-0.08530937255806714" />
    <synapse sourceNeuronName = "7" targetNeuronName = "13" weight = "-0.014886144119108602" />
    <synapse sourceNeuronName = "7" targetNeuronName = "14" weight = "-0.06083386336408658" />
    <synapse sourceNeuronName = "7" targetNeuronName = "15" weight = "-0.879895054075595" />
    <synapse sourceNeuronName = "7" targetNeuronName = "16" weight = "0.7891260370789219" />
    <synapse sourceNeuronName = "8" targetNeuronName = "9" weight = "-0.27096936481502576" />
    <synapse sourceNeuronName = "8" targetNeuronName = "10" weight = "-0.38473323965371486" />
    <synapse sourceNeuronName = "8" targetNeuronName = "11" weight = "0.8302798315809803" />
    <synapse sourceNeuronName = "8" targetNeuronName = "12" weight = "-0.6899826266126432" />
    <synapse sourceNeuronName = "8" targetNeuronName = "13" weight = "0.2526814277039331" />
    <synapse sourceNeuronName = "8" targetNeuronName = "14" weight = "-0.7692110833140047" />
    <synapse sourceNeuronName = "8" targetNeuronName = "15" weight = "0.5515024474990284" />
    <synapse sourceNeuronName = "8" targetNeuronName = "16" weight = "0.46371030286444515" />
</neuralNetwork>