<neuralNetwork>
    <neuron name = "0" type = "sensor" linkName = "Torso" />
    <neuron name = "1" type = "sensor" linkName = "BackLeg" />
    <neuron name = "2" type = "sensor" linkName = "FrontLeg" />
    <neuron name = "3" type = "sensor" linkName = "LeftLeg" />
    <neuron name = "4" type = "sensor" linkName = "RightLeg" />
    <neuron name = "5" type = "sensor" linkName = "BackLowerLeg" />
    <neuron name = "6" type = "sensor" linkName = "FrontLowerLeg" />
    <neuron name = "7" type = "sensor" linkName = "LeftLowerLeg" />
    <neuron name = "8" type = "sensor" linkName = "RightLowerLeg" />
    <neuron name = "9" type = "motor"  jointName = "Torso_BackLeg" />
    <neuron name = "10" type = "motor"  jointName = "Torso_FrontLeg" />
    <neuron name = "11" type = "motor"  jointName = "Torso_LeftLeg" />
    <neuron name = "12" type = "motor"  jointName = "Torso_RightLeg" />
    <neuron name = "13" type = "motor"  jointName = "BackLeg_BackLowerLeg" />
    <neuron name = "14" type = "motor"  jointName = "FrontLeg_FrontLowerLeg" />
    <neuron name = "15" type = "motor"  jointName = "LeftLeg_LeftLowerLeg" />
    <neuron name = "16" type = "motor"  jointName = "RightLeg_RightLowerLeg" />
    <synapse sourceNeuronName = "0" targetNeuronName = "9" weight = "-0.0009876431789763718" />
    <synapse sourceNeuronName = "0" targetNeuronName = "10" weight = "0.6319074334437298" />
    <synapse sourceNeuronName = "0" targetNeuronName = "11" weight = "0.5555529947604922" />
    <synapse sourceNeuronName = "0" targetNeuronName = "12" weight = "0.7488296626193225" />
    <synapse sourceNeuronName = "0" targetNeuronName = "13" weight = "-0.9254480037347743" />
    <synapse sourceNeuronName = "0" targetNeuronName = "14" weight = "0.038368439240272556" />
    <synapse sourceNeuronName = "0" targetNeuronName = "15" weight = "-0.41962746357818603" />
    <synapse sourceNeuronName = "0" targetNeuronName = "16" weight = "-0.988521098192465" />
    <synapse sourceNeuronName = "1" targetNeuronName = "9" weight = "-0.78168499226578" />
    <synapse sourceNeuronName = "1" targetNeuronName = "10" weight = "0.9714928538394365" />
    <synapse sourceNeuronName = "1" targetNeuronName = "11" weight = "-0.8091822234620765" />
    <synapse sourceNeuronName = "1" targetNeuronName = "12" weight = "-0.6035442999889509" />
    <synapse sourceNeuronName = "1" targetNeuronName = "13" weight = "0.22981454654836098" />
    <synapse sourceNeuronName = "1" targetNeuronName = "14" weight = "0.39615343384987" />
    <synapse sourceNeuronName = "1" targetNeuronName = "15" weight = "-0.9824038070733472" />
    <synapse sourceNeuronName = "1" targetNeuronName = "16" weight = "-0.22805739776545964" />
    <synapse sourceNeuronName = "2" targetNeuronName = "9" weight = "0.6502748887097289" />
    <synapse sourceNeuronName = "2" targetNeuronName = "10" weight = "0.462497200830156" />
    <synapse sourceNeuronName = "2" targetNeuronName = "11" weight = "0.06258252223393401" />
    <synapse sourceNeuronName = "2" targetNeuronName = "12" weight = "0.14829635394468066" />
    <synapse sourceNeuronName = "2" targetNeuronName = "13" weight = "-0.33979653231403106" />
    <synapse sourceNeuronName = "2" targetNeuronName = "14" weight = "-0.774755482976017" />
    <synapse sourceNeuronName = "2" targetNeuronName = "15" weight = "-0.5917720325325133" />
    <synapse sourceNeuronName = "2" targetNeuronName = "16" weight = "0.26785141032385296" />
    <synapse sourceNeuronName = "3" targetNeuronName = "9" weight = "0.7602109732133935" />
    <synapse sourceNeuronName = "3" targetNeuronName = "10" weight = "-0.9260213481953636" />
    <synapse sourceNeuronName = "3" targetNeuronName = "11" weight = "-0.664495293885176" />
    <synapse sourceNeuronName = "3" targetNeuronName = "12" weight = "0.34886583312131103" />
    <synapse sourceNeuronName = "3" targetNeuronName = "13" weight = "0.9394783532956132" />
    <synapse sourceNeuronName = "3" targetNeuronName = "14" weight = "0.9985070259659863" />
    <synapse sourceNeuronName = "3" targetNeuronName = "15" weight = "-0.12291238578903263" />
    <synapse sourceNeuronName = "3" targetNeuronName = "16" weight = "-0.638550048853761" />
    <synapse sourceNeuronName = "4" targetNeuronName = "9" weight = "-0.9438153624102703" />
    <synapse sourceNeuronName = "4" targetNeuronName = "10" weight = "-0.2771950168274384" />
    <synapse sourceNeuronName = "4" targetNeuronName = "11" weight = "0.2973860623486215" />
    <synapse sourceNeuronName = "4" targetNeuronName = "12" weight = "-0.5428166554762368" />
    <synapse sourceNeuronName = "4" targetNeuronName = "13" weight = "0.9881769588511975" />
    <synapse sourceNeuronName = "4" targetNeuronName = "14" weight = "-0.5469909923381147" />
    <synapse sourceNeuronName = "4" targetNeuronName = "15" weight = "-0.05548579924069008" />
    <synapse sourceNeuronName = "4" targetNeuronName = "16" weight = "-0.20337000346060563" />
    <synapse sourceNeuronName = "5" targetNeuronName = "9" weight = "-0.9317272607620048" />
    <synapse sourceNeuronName = "5" targetNeuronName = "10" weight = "0.240496338473829" />
    <synapse sourceNeuronName = "5" targetNeuronName = "11" weight = "-0.8808527207457804" />
    <synapse sourceNeuronName = "5" targetNeuronName = "12" weight = "0.32334945237482215" />
    <synapse sourceNeuronName = "5" targetNeuronName = "13" weight = "-0.7852569482611225" />
    <synapse sourceNeuronName = "5" targetNeuronName = "14" weight = "0.43027410467007043" />
    <synapse sourceNeuronName = "5" targetNeuronName = "15" weight = "0.4917662711566375" />
    <synapse sourceNeuronName = "5" targetNeuronName = "16" weight = "-0.02670059722343887" />
    <synapse sourceNeuronName = "6" targetNeuronName = "9" weight = "0.11804061647596042" />
    <synapse sourceNeuronName = "6" targetNeuronName = "10" weight = "-0.918668654022966" />
    <synapse sourceNeuronName = "6" targetNeuronName = "11" weight = "0.5400970418905138" />
    <synapse sourceNeuronName = "6" targetNeuronName = "12" weight = "-0.1308854235032786" />
    <synapse sourceNeuronName = "6" targetNeuronName = "13" weight = "-0.13469566343479866" />
    <synapse sourceNeuronName = "6" targetNeuronName = "14" weight = "-0.959640454038367" />
    <synapse sourceNeuronName = "6" targetNeuronName = "15" weight = "0.4859939400506932" />
    <synapse sourceNeuronName = "6" targetNeuronName = "16" weight = "-0.6570163979431076" />
    <synapse sourceNeuronName = "7" targetNeuronName = "9" weight = "-0.8078701761319351" />
    <synapse sourceNeuronName = "7" targetNeuronName = "10" weight = "-0.6817317692002105" />
    <synapse sourceNeuronName = "7" targetNeuronName = "11" weight = "0.7191668593928617" />
    <synapse sourceNeuronName = "7" targetNeuronName = "12" weight = "-0.8258969668249174" />
    <synapse sourceNeuronName = "7" targetNeuronName = "13" weight = "-0.8425637122105736" />
    <synapse sourceNeuronName = "7" targetNeuronName = "14" weight = "0.4546642391405442" />
    <synapse sourceNeuronName = "7" targetNeuronName = "15" weight = "-0.7028278064282227" />
    <synapse sourceNeuronName = "7" targetNeuronName = "16" weight = "-0.09915146597551883" />
    <synapse sourceNeuronName = "8" targetNeuronName = "9" weight = "-0.20915209582781835" />
    <synapse sourceNeuronName = "8" targetNeuronName = "10" weight = "-0.24412635736510024" />
    <synapse sourceNeuronName = "8" targetNeuronName = "11" weight = "0.6222818471270386" />
    <synapse sourceNeuronName = "8" targetNeuronName = "12" weight = "-0.37076985884745484" />
    <synapse sourceNeuronName = "8" targetNeuronName = "13" weight = "0.6006641419154244" />
    <synapse sourceNeuronName = "8" targetNeuronName = "14" weight = "0.49257188337475877" />
    <synapse sourceNeuronName = "8" targetNeuronName = "15" weight = "0.784248361857848" />
    <synapse sourceNeuronName = "8" targetNeuronName = "16" weight = "0.7130163740197704" />
</neuralNetwork>