<neuralNetwork>
    <neuron name = "0" type = "sensor" linkName = "Torso" />
    <neuron name = "1" type = "sensor" linkName = "BackLeg" />
    <neuron name = "2" type = "sensor" linkName = "FrontLeg" />
    <neuron name = "3" type = "sensor" linkName = "LeftLeg" />
    <neuron name = "4" type = "sensor" linkName = "RightLeg" />
    <neuron name = "5" type = "sensor" linkName = "BackLowerLeg" />
    <neuron name = "6" type = "sensor" linkName = "FrontLowerLeg" />
    <neuron name = "7" type = "sensor" linkName = "LeftLowerLeg" />
    <neuron name = "8" type = "sensor" linkName = "RightLowerLeg" />
    <neuron name = "9" type = "motor"  jointName = "Torso_BackLeg" />
    <neuron name = "10" type = "motor"  jointName = "Torso_FrontLeg" />
    <neuron name = "11" type = "motor"  jointName = "Torso_LeftLeg" />
    <neuron name = "12" type = "motor"  jointName = "Torso_RightLeg" />
    <neuron name = "13" type = "motor"  jointName = "BackLeg_BackLowerLeg" />
    <neuron name = "14" type = "motor"  jointName = "FrontLeg_FrontLowerLeg" />
    <neuron name = "15" type = "motor"  jointName = "LeftLeg_LeftLowerLeg" />
    <neuron name = "16" type = "motor"  jointName = "RightLeg_RightLowerLeg" />
    <synapse sourceNeuronName = "0" targetNeuronName = "9" weight = "-0.9801147626124953" />
    <synapse sourceNeuronName = "0" targetNeuronName = "10" weight = "-0.5616335470717522" />
    <synapse sourceNeuronName = "0" targetNeuronName = "11" weight = "-0.34503115956774644" />
    <synapse sourceNeuronName = "0" targetNeuronName = "12" weight = "-0.8314281477515242" />
    <synapse sourceNeuronName = "0" targetNeuronName = "13" weight = "-0.33847246653613916" />
    <synapse sourceNeuronName = "0" targetNeuronName = "14" weight = "0.7298085510875874" />
    <synapse sourceNeuronName = "0" targetNeuronName = "15" weight = "0.38647370830662764" />
    <synapse sourceNeuronName = "0" targetNeuronName = "16" weight = "-0.5245545188666523" />
    <synapse sourceNeuronName = "1" targetNeuronName = "9" weight = "-0.9540705715333957" />
    <synapse sourceNeuronName = "1" targetNeuronName = "10" weight = "0.5311423413556808" />
    <synapse sourceNeuronName = "1" targetNeuronName = "11" weight = "0.028713149510122937" />
    <synapse sourceNeuronName = "1" targetNeuronName = "12" weight = "-0.8037353129947011" />
    <synapse sourceNeuronName = "1" targetNeuronName = "13" weight = "0.9516729270305142" />
    <synapse sourceNeuronName = "1" targetNeuronName = "14" weight = "0.6145110523408643" />
    <synapse sourceNeuronName = "1" targetNeuronName = "15" weight = "0.19306063660520456" />
    <synapse sourceNeuronName = "1" targetNeuronName = "16" weight = "0.43623132752049987" />
    <synapse sourceNeuronName = "2" targetNeuronName = "9" weight = "0.6860428340089231" />
    <synapse sourceNeuronName = "2" targetNeuronName = "10" weight = "-0.5959948020808892" />
    <synapse sourceNeuronName = "2" targetNeuronName = "11" weight = "0.5747883335214985" />
    <synapse sourceNeuronName = "2" targetNeuronName = "12" weight = "0.7857213383134292" />
    <synapse sourceNeuronName = "2" targetNeuronName = "13" weight = "-0.37285490237847885" />
    <synapse sourceNeuronName = "2" targetNeuronName = "14" weight = "-0.6424562328610464" />
    <synapse sourceNeuronName = "2" targetNeuronName = "15" weight = "0.8588906516828732" />
    <synapse sourceNeuronName = "2" targetNeuronName = "16" weight = "-0.4528754493321767" />
    <synapse sourceNeuronName = "3" targetNeuronName = "9" weight = "0.26265500610375514" />
    <synapse sourceNeuronName = "3" targetNeuronName = "10" weight = "-0.32073075633877424" />
    <synapse sourceNeuronName = "3" targetNeuronName = "11" weight = "-0.012761279360374411" />
    <synapse sourceNeuronName = "3" targetNeuronName = "12" weight = "0.4977856108943519" />
    <synapse sourceNeuronName = "3" targetNeuronName = "13" weight = "0.3016651016238341" />
    <synapse sourceNeuronName = "3" targetNeuronName = "14" weight = "-0.9139787754982494" />
    <synapse sourceNeuronName = "3" targetNeuronName = "15" weight = "0.3713370138873653" />
    <synapse sourceNeuronName = "3" targetNeuronName = "16" weight = "-0.6495477016833713" />
    <synapse sourceNeuronName = "4" targetNeuronName = "9" weight = "0.1251610855197811" />
    <synapse sourceNeuronName = "4" targetNeuronName = "10" weight = "0.38922822735997364" />
    <synapse sourceNeuronName = "4" targetNeuronName = "11" weight = "-0.20251722912486403" />
    <synapse sourceNeuronName = "4" targetNeuronName = "12" weight = "0.013228770272277313" />
    <synapse sourceNeuronName = "4" targetNeuronName = "13" weight = "0.7877027500996772" />
    <synapse sourceNeuronName = "4" targetNeuronName = "14" weight = "-0.7221610024578924" />
    <synapse sourceNeuronName = "4" targetNeuronName = "15" weight = "0.3802649852889328" />
    <synapse sourceNeuronName = "4" targetNeuronName = "16" weight = "0.17981481404601274" />
    <synapse sourceNeuronName = "5" targetNeuronName = "9" weight = "0.7841615210337236" />
    <synapse sourceNeuronName = "5" targetNeuronName = "10" weight = "0.29005871954004636" />
    <synapse sourceNeuronName = "5" targetNeuronName = "11" weight = "0.577816863613789" />
    <synapse sourceNeuronName = "5" targetNeuronName = "12" weight = "-0.3903422578346929" />
    <synapse sourceNeuronName = "5" targetNeuronName = "13" weight = "0.33798366507794153" />
    <synapse sourceNeuronName = "5" targetNeuronName = "14" weight = "0.454539559184447" />
    <synapse sourceNeuronName = "5" targetNeuronName = "15" weight = "0.5092631137538939" />
    <synapse sourceNeuronName = "5" targetNeuronName = "16" weight = "0.7530422171682172" />
    <synapse sourceNeuronName = "6" targetNeuronName = "9" weight = "0.005888287585740892" />
    <synapse sourceNeuronName = "6" targetNeuronName = "10" weight = "-0.5317315352270904" />
    <synapse sourceNeuronName = "6" targetNeuronName = "11" weight = "-0.021069905572247416" />
    <synapse sourceNeuronName = "6" targetNeuronName = "12" weight = "0.4754642269610003" />
    <synapse sourceNeuronName = "6" targetNeuronName = "13" weight = "0.8839299186773419" />
    <synapse sourceNeuronName = "6" targetNeuronName = "14" weight = "-0.29113293267641627" />
    <synapse sourceNeuronName = "6" targetNeuronName = "15" weight = "0.5587342041872339" />
    <synapse sourceNeuronName = "6" targetNeuronName = "16" weight = "-0.9050948223487225" />
    <synapse sourceNeuronName = "7" targetNeuronName = "9" weight = "-0.6418731663399455" />
    <synapse sourceNeuronName = "7" targetNeuronName = "10" weight = "-0.5127078739454982" />
    <synapse sourceNeuronName = "7" targetNeuronName = "11" weight = "-0.2680705108828958" />
    <synapse sourceNeuronName = "7" targetNeuronName = "12" weight = "0.41152959707227876" />
    <synapse sourceNeuronName = "7" targetNeuronName = "13" weight = "-0.2637201588348004" />
    <synapse sourceNeuronName = "7" targetNeuronName = "14" weight = "-0.7182621287930002" />
    <synapse sourceNeuronName = "7" targetNeuronName = "15" weight = "0.456333525762026" />
    <synapse sourceNeuronName = "7" targetNeuronName = "16" weight = "0.4389290068523508" />
    <synapse sourceNeuronName = "8" targetNeuronName = "9" weight = "0.022330514293628312" />
    <synapse sourceNeuronName = "8" targetNeuronName = "10" weight = "-0.4973410368447153" />
    <synapse sourceNeuronName = "8" targetNeuronName = "11" weight = "0.3596308315124932" />
    <synapse sourceNeuronName = "8" targetNeuronName = "12" weight = "-0.8184609926441566" />
    <synapse sourceNeuronName = "8" targetNeuronName = "13" weight = "-0.18362937287867998" />
    <synapse sourceNeuronName = "8" targetNeuronName = "14" weight = "0.7959137889314822" />
    <synapse sourceNeuronName = "8" targetNeuronName = "15" weight = "0.18100277194515724" />
    <synapse sourceNeuronName = "8" targetNeuronName = "16" weight = "0.06961366476320885" />
</neuralNetwork>