<neuralNetwork>
    <neuron name = "0" type = "sensor" linkName = "Torso" />
    <neuron name = "1" type = "sensor" linkName = "BackLeg" />
    <neuron name = "2" type = "sensor" linkName = "FrontLeg" />
    <neuron name = "3" type = "sensor" linkName = "LeftLeg" />
    <neuron name = "4" type = "sensor" linkName = "RightLeg" />
    <neuron name = "5" type = "sensor" linkName = "BackLowerLeg" />
    <neuron name = "6" type = "sensor" linkName = "FrontLowerLeg" />
    <neuron name = "7" type = "sensor" linkName = "LeftLowerLeg" />
    <neuron name = "8" type = "sensor" linkName = "RightLowerLeg" />
    <neuron name = "9" type = "motor"  jointName = "Torso_BackLeg" />
    <neuron name = "10" type = "motor"  jointName = "Torso_FrontLeg" />
    <neuron name = "11" type = "motor"  jointName = "Torso_LeftLeg" />
    <neuron name = "12" type = "motor"  jointName = "Torso_RightLeg" />
    <neuron name = "13" type = "motor"  jointName = "BackLeg_BackLowerLeg" />
    <neuron name = "14" type = "motor"  jointName = "FrontLeg_FrontLowerLeg" />
    <neuron name = "15" type = "motor"  jointName = "LeftLeg_LeftLowerLeg" />
    <neuron name = "16" type = "motor"  jointName = "RightLeg_RightLowerLeg" />
    <synapse sourceNeuronName = "0" targetNeuronName = "9" weight = "0.5807409111745032" />
    <synapse sourceNeuronName = "0" targetNeuronName = "10" weight = "-0.538160514106613" />
    <synapse sourceNeuronName = "0" targetNeuronName = "11" weight = "0.2750773494073908" />
    <synapse sourceNeuronName = "0" targetNeuronName = "12" weight = "0.29564416055297094" />
    <synapse sourceNeuronName = "0" targetNeuronName = "13" weight = "0.4877647319467775" />
    <synapse sourceNeuronName = "0" targetNeuronName = "14" weight = "0.307602194454202" />
    <synapse sourceNeuronName = "0" targetNeuronName = "15" weight = "0.457593466700712" />
    <synapse sourceNeuronName = "0" targetNeuronName = "16" weight = "0.04279469346249165" />
    <synapse sourceNeuronName = "1" targetNeuronName = "9" weight = "0.2686668041226761" />
    <synapse sourceNeuronName = "1" targetNeuronName = "10" weight = "-0.9628226316758761" />
    <synapse sourceNeuronName = "1" targetNeuronName = "11" weight = "0.8916237127803195" />
    <synapse sourceNeuronName = "1" targetNeuronName = "12" weight = "-0.7643249609792937" />
    <synapse sourceNeuronName = "1" targetNeuronName = "13" weight = "0.9478577748105737" />
    <synapse sourceNeuronName = "1" targetNeuronName = "14" weight = "-0.38327094411746576" />
    <synapse sourceNeuronName = "1" targetNeuronName = "15" weight = "-0.001519578703756519" />
    <synapse sourceNeuronName = "1" targetNeuronName = "16" weight = "-0.4129540086398624" />
    <synapse sourceNeuronName = "2" targetNeuronName = "9" weight = "-0.9277973984751988" />
    <synapse sourceNeuronName = "2" targetNeuronName = "10" weight = "-0.7425071659381499" />
    <synapse sourceNeuronName = "2" targetNeuronName = "11" weight = "0.3149876378661771" />
    <synapse sourceNeuronName = "2" targetNeuronName = "12" weight = "0.8013352722965956" />
    <synapse sourceNeuronName = "2" targetNeuronName = "13" weight = "-0.8942834873830579" />
    <synapse sourceNeuronName = "2" targetNeuronName = "14" weight = "-0.9541994800840901" />
    <synapse sourceNeuronName = "2" targetNeuronName = "15" weight = "-0.9113382799030421" />
    <synapse sourceNeuronName = "2" targetNeuronName = "16" weight = "0.3208439740275806" />
    <synapse sourceNeuronName = "3" targetNeuronName = "9" weight = "0.6446353672689229" />
    <synapse sourceNeuronName = "3" targetNeuronName = "10" weight = "0.7612761731020794" />
    <synapse sourceNeuronName = "3" targetNeuronName = "11" weight = "0.12955206041735567" />
    <synapse sourceNeuronName = "3" targetNeuronName = "12" weight = "-0.05250681711985883" />
    <synapse sourceNeuronName = "3" targetNeuronName = "13" weight = "0.0750167812851612" />
    <synapse sourceNeuronName = "3" targetNeuronName = "14" weight = "-0.8135825166463422" />
    <synapse sourceNeuronName = "3" targetNeuronName = "15" weight = "0.4943621328373231" />
    <synapse sourceNeuronName = "3" targetNeuronName = "16" weight = "-0.03609009743629188" />
    <synapse sourceNeuronName = "4" targetNeuronName = "9" weight = "0.6041979291906003" />
    <synapse sourceNeuronName = "4" targetNeuronName = "10" weight = "-0.2008319108221741" />
    <synapse sourceNeuronName = "4" targetNeuronName = "11" weight = "0.13668499105094778" />
    <synapse sourceNeuronName = "4" targetNeuronName = "12" weight = "0.8670296402298838" />
    <synapse sourceNeuronName = "4" targetNeuronName = "13" weight = "-0.5821147544847598" />
    <synapse sourceNeuronName = "4" targetNeuronName = "14" weight = "0.7468928561186028" />
    <synapse sourceNeuronName = "4" targetNeuronName = "15" weight = "0.3632414110062778" />
    <synapse sourceNeuronName = "4" targetNeuronName = "16" weight = "-0.8058705513690034" />
    <synapse sourceNeuronName = "5" targetNeuronName = "9" weight = "-0.16021105036403083" />
    <synapse sourceNeuronName = "5" targetNeuronName = "10" weight = "-0.31740711453100334" />
    <synapse sourceNeuronName = "5" targetNeuronName = "11" weight = "-0.7142703733720264" />
    <synapse sourceNeuronName = "5" targetNeuronName = "12" weight = "0.7296632614960163" />
    <synapse sourceNeuronName = "5" targetNeuronName = "13" weight = "-0.9390162998573965" />
    <synapse sourceNeuronName = "5" targetNeuronName = "14" weight = "-0.7089869144265435" />
    <synapse sourceNeuronName = "5" targetNeuronName = "15" weight = "0.5256699751843177" />
    <synapse sourceNeuronName = "5" targetNeuronName = "16" weight = "0.47761383147901193" />
    <synapse sourceNeuronName = "6" targetNeuronName = "9" weight = "0.6797490927431284" />
    <synapse sourceNeuronName = "6" targetNeuronName = "10" weight = "0.9832370063669942" />
    <synapse sourceNeuronName = "6" targetNeuronName = "11" weight = "-0.35976947937294157" />
    <synapse sourceNeuronName = "6" targetNeuronName = "12" weight = "-0.9453348704868176" />
    <synapse sourceNeuronName = "6" targetNeuronName = "13" weight = "0.9892366972922062" />
    <synapse sourceNeuronName = "6" targetNeuronName = "14" weight = "0.9418432836530606" />
    <synapse sourceNeuronName = "6" targetNeuronName = "15" weight = "0.8549685706719312" />
    <synapse sourceNeuronName = "6" targetNeuronName = "16" weight = "0.2904551235983259" />
    <synapse sourceNeuronName = "7" targetNeuronName = "9" weight = "0.2464856623067755" />
    <synapse sourceNeuronName = "7" targetNeuronName = "10" weight = "0.27316479515453573" />
    <synapse sourceNeuronName = "7" targetNeuronName = "11" weight = "-0.2037345252141889" />
    <synapse sourceNeuronName = "7" targetNeuronName = "12" weight = "0.06946989248229918" />
    <synapse sourceNeuronName = "7" targetNeuronName = "13" weight = "-0.0019582153420769632" />
    <synapse sourceNeuronName = "7" targetNeuronName = "14" weight = "0.3162690767904681" />
    <synapse sourceNeuronName = "7" targetNeuronName = "15" weight = "-0.2928098691866563" />
    <synapse sourceNeuronName = "7" targetNeuronName = "16" weight = "-0.04757803425088758" />
    <synapse sourceNeuronName = "8" targetNeuronName = "9" weight = "-0.1013431341413289" />
    <synapse sourceNeuronName = "8" targetNeuronName = "10" weight = "0.6754362816532724" />
    <synapse sourceNeuronName = "8" targetNeuronName = "11" weight = "-0.7204584684125706" />
    <synapse sourceNeuronName = "8" targetNeuronName = "12" weight = "-0.6285613303414579" />
    <synapse sourceNeuronName = "8" targetNeuronName = "13" weight = "-0.6898983334824429" />
    <synapse sourceNeuronName = "8" targetNeuronName = "14" weight = "0.9321891718087805" />
    <synapse sourceNeuronName = "8" targetNeuronName = "15" weight = "0.7595130551917824" />
    <synapse sourceNeuronName = "8" targetNeuronName = "16" weight = "-0.16394794059493734" />
</neuralNetwork>