<neuralNetwork>
    <neuron name = "0" type = "sensor" linkName = "Torso" />
    <neuron name = "1" type = "sensor" linkName = "BackLeg" />
    <neuron name = "2" type = "sensor" linkName = "FrontLeg" />
    <neuron name = "3" type = "sensor" linkName = "LeftLeg" />
    <neuron name = "4" type = "sensor" linkName = "RightLeg" />
    <neuron name = "5" type = "sensor" linkName = "BackLowerLeg" />
    <neuron name = "6" type = "sensor" linkName = "FrontLowerLeg" />
    <neuron name = "7" type = "sensor" linkName = "LeftLowerLeg" />
    <neuron name = "8" type = "sensor" linkName = "RightLowerLeg" />
    <neuron name = "9" type = "motor"  jointName = "Torso_BackLeg" />
    <neuron name = "10" type = "motor"  jointName = "Torso_FrontLeg" />
    <neuron name = "11" type = "motor"  jointName = "Torso_LeftLeg" />
    <neuron name = "12" type = "motor"  jointName = "Torso_RightLeg" />
    <neuron name = "13" type = "motor"  jointName = "BackLeg_BackLowerLeg" />
    <neuron name = "14" type = "motor"  jointName = "FrontLeg_FrontLowerLeg" />
    <neuron name = "15" type = "motor"  jointName = "LeftLeg_LeftLowerLeg" />
    <neuron name = "16" type = "motor"  jointName = "RightLeg_RightLowerLeg" />
    <synapse sourceNeuronName = "0" targetNeuronName = "9" weight = "0.21281519737221966" />
    <synapse sourceNeuronName = "0" targetNeuronName = "10" weight = "-0.14997401740342875" />
    <synapse sourceNeuronName = "0" targetNeuronName = "11" weight = "-0.20685487666059865" />
    <synapse sourceNeuronName = "0" targetNeuronName = "12" weight = "-0.8527837800052573" />
    <synapse sourceNeuronName = "0" targetNeuronName = "13" weight = "-0.06600938710202575" />
    <synapse sourceNeuronName = "0" targetNeuronName = "14" weight = "0.25452442804199404" />
    <synapse sourceNeuronName = "0" targetNeuronName = "15" weight = "0.6406467503515068" />
    <synapse sourceNeuronName = "0" targetNeuronName = "16" weight = "-0.7437847624290921" />
    <synapse sourceNeuronName = "1" targetNeuronName = "9" weight = "0.1565210804610686" />
    <synapse sourceNeuronName = "1" targetNeuronName = "10" weight = "-0.02844928924073087" />
    <synapse sourceNeuronName = "1" targetNeuronName = "11" weight = "0.2508520499270537" />
    <synapse sourceNeuronName = "1" targetNeuronName = "12" weight = "0.13547024267994878" />
    <synapse sourceNeuronName = "1" targetNeuronName = "13" weight = "0.17440284830392572" />
    <synapse sourceNeuronName = "1" targetNeuronName = "14" weight = "0.1562728599821519" />
    <synapse sourceNeuronName = "1" targetNeuronName = "15" weight = "0.7792264710153991" />
    <synapse sourceNeuronName = "1" targetNeuronName = "16" weight = "-0.7802110169560801" />
    <synapse sourceNeuronName = "2" targetNeuronName = "9" weight = "-0.08184099880926454" />
    <synapse sourceNeuronName = "2" targetNeuronName = "10" weight = "0.9365533246517768" />
    <synapse sourceNeuronName = "2" targetNeuronName = "11" weight = "0.7353609578692462" />
    <synapse sourceNeuronName = "2" targetNeuronName = "12" weight = "-0.24188705127687293" />
    <synapse sourceNeuronName = "2" targetNeuronName = "13" weight = "0.6775883882088172" />
    <synapse sourceNeuronName = "2" targetNeuronName = "14" weight = "-0.4108811760020379" />
    <synapse sourceNeuronName = "2" targetNeuronName = "15" weight = "-0.6670944318723471" />
    <synapse sourceNeuronName = "2" targetNeuronName = "16" weight = "-0.5794503500609987" />
    <synapse sourceNeuronName = "3" targetNeuronName = "9" weight = "-0.8553232374427688" />
    <synapse sourceNeuronName = "3" targetNeuronName = "10" weight = "-0.43799516916636216" />
    <synapse sourceNeuronName = "3" targetNeuronName = "11" weight = "-0.5017499460251678" />
    <synapse sourceNeuronName = "3" targetNeuronName = "12" weight = "0.8251224244403672" />
    <synapse sourceNeuronName = "3" targetNeuronName = "13" weight = "0.9941561362137525" />
    <synapse sourceNeuronName = "3" targetNeuronName = "14" weight = "-0.9618447854761079" />
    <synapse sourceNeuronName = "3" targetNeuronName = "15" weight = "-0.18238232587600245" />
    <synapse sourceNeuronName = "3" targetNeuronName = "16" weight = "0.7643370862171788" />
    <synapse sourceNeuronName = "4" targetNeuronName = "9" weight = "-0.39535556955740914" />
    <synapse sourceNeuronName = "4" targetNeuronName = "10" weight = "-0.6775164566831446" />
    <synapse sourceNeuronName = "4" targetNeuronName = "11" weight = "-0.6359852844653224" />
    <synapse sourceNeuronName = "4" targetNeuronName = "12" weight = "0.7742454010217881" />
    <synapse sourceNeuronName = "4" targetNeuronName = "13" weight = "0.02205772242386206" />
    <synapse sourceNeuronName = "4" targetNeuronName = "14" weight = "-0.8526458766386522" />
    <synapse sourceNeuronName = "4" targetNeuronName = "15" weight = "-0.35331689805576727" />
    <synapse sourceNeuronName = "4" targetNeuronName = "16" weight = "0.9049436641841135" />
    <synapse sourceNeuronName = "5" targetNeuronName = "9" weight = "-0.6468521672032042" />
    <synapse sourceNeuronName = "5" targetNeuronName = "10" weight = "0.7011226266770938" />
    <synapse sourceNeuronName = "5" targetNeuronName = "11" weight = "0.8555879358442164" />
    <synapse sourceNeuronName = "5" targetNeuronName = "12" weight = "0.6042460709522126" />
    <synapse sourceNeuronName = "5" targetNeuronName = "13" weight = "-0.21893679022098178" />
    <synapse sourceNeuronName = "5" targetNeuronName = "14" weight = "0.2799291839021769" />
    <synapse sourceNeuronName = "5" targetNeuronName = "15" weight = "-0.20867050145848576" />
    <synapse sourceNeuronName = "5" targetNeuronName = "16" weight = "-0.29602785086360806" />
    <synapse sourceNeuronName = "6" targetNeuronName = "9" weight = "0.6278142689539861" />
    <synapse sourceNeuronName = "6" targetNeuronName = "10" weight = "0.8449844285561408" />
    <synapse sourceNeuronName = "6" targetNeuronName = "11" weight = "0.05456705194125511" />
    <synapse sourceNeuronName = "6" targetNeuronName = "12" weight = "0.43933092525676254" />
    <synapse sourceNeuronName = "6" targetNeuronName = "13" weight = "0.4360979428353302" />
    <synapse sourceNeuronName = "6" targetNeuronName = "14" weight = "-0.455716238727059" />
    <synapse sourceNeuronName = "6" targetNeuronName = "15" weight = "-0.34955187917929664" />
    <synapse sourceNeuronName = "6" targetNeuronName = "16" weight = "-0.05436329810662155" />
    <synapse sourceNeuronName = "7" targetNeuronName = "9" weight = "-0.8183440383004925" />
    <synapse sourceNeuronName = "7" targetNeuronName = "10" weight = "-0.7478462784180748" />
    <synapse sourceNeuronName = "7" targetNeuronName = "11" weight = "-0.21396861787912003" />
    <synapse sourceNeuronName = "7" targetNeuronName = "12" weight = "-0.1245851679298362" />
    <synapse sourceNeuronName = "7" targetNeuronName = "13" weight = "0.034058452531420036" />
    <synapse sourceNeuronName = "7" targetNeuronName = "14" weight = "-0.5331552544266243" />
    <synapse sourceNeuronName = "7" targetNeuronName = "15" weight = "-0.8003303855279762" />
    <synapse sourceNeuronName = "7" targetNeuronName = "16" weight = "0.9348277853415792" />
    <synapse sourceNeuronName = "8" targetNeuronName = "9" weight = "-0.768976107601882" />
    <synapse sourceNeuronName = "8" targetNeuronName = "10" weight = "0.7781074267541932" />
    <synapse sourceNeuronName = "8" targetNeuronName = "11" weight = "-0.6265246604572396" />
    <synapse sourceNeuronName = "8" targetNeuronName = "12" weight = "0.3822271186689956" />
    <synapse sourceNeuronName = "8" targetNeuronName = "13" weight = "0.7429628706643632" />
    <synapse sourceNeuronName = "8" targetNeuronName = "14" weight = "-0.5994724702493015" />
    <synapse sourceNeuronName = "8" targetNeuronName = "15" weight = "-0.19649781550512557" />
    <synapse sourceNeuronName = "8" targetNeuronName = "16" weight = "-0.41537025973877384" />
</neuralNetwork>