<neuralNetwork>
    <neuron name = "0" type = "sensor" linkName = "Torso" />
    <neuron name = "1" type = "sensor" linkName = "BackLeg" />
    <neuron name = "2" type = "sensor" linkName = "FrontLeg" />
    <neuron name = "3" type = "sensor" linkName = "LeftLeg" />
    <neuron name = "4" type = "sensor" linkName = "RightLeg" />
    <neuron name = "5" type = "sensor" linkName = "BackLowerLeg" />
    <neuron name = "6" type = "sensor" linkName = "FrontLowerLeg" />
    <neuron name = "7" type = "sensor" linkName = "LeftLowerLeg" />
    <neuron name = "8" type = "sensor" linkName = "RightLowerLeg" />
    <neuron name = "9" type = "motor"  jointName = "Torso_BackLeg" />
    <neuron name = "10" type = "motor"  jointName = "Torso_FrontLeg" />
    <neuron name = "11" type = "motor"  jointName = "Torso_LeftLeg" />
    <neuron name = "12" type = "motor"  jointName = "Torso_RightLeg" />
    <neuron name = "13" type = "motor"  jointName = "BackLeg_BackLowerLeg" />
    <neuron name = "14" type = "motor"  jointName = "FrontLeg_FrontLowerLeg" />
    <neuron name = "15" type = "motor"  jointName = "LeftLeg_LeftLowerLeg" />
    <neuron name = "16" type = "motor"  jointName = "RightLeg_RightLowerLeg" />
    <synapse sourceNeuronName = "0" targetNeuronName = "9" weight = "-0.27840147731731424" />
    <synapse sourceNeuronName = "0" targetNeuronName = "10" weight = "-0.4459087850295538" />
    <synapse sourceNeuronName = "0" targetNeuronName = "11" weight = "-0.5207384735769218" />
    <synapse sourceNeuronName = "0" targetNeuronName = "12" weight = "-0.21382549374874493" />
    <synapse sourceNeuronName = "0" targetNeuronName = "13" weight = "0.18314058419367618" />
    <synapse sourceNeuronName = "0" targetNeuronName = "14" weight = "-0.22284329974638872" />
    <synapse sourceNeuronName = "0" targetNeuronName = "15" weight = "-0.49100059427471443" />
    <synapse sourceNeuronName = "0" targetNeuronName = "16" weight = "-0.5578630638573143" />
    <synapse sourceNeuronName = "1" targetNeuronName = "9" weight = "0.6880278882873774" />
    <synapse sourceNeuronName = "1" targetNeuronName = "10" weight = "0.005931583682066588" />
    <synapse sourceNeuronName = "1" targetNeuronName = "11" weight = "-0.8395580415708643" />
    <synapse sourceNeuronName = "1" targetNeuronName = "12" weight = "0.08747334956154496" />
    <synapse sourceNeuronName = "1" targetNeuronName = "13" weight = "-0.8869023196988983" />
    <synapse sourceNeuronName = "1" targetNeuronName = "14" weight = "0.9816063421097214" />
    <synapse sourceNeuronName = "1" targetNeuronName = "15" weight = "0.712389746973203" />
    <synapse sourceNeuronName = "1" targetNeuronName = "16" weight = "0.7157493930216152" />
    <synapse sourceNeuronName = "2" targetNeuronName = "9" weight = "0.4827462476908966" />
    <synapse sourceNeuronName = "2" targetNeuronName = "10" weight = "0.7895509928628177" />
    <synapse sourceNeuronName = "2" targetNeuronName = "11" weight = "0.43551491244675256" />
    <synapse sourceNeuronName = "2" targetNeuronName = "12" weight = "0.8550047445032944" />
    <synapse sourceNeuronName = "2" targetNeuronName = "13" weight = "0.8560867865621484" />
    <synapse sourceNeuronName = "2" targetNeuronName = "14" weight = "-0.8116809821372675" />
    <synapse sourceNeuronName = "2" targetNeuronName = "15" weight = "-0.03354749944395774" />
    <synapse sourceNeuronName = "2" targetNeuronName = "16" weight = "0.4549875074223877" />
    <synapse sourceNeuronName = "3" targetNeuronName = "9" weight = "0.5818606236016401" />
    <synapse sourceNeuronName = "3" targetNeuronName = "10" weight = "0.7519805514015931" />
    <synapse sourceNeuronName = "3" targetNeuronName = "11" weight = "-0.04190069040979583" />
    <synapse sourceNeuronName = "3" targetNeuronName = "12" weight = "0.4599907505498686" />
    <synapse sourceNeuronName = "3" targetNeuronName = "13" weight = "-0.49853008260933973" />
    <synapse sourceNeuronName = "3" targetNeuronName = "14" weight = "-0.09470791627941844" />
    <synapse sourceNeuronName = "3" targetNeuronName = "15" weight = "0.6593100884962291" />
    <synapse sourceNeuronName = "3" targetNeuronName = "16" weight = "-0.8222327190911316" />
    <synapse sourceNeuronName = "4" targetNeuronName = "9" weight = "-0.5414085184144046" />
    <synapse sourceNeuronName = "4" targetNeuronName = "10" weight = "0.24263338485482344" />
    <synapse sourceNeuronName = "4" targetNeuronName = "11" weight = "-0.360622174613767" />
    <synapse sourceNeuronName = "4" targetNeuronName = "12" weight = "0.28155481698919993" />
    <synapse sourceNeuronName = "4" targetNeuronName = "13" weight = "-0.3702750809715516" />
    <synapse sourceNeuronName = "4" targetNeuronName = "14" weight = "0.2564257495597595" />
    <synapse sourceNeuronName = "4" targetNeuronName = "15" weight = "0.8941095960318464" />
    <synapse sourceNeuronName = "4" targetNeuronName = "16" weight = "0.11791903052236008" />
    <synapse sourceNeuronName = "5" targetNeuronName = "9" weight = "0.644905717115033" />
    <synapse sourceNeuronName = "5" targetNeuronName = "10" weight = "-0.8222348389366088" />
    <synapse sourceNeuronName = "5" targetNeuronName = "11" weight = "0.8501173086750002" />
    <synapse sourceNeuronName = "5" targetNeuronName = "12" weight = "-0.2652286814576701" />
    <synapse sourceNeuronName = "5" targetNeuronName = "13" weight = "-0.17281147763721294" />
    <synapse sourceNeuronName = "5" targetNeuronName = "14" weight = "0.5419026075887137" />
    <synapse sourceNeuronName = "5" targetNeuronName = "15" weight = "0.4600003045157486" />
    <synapse sourceNeuronName = "5" targetNeuronName = "16" weight = "0.7346204801547742" />
    <synapse sourceNeuronName = "6" targetNeuronName = "9" weight = "0.7201320334286734" />
    <synapse sourceNeuronName = "6" targetNeuronName = "10" weight = "0.5838984255276709" />
    <synapse sourceNeuronName = "6" targetNeuronName = "11" weight = "-0.02257281290785662" />
    <synapse sourceNeuronName = "6" targetNeuronName = "12" weight = "-0.24514013783780975" />
    <synapse sourceNeuronName = "6" targetNeuronName = "13" weight = "0.4817517868375598" />
    <synapse sourceNeuronName = "6" targetNeuronName = "14" weight = "0.8359070607864671" />
    <synapse sourceNeuronName = "6" targetNeuronName = "15" weight = "-0.3073670593311577" />
    <synapse sourceNeuronName = "6" targetNeuronName = "16" weight = "0.36438101723068317" />
    <synapse sourceNeuronName = "7" targetNeuronName = "9" weight = "-0.34772039090426543" />
    <synapse sourceNeuronName = "7" targetNeuronName = "10" weight = "0.3161290885144359" />
    <synapse sourceNeuronName = "7" targetNeuronName = "11" weight = "-0.5889419226495227" />
    <synapse sourceNeuronName = "7" targetNeuronName = "12" weight = "-0.04683285658103098" />
    <synapse sourceNeuronName = "7" targetNeuronName = "13" weight = "-0.14000819031984246" />
    <synapse sourceNeuronName = "7" targetNeuronName = "14" weight = "0.1868144017063038" />
    <synapse sourceNeuronName = "7" targetNeuronName = "15" weight = "0.7538585722273021" />
    <synapse sourceNeuronName = "7" targetNeuronName = "16" weight = "-0.029629120238962692" />
    <synapse sourceNeuronName = "8" targetNeuronName = "9" weight = "0.66245275481764" />
    <synapse sourceNeuronName = "8" targetNeuronName = "10" weight = "-0.012614809452932585" />
    <synapse sourceNeuronName = "8" targetNeuronName = "11" weight = "-0.8156101727908902" />
    <synapse sourceNeuronName = "8" targetNeuronName = "12" weight = "0.379613786311358" />
    <synapse sourceNeuronName = "8" targetNeuronName = "13" weight = "-0.8629999334826752" />
    <synapse sourceNeuronName = "8" targetNeuronName = "14" weight = "-0.46989138537096764" />
    <synapse sourceNeuronName = "8" targetNeuronName = "15" weight = "0.21547034724492242" />
    <synapse sourceNeuronName = "8" targetNeuronName = "16" weight = "-0.49604972191429897" />
</neuralNetwork>