6.544971527068736972e-01 8.027836437185889018e-01 4.752742831731335826e-01 -6.566313814369770796e-01 4.125950674979270705e-01 -7.444594601229925779e-02 3.160770808379729235e-01 -2.778628258381217186e-01
-8.395716270077269172e-02 -4.438523102398388431e-01 3.500518264840757343e-01 -5.821732157318977308e-01 8.834218822091652878e-01 8.539427995061141807e-01 -4.565988648446872578e-01 -9.104146283245244664e-01
-2.156073116385675004e-01 1.612543045528784802e-01 -2.259021047013565209e-02 2.463904513113361894e-01 5.594112488832865271e-01 -7.596733003415048202e-01 2.562668527001337182e-01 7.745488110225120515e-01
-5.096046565541938467e-01 -4.083031069052280859e-01 -8.714882755980779550e-01 1.306581718132082681e-01 -7.165732024677984313e-02 9.760454645624487835e-01 8.034249579953089970e-02 1.562777503644419141e-02
-7.730693927731147053e-01 5.026151121386526199e-01 -2.396195874983237939e-01 8.925980177065604426e-01 9.785140268352956472e-01 -8.939081502120587164e-01 2.217626504714764746e-01 6.582054785454773960e-01
6.803620254388018651e-01 -1.894372680192102365e-03 7.338743252678825435e-01 1.322109979526868706e-01 -2.222418501232248378e-01 -1.104952468782371966e-02 9.862618583919191551e-01 -9.897427423571305560e-01
-2.184029506324176584e-01 3.603552123044937439e-01 9.347614056664035331e-01 1.787559628798665035e-01 4.898654783006863855e-01 -4.497277305939895164e-02 -6.212793525534154870e-01 6.221563962952370019e-01
-4.137598759782470381e-01 5.618880788942774984e-01 4.475006472019302795e-01 5.177020584352813870e-01 2.410334399810536432e-01 1.835448589978028178e-01 -2.361777438060030931e-02 -7.568358803597254880e-01
3.681199607593323986e-01 1.221968648010212100e-01 -2.350082643579216590e-01 -9.394263211812075021e-01 3.160456358976102553e-01 -3.684777539850110362e-01 -8.874042892590074949e-01 -2.801339885937981222e-02
8.902955822478400005e-01 1.404907971378381193e+00 1.166391020471397200e+00 8.587714774785348837e-01 1.189393895195872908e+00 1.277984841550376505e+00 1.414720823404892025e+00 7.157463011337803493e-01
