3.185818256933037329e-01 -8.481973295802094359e-01 -2.544100065185181947e-01 -6.395079726418309018e-01 -3.693989688796417425e-03 2.772621570122530965e-01 2.030857982033105191e-01 9.699200414159658834e-02
-8.076684061040912965e-01 7.470645573311034404e-01 -5.148036544009348958e-01 5.985201537517053083e-01 -6.547839128824350929e-02 9.256344443558932600e-01 7.228302051206987322e-01 3.061442180367737187e-01
6.783886305798336736e-02 6.330945189269907569e-01 -9.919034787738107983e-01 -3.206941128757188064e-01 -9.537394897850630660e-01 -8.521670170467325889e-01 -6.277666033711826188e-02 -8.980742891243416182e-01
8.997015220265460744e-01 2.601870267072090570e-01 -5.711299291608653572e-01 5.779137589994811641e-01 -7.018744173144835230e-01 -2.775457604726363492e-01 -7.549151999616134923e-01 9.239568317703399369e-01
7.407795644452945805e-01 2.569076435901063160e-01 2.826440504250546937e-01 -5.015691178967407460e-02 5.444256376012615029e-01 8.257131653491254220e-01 9.310154681138644861e-01 9.996296362349759157e-01
6.552188216641536833e-01 -5.801653147260446008e-01 4.164056672924534297e-01 1.988558784092775422e-01 7.009938444182273187e-01 -4.685676682771680035e-01 8.432077690900658951e-01 -7.522992864042032934e-01
-3.410550689705513783e-01 5.548536916379753769e-02 -4.921934899129825070e-01 1.944115476580332569e-02 -2.594226079198225232e-01 1.428795179195065934e-01 5.095298920196951187e-01 -7.823068349078086126e-01
-1.898892174523618692e-01 4.872782894911964480e-01 9.677734265988167106e-01 2.986030516365736354e-01 -2.657237525844426962e-01 -5.942028508416323795e-01 4.417784025120787827e-01 -8.459845820741684896e-01
-5.430452121761679685e-01 7.137829637791657245e-01 5.389660384832832829e-01 7.352466666175472287e-01 -7.603794857937620222e-01 -6.877062439911481029e-01 6.869806634686368429e-01 9.314087684022378522e-01
1.139723816391177369e+00 5.158948720086762307e-01 7.277182560984828408e-01 1.183785571967528538e+00 6.180783004658088053e-01 1.393106273993033106e+00 5.464324688992134860e-01 6.624121185866830297e-01
