-1.856927066114844038e-02 -9.918747533490912538e-02 1.734558880422101268e-01 5.445894044572785475e-01 3.454104657677370405e-02 -5.964313165575887421e-01 6.985185869379109125e-01 3.998548386515223818e-01
5.527346684182903314e-01 7.613840924530503873e-01 4.983293260368055755e-01 -6.691104119232906822e-01 -7.750383618938117003e-01 1.865235726139151673e-01 9.900119321571747566e-01 -5.024164574738998468e-02
7.053291696952848078e-01 -3.388270321848025901e-01 -8.646505209219585986e-01 5.705325159493179754e-01 -9.755993085575198620e-01 9.233678472915296531e-02 -7.729692226543243283e-01 6.420228420500058153e-01
-8.597725387237125094e-01 7.345091630237348124e-01 -5.968562158643011539e-01 9.281410103780696197e-02 7.051054073739719819e-01 -5.922125519551062478e-01 -1.197487194157271784e-01 -9.709369727332839428e-01
-7.928899748446971429e-02 7.056620762705951844e-01 -1.075912687859363892e-01 9.023332223653934836e-01 5.700191768432676387e-01 -7.335547703362101934e-01 8.982207747878656612e-02 -9.027229125364089057e-02
-4.402729180308502244e-01 3.129623614505545603e-01 -7.628313797786867578e-01 -2.221627393626652847e-01 -6.577724739437789125e-01 2.707243202178135633e-01 9.036307646587988796e-01 9.099862129450553283e-01
3.638666547516895555e-01 -7.975263239293166606e-01 -1.286558229825558453e-01 -6.953605919288314841e-01 7.187898600864104370e-01 6.019301300321489023e-01 2.091762949433411123e-01 -4.284829575562110193e-01
-5.171543358586347949e-01 -3.924494042098025659e-01 7.066672000154501365e-01 7.093914061168875573e-01 -7.771836804436220714e-01 -7.837460343697753018e-01 6.586698954074148293e-01 -9.715101293190984144e-01
5.587852428024058238e-01 3.389995635251046302e-01 7.933746223945379317e-01 5.583943678410134837e-01 6.781742576892029195e-01 -3.625079448535817317e-01 -1.180958082576171186e-01 7.336363680663371412e-03
7.730469071503802692e-01 5.364416832721840001e-01 1.276393556930908169e+00 6.836085607810430398e-01 9.577637671666282548e-01 1.319767476712141452e+00 7.778149508005566259e-01 1.080619752529394795e+00
