9.827177562883753215e-01 -6.108835503403138301e-01 -4.447015188763496774e-01 -8.028335434095392742e-01 -4.362477958355308605e-01 -8.748914037361481544e-01 3.519264808021733693e-01 -7.783679500231024395e-01
2.620380335324266063e-01 -3.827612609375001806e-01 -7.823755710155899656e-01 -2.775664024506918626e-01 -7.257031286068211795e-01 -8.597288579216453286e-01 3.511589033357147560e-01 4.458640959734834208e-01
-1.446057951826373866e-01 -3.539352992944064802e-01 -7.540123441061785670e-02 -6.460972911150879572e-01 8.246945322803116429e-01 2.069199382769795204e-01 1.939465126040507137e-02 -8.555101392497204138e-01
-2.511078698081050664e-01 -5.290944101660755017e-01 5.857923317221347403e-02 1.682558774047560046e-01 8.987509042175958474e-01 -2.710940432212198825e-01 -6.315432592377769883e-01 -4.889056107983791311e-01
9.848718194105430257e-01 7.295359720997649511e-01 -4.981521161091726491e-01 2.702240660858645782e-02 4.409668555729648887e-01 -5.334820199896479487e-01 4.002407620957717516e-01 -3.918731450636590008e-01
7.082466646852754177e-01 -5.503338975618494722e-01 -6.091090772124503339e-01 -1.364001485985311124e-01 -9.606262401541345586e-01 5.832189659015913907e-01 -4.407191645509673794e-01 5.498128915488100787e-01
2.375672548577716370e-01 -2.773703145021901850e-01 -8.521651496549198512e-01 9.232155381961191232e-01 9.768102568929730722e-01 2.056155370192460641e-01 8.806782918950193384e-01 -8.641264142596951636e-01
-1.958590430832662932e-02 7.904938123534501759e-01 -4.082741487064229791e-01 5.998231822729158669e-01 -7.352599189494304355e-01 2.000527707275423506e-01 -4.289536517827252649e-01 9.403148415531568105e-01
5.931083043835008173e-01 6.541415624903077486e-01 -1.140360826005326622e-02 4.953859725218490162e-02 6.387750942708585455e-01 -2.281079049146614857e-01 8.947252594053221042e-01 -3.895769649258811196e-01
1.117678421615513118e+00 1.451090532863601235e+00 1.424459261475518712e+00 1.360272085357600469e+00 1.464777182255336374e+00 6.121121445087347457e-01 7.173442765426408796e-01 7.902613283200696781e-01
