-7.852359598737437274e-01 1.920886219986877030e-01 -3.311152533425096856e-01 4.450264867270707914e-01 -7.507216985271119025e-01 5.859296125127835264e-01 -9.756345950739611084e-01 8.064351147022135180e-01
1.525436138717513046e-01 -1.134467176184277282e-01 -5.748932656844236710e-01 -7.012371860451842576e-01 -2.721583389746087267e-01 -7.836355872477189788e-01 -8.441741815717980213e-01 4.518317748403253287e-01
-2.017368848048053387e-01 -4.215876868162375946e-01 7.519921322614353532e-01 1.734197119730407355e-01 -3.511941228003032656e-01 3.400278878438156571e-01 -4.676036397643534848e-02 -4.082954267963325723e-01
-3.143995388123381751e-01 1.026507342463989225e-02 -6.713832932296255329e-01 3.080925209474214554e-01 -5.157097885824037942e-01 3.028642603611682027e-01 4.253152312995944762e-02 -8.499870839350585072e-01
-2.330788617226537962e-01 2.440083486907020927e-01 -6.064789968771659989e-01 -6.160035965848646988e-01 -1.971376376152835785e-01 9.750564639489098795e-01 -3.679655491063948958e-01 -5.912675270047769160e-01
3.373905692784489041e-01 -9.621574756719575294e-01 -9.777932553189729870e-01 3.553930872517270245e-01 -6.377661717081761772e-01 5.728304065350626750e-01 -1.251649704351456283e-01 8.234400229954674799e-02
2.087718199247237116e-01 -4.231716678158718992e-01 3.759138554280108124e-01 -5.481073039091788335e-01 -6.859588409437675782e-01 -8.637851777141005716e-01 2.147165168981957084e-01 1.379814911895416163e-01
7.256187251459769172e-01 -7.020544608830090461e-01 -5.225610639963629289e-02 3.211395742335594328e-01 -6.129369567749030079e-01 -3.201689882424196831e-02 9.654648208699894152e-01 4.138684277404243161e-01
-9.140702160687532718e-01 -8.672901426323296192e-01 3.899701423624881702e-01 -8.020889354782803071e-01 -3.542950188426208236e-01 -9.692604564489286645e-01 -9.184680952688457634e-01 -5.334358305054291982e-01
1.265647331063561865e+00 5.997597734427578819e-01 1.310048801045983424e+00 1.097019580868521915e+00 1.217499326298705054e+00 1.066127535722245279e+00 7.722547710651743724e-01 1.385587583228241160e+00
