5.678935593025598028e-01 -7.287475882714691267e-01 9.831320134804426569e-01 2.583284864727384278e-01 -4.141306536819182593e-01 5.679569153223908984e-01 -6.513751239428056117e-01 -2.778296679080531906e-01
-7.951199096803229782e-01 -6.155925061072309301e-01 -6.092088086830742544e-01 -1.116247757630064452e-01 -7.223154540314491445e-01 9.852912589584816860e-01 3.582819368877487864e-01 2.031625659833853348e-01
3.165770639779403872e-01 -3.253270325089241410e-01 -4.768599216095203985e-02 -3.930009348355352206e-01 -5.698332008690427664e-01 -3.503448570675495866e-01 -8.196009828289390065e-01 1.865006628692185142e-01
-7.824442360679908504e-01 9.441567049639876252e-02 -2.268554058683747154e-01 -3.941488369068466557e-01 -1.515075513796908524e-01 3.005543713048983712e-01 7.251706392427346159e-01 -5.811385122182106677e-01
9.612936245842627070e-01 2.243320390043490598e-02 -5.766835743313323270e-01 -3.616442917152093983e-01 7.826811218153650884e-02 -2.252291753901380922e-02 5.903242853576606830e-01 5.534579387070277523e-01
-9.338867194075770595e-01 -5.251315683300112891e-01 -1.559219576714838684e-01 -8.938629999116238789e-01 3.050780667711261440e-01 8.645523455822310410e-01 -8.408973254272253950e-01 6.698937114359555522e-01
-8.003594190958855936e-01 -1.328825326560720832e-01 -3.876416508477658063e-01 -5.696098579250310490e-01 -5.975476948693070334e-02 -1.893931735739986522e-01 8.721578168434507283e-02 7.013397929470415182e-01
-4.790166143394252174e-01 -5.567703328996593815e-01 -9.305329152172385765e-01 2.876519013686329451e-01 -3.167768762890308398e-01 -1.258333208416377857e-01 -4.597830383501071427e-01 -3.287614209118128183e-01
-1.521655982818514996e-01 9.203802129664049314e-01 5.705102897506273418e-01 -1.646526951713587206e-01 -4.221555987046643477e-01 2.384363685497590257e-01 5.810239711412077401e-01 -3.957978470249428060e-01
1.321268004581467537e+00 9.478096220775709124e-01 1.110583161513264194e+00 7.727018526738843596e-01 7.402489824941346219e-01 1.414492478993284674e+00 7.183728463891640992e-01 1.316857755193129087e+00
