-9.932639281643391715e-01 -8.864110864777523524e-01 6.967648137702824318e-01 -1.153733363720153005e-01 3.534928195758462177e-01 -9.911697116640501015e-01 6.762813214723317756e-02 -5.262492145219312967e-01
4.076933195195902027e-01 8.619965761125913950e-01 -7.712829356197596908e-01 1.546282648739152332e-01 3.586765220009462407e-01 8.260348860818573780e-01 -9.895506353103169506e-01 -8.470756855013381603e-01
2.344953832079486045e-01 -2.902676730564013319e-02 6.020572016105314450e-01 8.705068018654347206e-01 -7.050403557982396485e-01 7.915971855316823458e-01 -5.327226092050358908e-01 5.728380002657731396e-01
-2.542500052924168141e-01 -6.401368954268662481e-01 -4.409585876596131548e-01 -6.258558966745544350e-01 -5.413172829503021255e-01 -9.375412703439542916e-01 7.694671898601452842e-01 -8.884954836081246921e-01
-4.505196859444944302e-01 -3.315825903310278822e-01 8.229160193186115801e-01 -7.176044777366552552e-03 9.063479345841713997e-01 4.582083563602794563e-01 -8.535207012915511093e-01 3.919250818519501856e-01
1.231828545242517059e-01 7.589010426615507843e-01 -1.290787631446668193e-01 -6.090185232824141259e-02 -5.914399953293243417e-01 6.555009635341204621e-01 8.316347425956733819e-01 7.765125674969726166e-01
-8.805320501456259663e-02 1.212719035548486257e-01 4.160892762187777816e-01 2.075803372157349891e-01 -8.752723587117721138e-01 -2.272032045931422495e-01 -1.589375788517521926e-01 3.896711115347681886e-01
-7.390762384567928223e-03 -4.146300047625528507e-01 8.753062597076155527e-01 -5.605717620383199318e-02 7.745599920081809309e-01 -7.109090413818452969e-01 -5.078327605599721739e-01 1.678905585015622037e-01
-4.893152557149673676e-01 3.762219301541995797e-01 -1.950431238400169853e-01 -5.103705581355488796e-01 6.571240552198776008e-01 -5.735272948927609971e-01 6.946387489438612395e-01 9.100022505247078453e-01
7.217506216875200220e-01 6.804244096011193843e-01 9.743265288257684231e-01 6.771149451513629458e-01 9.961980637621914436e-01 1.332528901904457275e+00 8.094388549349820217e-01 8.452487483733491791e-01
