6.114919455747154231e-01 -9.946386191447853520e-02 5.252983660942744937e-01 -8.542719901408031280e-01 9.901457188290661016e-01 6.804307270383960216e-01 2.321908095010105644e-01 -3.481236231958146909e-01
4.710034051496725382e-02 -5.245424673508480851e-02 4.548119631923766004e-01 4.602825667015997269e-01 -6.045009080235776988e-01 1.285480292881433506e-01 -2.966667075544524579e-01 -8.162252967721939090e-01
-2.096665702713438328e-01 8.142507838938128906e-02 6.199405544299358972e-01 -9.356049074372307928e-02 -7.929236453709311849e-01 -8.849142029215040228e-01 -3.114120578314505394e-03 -3.064868826703615046e-01
-5.205067102872251716e-01 -9.155214561739206669e-01 -1.516528103527561289e-01 9.569698097740411136e-01 -6.682398955824198072e-01 -8.533140867045005962e-01 5.023149816021745817e-01 8.485068636389687668e-01
-2.487359631529175719e-01 1.970441312557851266e-01 -3.357708627245556965e-01 -2.698981685322903168e-01 -5.887983361972066731e-01 -9.199733044695801443e-01 3.004766703909398373e-01 -6.245203234524863145e-01
-2.791703011098942699e-01 9.484874754484100556e-01 6.649563011766488341e-01 -4.779068500817778009e-01 -5.339946187743491723e-01 1.953765154443320995e-02 -4.832132389585410692e-01 -5.667130349896745134e-01
1.147641472697620291e-01 -8.348746230565040616e-01 3.797783697239776046e-01 -5.411793373533955176e-01 -6.148848433173241812e-01 5.066198935821291105e-01 2.496423166285692830e-01 3.459586857090177769e-01
-1.471320719626898477e-01 3.806311044377961306e-01 -9.315492246428138667e-01 -5.701157547107766899e-01 -5.908162928453741802e-01 3.888956361480726542e-01 -6.490929408377212884e-01 -9.642312098828120792e-01
-3.025231006645354714e-01 3.496659741226795237e-01 8.015922976836797886e-02 6.904359238614006244e-01 -5.536554209813071559e-02 -8.074225430829142791e-01 -4.070361691019135364e-01 -6.185502852125626116e-01
5.696061199937899611e-01 9.590362729510218953e-01 1.179598511080038659e+00 8.078666967144685351e-01 7.095072605996732840e-01 7.888336908090448629e-01 5.368478866090878876e-01 1.325983373693395695e+00
