-4.429714600163348059e-02 -2.707005260330923591e-01 -4.250782621590574184e-01 -2.439446877541120440e-01 -4.667185338900370351e-01 2.251477255959033474e-01 7.261833245524793590e-01 5.732102573308228699e-01
-9.257460957271379520e-01 1.912647274228895800e-01 -8.960908624431342950e-01 7.408289930907998588e-01 -4.092568413943349359e-01 5.832060194314085955e-01 -6.293164148624950105e-01 -4.866154005054634801e-02
5.524559125793397918e-01 -9.299505624533954684e-01 -7.067397180418066860e-02 -9.859133251272473863e-01 8.693366597167626608e-01 -2.274837206631641351e-01 4.679864473064065944e-01 -9.632855991684485808e-02
-3.608868941517995310e-02 9.918930161666963397e-01 -3.330376700580031102e-01 -8.908338829047719454e-01 -4.129279949346826850e-01 3.943521545022443675e-02 5.370644599296658939e-01 -5.109250365583175579e-01
-7.942116284818923067e-01 -7.836905355172327781e-01 7.737969922099445785e-01 2.621172872844372836e-01 -8.351737621338000128e-01 -3.412568163027565049e-01 -1.795027159112878579e-01 -7.864832533548531401e-01
-1.658808614966771344e-01 -7.846091076527708097e-01 5.223877632493347800e-01 3.167559376461777099e-01 6.842141806424808514e-01 -6.292380284091536602e-02 -2.068139032153961665e-01 -9.769538590096948916e-01
1.316886213728598598e-01 -2.266240765777363109e-01 8.857613030451680913e-01 6.835696796278896148e-01 7.233008183699873861e-01 2.087652374375625897e-01 1.991894551559580950e-01 -3.610028535612055389e-01
-9.946122849412375455e-01 -6.976235807393185162e-01 1.084147708092677576e-01 2.143315128858618301e-01 -2.574411686249433728e-01 -9.164649582273605155e-01 -2.323610882202575834e-01 -3.277487452785416977e-01
3.381657823519808037e-01 -7.058867522134286698e-01 8.090606786440037723e-01 8.253965661473765536e-01 6.924273078439746598e-02 -2.270797058830849036e-01 -6.339328955494538675e-01 6.035665149516362682e-01
9.500673851032659378e-01 5.914480233248802232e-01 9.304270842768169736e-01 7.693767900404369087e-01 9.423978218796604800e-01 8.020002509293157056e-01 1.051953338007584726e+00 1.030017673370926534e+00
