-1.676882609290555326e-01 -7.493940422405007684e-01 8.690163033778635082e-01 -9.221015903619205201e-01 2.399732573027135718e-01 6.769144212136639638e-01 4.319029322260781178e-01 -9.658770885475833623e-01
-6.429569847963756413e-01 6.527110392983697107e-01 8.205107530585264985e-01 9.846376559700205089e-01 9.103644102796937254e-01 9.718411801898179103e-01 7.974556186775203503e-01 -3.669468947099652212e-02
-8.958345778461849207e-01 -3.004369353702929235e-01 6.423574110224774536e-01 -9.783575517198945803e-01 1.187118849011086219e-01 4.278874158150391960e-01 6.846831598492566506e-01 6.403135777383364147e-01
-8.564907130727090756e-01 4.979481800037435235e-01 6.285100484147994049e-01 7.231284693969264321e-01 3.588338767523264750e-01 -4.435924124838084293e-01 9.023910626590194717e-01 3.504797780824895348e-01
-1.437458754527523030e-01 -9.550788538072327860e-01 4.850794230747816904e-01 7.362268346716553946e-01 -5.333257374114823701e-01 -2.076147393630267679e-02 -5.476121529476092320e-01 3.341544257663244810e-01
-7.410329327652183107e-01 -5.140464485115854298e-01 6.835759144989406177e-01 6.715004904492074544e-01 9.355725198402451426e-01 1.777936875336225686e-01 -3.089770267085265587e-01 3.524649740507037610e-01
1.781901225367090724e-01 -6.037658848483407059e-01 -4.019827725041780209e-01 -1.077109689668422909e-01 -3.561010760391039032e-01 -2.230865856742303421e-01 6.506816911808033232e-01 9.581108694129290004e-01
-5.963252157585914315e-01 -8.020236326269911675e-01 -6.203687833074729152e-01 4.682907562540419288e-01 3.590913027928999135e-02 4.962911898722202064e-01 -1.322818131344618564e-01 4.036118127923038479e-02
-7.344671198185868111e-01 -3.543834498798328347e-01 -1.712636542000889328e-02 4.683348556506139460e-02 -3.809499841118355601e-01 8.732624345214416994e-01 -1.195160485692081664e-02 -6.448796564169103629e-01
5.220558598411251250e-01 1.246929398989131244e+00 5.528964531127711357e-01 1.390589968529687193e+00 1.133473986547354428e+00 5.824948177753072054e-01 1.047478226039697535e+00 8.326946193714852562e-01
