8.019019392928332657e-01 -5.241540647583242674e-01 -2.338489570265378514e-01 2.044631240640777392e-01 6.222697413742803718e-01 -1.977298980424919694e-01 6.659224288154019789e-02 2.297320414710191105e-01
4.809876551025511482e-01 -7.245126750754440348e-01 -8.922383462766938500e-01 3.267241224247285913e-01 9.756204513259463251e-01 -1.341955163915471427e-01 5.277894341353728258e-02 -2.847695368627762846e-01
-3.696481016705557288e-01 -4.598173852079328050e-01 6.348039424938276554e-01 -9.554918978137427743e-01 6.263875833669525495e-01 -8.668654559921573632e-01 -2.693638100429518456e-01 -5.374305544620399111e-01
-3.355302285413124252e-01 5.442766129460114843e-01 1.298198048589298548e-01 -7.632559715633981945e-01 2.205343636120187245e-01 -7.106894501731493285e-01 1.324380840433851958e-01 -8.350504163212904007e-01
-1.278269931160904704e-01 9.780613884138209535e-01 -2.490949917833393812e-01 9.287622407673423730e-01 2.254451101503409660e-01 9.914617994216143870e-01 5.830791409271165460e-01 -4.755600546149536534e-01
5.441100527766153938e-01 4.058625488416522931e-01 9.359603659850133095e-01 1.171201742436198678e-01 8.226535904651566256e-02 6.868593008927401655e-01 9.268215980394811648e-01 -7.979774655266800298e-01
3.334293737814257863e-01 -6.215787493480366965e-01 2.701039010531101070e-01 -5.959730769847593201e-01 -2.254609578282698035e-01 7.716922872256750665e-01 8.729422992829576344e-01 2.406630819041124525e-01
-4.135146187584879396e-01 -5.059323087633749161e-02 -6.009847085783570630e-01 -7.431393126167551433e-01 4.364323949870789754e-01 -3.050604665754699241e-01 4.888128532863040832e-01 -7.026916679185395420e-01
5.557840718820368231e-01 -1.333693105442788074e-01 3.246411700816387302e-02 1.038332848901226679e-01 -3.899698586466271433e-01 -7.850499627770712863e-01 9.779765503932749127e-01 -7.701864622986316355e-01
1.108878065934975954e+00 7.218570490689873997e-01 5.186465634224828314e-01 1.192089988292182934e+00 1.013511269916932633e+00 1.337465252920753134e+00 1.173870219859674879e+00 8.599125257924312704e-01
