2.717913768193627178e-01 -7.049280865430052057e-01 9.291366597975352359e-01 2.066936322157504335e-01 9.118313051496360622e-01 -1.064894193666821032e-01 9.730040445886365408e-01 -4.603547290536200709e-01
4.369824601506708817e-01 -4.480377111276350188e-01 -2.521886288251697916e-01 -2.079323730297477635e-01 -2.718052424275365642e-01 8.342624463221091080e-01 1.460679625895149325e-01 -9.853384106196065861e-01
-8.345778458023458413e-01 -2.331966891501526806e-01 -6.572050986443371823e-01 -3.499184818485836512e-01 -4.295457512757769880e-01 1.771182474499044535e-01 -2.968970121766350001e-01 6.043279729177175597e-01
-4.008694359290172482e-01 3.720416432679192198e-01 1.491567404224660720e-01 -2.018145714575574345e-01 -7.025254546481440876e-01 7.902593748770008197e-01 8.423647634832276410e-02 -6.945440525927908393e-01
2.207363004721756283e-01 -2.605989707021612034e-01 1.602364813743466510e-01 4.087820102589900806e-01 3.415746558689307655e-01 -6.693323539237046038e-01 1.526598195801032176e-02 -3.887884315173713023e-01
-1.631464684543524335e-01 8.959183875764256122e-01 -5.999402629648356022e-01 -2.220510692138244480e-03 8.651479168426925437e-01 7.225721795438233563e-02 -7.703496812674088812e-01 4.426598533964902771e-01
-4.573964813296771403e-01 3.501219610032269003e-01 -4.615636933898423777e-01 2.697971151930107503e-01 -6.711898525861974552e-01 7.104726632284876775e-01 -3.258634279062928574e-01 -2.568233698954216493e-01
5.430565733873964351e-01 6.324009258186809035e-01 -6.958944718841819643e-02 7.431692564756109398e-02 8.252993373711348113e-01 -4.633720678711741314e-01 6.281619545266585725e-01 -6.856246644922223688e-01
3.084484910940381575e-01 9.010248580000388419e-01 1.507589108301043979e-01 8.053822221098658751e-01 -5.650548938333279647e-01 -6.604164088173503089e-01 1.145518236768769960e-01 -7.452335905731191090e-01
8.773184862606177026e-01 1.405147029306848871e+00 1.159288466392216055e+00 1.290428880616596663e+00 5.721748188016472225e-01 1.281175118303276683e+00 8.517232085320350921e-01 1.308379701011973761e+00
