-5.225862922758544027e-01 9.219917623437325904e-01 9.209462069581204613e-01 2.793925677367585791e-01 7.773051867473093068e-01 8.925947605795783169e-01 7.648273833318424142e-01 9.618143498191378260e-01
9.878235177940384304e-01 4.839178311302292368e-01 -4.546252490885711595e-01 -9.692541127332843232e-01 -7.649759610967643564e-01 8.102704776710036860e-01 -1.790260781576880067e-01 -2.510748311093264906e-01
-6.145670620216385771e-01 9.836244261648110498e-01 5.184268349740013271e-01 3.479338731464132195e-02 7.563871085791404880e-01 3.304955392976727246e-01 6.067085952169688490e-01 9.229975941894286162e-01
-4.769488024760157874e-01 -8.531110275728273074e-01 3.200745860500946449e-01 -6.175760446620708333e-01 7.609987739175076982e-01 -6.782386165868079519e-01 9.549006452603996387e-01 -9.098854535214897510e-01
-5.530351141593370379e-01 -8.524413925284897164e-01 8.364662652898107176e-01 -5.192955630951747725e-01 5.499558704909357498e-01 5.138777726024463810e-01 -2.342779168191544414e-02 -4.553077081906813373e-01
7.388954814859021170e-01 7.075507161582657023e-01 -6.411861764358139926e-01 8.632355712605919162e-01 1.561306324252096367e-01 -5.651831078560680677e-01 -3.914683098788160898e-01 -5.014323723097244834e-01
-6.506543692016466540e-01 -1.602159108131218090e-02 2.328502945238812849e-01 6.997030685145566586e-02 -3.322804761919151417e-03 9.090811966144496381e-01 6.619212685509503480e-01 -2.087000938012890661e-01
-1.071076881169423789e-01 2.181770608946935752e-01 9.305038924626387598e-01 -4.826498693709591059e-02 -1.217714216158514162e-01 8.789385867665446828e-01 1.489892524848306365e-01 -1.603644291699268809e-01
5.006029731387025006e-01 9.112564247725942757e-01 -1.648705388049689358e-01 -9.979730061229781235e-01 5.884371494672819836e-01 -7.615710622406939301e-01 -8.690937635398847672e-01 2.997250721463473599e-01
1.280012381784558562e+00 8.441285296272845740e-01 8.975184999850144285e-01 9.485810202025350968e-01 1.193258709069933587e+00 1.418940650612537269e+00 9.050563296593202578e-01 9.513774851144919387e-01
