-5.191489901777035509e-01 2.953463485242857622e-02 5.282768040001195597e-01 -8.562101035615199418e-01 8.177394432167552907e-01 4.919303171312168210e-01 7.955338064765227202e-02 5.198333962658436835e-01
-4.444333204081027944e-01 -8.713139960515370319e-02 -3.673582313180479009e-01 -4.730215580362244765e-01 -7.441518288008408533e-02 4.454987769397966701e-02 -5.540407907819264732e-01 6.364796119421021192e-01
-8.394242391692130489e-01 7.796851236225863513e-01 1.143800638427632244e-01 -8.921256263149841548e-01 6.073696714736331881e-01 -7.016909103932800207e-01 1.860523816068422320e-01 2.462926941827032756e-01
5.653933664080093013e-01 5.493241199279810250e-01 -7.579137467058125743e-01 3.388470907675178445e-01 -9.592264836874009326e-01 6.690489809706283708e-01 3.252789190947349418e-01 2.970104777851600986e-01
-2.535352390562701785e-01 8.477894537402785868e-01 -2.173891632750992731e-01 4.731953228144996082e-01 4.674072130243929202e-01 -9.851587796723604296e-01 7.572865869398710537e-01 2.784542111457113389e-01
-7.106540026500636209e-01 -3.513986644083926247e-01 -3.508688569641271737e-01 1.465414666123570075e-01 5.697329459005711083e-01 3.343830122302946517e-01 -4.527807372769740990e-01 -4.505955776255925471e-01
-5.258204422549155321e-01 8.758505468291843954e-02 -5.877122133333230192e-01 4.719862791985360850e-01 8.826126145286561364e-01 -4.592244590421654671e-01 6.571409765722253660e-01 3.813233834361431374e-01
-3.974506188637247917e-01 -8.109323769975531615e-01 -3.199750243318064680e-01 -5.760620395239388625e-01 -6.850597402111362477e-01 -9.605147943507463815e-02 2.132746921907384685e-01 -5.844851041321834639e-01
4.838730501847641197e-01 2.723829207132200114e-01 -9.547200149259742474e-01 -8.933673251225209277e-01 -6.935006135303589669e-01 9.027219806914372757e-01 6.190608301536517644e-01 4.344088406704460503e-02
1.179811884054179805e+00 8.727329522307808451e-01 1.064935347974055091e+00 1.030365764070989565e+00 1.083083870597453036e+00 1.327420542620307842e+00 9.044318553152057572e-01 1.360900418180429394e+00
