-6.258529995893680198e-01 -5.063740637305831349e-01 1.196669350802070930e-02 8.433737605564253226e-01 2.207313370262289354e-01 3.185211828637763976e-01 3.768929387306307888e-02 6.994449211830946478e-01
-2.199097001119709738e-02 1.649676154114245730e-01 -6.840341526236497494e-01 -6.226087092694128078e-01 -7.100331155984009879e-01 -7.861386448825915529e-01 -3.155133740492639394e-01 -5.910914864984275763e-01
-2.532429316440132361e-01 -7.153610289284240142e-01 5.503567226486061337e-02 1.745221801591139155e-01 9.709094276406406987e-01 8.352304617027934697e-01 -9.338819491191705513e-01 1.556539065637845276e-01
6.674789766387436707e-01 3.642773205550151605e-01 3.131001685127861034e-01 -6.166981009472420894e-01 -7.539829074775068474e-01 -6.253028359555474758e-01 8.414509101330198693e-01 -4.519923712084163991e-01
1.582322854923612354e-02 -3.089972371630618220e-01 4.688236012469166880e-01 -1.658540754293893471e-01 -5.857427103780910027e-01 9.983343454600279721e-02 2.688907702747054262e-01 -5.875596077281688423e-01
8.853386458242866741e-01 -3.438346127952351949e-02 -5.213192176046494986e-01 9.451033937596164947e-01 3.963978244272061691e-01 9.235439735969661612e-01 2.682361819595273644e-01 5.665208009227817865e-01
1.076893822281461688e-01 -8.418337461323008863e-01 9.729516546010086309e-02 -4.299323098860750036e-01 5.727055178486717413e-01 -2.172193954229464374e-01 -5.586753473671322023e-01 -9.894440037044645031e-01
-4.418350384254745578e-01 8.579864724981873803e-01 -6.483118307604482933e-01 -2.493624664856872730e-01 -8.774734886148509716e-01 -6.437764165313055731e-01 -9.258299188050140849e-01 -6.052674822335299964e-01
-6.782981829363112780e-01 1.804403049246809942e-01 -6.401851086176459926e-01 -9.560256426560678200e-01 -9.300390846317381222e-01 -2.870345461386616392e-01 2.844716851812463254e-01 -6.483249055312967357e-01
6.818686396047907161e-01 1.389929036344566216e+00 1.246985992846226576e+00 8.171244462059366054e-01 1.014629441108121810e+00 6.742312454649264097e-01 9.121116426045369208e-01 1.029765623082688375e+00
