9.182520972649506064e-01 -8.739107185458827587e-01 -2.811407562842294094e-01 4.169611985209256133e-01 -3.359102809726151051e-01 -9.611705937132597466e-01 -7.817989346703442255e-01 9.277421255441538062e-01
6.254392471934526743e-01 4.665751708986243251e-02 7.439505682255604935e-01 -6.886003998036640539e-01 4.315878687833429872e-02 -8.271965554661113718e-01 -4.583658142580473438e-01 4.082316709343305483e-01
4.097563138127631177e-01 9.649524952305570391e-01 -1.134730296671679906e-01 -3.771603135324774758e-01 9.259533681464366950e-01 1.242528600187733367e-01 -7.661964064422288612e-01 1.452578717540708997e-01
4.181656971436591430e-01 -5.040779797366823356e-01 7.531373832076937447e-01 -9.236071603080648895e-01 3.248854950122836982e-03 8.483402242364188606e-01 6.418311449742222230e-01 -9.456750656143075862e-01
1.847185168073635086e-01 5.192406261660356126e-01 3.757604583490019579e-01 -9.494538747412579749e-01 -1.141615787070193733e-02 -8.465849878666635853e-01 -2.906062910187845461e-01 -2.511891295504533606e-01
6.038720611680810091e-01 7.901163352890197000e-01 -2.787853084774161161e-02 -4.579067593411134673e-02 -9.286410608085990948e-01 -6.849016063048329883e-03 -1.922837392734340067e-01 3.940110262760201376e-01
2.267532852982379055e-01 -8.662451224049729781e-01 -4.073547984560541568e-01 8.618663943305451269e-01 -1.229807259359287919e-01 -4.863584216435572483e-01 -3.145675980682995920e-01 -4.646456670325713745e-01
-8.078673573876067326e-01 -7.273917425761071698e-01 8.285538805998633460e-01 5.503881562990731169e-02 -5.567794339735292475e-01 3.300076878717215223e-01 1.369786862154054319e-03 4.958927019127763458e-01
5.132982690387681846e-01 6.227283799637333139e-01 1.532494696280277680e-01 7.498858711818887635e-01 1.973491418801660569e-01 -2.352296100691211311e-01 7.583923584303831067e-01 2.943565957211509154e-01
1.118595590264617190e+00 7.432213611202619363e-01 9.931897013100458027e-01 1.411961227823681941e+00 1.439782118004343525e+00 9.027445673437255458e-01 9.714726201977523790e-01 8.996019244351899369e-01
