-5.443797048490564006e-01 3.841430145068902569e-01 -3.056779328340195612e-01 4.459292886752794782e-01 6.531772732086915667e-01 1.935373862191938077e-01 2.092206152213555992e-01 -6.559284975621495484e-01
5.111356119864924885e-01 -2.734068697061264874e-01 4.053535522765523424e-01 6.106283413457340714e-01 5.832467436296304708e-01 -6.910858342624941475e-01 -6.664231043646016150e-01 3.344873797459795295e-01
-9.841457552474943693e-01 -1.138145208467817859e-01 1.262011642989324667e-01 2.418652723810306160e-01 1.595608766130429679e-02 -7.721406942837161225e-02 -8.410133358326108421e-01 7.398342617567621460e-01
4.458507995667881918e-01 -2.185740858445188728e-01 -8.775409919676877557e-01 -8.846866600883900311e-01 5.323774198414024106e-01 -4.826398357011332241e-01 -5.775195123929377505e-01 5.156097131226624608e-01
-4.186065894541954879e-01 -4.427227056889628809e-01 -8.379411048812246410e-01 -2.044546087604117712e-01 3.987933893429262966e-01 7.946755949810788699e-01 7.734362949813475829e-01 -2.765844071236527313e-01
-2.104470179387007978e-01 -6.233767014591928834e-01 -2.020129178238239120e-02 8.390513866059197134e-01 4.372261005287620961e-01 6.130345271183568201e-01 -1.117491723746597554e-01 7.533316470386077768e-01
4.117845392107910563e-02 2.196921206076321020e-01 -7.959012103956988327e-01 6.791484935487848151e-01 -3.978928071012182155e-01 8.787512396862704467e-01 7.187286736259941300e-01 1.072976629318753705e-01
4.103134809007917827e-01 9.884094921785817611e-01 5.005904911443082028e-02 8.643704430192264976e-01 7.823923651259365730e-01 -5.382625637150999509e-01 -5.996416978500935802e-01 2.779271381458399137e-01
2.168573875567982867e-01 7.985599790196116210e-01 8.641228378455143577e-01 -4.973495892083126257e-01 1.013677731614996969e-01 4.857610905077724972e-01 -1.645555112185772551e-01 -6.497460875238194600e-01
8.232909551203911880e-01 6.224434169574224462e-01 9.849794073072865030e-01 5.048589654385614578e-01 1.488823904179638724e+00 1.163067784172096442e+00 6.392329956258282486e-01 6.937199924149737296e-01
