2.406089979562027192e-01 5.133324915410375500e-01 5.224359722189908517e-02 -2.239284758819435339e-01 -4.027452674881446537e-01 -5.193891829813224170e-02 -4.369254394894870330e-01 5.127763391799335935e-01
-8.288043511578235822e-02 5.047438535824522177e-02 -9.945504567620200298e-01 9.141578852976688374e-01 6.966998261873322829e-01 -5.525125186049266723e-01 8.358412713041007969e-01 3.669592976733082601e-01
-6.554607588780192451e-02 -6.076223621310647971e-01 2.737351202344358025e-01 -7.236608757290068361e-01 2.697096866189259146e-01 9.051029833762520571e-01 3.253418322675223351e-01 5.613236982360738647e-01
9.202950856438141258e-01 9.507957064747880604e-01 5.435400945449231358e-01 9.279018242436731789e-02 -2.243138409866893834e-01 -8.990852095155132950e-02 6.792360201532594566e-01 7.502250306452797890e-01
7.358904701153023975e-01 9.122594097888618858e-01 -8.052933709914216198e-01 -6.647289788838444125e-01 -1.061358082720957885e-01 2.406463921936863315e-01 -4.335755540357817406e-01 2.861357272588347378e-01
-4.763046741378507143e-01 -5.205717251626482689e-01 3.768033514862838551e-01 -5.218717338206981804e-01 9.057139416991955017e-02 -2.923030317844976800e-01 8.975218328544900537e-01 6.172340472301485192e-01
-8.856897250352364637e-01 -3.114666878341405543e-01 6.518237573591589840e-01 7.855793419836689662e-01 -5.605719253010297276e-01 8.142212817009415460e-01 -3.806986923582420523e-01 1.239587514461493178e-02
7.411045116712600134e-01 -6.288815435040382429e-01 -6.664827415416370027e-01 6.466672937721256176e-01 -4.030545705452937000e-02 5.140493081467190084e-01 -9.477771684791040929e-01 2.670370833522686116e-01
4.891942614391187050e-04 -6.249309390545692011e-01 -3.252275400314756926e-01 -4.329153390252558076e-01 9.245032838557312171e-01 -7.536810391977506463e-01 -2.636528526420809371e-01 8.608101766468740923e-01
1.150770316895100009e+00 1.149943158016178302e+00 8.440172570076581726e-01 5.397772893304182418e-01 1.185588255623913012e+00 9.853298540459149990e-01 1.185228775950583735e+00 1.011838608876344026e+00
