9.637483491101626054e-01 -5.798648928135694547e-01 -7.648349777477359002e-01 -5.429878086223904887e-02 -3.777774977800472112e-01 8.949991060142892252e-01 -2.382231838488035880e-01 7.234157619334664613e-01
-7.358823690247628946e-02 1.141378763092766313e-01 -7.975812467227552105e-01 -5.014931881747992648e-01 -7.245978273110702528e-01 -7.568572256445311730e-01 1.636576228824626611e-03 3.379866722273834334e-01
4.954939379320433268e-02 -2.352565791309442211e-01 1.721653523876962577e-01 9.709707001954612782e-01 3.577677365863860537e-01 -4.505739556097070331e-01 2.218258446045733301e-01 8.387207774930101056e-01
-8.751837201879153483e-02 9.157282658421008747e-01 8.720248062794082600e-01 -1.700176509622486343e-01 -7.306018620359930882e-01 6.825301697436159110e-01 -9.137060833036176888e-01 -8.864021019789294353e-01
-2.697152802420308415e-01 2.112435665492331527e-01 4.985661638834693044e-01 6.325066263420366930e-01 -6.216093585673780897e-01 -9.697079391726219910e-01 3.606056734037568212e-01 4.149925091344499606e-01
8.956942610591198672e-01 4.350420899781928252e-01 9.536926446433307003e-01 8.134461304850031382e-01 9.765165237304123114e-01 1.616564585884492367e-01 6.544060237706497141e-01 -3.399784637284837263e-01
1.932782010086935287e-01 7.002192965392395330e-01 2.065499134024177952e-01 5.287042910195602907e-01 3.315491172946172238e-01 -5.233308275912933460e-01 9.093521377512914228e-02 -9.061921845615394933e-01
-5.441607211462939908e-02 5.693754753622919385e-01 -8.679401540102051893e-01 -7.127959651118458417e-01 -6.052274470762395442e-01 5.207459325631125235e-01 7.067443410816673932e-01 -9.912313960801870660e-01
6.664310982158998531e-01 -5.692899426510891203e-01 -3.209336599620635777e-01 -9.943981813664592995e-01 -4.502387308517885600e-02 -7.524960139638396939e-01 -4.545775523637529680e-01 -2.904558273635555743e-01
1.332860983477074157e+00 1.430592350642453603e+00 8.131635655202500423e-01 1.476805992900472209e+00 8.918148241037531232e-01 8.794944213114037623e-01 6.424924314236416523e-01 1.418367323587757856e+00
