7.467148175664077847e-01 2.905786814019708508e-01 1.039276099162618205e-01 -2.396837855146336516e-01 -5.174680841481205107e-03 -1.024638923440448490e-01 3.079222781541774978e-01 -5.189536891981028077e-02
7.533817105791194013e-01 -5.894876136561333357e-01 7.896633606029379582e-01 -9.580542192258532097e-01 -7.293235221204497076e-01 9.884804894333543146e-02 -5.837110709264337061e-01 -7.192331971706258376e-01
9.524357690654479125e-01 3.430257274764838549e-01 9.866981105219647663e-01 6.190204676709276654e-03 3.450232343408012881e-01 2.558609059748031545e-01 7.207239696544154306e-02 5.545551417175178521e-01
-6.135581155144289589e-01 -3.326672266433883252e-02 -7.555114413956272035e-01 -8.570670122655876799e-01 -7.904047197741215225e-01 6.905836448924846938e-01 5.951778712244990555e-01 4.135342240716035622e-01
-3.896451729453722646e-01 -5.624414441587139990e-01 3.708950454400743446e-01 -1.729931401048976358e-01 8.257589031640626409e-01 -2.346384439225996932e-01 1.702174569795751324e-01 1.452548997477829396e-01
1.100996685648707452e-01 -3.829781986869911226e-01 -2.675231188456994591e-01 -5.958730723498728565e-04 8.304609067032333591e-01 9.290726606545325339e-01 9.582092591616346855e-01 -4.919345832776418348e-01
-1.132435838969982900e-01 -6.455329482703244803e-01 -2.060261504060034721e-01 1.161038507120861762e-01 7.461138845444919010e-01 3.721580135017361624e-01 -7.720396768427739698e-01 -5.189731164501465432e-01
-7.068617582345884109e-01 -6.995838304996329082e-01 5.537985789251040902e-01 4.028668266354646921e-01 -9.012544336937009515e-01 -5.869862620459462832e-01 -5.173281185904137214e-01 -7.571810213664833533e-01
4.959784049937849826e-01 -9.274267672239799865e-02 3.225081842060022463e-01 -6.972231787891036703e-01 -1.403841052431571423e-01 7.950153412236344863e-01 -2.035974862696940946e-01 -9.119272450533093544e-01
8.478038855728016188e-01 8.558552842729775234e-01 5.895640770214963799e-01 9.255269048987303515e-01 1.233784038233118885e+00 9.354094489861490835e-01 8.137268219110727063e-01 1.356031418417711576e+00
