-6.288331757211382822e-01 8.872784881211073227e-01 -3.980859529047164891e-01 -4.602729166446997144e-01 -1.953605126016388915e-02 -2.811748743625848146e-01 7.950606118661129873e-01 7.159303423592349169e-01
-7.156517520808878263e-01 -3.121309560816862838e-01 -7.070873680078280099e-01 -8.157449649519659118e-01 -3.702399571649925836e-01 -6.101994651888043020e-01 9.249863296893001685e-01 9.585921082493515932e-01
-3.102721924228184491e-01 -1.242528121899348914e-01 -6.589296075618116255e-01 -1.373783405627848619e-01 3.421918808299697634e-01 4.257092234309638457e-01 2.373724801836014642e-01 -2.229581670728537635e-01
-4.620496124134083615e-01 -7.140256028948932521e-01 -8.061634427504928979e-01 -8.903934106383992741e-02 4.309644953520241906e-01 -1.022169816073681403e-02 -5.006543212635612417e-01 -6.459611655361201521e-01
-7.481487574851777289e-01 -4.846660702138039234e-02 8.343946678857210308e-01 4.100143544429717402e-01 -1.910751385742701647e-01 7.717875226300801028e-01 -8.161243291061492933e-02 7.753888349161512927e-01
7.419014286010026105e-01 4.786261414861017194e-01 -9.186751765671188341e-01 -2.270489918833005216e-01 -8.693998626939769547e-01 -8.646487924660499758e-01 -6.443723804947723011e-01 -6.132020942928597673e-01
-5.357752411685241523e-01 3.159852453410358919e-01 9.889862718857327373e-01 2.024650078802578967e-01 -2.789288226857085107e-01 -3.091006273213681155e-01 9.881717417782640567e-01 -2.168606369128596167e-01
6.769293724701748172e-01 -7.386784221749438384e-01 -2.697744513253477194e-01 -6.402663779601427407e-01 8.329719071954706511e-01 -8.689056651828230837e-01 -3.059467954316295035e-01 -7.020781198533088130e-01
8.521365427464357989e-01 -3.759656962786570578e-01 9.591602869670496911e-01 2.606227834214958072e-02 -3.019334049399984288e-01 -2.927840338217371219e-01 -2.218613819523200803e-01 6.815277679351190443e-01
1.398142939292811970e+00 8.253215389339088048e-01 8.962175934814639033e-01 1.381364946970446983e+00 6.648221252044025364e-01 1.121988244680045099e+00 5.661329448458851665e-01 5.929391644110807436e-01
