7.872775991559743947e-01 7.131918022940282320e-01 8.506920231173249469e-01 -7.975768045895836877e-02 2.643177747571057168e-01 -5.014279525312488328e-01 1.430564718491835752e-01 -7.178574487212607824e-01
8.548651721395204017e-01 -9.405497464283787412e-01 -4.764658038970024379e-01 -3.411653661625124734e-02 5.909900970339105886e-01 1.574665740301690597e-01 3.503334866257219460e-01 -5.465980666900565055e-01
9.015417670911358705e-01 7.511005742232055304e-01 5.921027520426485058e-01 -6.263896459247770832e-01 5.238062298059591448e-01 9.794338640786761641e-01 -6.735881447457772175e-01 -6.837380761883851132e-01
-8.916895895715784004e-01 5.946090369163594680e-01 -3.490636075055575382e-01 -5.619973301238740948e-01 -8.941758297033441938e-01 -5.453347458905706269e-01 -2.609480790212646006e-01 7.736688364961201714e-01
6.588306842353199855e-01 8.712879358214322689e-01 -9.204845617512669165e-01 4.936948199725390563e-01 -9.254498314017940430e-01 -7.603454066942187950e-01 -3.336637112991862608e-01 -9.637095658397263342e-01
4.301290697054083179e-01 -8.055886944075572043e-01 -7.882802849317238625e-01 -5.169789101778741180e-01 2.192680205522878900e-01 2.557622672863553159e-01 8.028762543126788387e-02 5.391268380669878013e-01
2.116394615639045629e-01 -4.329203515380599665e-01 -5.374174242040345995e-01 4.620192416203252606e-01 -8.387585835234139253e-01 5.623428038992150935e-01 3.919999630983816985e-01 5.836791637264342469e-01
3.098955417687987435e-01 9.654751674022294949e-01 9.191764225975207481e-02 -4.951886520510684342e-01 -8.201284990042618794e-01 7.555126734379180586e-01 -5.704354828199773575e-01 -7.874199899932146085e-01
4.071778917174773138e-01 -8.535198504703049860e-01 2.702821315776451350e-01 3.085768408475093594e-01 -8.984505733795273841e-01 -4.810208132722417762e-01 -9.793300021381317055e-01 3.964798191801270910e-01
1.386486062044737455e+00 6.998788855318565094e-01 1.166084704371487035e+00 1.192616126448791114e+00 1.489444760174591265e+00 1.421483082921015662e+00 6.425347487496199106e-01 1.355030784399544608e+00
