7.749074341062822668e-02 6.403086127862245291e-02 5.208229452035832985e-01 4.859289907286168386e-02 5.589709785630847527e-01 9.507568595702051706e-01 4.581130632261702917e-01 -6.666709814348437124e-01
3.245836192509146123e-01 2.225492840642884218e-03 -7.691375652170160393e-01 -5.586952248806977828e-01 6.036093896232899159e-01 6.887478522392553870e-02 5.099329884317094219e-01 5.630666791856850928e-01
-2.780320550748185404e-01 3.089462277093635301e-01 -9.829301879972485168e-01 -5.378497843864227246e-01 -7.048780299838615093e-01 -9.186722594791150165e-01 3.186043210522959690e-02 -3.960077610204939536e-01
-7.412169183900534364e-01 -7.531687180601822629e-01 -9.172256100013305158e-01 -9.415825497047636272e-01 7.160193864771939865e-01 -5.990690952651178680e-01 6.619882853079077645e-01 -3.765982061482420207e-02
-8.704738816080046515e-01 -8.303193433679731950e-01 3.203051589649581476e-01 -5.926396584020507952e-01 8.916683375014213819e-01 7.439091642825965689e-01 -1.847918707618370071e-01 -2.152692750333895511e-02
3.491365200949789749e-01 -4.169660681950257963e-01 -6.864267845132006052e-01 -2.173620946828318523e-01 -4.072446286803867999e-01 9.318021726898642054e-01 8.535132377781937674e-01 -4.253030872274752294e-01
9.510907740874874339e-01 4.884442897074570133e-02 -2.136547156122370339e-02 7.580056780851913700e-01 -1.975072505105546217e-01 -2.915520331786272124e-01 5.131068130333427124e-01 -5.173748157569382222e-01
-4.210277674205724630e-01 -4.215657512551440611e-01 4.426513792270427849e-01 5.809500595651080346e-01 -4.261005210133010923e-01 6.448376139437654864e-01 2.124281500565938785e-02 -6.198771045056266082e-01
-5.684992640632271499e-01 3.941785913411750553e-01 9.131144187229152109e-01 5.623171466367005156e-01 -5.237374630209978843e-01 -3.182029517767555049e-01 7.681272570871278127e-02 1.705125333003947308e-01
8.959796419762744435e-01 7.354212115318887744e-01 1.476371521585105873e+00 1.221680144591089201e+00 1.211852942021595769e+00 8.240230933619504539e-01 1.085528904312931697e+00 1.015948051231181370e+00
