-2.157536555373000819e-01 1.352718713352836222e-01 7.151121805466491566e-01 3.790714261017225084e-02 -9.511020828987202247e-01 9.521525062809212958e-01 2.676952626049926565e-01 2.213897446327834917e-01
9.352293379395206774e-01 -6.738147693311002939e-01 -6.981884539718228311e-01 4.955507052144878521e-01 5.842113628037306494e-01 5.787661456044834729e-02 9.426837887281105388e-01 9.792343367435314416e-01
9.762945634631747804e-01 8.312666467233889023e-01 -1.748630970630540293e-01 -2.187190243913479382e-01 -4.412609148159101213e-01 4.965689971997941932e-01 2.366693521789620114e-02 -9.066128211487056721e-01
-4.404576107199376089e-02 3.135088347945407250e-01 -9.987911121734336373e-01 -6.234111653018263866e-01 3.910403154618480315e-02 -9.991286754807162662e-01 -8.234571563463761734e-01 -3.716053087867785543e-01
-9.541837747309338535e-01 -3.549330122267146947e-02 -7.610711965402447987e-01 4.562656008594867529e-02 -8.491172993989744011e-01 9.885382117670344915e-01 -7.807794323255650148e-01 6.099345503569177929e-01
4.406468334482704918e-01 9.717075283647089723e-01 5.015880217271897479e-01 9.507412465471318797e-01 9.124300055623866257e-01 2.856782671635613724e-01 -4.933057356065080334e-01 5.257665620932809869e-01
1.595315601135296468e-01 -9.017568560195152738e-01 1.990061227560100399e-01 3.314397740436318962e-01 -8.919787928288758216e-01 9.535837510207931800e-01 -2.122090225185235823e-01 5.558767397550847811e-01
-4.869496782887308139e-01 1.994143784564279542e-01 -8.544518895735055963e-01 1.300612276918844401e-01 -8.725386961647343398e-01 2.862926276184225571e-01 6.303994533284134061e-01 1.785428913274733631e-01
-4.375038608695209774e-01 -3.992606941577043767e-01 3.520105813583114251e-01 7.163993390397593863e-02 6.344652803453776357e-01 -8.464795545886918404e-01 -4.750358378487873345e-02 -7.990344381034610866e-01
1.265174359352801536e+00 6.898352311013361549e-01 1.013273232508087540e+00 1.226151683156638805e+00 9.736493367053645764e-01 1.151667171678814938e+00 6.124682318858634122e-01 1.297748677730486300e+00
