8.041963080477454451e-01 -9.226597918977499369e-01 6.843647129715677568e-01 -4.121453383170834428e-01 -5.670288444777282777e-02 1.126182528109056502e-01 -3.979217079342207697e-01 8.773163687302194536e-01
8.872408932693238715e-01 -2.747085915089328978e-01 -2.266818756654975786e-02 -4.562169663974839917e-01 -5.001480228049535182e-01 -8.406314487266794977e-01 9.157143603963417977e-01 -4.391578889980645162e-01
-7.242148920136672885e-01 8.766328115890960060e-01 -2.155986286284363729e-01 7.465356587925759957e-01 9.230531060013611455e-01 -3.208802873123677291e-01 2.725922348684883811e-01 -9.467257757308549238e-01
-3.220049113299932042e-01 8.998313021471537887e-02 6.609489929623335591e-01 -4.396500605995785627e-01 -2.242586297990034616e-02 7.790053692585074963e-01 4.977038693215329879e-01 2.162267289358026368e-01
4.913647109102474708e-01 5.295936666787655067e-01 -4.497217123722863086e-02 -1.440629986820038955e-01 -2.864402441845155245e-01 -2.663191174029775343e-01 4.100991607677026973e-01 7.332072575203032461e-01
5.368516470388748907e-01 -4.001388756307548977e-01 -4.750188721354211552e-01 4.918895878698286150e-01 -4.891739303634536906e-01 2.284169299068938841e-01 4.740429127564742551e-01 -6.779128583412108444e-01
8.403198347287201830e-01 -5.790038716884200465e-01 3.132964300136800162e-01 2.128584641130728539e-01 8.125187138802492104e-01 -1.649313523274011928e-01 1.942898622179189960e-01 -1.068787657248351231e-01
-8.225690717658196149e-01 -5.735075392442117170e-01 6.970972007771516488e-01 3.793841585722608212e-01 6.618405199509427295e-01 6.480497101733899701e-01 -5.719872829140402182e-01 -3.910047640396814295e-01
9.580648802119973162e-02 -6.856893641679655538e-01 -5.841938110558615449e-01 -2.498848774222548474e-01 5.974384119919085023e-02 3.577044064055756589e-01 3.559297211541248007e-01 -7.823172702748322216e-01
1.171089299948965934e+00 1.449888592610217630e+00 1.423440732132700948e+00 7.877734309608620533e-01 1.336318458210543847e+00 5.653481419137318387e-01 1.477085836523066575e+00 8.580023183799655451e-01
