4.039332167212281721e-01 -7.183227534510352452e-01 4.416506919299689748e-02 9.830539227442132155e-01 -3.956873586120928099e-01 1.226619413143348325e-01 3.953761976540175471e-01 4.325591848667806882e-01
-3.179102074003419265e-01 8.828531246606869942e-01 -8.547346727545541700e-01 -9.585685424359071671e-01 5.419250496772018977e-01 3.271754318166557596e-01 -4.147477699617150293e-01 3.548307470424123533e-01
-9.907538850234640648e-01 -6.361264321931645593e-01 -1.173754235317403527e-03 -8.820849437833506723e-01 9.535998452335012754e-01 -5.635653934657671726e-01 -8.972667431550123140e-01 1.994716210970695069e-01
8.427296328250513113e-01 -5.531505084078729428e-01 2.985170929910960780e-01 6.414405228813433446e-01 6.428704087681702539e-02 5.304047853693063530e-01 -4.052209195342268977e-01 -8.990821312663548337e-01
7.531569947132319420e-01 1.342985708842443504e-01 -1.401844987348435101e-01 -4.873452453982898280e-01 5.460677680302676862e-01 8.392380270947437104e-01 2.000052766238213930e-01 -5.930873853788130035e-01
-2.259387268573103125e-01 -9.452176259563882521e-01 -2.465349919164627757e-01 3.564445900870143458e-01 2.541039193463061618e-01 -3.661666171970043848e-01 -2.454746412704724712e-01 2.844061311494552324e-01
3.421062266548573483e-01 -4.861826583259860612e-01 -5.897355209782129126e-01 -5.138904361590588277e-01 1.733783148094849569e-01 -3.983116405795310566e-01 3.743719781885304076e-01 5.579460187391096504e-01
9.715780826711835072e-01 -8.888837983039978852e-01 4.334870172433762381e-01 5.352123676942519559e-01 -7.199465367538482319e-01 -8.680870874894721645e-01 -2.668048491857244464e-01 4.542155448962401643e-01
9.925698089876651142e-01 1.996143198196957957e-01 7.908972041352457794e-01 -6.787812452095389748e-01 -2.403445438055029637e-01 -8.149131852413802335e-01 -3.660469689798560022e-01 9.068087146154368838e-02
1.319121679030252903e+00 1.478911664652143632e+00 1.376004030975387815e+00 7.064984035236300253e-01 9.959733477373532429e-01 1.267027862828914664e+00 5.647396149083184769e-01 1.413661740916603904e+00
