-5.306836376733961025e-01 1.962865917266385374e-01 4.397631405091739776e-01 -5.830684349160586422e-01 -7.607601965899202234e-02 -5.366493154215890016e-03 -7.089002774854098465e-01 -7.975922573370632929e-01
-3.895290776152446899e-01 -4.711248001786960682e-01 -3.145135398628253753e-01 -8.474055306899044293e-01 -2.361425569288704285e-01 -6.350743771595808163e-01 6.685713869021427946e-01 7.700638325547197738e-01
-2.397756075674717380e-02 3.659791239596530410e-01 -3.355837708369542316e-01 -5.051755407794737973e-01 -2.238150684229898157e-01 -9.475606947045065453e-01 6.885532677405659108e-02 7.058834398909821228e-01
-4.720779712148339691e-01 7.942288861259649835e-02 -3.148977920781299566e-01 -4.070861125757625487e-01 -3.277973623219669896e-01 3.906448940774986944e-02 -1.502855465827059867e-01 2.222557883415523516e-01
-2.563136609960343648e-01 8.348320225627963165e-01 -1.221920051983484967e-01 2.218104132084857127e-01 -2.293400568394572403e-01 -4.022707168651993292e-01 -4.688003391307489220e-01 9.868692896095421219e-01
-8.790928852101809188e-01 1.762160806813053426e-01 -7.655411387103083776e-02 -3.770594107491480607e-01 -3.314885313905451270e-01 1.682078640830964034e-02 -7.469641594597680179e-01 9.897461556188402731e-02
7.866514389076884051e-02 9.425108185306354525e-01 1.680442354685438566e-01 5.807962515573190654e-01 -5.927062120644026599e-01 -2.210854651619622580e-01 6.719946971178525352e-01 -2.432365534908391691e-01
-9.354371565727186422e-01 5.272465515354143317e-01 -6.129070268774561292e-02 2.057088852489368236e-01 -7.693651772256704380e-01 8.034589515983732166e-01 -6.065677876943131874e-01 1.796850910006904112e-01
4.509028417819536116e-01 2.602337556324771928e-01 -3.329119243465075151e-01 -9.930956544265510111e-01 -8.661221070027085300e-01 6.058236011312718716e-01 5.023889755438304405e-01 5.027557560432909245e-01
7.884671418192071846e-01 5.754193666910323302e-01 1.472865290319229414e+00 1.434728145017178935e+00 1.105819400967993360e+00 1.132092993371507372e+00 8.239830735958884045e-01 1.175278785327002362e+00
