-2.281764000591863795e-01 5.388240635339345275e-01 3.387987767278664020e-01 -7.545045348249712625e-02 9.602213781270103610e-01 8.803143387633172168e-01 -5.625676594764184024e-02 7.882866933185412872e-01
-3.002188376353960297e-01 8.193471509235070727e-01 -6.489020601247141862e-01 5.245558784819488451e-01 -5.129978321852739498e-01 3.734928110125239620e-01 2.578684740378545115e-02 6.551043853482734214e-01
-9.426314368557102696e-01 2.587635521973787878e-01 4.036529526104613019e-01 4.835197084976061710e-01 7.539684760511704553e-01 9.290276332771083556e-01 7.524303736732442793e-01 7.044554407938226070e-01
4.141642257939908145e-01 -2.574026789683165894e-01 5.648013093551367270e-01 -1.316508691024769195e-01 -7.789299092147479175e-01 -4.763338894120394684e-04 4.778662826210862136e-01 -7.388623066257760108e-01
4.753585773536459502e-01 3.199385709873150407e-01 4.502103931075038812e-01 5.808209146395837408e-02 -1.592914332624491003e-01 -4.767045854742719690e-01 -5.492969483825131949e-01 6.855111419401140882e-01
6.272394507333161062e-01 1.268532560387447550e-01 -6.764876149038001607e-02 -1.566541533983252243e-01 3.367221026500768488e-01 2.386312077451537839e-01 -2.709220769179219168e-01 -4.250126536011977763e-03
1.559393750671325130e-01 -2.725529707897982323e-01 -6.522014340586479442e-01 2.887876682532963812e-02 6.673252186980338507e-01 3.556532290379261774e-01 -6.184272462857236530e-01 -2.698610595820647440e-01
1.057069500063794187e-01 -9.188474876116798917e-01 -1.775043514332401706e-01 -5.021953794107465452e-01 -3.580557350690183327e-02 -9.921500418657858145e-01 7.769785945094962454e-01 -4.971241890451003620e-01
6.445651240606062871e-01 -5.389930325697445124e-01 4.361599948186638542e-01 2.186909943405250800e-01 2.634086957828580822e-01 -1.466469141606501214e-01 3.808680924158673875e-01 -7.439383986790468750e-01
8.988837685017411205e-01 9.810365118111520344e-01 7.252137570877308370e-01 6.498020304820201209e-01 9.953748895056691026e-01 1.171082731307971248e+00 6.179800233430563505e-01 8.329828289970462318e-01
