3.371660415597508287e-01 -2.655348874195042619e-01 9.704342026625225603e-01 -9.356089214217400141e-02 -7.652632986576857199e-01 3.844073992766898762e-01 9.147301605201250130e-01 3.655013962001185668e-01
4.395665632753411600e-01 2.122743744238240193e-01 1.542179069296509830e-01 3.880338084047816327e-01 -8.970347788378327802e-01 -5.676877374485587158e-01 -9.691040302095195180e-01 -3.999002027263536263e-01
-6.430590144307040124e-01 2.574044123709591236e-01 6.134107285595025161e-01 7.823428543198469587e-01 -6.351329926493587408e-02 6.564584785978673231e-01 -9.140921331138149863e-01 9.599966047692458648e-01
-9.900561278409480970e-02 -8.508002713731017685e-01 -9.392460784460010537e-01 4.837639587655868656e-01 2.997132151429118263e-01 -7.915754613277905527e-01 -6.836174917435668963e-01 -7.760626815197306794e-01
1.538310025190265939e-01 -1.226910053809315837e-01 2.177049940746893508e-01 -4.989619948702432861e-01 5.029885327259617789e-01 -8.189258177277156658e-01 4.541612038744258228e-04 3.501463982907471184e-02
-7.943496183458187421e-01 1.768514798047373660e-01 8.651132225171174195e-01 -7.052636524368471882e-02 -7.582262952582332627e-01 -8.002412840074502043e-01 4.699075637171741260e-01 5.637749175660975443e-01
-9.903638689221576641e-01 -5.678699908266504615e-02 -6.305796285297875503e-01 -4.077791385986657691e-01 -5.827863439498277565e-01 1.167129728901594721e-01 7.576100439779178686e-01 -3.706969368357584393e-01
4.561020878993320427e-01 -2.704078395318900707e-01 -1.929390030516651144e-01 -2.121054443254084543e-01 -9.605534541526756787e-01 3.309682433541016877e-01 -9.979915645186445694e-01 -8.145526665829396773e-01
7.764878334079674538e-01 -3.226412103272233711e-01 -6.997654374155533041e-01 1.339584074429489569e-01 -5.636723632056994671e-01 -6.618770910921172312e-01 2.611690926354599540e-01 -5.602519599979731701e-01
5.013250998566729510e-01 1.154199462812521393e+00 7.311826280945250556e-01 1.282627209066001583e+00 5.259752688684155020e-01 1.450689830235730504e+00 1.131929268446216774e+00 1.247777761016994003e+00
