5.431243009389483678e-01 -5.164209001032051827e-01 6.422266551254658395e-01 7.966202479836792527e-02 -2.313731078364353877e-01 3.489893127901937397e-01 6.763086161120208661e-01 7.871164920534721166e-01
8.003987653305100203e-02 -8.356879193565314168e-01 -8.439933753634829561e-01 3.753883497167995742e-01 -3.118097614939028261e-01 4.027274944584602334e-01 -9.710794490011667168e-01 7.010806105789546550e-01
-4.876692221535605665e-01 -9.166910352710959664e-01 4.349322596052243028e-01 -2.651429118405947971e-01 1.722655574439879711e-01 9.009946874364229696e-01 -7.459352539757826417e-01 5.422214146905472987e-01
5.806905112595657226e-01 8.634067537365888167e-01 8.651762471376336361e-01 2.790188803897071246e-01 -2.499301177664507989e-01 -6.020154555656236361e-01 -4.533886986087196647e-01 6.186195592371452889e-01
3.215228813171771005e-01 -3.137020626658850730e-01 -3.807443251154070119e-01 -7.350705713261429519e-01 -2.524927252257471721e-01 -1.464933609496226197e-01 -5.433829953009530200e-01 -3.577478271451914882e-01
9.951297532547080937e-01 7.643298504765141388e-01 4.465313137634265850e-01 -2.172931341031774100e-01 -1.484119824693825862e-01 8.203943293875690657e-01 3.314648330574618829e-01 1.294396310764256430e-01
-8.170222735157430805e-01 -4.868194304996948940e-01 3.567086809793738045e-01 -6.361389151673877418e-01 -9.919803871647507876e-01 -8.672263499496888350e-01 -9.217872559188866610e-01 4.771841348604972666e-01
9.622035158361679219e-01 7.046754759725415429e-01 -6.028214481762772525e-01 8.140183772063946943e-01 6.110362173984016376e-01 3.074154284705366003e-02 -7.471760738576784799e-01 7.532678054436208193e-01
-7.402402319270067199e-01 7.522052309817579552e-01 -3.492362488446105750e-01 -5.632851014565176673e-01 -8.455299196211552015e-01 -4.043368806668403703e-01 -5.786391406593740516e-01 9.785535558528462019e-01
1.371341929541799676e+00 6.073846665374611486e-01 7.085747282997167940e-01 9.582175207443965892e-01 1.358076153246002171e+00 1.373186808886534882e+00 1.101853085565181356e+00 1.152701074355445554e+00
