-5.073890797080824466e-01 1.246210711170196994e-01 -5.257346483949509874e-02 -7.388783987117100160e-01 2.903683637587537447e-01 -4.725091022878151747e-01 -5.367797669251597181e-01 9.626176754309485606e-01
-2.785583247703085075e-01 -8.246523076877854130e-01 -2.360553625783039511e-01 7.133046285316080315e-03 -8.881852594505292853e-01 8.833061739105962928e-01 -9.234523073945903882e-01 9.893938942757141142e-01
-5.411162873475003909e-01 2.253801938394808246e-01 3.687955633823780666e-02 -1.747462718790167013e-01 2.970849039520375712e-01 3.314274702711179632e-01 -7.524057239380437245e-01 -4.373130330368597551e-01
5.070124253414369786e-01 -4.556184938828076181e-01 -6.396203443060479721e-01 2.649945359380416754e-01 -6.999270995713813281e-01 6.581984724543066267e-01 7.586675689479860374e-01 -5.973791186527770414e-01
2.172260545039572666e-01 -5.556355614022507883e-01 -3.176083525601389734e-01 -6.509050189450271695e-01 -1.273394064004440551e-02 5.392764204755486901e-01 4.978466667778627119e-01 -2.360435275608985251e-02
8.500666164983363693e-01 8.004473977977708543e-01 -7.139864386866738855e-01 -9.186777239757668578e-01 4.888480784171518323e-01 9.065583229285147926e-01 7.919768011360566184e-01 2.665565692503504280e-01
8.722172102143741501e-01 4.296636035727918745e-02 9.177974963679926823e-01 9.269031974605332902e-01 2.510753433494488096e-01 2.915819262431549319e-01 4.356360460215620289e-01 -7.220237386705341542e-02
-1.170439195355152950e-01 -2.540904298136770212e-01 2.443866095584639186e-01 3.777346265975789485e-02 3.124520836014963443e-01 7.227825623656787268e-01 -3.229826528403532127e-01 -9.966756177917808213e-01
-3.160658384219172667e-01 5.842605479871421092e-01 3.648115287097843940e-01 -2.799651416510706703e-02 -6.641347511327007069e-01 3.233450108571083170e-01 -5.619530447082128344e-01 2.811177265772932810e-01
1.163038856737670379e+00 1.072441451912224508e+00 1.361665385120129024e+00 6.194404788843880239e-01 1.299813795130656757e+00 7.144865169692563578e-01 7.557013728934164343e-01 7.583269366403099232e-01
