-1.349066340337436998e-01 5.890002848301789662e-02 -9.761611574217541332e-01 -6.868896192485987040e-01 -1.937282180477000182e-01 7.765767934658265315e-01 4.478686506477600471e-01 3.406263419324866426e-01
-9.378085159110369773e-01 1.983291041232144725e-01 1.362014384238705578e-01 -1.858170912330174840e-01 9.039410407314485418e-01 7.360085126404829481e-01 -4.520188861557405957e-02 1.621124056878473496e-01
2.207079048400200083e-01 2.444532942078434523e-01 -8.071086620185961014e-01 -5.153467363542849622e-01 -5.970669674338535682e-01 -8.185035943739957798e-01 -3.127532923050209135e-01 -6.613785407004990624e-01
5.184034791312588375e-01 -7.209751611427319684e-01 -4.362182436734141078e-01 4.388918055379784633e-01 1.577676310247568825e-01 9.937354037388423933e-01 -4.792886204685207208e-01 4.523198408234028189e-01
7.233478395743941913e-01 7.462599635123710051e-01 8.150454344552691133e-01 -9.346515513348214732e-01 -4.410005404794552497e-01 7.860154524259526099e-01 1.684986013371456703e-01 4.330769188552217042e-01
5.501493665257413124e-01 7.421813776768577675e-01 -8.312787171840494427e-01 -9.614038560637183650e-02 6.550293316294961699e-01 -5.842179501623065985e-01 -8.062611551175913327e-01 4.342684854120726357e-01
-1.537090540236152325e-01 -4.024369454707759086e-01 5.948895787786787626e-01 -8.439804923639222523e-01 6.043130852071072479e-01 -4.616268047865899060e-01 -7.263394992366145608e-02 6.842265701908958331e-01
3.860697684075933278e-01 -1.770726901140016185e-01 -2.520285664790034019e-02 8.178198324966119426e-01 9.117689698724464886e-01 8.396232789092612503e-01 6.695194168504314813e-01 -6.545915293002229074e-01
-2.847367460931089500e-01 4.805599516158385320e-01 6.356122416982963319e-01 2.475744780637145759e-02 -6.856962604551410934e-01 -7.665230241435994074e-01 8.994393112221199527e-01 1.497840729458190800e-01
1.125371065265892589e+00 5.689958282612198603e-01 1.460320033272265228e+00 1.054868735477501929e+00 6.107327171194532056e-01 9.828751415695339277e-01 1.499377086549456450e+00 1.496453710905836010e+00
