8.058243742432897871e-01 -3.152191436621576415e-01 -2.407706180858579792e-01 5.789027185565998046e-02 1.519433919200705585e-01 -3.171014159971670132e-01 -9.753256732815462904e-02 -9.942845409759863973e-01
7.772387679619416900e-01 -8.380516891063316542e-02 3.258921496987656763e-01 1.535293527719059359e-01 7.643848295669981585e-01 3.434668779316831788e-01 -6.329981544717508957e-01 -2.711503540649919941e-01
3.867995797565413341e-01 -1.234297137410025336e-01 3.291880613907065545e-01 -4.845703741360576355e-01 9.701624484458986064e-01 -8.696470034439025554e-01 -3.864063905976307112e-01 4.915016969301182481e-01
-8.950892259708738141e-01 1.641776518413218255e-02 -1.250917289142288169e-01 6.151335352731155393e-01 -8.261580436479365463e-01 5.336006138287108236e-01 4.207317803833454661e-01 8.741625484952495473e-01
1.464955849385289888e-01 2.811938675491132411e-01 -2.983634495247167173e-02 8.544434729881120738e-01 -6.969807470226960788e-01 6.036437650779697961e-01 8.873693763676926416e-01 5.951369412418339166e-02
-1.920278874082159692e-01 4.969785913082014339e-02 5.568460425373864542e-01 -8.731590214683400131e-01 7.250067110132905057e-01 -9.764448670366652205e-01 -7.552771951477907919e-01 8.369654127799086574e-02
-2.894204953230545829e-01 -3.054959575249669435e-01 -5.104101032420109707e-01 5.255599667950836551e-01 -2.520048321189640728e-01 1.926943014835864609e-01 3.064452913040660587e-01 -9.587730845334938579e-01
4.149074740836646846e-01 7.553055651746449772e-01 -1.238371497382189101e-01 -5.831464950367226674e-01 -8.166475738350200686e-01 5.264640210229627471e-01 -2.226187857584618346e-01 7.400305362776991025e-01
-8.071691126125750682e-01 -7.070098916680795931e-01 -5.794729562246803134e-01 9.384703494787409728e-01 4.101162927224502042e-01 -5.847577567211237337e-02 1.641924384581727736e-01 -4.899412556915596628e-01
1.176141827556614228e+00 5.332184826094392704e-01 7.933759327015060814e-01 1.044418653563595756e+00 6.761526213585973277e-01 7.675619134409646938e-01 5.940940241725740645e-01 1.173905154026717357e+00
