1.457765798090953080e-01 8.489197564900547999e-01 5.638088797385116813e-01 -6.067284522829166082e-01 4.170296341333434853e-02 9.420406961767229248e-01 1.431592144787154908e-01 3.802702883997879368e-01
1.446551760491887606e-01 -8.859286322297976746e-01 8.826791889329512752e-01 1.995431165108854099e-01 -1.278770895561631704e-01 4.484566047212414919e-01 6.052602925837746728e-01 3.500131991820225608e-01
-2.776138842172830579e-01 2.103787524840416978e-01 6.009752228083597991e-02 5.166746275637856822e-01 2.275802893194869281e-01 4.052381201792258913e-01 6.833594642259182006e-01 3.459226216879638383e-01
1.021505862695673006e-01 1.644057679378183590e-01 -1.926702070420602819e-01 6.104162188836661507e-01 -7.580106336216339002e-01 9.294883708334864547e-01 -7.537352463254425317e-01 -4.848532403092982168e-01
-4.351990869012432039e-01 9.893209075224025373e-01 -7.403259693260093588e-01 -7.471215724399331570e-01 5.992930801345015546e-01 -7.769604178028051145e-01 6.332515428834204485e-01 9.383026059510952699e-01
-5.756891276557842829e-01 -1.679668258314985785e-01 -9.393755713004972030e-01 -4.906589407193953090e-01 6.087128579369105452e-02 5.310586388566718163e-01 2.331975080100068265e-01 9.344677354416108805e-01
1.341781561134536283e-01 -9.595342535975375231e-01 -3.340271887383616800e-01 5.607216275671140782e-01 3.463921875402840023e-01 -7.970823295259326091e-01 4.232669966908133574e-01 -9.189926983186591514e-02
9.251243504343349411e-01 7.372683558258250613e-01 3.441399163207461420e-01 2.128465915047592638e-01 -6.435332740175159216e-02 -2.245597332495079534e-01 -7.628299736732602199e-01 7.912892745940003358e-02
-7.278696092115819472e-01 -6.651369548846861601e-01 -6.826976889973608298e-01 -6.090746298886744459e-01 4.096077654304401960e-01 2.098774603516417869e-01 7.993571922190245704e-01 6.341991424156203649e-01
1.026982505247441946e+00 1.284512429532467248e+00 9.260787152056375593e-01 1.111569063216063968e+00 6.450820814073141563e-01 8.319599047921082402e-01 1.292147499145372747e+00 1.337134303491176457e+00
