-6.258401498459398304e-02 -4.418241051687226140e-01 5.780338314398738575e-01 5.364158152196951690e-01 8.759339917896307171e-01 4.530795766449133843e-01 -6.506125243360734167e-01 -3.960159545328512110e-01
8.954770157717180101e-01 7.286391055988703513e-01 -8.117969583384576637e-01 -5.176891824800744502e-01 8.709016174255044263e-01 -1.213415662065109313e-01 -2.372803846580133769e-01 -1.980838523128387596e-01
3.734193973672190747e-01 1.467632472104054564e-01 3.381407897313348787e-01 -2.884164689886168365e-01 9.874055092728364347e-01 9.468789719692189966e-01 -8.703516567618603261e-01 4.782721038456501095e-01
-2.155026871563145985e-01 -1.268044929691944933e-01 -3.946610590480048586e-02 -5.067554187452116832e-01 6.571672426455206217e-01 -5.392846788480420983e-01 5.421677414349790336e-01 4.556050392596360243e-01
9.759341043689306883e-01 -5.830491434998219535e-01 2.839543297613993378e-01 -1.905969820944619642e-02 6.428358503523039502e-01 -4.135013084308307718e-01 6.011327574106768434e-01 5.048016075661521107e-01
1.294445969986464107e-01 4.060449046125855777e-01 -7.199158432896171078e-01 -5.947821515143369986e-02 2.343254992230425771e-01 1.043444783410127918e-01 -2.401636918927132491e-01 6.011163635946001893e-01
7.575259335441217878e-01 -9.685170519180974491e-01 -7.422355979978758622e-01 -7.764791991728414722e-02 1.150659502546265145e-01 -9.198690746580231448e-01 -6.581234558971107429e-01 9.506275436774302978e-01
-6.100815366595599976e-01 -1.321734980490480993e-01 -7.576118409402221587e-01 -1.572660979378641688e-01 -9.655580643720125256e-01 4.147520682995846641e-01 -8.114426777052152762e-01 -2.134782054363359993e-01
-7.326595585879465133e-01 4.326166392786281456e-01 -3.403606682333915057e-01 -6.121052555080748192e-01 -9.336186132862258624e-01 2.853791086205315075e-01 6.645348076793686776e-01 -2.549333981124792814e-01
1.396354423374402742e+00 1.150180091803713278e+00 7.752462130127837359e-01 1.354801862845973703e+00 1.337781545199852040e+00 7.175170122350730262e-01 1.184296021324787507e+00 1.398346706047000065e+00
