-4.160649300689858165e-01 -1.259576046829207208e-01 -4.696981325984255218e-01 1.646230768179728354e-01 -7.276984198896567779e-01 6.100452247898495717e-01 3.968799652339565220e-01 7.873578935831058168e-01
-8.173616300178530025e-01 -2.782107243898312987e-01 -8.098083446607300395e-01 9.271108259814713204e-01 -5.982712649819041939e-01 -7.399424067406379368e-01 3.489822816672982775e-01 1.102351178079510330e-01
3.862252940624300024e-01 3.003173083981889313e-01 2.517256062713835174e-01 -5.054282090144044393e-01 9.874502698798668376e-01 4.236980508857834948e-01 3.824500411309790238e-01 6.722090618098151005e-01
-7.991122799795280507e-02 6.770490859942788209e-01 7.978318557478503159e-01 -2.561022460778716869e-02 6.737144154938279339e-01 -3.369863161374380134e-01 5.112246426041453518e-01 -1.229171614280712976e-01
3.997809831165135552e-01 -6.648478209989898691e-01 -1.734248608047415097e-01 9.933727072242226619e-01 8.019034410562930759e-01 9.850234833005893087e-01 -3.983273158199442943e-01 3.100721633654519582e-01
1.959480657744880894e-01 -5.239953752960686550e-01 -3.011586178309977324e-01 -9.933834169898498878e-01 5.661992720147643876e-01 -1.687013758680344644e-01 -3.595844482514358731e-01 -7.717936765534747501e-01
-5.432273444308510779e-01 7.477932766509898244e-02 1.862167884886700708e-01 -9.285211773708479388e-01 -8.616902625235911550e-01 4.408503673705075343e-01 -8.458906650588970955e-02 -5.014432260541989983e-02
-8.889434927834671818e-02 -1.529794496000755899e-01 -3.150575233628576388e-01 6.491577378878909954e-02 4.514900204688250263e-01 5.822210486933541151e-01 5.447780894470275470e-01 9.212166494538045480e-01
-4.367315520910992621e-01 -8.900815137492101847e-02 -3.564346926534056603e-01 4.800529769632129184e-01 -4.553283980376872098e-01 -8.806113710011365114e-02 -5.631041861585377450e-01 -8.079144770199011560e-01
1.173320236494851398e+00 1.491872216185566202e+00 5.645444903476726228e-01 8.167125224299727204e-01 6.968261592889785083e-01 1.262546306933221008e+00 5.139096936957816553e-01 1.135400323787654209e+00
