3.017472857496910077e-01 -6.892071999339453026e-01 -5.263821560742731887e-01 -7.617268856986991743e-01 2.502636760911292058e-01 -2.407179141991377946e-01 4.211007308021352813e-02 6.851240435527543582e-01
-8.116066475956340565e-01 7.583601041915739582e-01 7.978039906154543726e-01 -8.675986682956196017e-01 -1.020337879869890330e-01 -6.256472556353072090e-01 -9.427386554523362605e-01 -4.700796845263146562e-01
6.128591174928275098e-01 -9.937103902154653667e-01 7.269596849996275978e-01 1.129907081459355922e-01 1.646237559852465893e-01 9.980467008312809973e-02 4.234756603749021409e-01 8.926932343722457919e-01
-8.696697216394588814e-02 1.779611139435901546e-01 1.423353918234981919e-01 -8.403297744785527268e-01 -3.059774408911186683e-02 1.417654195813367046e-01 4.661490740522169496e-01 6.921462729473293329e-02
7.409430591837906643e-01 3.737109725713758657e-01 -4.928323153929417000e-01 -5.848212329445725555e-01 -5.235958753947393962e-01 6.992770709696347620e-01 1.817436923463418008e-01 -5.682014319495514165e-01
6.328034598503782249e-01 -8.935201963947680959e-01 -6.890460909181399529e-01 -5.443790307568852072e-02 3.382193048682811121e-01 -4.566413220992544542e-01 5.828499570521834539e-01 -9.695438849805948500e-02
3.255245937766713116e-01 -1.487460778952736096e-01 -8.704404815307804633e-01 -2.953917283558458173e-01 -9.624454760117535645e-01 -7.692246078750988314e-01 -4.242087509454754990e-01 5.524562893599254121e-01
8.109787309074059092e-01 -2.583398100235005934e-01 -3.533422477150915952e-01 6.190273506999930397e-01 8.820743703865256968e-01 9.161859584736664619e-01 6.453864117664911415e-01 -8.357223658467254346e-01
-3.228032195846208818e-01 -6.163369118763490917e-01 -1.979457822823373903e-01 5.126787947621196384e-01 5.898408914424875249e-01 5.699626723185564625e-01 3.931708943552960633e-01 -5.961690223905584674e-01
1.091230243313224157e+00 1.426977347728970891e+00 6.416639659254501638e-01 1.367468159533750782e+00 1.187551046279287315e+00 1.266132076546257590e+00 5.903302834849737390e-01 6.821533340889106567e-01
