-5.031042942011096919e-01 2.108971645528374683e-01 -6.268314046184171318e-01 6.135236889463677734e-01 -1.291141357118623656e-01 2.907045485094630344e-01 -3.663953554161021309e-01 6.299583376419484182e-01
-8.590099297302129511e-01 5.832008762110343358e-01 7.826622427976066554e-01 -6.464521902131821207e-01 -9.367921725728036719e-01 -3.822726269242029407e-01 3.767674423531099936e-01 7.972972520181647038e-01
4.760950271144881452e-01 -5.412511324906099652e-01 4.918691247264743716e-01 7.138619095192848540e-01 5.721232067429229406e-01 -9.499380407777513469e-01 -7.156825499379899647e-01 5.234751276937226194e-01
-1.634506016171635157e-01 -7.851822022925358802e-02 5.390380889476891202e-01 2.423777887947142773e-01 8.195924367328535354e-01 6.941715051571339945e-01 -7.662047154398112792e-01 3.503965860278013267e-03
2.269095284968203341e-01 8.516902258742218290e-01 2.413223360163165854e-01 -4.760517354456572647e-02 3.824871616765928017e-01 -8.233844221902593130e-01 -5.931977783147863725e-01 4.414786614958372546e-01
5.240794618250927961e-01 4.316141333301606320e-01 -8.197936507555887431e-01 -9.272174678542379755e-01 1.231210015665822333e-01 -4.058273889630192865e-01 -4.814837807441096906e-01 -4.955313715173377265e-01
-5.497710328027372029e-03 -3.815768693081518226e-01 3.532350517138627133e-01 -1.352924059281701563e-01 8.990338595609717043e-01 -5.331047928943788428e-01 -7.062131840093266444e-01 2.725504154191948913e-02
6.457362540512088245e-01 -9.106627413542278671e-01 3.285496818104916006e-01 -4.044749400703884223e-01 -3.848377134247471520e-01 3.375970907498699880e-01 8.092038337681051186e-01 6.766283556484431472e-02
-8.624775545255614073e-01 -8.898375529106532511e-01 9.175076042548058197e-02 5.952884179332029735e-01 -7.977331942599015235e-01 1.132121941452419733e-01 -8.376754030613695612e-01 -7.991141942625985539e-01
1.005956999188979850e+00 6.299171341838432081e-01 1.309793292702825962e+00 1.108526681317562490e+00 1.407698545775798005e+00 7.928667393718970002e-01 7.485886507430788983e-01 1.114850644195245266e+00
