-3.494750730072029299e-01 -2.705641708580439619e-01 -5.410492434407012663e-01 -7.445944133494442063e-02 -3.295170438499983590e-02 -9.891609535314809243e-01 -7.413250250168585964e-01 3.743912102380022588e-01
-5.405698164435346342e-01 1.595377496569092557e-01 4.353365913513178587e-01 2.060109199717914397e-01 1.017204961106525918e-01 -8.248469618297216144e-01 -1.362093590965385292e-01 5.083491227713536897e-01
3.452114304828024505e-01 6.273178969313515374e-01 -5.976965073337110468e-01 -2.865364451790812783e-01 -8.160785693997671952e-01 -2.797821428035995872e-01 8.273521247137329837e-01 -1.311614896426116506e-01
6.898103946149669596e-01 7.937391108256048877e-01 -3.480759722981787707e-01 -6.706404053830268275e-01 -3.650387902247893557e-01 9.148059478932761834e-01 -7.348576211852482221e-01 7.737299434725479763e-01
-8.777327563521741816e-02 6.569263243329761526e-01 -6.718429521060462761e-01 7.012403647728753242e-01 -6.640189580153652571e-01 -1.912481388014497519e-02 -2.307726563193985836e-01 7.267536936386513879e-01
-9.353568517184684961e-01 2.650666374697172589e-01 4.131110698782829438e-01 -5.885647023828941560e-01 -8.451526265157771611e-01 6.826953977037244492e-01 -7.294216050501249882e-01 -5.486022862439690062e-01
7.618072878288821848e-01 2.373715332960295576e-01 -3.780495271320867268e-01 7.468716088581928148e-02 8.297066674903108563e-01 -6.200585308956705344e-01 3.999602545727674041e-01 -6.991788291149572121e-01
9.890855284384874047e-01 -6.837363060416794536e-01 6.710427876185387497e-02 -3.573192643691629478e-01 8.439348676727285170e-01 -9.389044978765428429e-01 3.379730114893404469e-01 -9.320858871453681083e-01
6.433814602170719876e-01 -2.021741297940757853e-01 -2.669828246158079121e-01 3.689542815299773348e-01 1.458720470891601284e-01 -2.551586555045690652e-01 -1.759370275374032566e-01 7.945642884654948723e-01
9.665041878741524872e-01 1.044322198802618562e+00 9.145982960256924255e-01 5.230901099978377822e-01 7.737859306222533151e-01 1.050928439634485345e+00 1.116534053382281400e+00 1.335424409092538678e+00
