7.483195368238741985e-01 -9.378599128335327606e-01 2.164619700478009889e-02 -3.042133031898845985e-01 -3.857142088339617914e-01 -9.770486863912311026e-01 1.424384814401391530e-02 -4.699013497387047877e-01
1.450903357006259053e-01 -8.295743123737211455e-01 -7.144263079372972225e-01 3.547817617395236933e-01 3.479235475398696487e-01 -1.385514261282037030e-01 -6.333750931283579355e-01 -1.683960593126521132e-01
2.062128269866350117e-01 -7.003417481652978172e-01 -8.485786271943098757e-01 -6.714088774110602564e-01 5.289129050275429567e-01 -2.735857573295321643e-01 -8.700104806742083863e-01 -2.160955820646623948e-01
-8.167034605253498114e-02 3.682515350712192159e-01 -9.041387132061657894e-01 2.452790870652954425e-02 2.615880141291802019e-01 -8.789405035216428796e-01 6.606584305462348539e-03 -5.527393193468044252e-01
5.459559304887293685e-01 6.038711516231278775e-01 6.473227029660388876e-01 4.645384408142241295e-01 7.100344612986630999e-01 6.988448522284747000e-01 -6.334453344890724757e-01 1.400597605959938985e-01
-6.627339963411478241e-01 -4.426774381371243461e-01 2.113284976821119265e-01 8.380000340797419955e-01 -3.124759595818069613e-01 4.045500986657681874e-01 -5.481165926149287326e-01 3.232334441662243485e-02
-6.775316399578135140e-02 9.280604512307739640e-01 2.026768221056229891e-01 -8.937688835854080693e-01 2.571633993444044641e-01 8.020023596623595541e-01 -7.359440348892403172e-01 -4.416197534889862997e-01
-7.560762611464488803e-01 -3.089243335219284958e-01 -1.148604175810459260e-01 -7.842637509462895284e-01 1.985123407341169433e-01 -3.017629421208753993e-01 8.065746954486303633e-01 -9.237827749264646560e-01
-9.207638837806646492e-01 -1.322674101362790733e-01 -2.238733851011320830e-02 9.326954810956979980e-01 2.126553706076579342e-01 -5.621028424369456378e-01 9.214915951316187126e-01 -1.921611064952604142e-01
5.463234783547239459e-01 1.018021593914695488e+00 9.099840948935239426e-01 9.546900810886272959e-01 1.058879915048282161e+00 1.283536594025823652e+00 5.746806710764668091e-01 1.169806404803889421e+00
