-1.870751120853308969e-02 2.836849117624296035e-02 -3.278548014754734119e-02 5.586816638088285547e-01 -1.053992566653456642e-01 -4.067501671320050693e-01 -1.047007237585833028e-01 7.405059002585856476e-02
1.367931772578259153e-01 4.944426605338358982e-02 9.682575349611506343e-01 -1.096844281490441109e-01 -7.483319213433519135e-01 -8.165326979546041475e-01 9.385196938245936593e-01 1.498535650703991529e-02
-2.371351128364826977e-01 1.495553669013960363e-01 -7.933122481049186270e-01 -6.677083931212246526e-03 -8.022366703643362129e-01 1.626190506441056449e-01 -1.958644301874421512e-01 -6.220903372540902421e-01
3.715832508320329186e-01 1.464693128453342652e-02 -3.132954766216389242e-01 5.113248075853404906e-02 4.465887203501512914e-01 -2.690915513974081463e-01 4.291627843390108943e-01 7.634943921600911843e-02
-8.947639602078585330e-01 2.194454683957951513e-01 5.843221242118186165e-01 -1.523786399619067033e-01 -2.160053583253751519e-01 6.027929698432967776e-01 -3.896597704777113869e-01 -5.889018862852830605e-01
3.803293552219997320e-01 -5.702600806668178812e-02 -3.456006476833870522e-01 -8.981424391101289206e-01 -2.313715022517692788e-02 7.534259200626212127e-01 5.658126474073403855e-01 9.070534569966230976e-01
-4.039035473736167781e-01 6.955595689260438697e-01 2.880752668492181368e-01 8.088044956388362738e-01 -8.698851937315985605e-01 -4.981563691296315710e-01 -7.611529012978657249e-02 -4.345483033531947203e-01
6.238660915129869977e-01 -7.736507649802535358e-01 2.290834199282330008e-01 -1.078611314204691585e-01 9.428912144585250843e-01 -7.409283086779059335e-01 -1.845747880425443466e-01 2.552059858745849841e-01
9.286347162645371967e-01 -7.075989855960642672e-01 -7.850509630454971521e-02 4.441603639449316354e-01 -9.999764416886067764e-01 5.103565129678204748e-01 -4.745224071005949007e-02 -6.194685578241967416e-01
9.336789155752270863e-01 1.080310759829708367e+00 6.129520545418067901e-01 1.352438950940902496e+00 5.044777297033308239e-01 1.163411074593057926e+00 1.142123310653009760e+00 1.341603236197327353e+00
