9.315207805369118965e-02 -7.871892928821193625e-01 -9.261067837221359511e-02 -4.543910138098627982e-01 4.114042993493169931e-01 -1.166362626332517749e-03 -5.053289725393530496e-01 -5.992964941911689269e-01
2.629456054706325041e-02 -3.455335887083617052e-01 4.482827193726379722e-01 -2.431963885754750976e-01 -6.474026387401732308e-01 5.176228835436651465e-01 2.097028115114194513e-01 -1.043711609266511076e-01
-2.376202434540766184e-01 2.629721064525534224e-01 -6.891139868004483304e-01 8.197336694013674929e-01 -7.007935816720856081e-01 -9.463058096602150471e-01 -3.370024466608469993e-01 -9.861359187498102141e-01
-8.155443664597616937e-02 -5.031853014318570239e-01 -2.200726013607889886e-01 6.479261137680254468e-01 6.794955845517680615e-02 -7.473444188289628531e-01 -3.336792933917678283e-01 -2.883580293743694956e-01
8.474616715598526362e-01 -9.184929422148613298e-01 -1.574884967893641630e-02 5.534292250562484750e-01 -1.531825706492075945e-01 2.823508110462435994e-01 5.281570876925623104e-02 2.426882716706779686e-01
9.813098654042646807e-01 4.367724622997481987e-02 6.343006531350161570e-01 -1.444904830305953070e-01 9.231663535847860480e-01 2.955468082355079407e-01 9.542581252032353856e-01 5.846766062038279976e-01
1.757844580930529865e-01 -1.596231384443840273e-01 2.713922475456911343e-01 -3.213267986926324760e-01 -5.283795977384464493e-02 -8.417111825219669718e-02 1.495712198779077795e-01 -3.184343999311300966e-01
2.937794648440090750e-01 -3.420252177479177202e-01 1.833693869011931987e-02 -4.553833150181425538e-01 8.939773288098229465e-01 -3.697856522356075537e-01 1.043133353081520109e-01 5.186577267870524643e-01
6.677640812694598527e-01 4.283645467647656524e-01 -7.993917667129555316e-01 -5.148927926221391616e-02 1.758944825679018553e-01 -8.088952374518187938e-01 -2.760815988674973909e-01 8.504343541258012618e-01
9.049567583511343161e-01 1.389701831235981011e+00 7.085782059710787895e-01 1.466224660826037640e+00 8.138870138751435057e-01 1.473849098103200639e+00 1.410558008375371708e+00 1.317923946552757464e+00
