9.150696947959420235e-01 6.724731844133624570e-01 -9.199818100054699688e-01 -7.584087019728447121e-01 1.978922634485988929e-01 4.984788443851482231e-01 1.535915991358633992e-01 -4.683208387312816079e-01
-2.759025365094647242e-01 8.579755069956318536e-01 8.979000925201618966e-01 -2.159641625591102176e-01 -5.917083090103458787e-01 3.807322445095295826e-01 1.700097148009183101e-01 -3.529140736918663368e-01
2.506525447679830432e-01 -5.555752502595781017e-01 -7.880200845364671025e-03 -1.306308579470376596e-01 -1.090392798536470309e-01 -3.248606648230800698e-01 -2.033926685575784266e-01 -7.026366539287809410e-02
2.175255367979971322e-01 4.078502349864376875e-01 3.072311024841511973e-01 -9.781211656471806570e-01 -1.197250414728239232e-01 -4.921110612105392690e-01 8.002942755394901742e-01 8.113585170907993138e-01
-9.207250483613038661e-01 6.103559567019787302e-01 5.534135074368571328e-01 -9.487912453762172849e-01 5.372676077387672500e-01 8.628921243600202740e-01 -4.364316626364124208e-01 -2.525587598070000439e-02
-9.543052472479423010e-01 -4.067800330960573696e-01 -3.188538359353190188e-01 -1.437146472877779413e-01 3.708607376550610013e-02 -8.137547706012089321e-01 3.639187496208391437e-01 5.933927775560614570e-01
-9.071319409942257828e-02 8.336187233377589934e-01 9.209263031201950778e-01 -4.366417683915209125e-01 6.666928824854472246e-01 -6.200487081656707034e-01 -2.027714326993867999e-02 -9.703937975396681459e-01
-5.865635676740534876e-01 -4.019576119782550805e-01 1.284622181636918548e-02 7.836439362119085317e-01 -8.673639608505450127e-01 6.311219663751710396e-01 9.379879032889828494e-01 -8.668801223541375833e-01
-2.238416048039024719e-01 -8.838199473254069183e-01 -5.787275583277646795e-01 -6.484112254553591193e-01 6.146243562581372721e-01 2.442317686331749726e-01 -8.744898918951409250e-01 8.279146551175158297e-01
7.887141757694610122e-01 1.086519842837215144e+00 1.153800237879731849e+00 7.310762484886916823e-01 8.866059693602201808e-01 6.920399405505843760e-01 7.410464874387102663e-01 5.966797488201619482e-01
