-8.357810408266042046e-01 -2.772489970551810234e-01 -9.316481655524835315e-01 -8.392006675656318304e-01 1.751786079737605029e-02 -1.460629566677149604e-01 -9.570067812267499807e-01 -9.825214744823600466e-01
-2.675779181091606507e-01 7.914931853845486032e-02 -5.595080916078887245e-01 5.591425262119855688e-01 -9.093884915260530555e-02 -8.163122932263673359e-01 7.278314822457006006e-01 -5.779354167500838635e-02
5.471686896797294253e-01 -5.775117393986506364e-01 7.120730202170277856e-02 -7.206363143853691255e-01 -1.625329639071786403e-01 5.527436853133720351e-01 -2.956944403800487731e-01 -2.563579328674274738e-01
4.573603524768574680e-01 -4.510792860374086555e-01 2.612678065360494184e-01 -5.643828159756512086e-01 -2.107984976788435105e-03 -3.518873049209803039e-01 -1.052540323840833736e-02 -5.219882125347059532e-01
-5.024535892509840451e-03 -3.992097873208522163e-01 -7.636832032784357516e-02 -2.806031076528217039e-01 -6.324362314265881135e-01 8.376183899461679960e-01 -1.264535939443505175e-01 -2.968534967247724587e-01
-5.462568990048448647e-01 7.252371926881866493e-01 9.725727522158746918e-01 -5.030191991434298515e-01 1.141482988364561635e-02 -9.087979360254012651e-01 2.828172284994894259e-01 2.733894843261921448e-01
-9.883353567150976460e-02 -3.277838675294253434e-02 -6.732163053492594695e-01 -6.291249284549182974e-01 -1.769289542242498126e-01 -4.318815416739918422e-01 5.034684980054227044e-01 -3.344843255933225290e-01
3.439924191298948664e-02 -2.327529854759906591e-01 8.812973652738134156e-01 -1.389002505332581627e-02 9.846616018839629003e-01 2.815397175432428067e-01 7.077530797785502870e-01 6.209816615713164012e-01
2.769187425465662322e-01 6.531850348638690296e-01 -3.113545236368049363e-01 6.853481700112271646e-01 3.089898925035878818e-01 3.799788958024961083e-01 -7.851261735663852548e-01 -2.122239865662904901e-01
8.560361372893801057e-01 5.008373377937319626e-01 1.214766438073342503e+00 7.071992119869893179e-01 1.383739296161141663e+00 6.689243827378655860e-01 9.423890505989457322e-01 1.401333754146917743e+00
