-3.105771600039302083e-01 5.421590991125431191e-01 9.654937328558292897e-01 8.960372297362662053e-02 -6.925257414916619059e-01 7.590935855838965018e-01 -8.484831165760711169e-01 1.277460664620488906e-01
-2.815891705566131442e-02 -5.579355600552329264e-01 7.007719567022814289e-01 8.841086384270431253e-01 -8.078154769636001209e-01 4.990399260621534161e-01 2.382093193759851069e-01 6.179334452180853532e-01
-3.846233045075009294e-02 -2.540918785437329408e-01 3.942491795378133546e-02 7.472117277373522271e-01 -5.516209551163080427e-01 -2.018507514840628403e-01 3.925392711902000453e-01 4.927265298676797300e-02
-8.208274285816807847e-02 -2.516039364964177683e-01 -6.236994375291722292e-01 6.883166266269509226e-01 -6.319053402665417707e-01 -9.223141908129230959e-01 -6.663107573663729077e-01 -3.739720324376578642e-01
4.590479011679493571e-01 7.173446088456350012e-01 -3.635229086777311824e-01 -2.528963630280312014e-01 -4.179700286468239767e-01 -5.532452401558152211e-02 7.290686985318535207e-01 -2.394432919160631723e-01
-7.113160948390739868e-01 9.169366468002460024e-01 -1.514650126909946604e-01 2.614787051100460058e-01 -8.715221305757849812e-01 1.423897943256644538e-01 -2.101059680007568709e-01 9.862566558280014828e-01
-1.178011295338883269e-01 -6.224201543296792316e-02 -3.952880305048500631e-02 -6.982878612258944795e-01 -6.472415059376059876e-01 6.944593822302334019e-01 -4.358201390119644802e-01 -8.080723934338964742e-01
-4.677620430484694669e-01 -5.886785398065403907e-01 -9.094702972676278474e-01 6.591821690178689686e-02 8.886205435247591655e-01 6.172390133064329376e-01 6.220786840919845240e-02 -2.536018285399044281e-01
-2.011375374665458349e-01 -4.904202260401262503e-01 -2.001323967408847881e-01 3.435825297692647329e-01 6.016847019587983070e-01 -4.050291151532774414e-01 5.534524721790312629e-01 -7.798361883315678700e-01
8.341987437272927464e-01 1.331163063555560910e+00 1.364838551955013024e+00 6.614969851157898040e-01 8.856830382211920982e-01 5.417867861676549657e-01 7.432677331331589698e-01 6.373036168713573923e-01
