6.928585538423805978e-01 -1.206949583716214747e-01 9.389164155732032668e-01 7.706818522736027521e-01 1.652675005099644157e-01 3.746909245751575135e-01 -7.631841191443533567e-01 8.422530875205145318e-01
-4.265664391457100191e-01 -5.903749673599067993e-01 -6.727680895449206222e-01 -1.282427886699788466e-02 -1.442923107456770548e-01 2.860678986626961073e-01 -6.781165352606939312e-01 -3.648307539976045621e-01
-2.642016734284990953e-01 4.727823289215411506e-01 -7.853364488247447373e-01 2.699860038668906448e-01 -5.827157534977158715e-01 -7.923426439727458970e-01 5.589708656346756843e-01 4.107176535472536472e-01
-9.529382512069524136e-01 2.394855386341789849e-01 -3.408846845624542432e-01 6.362818528185276712e-01 5.387967461601717023e-01 1.652006453493604088e-01 5.991402046736051812e-01 6.808383216792803783e-01
-7.107239653016059755e-01 -4.980362048674840114e-01 5.679693213449199529e-01 8.585594778934935167e-01 -8.309804621782213019e-04 6.412548905842443414e-01 5.647186344676371483e-01 8.750441413475700259e-01
1.179089801384636260e-01 -9.846818717771799179e-01 6.685302597599813712e-01 -8.167589352846389428e-01 -6.990279779425012663e-03 5.910165328450154298e-01 -6.201250966353659688e-01 3.328687876027744963e-01
5.679859719741939816e-01 -6.330561493095525627e-01 7.290249486846511751e-01 4.876995871195581866e-01 7.741922057300645310e-01 -8.508153275912051505e-01 -8.731773200865249329e-01 -9.939929520738066682e-01
-2.729609906642025408e-01 -1.760312303942352941e-01 5.031652513043860520e-01 -7.397265098439536057e-01 -8.227996498190552899e-01 -3.451887914183746631e-01 -8.072083417878848088e-01 -3.309124853005926958e-01
-5.142826165816964945e-01 3.662333834365578689e-01 4.192728389287714297e-01 3.274245050658619594e-01 9.949811483668518086e-01 7.684297171828657902e-02 9.035376155563492606e-01 -4.570677310870139287e-01
1.459252483309449566e+00 8.434346080690686698e-01 9.704036422151151031e-01 5.413139221897969033e-01 1.062563110383859311e+00 1.366857783564350282e+00 6.841259992450025029e-01 1.334753493382120570e+00
