-4.280615193947139296e-01 -7.260788025047455463e-01 3.220712071418248001e-01 8.522034325044700598e-01 3.636843016217938818e-02 4.484276154765374223e-01 -7.808729542459458273e-02 -5.863807273025067879e-01
2.348309572829347935e-01 -1.460615139916170424e-01 8.990108641281195911e-01 4.259719967297750376e-01 -9.552243100875283943e-01 -4.442801494646315685e-01 -9.195773654856056467e-01 9.745423804224428999e-01
-1.953735953073216791e-01 -5.082014374519887578e-01 -6.537698527497528556e-01 7.513382791905376390e-01 -3.690533399306561435e-01 -7.740729636139929148e-01 1.210446681024262006e-01 -3.341393719750525015e-01
-1.588938318725372500e-01 -6.946272520986538357e-01 -4.492177142212325780e-01 -9.920995759972226491e-01 -9.706489094277863661e-01 5.148656338409951516e-02 5.282354902048689294e-01 8.040640940207668397e-01
8.108668084251005048e-01 -9.201621176319905171e-01 6.052155151950897594e-01 6.421240947425448375e-01 -1.946641437074327907e-01 -1.639527569209477953e-01 6.171997248118126222e-01 2.375256891474022414e-01
-1.789198422092581620e-01 4.294038743596733099e-01 -6.869911024116368559e-01 6.605927851486834701e-01 4.444250996545662247e-01 -5.871174607495159847e-01 6.378460417050777487e-01 -6.160926183141202106e-01
3.800235548171009281e-01 -2.580368785780005059e-01 -3.287963615127060812e-01 -1.959953702007406484e-01 -2.019383501875295917e-01 -8.399316955910587357e-01 -7.113542273572857066e-01 -1.724868512830806111e-01
-2.566555599480895289e-01 -6.865186776018095127e-01 -3.852823947584649300e-01 -8.590134341162116716e-01 -6.976131098608231440e-01 -1.414981917993030081e-02 3.088432798672278157e-01 5.258012461970831275e-01
-9.074739271817617858e-01 -5.718384333806449948e-01 -3.531154674074137301e-01 -9.336887002984117778e-01 9.621624387786469335e-01 -3.694938796532845071e-01 -9.137202422689831849e-01 -8.902481282541121477e-01
1.343919175026793145e+00 1.041132174909386920e+00 5.408969775832839222e-01 1.164827855543606017e+00 7.233073980395199332e-01 1.105360533734558004e+00 8.309944970281586407e-01 5.987008722048872134e-01
