5.282936440781860199e-01 5.943464277394250317e-02 -3.965538516419189197e-01 5.849206156403190526e-01 -7.327118820410187805e-01 5.910773838403331482e-01 -1.126450250602000214e-01 -6.728401942552137971e-01
9.967834534763597709e-02 3.410618502715176970e-01 -2.318788493120187422e-01 7.023287791817958148e-01 -6.049282447529265028e-01 -4.561394828522626899e-01 -4.766047498865042531e-01 4.059966267388432914e-01
1.591685663914570448e-01 -6.984636717673800010e-01 9.514961213590860112e-01 -4.413526142605725955e-01 7.645841162170308181e-01 1.783729817851515964e-01 -1.158256370216355080e-01 5.821131668992063357e-01
2.911406896184076665e-02 -7.125752235374476218e-01 3.211019804701311653e-01 7.000521246567521505e-01 4.398607062557502445e-02 -7.870633022455375549e-01 1.003835079420456466e-02 -3.999875973506417104e-02
3.340201068592330014e-01 -3.601929818449689513e-01 4.182256034028879466e-01 -5.609743801332431890e-01 -8.453500180506365869e-01 4.140511686655694579e-01 7.918512416444478674e-01 -8.533205142371553809e-01
1.753023135008433542e-01 1.174175111203052957e-01 9.598151510384955731e-01 5.128011801372145406e-01 1.112784317271977574e-01 -3.035245174464558104e-01 2.991465880010686362e-01 -1.091585363694982380e-01
9.157754633574253234e-01 -4.338035294674791320e-01 7.720250946694806604e-01 -2.599214934329312499e-01 -1.587627710265679948e-01 9.382717999963388067e-01 -6.124632491567914006e-01 -5.446258553601350805e-01
-4.578306036575074955e-02 3.166787401559512105e-02 -3.985626816658374150e-01 -5.393148108224909976e-02 -5.074438727634715818e-01 -9.847125321909033779e-01 -3.232776941368717960e-01 4.142383014196564517e-01
-5.489042118247482449e-01 -9.200668393813002943e-01 -6.575593286785275104e-01 7.937882521676895564e-01 -7.558669737390091292e-01 4.023102863986502964e-01 5.101242320010228593e-01 4.118891366403705234e-01
7.521230621072511058e-01 1.067891584040841169e+00 1.080803347453375807e+00 8.503496853533596411e-01 1.410288986415360490e+00 1.440839965025093594e+00 1.386735841285837934e+00 1.379500554096815268e+00
