5.436459642385798041e-01 -2.765969631606728374e-01 -7.920657471245213799e-01 -3.993253137296077782e-01 -3.910489038467772627e-01 2.810274892033781668e-01 7.817863515861529500e-01 -4.172686325344598934e-02
-6.719211611168789400e-01 4.936182840241141179e-01 -3.056892249815532647e-01 -3.153637915394231772e-01 -6.023359078201548922e-01 -9.561086453726619361e-01 -2.554916584814705960e-01 -1.994343455159754974e-01
6.765711794594808648e-01 -1.108670245277374455e-01 5.372487335483766557e-02 -9.229093797543757027e-01 -7.879679560229986279e-01 -4.088620123125057404e-01 -4.856828197358860066e-01 -8.115977568739272119e-01
-9.311491878281357160e-01 4.708819061896973857e-02 7.437575449667748195e-01 1.904969999978791684e-01 3.489347937482611961e-02 6.328641360665074878e-01 4.986482465076409465e-01 9.959480694274249757e-01
3.097020702052120100e-01 -5.509206880393120453e-01 1.786764208988893543e-01 4.524953678197278784e-01 3.339429093212333832e-01 4.142816907787312264e-01 7.145274903588474391e-01 -1.536246096414002338e-01
-7.629035416067750930e-01 1.988628622389319034e-01 3.098784992373790903e-01 -8.644049322857647599e-01 4.211168820525039713e-01 7.530928215103402934e-01 -6.700325521490160252e-01 6.110813994249717496e-01
5.174250427843760658e-01 -4.714558221555908979e-02 4.979324687743114097e-01 -9.187521476832090084e-01 7.885511532039497506e-01 -1.962169446160204611e-01 -4.755713436259523252e-01 -5.037942882648220877e-01
9.170053128823314470e-01 9.782790814084396658e-02 9.252288507505881388e-01 -6.960424369664479638e-01 -1.001877328729698924e-01 5.825104569959778100e-01 7.458695999908027119e-01 -3.744015270236533688e-02
1.306329097473943879e-01 -7.236008595745742067e-01 -2.181091069892215906e-01 -4.092106705460665239e-01 8.642197353369736046e-01 7.565196011661496911e-01 4.796964063948268020e-01 5.006683833997065403e-01
5.027993164181538965e-01 1.035280292272616531e+00 5.490124093119648219e-01 1.036463680463909354e+00 1.192893124556227091e+00 7.456322687590966058e-01 1.080449550627466060e+00 1.384483683947568711e+00
