1.163743673253425648e-02 -7.492266084768517409e-01 -2.974250035107175449e-01 -8.112012169923341620e-01 4.483666995834567626e-01 7.761047017780451363e-01 7.161301896036715853e-01 8.637729354702721185e-01
-4.150119597336763277e-01 -1.375752988607348293e-01 4.351745727115414741e-01 -6.466631487921941090e-01 -8.968188317179788260e-01 -7.881642855629089617e-02 8.927027654829184922e-01 -7.865968844263757642e-01
-6.468903964355778857e-01 1.419637046342536735e-02 2.925178653818050201e-02 6.800512096698281272e-01 2.646692130002055166e-01 -1.484879448875742192e-01 4.038673163020867207e-03 -5.499141745039020091e-01
-7.139832493482152209e-01 -4.263578787831709960e-01 4.280337479341540519e-01 -2.086327171534270164e-01 6.270307471896889862e-01 7.088434924241042712e-01 -3.560181542651097431e-02 8.497332448491934365e-01
-2.249766678513118734e-01 9.456746231835788663e-03 -9.210711134142262058e-01 -4.757581988634274062e-02 8.174373906095278031e-01 -8.854553509446196902e-01 9.560284350408034815e-01 -8.525121060385070226e-01
6.058625670091635218e-01 1.036893082718914894e-01 3.281167574637819939e-01 3.127671815693093826e-01 -4.165059110659725672e-01 7.578162870280371610e-01 2.365293019774392658e-01 5.325913144268275001e-01
7.379922722689185033e-01 -4.327642393753956540e-01 5.016451911834585164e-01 -2.161803940511275446e-01 -8.400159944415619417e-01 9.254026153709973279e-01 3.381443524236524834e-01 -8.253408767345944419e-01
5.533479483612444572e-01 -3.433872362321803706e-01 8.480139449117127803e-01 4.969908604973549693e-01 -8.432991718638915835e-02 -2.450566073934659084e-01 -2.074614214436043547e-01 -2.570684093703863304e-01
-5.469035668194051070e-01 3.761531796830850372e-01 6.560607704915075722e-01 5.694251470551094929e-01 -4.381961521009705152e-01 -1.951905156102091699e-01 7.900669259373378495e-01 -6.643251437057908770e-01
5.366889714673317435e-01 1.141177882014258849e+00 1.300060485260251530e+00 1.108415126675297291e+00 1.102110991648495242e+00 1.124490855653458743e+00 1.469121396608463082e+00 6.681600843661255063e-01
