-3.692405075799973790e-01 -8.793830379022200550e-01 -1.759468440415015156e-01 -6.466291827533048320e-01 -4.820767381737955937e-01 8.861320914876016364e-01 -3.778747629055752011e-01 2.858248359560167096e-01
6.336018859737704290e-01 -6.499727809801569833e-03 8.961380146026245441e-01 8.582795411614376757e-01 -7.321615217172809942e-01 -1.613618575447881565e-01 3.464373609369992835e-01 9.098760323551131624e-01
-8.235340732055622670e-01 -9.190805620163144951e-02 9.035326951372570914e-01 -7.149546144553300397e-01 -7.329105490607494833e-01 -2.164127601561112169e-01 3.356360167770759961e-01 -1.163248866746791066e-03
3.598364082809328846e-01 -8.979737977964650231e-01 9.806597997937811506e-01 -9.764578796666998350e-01 8.814088716762593645e-01 -2.646992593296930707e-01 -3.561318007260070306e-01 1.902868487865101432e-01
-2.421610554300921425e-01 1.412848009667335702e-01 2.609119533956683057e-01 -2.342708093746503906e-01 -9.887239625334240944e-01 -3.288695034216091440e-01 -8.585673015402301989e-01 -1.958190242849924267e-01
-7.571967445037510736e-01 -7.406875350528596691e-02 4.183799537123831236e-01 -6.599582563496346754e-01 5.691623584162419647e-01 -4.573780304672159236e-01 1.611420356384738461e-01 -3.945977912725229242e-01
2.288443379914295583e-01 -2.403909356752782500e-01 -7.783387379729935773e-01 2.866560234705879395e-01 -8.862042880194245242e-01 5.821198745208921999e-02 5.115180731237491951e-01 4.968145113592445927e-01
-1.850149207838229781e-01 -6.862672428128080426e-01 3.474474015562722951e-01 -9.460166610007834098e-01 3.758463473193212057e-01 -5.366930930419628876e-01 -3.647832017857142173e-01 -1.278872731417328712e-01
-1.000053180001130304e-01 -3.018349655907657247e-01 6.745382618633219973e-01 -7.728910999866043241e-01 -8.495829340638558769e-01 5.195574007892367341e-01 -3.997378287029411670e-01 4.729985082985939115e-01
1.133612175233919661e+00 5.858661781874028307e-01 1.007855145389932039e+00 5.766394554652641835e-01 1.062138257322963630e+00 8.248857310052367664e-01 9.324201405710536017e-01 1.496789573534178075e+00
