-5.617755014135192848e-01 -3.111459254897379623e-01 4.860976406017178952e-01 2.629338403462133655e-02 2.124003013487294478e-01 2.802465489883396721e-01 -4.944648097532997610e-01 7.405344454687556865e-01
2.198086645786834215e-01 -6.105299375495407688e-01 -5.559066938060848173e-01 -1.058773397375680769e-01 -7.028677292203331373e-01 -8.855952903486574712e-02 -8.420555695283358233e-01 -3.061662188568110565e-01
-8.609214141630880945e-01 -5.064010348313054966e-01 -6.841787932179443921e-01 -2.456194886295650637e-01 -1.777281080742283415e-01 1.008514748253184212e-01 -6.466206731680326225e-01 7.198638469187799149e-01
9.940539592741937103e-01 4.498825601044791345e-01 -1.776512109157721842e-01 -5.442393731281724989e-02 9.361174665246863036e-02 -8.032069627153639590e-01 -2.181064369578724627e-01 -6.575327181537860000e-01
-1.350130212382003592e-01 4.096890928079512939e-01 -7.634017281462053273e-01 -8.219204412362370871e-01 -7.715461416873452549e-01 4.926129270395360749e-01 2.769839649160132922e-01 -1.310233912941696222e-01
8.950962693535893244e-01 5.377122754445324837e-01 4.132052667568320015e-01 -8.251905965373358409e-01 -3.416004313649871893e-01 1.217833639214027652e-01 -8.275565487106355533e-01 1.792086039117313234e-01
8.742772142251076239e-02 -8.234670252534879165e-01 -8.765931261570454325e-01 3.495538343239152912e-01 6.768400309524713609e-01 -1.447416150812690372e-01 7.616547834191966793e-01 3.370650167707767153e-03
8.970201770539834030e-01 -7.175348701083457126e-01 9.760354090528713389e-01 -3.810055941778918154e-01 8.335189241644760383e-01 -1.232977180390015803e-01 -7.629867970945212186e-01 -1.274897050064009996e-01
-6.757337473470383937e-01 -4.882747290004263441e-01 2.574027912026202181e-01 8.108355868775001252e-01 6.269029983186431565e-01 -6.264136363481920267e-01 -8.866409965187194153e-01 -1.673501575385172302e-01
5.262466067459129482e-01 6.344768123701656215e-01 6.467962651116317963e-01 5.688884845323003425e-01 1.497727199414080390e+00 5.031986139500890243e-01 7.068731489036729210e-01 1.244915328335829408e+00
