-7.831197208606788251e-01 8.582082055990414293e-01 -6.724269227868235888e-01 7.694679933173285136e-01 4.505268155767916394e-01 -6.008591884241394343e-01 -4.670539062771872363e-01 -6.036470407673337757e-01
-9.193991629945701405e-01 6.854110655326997037e-01 6.677284473200488790e-01 2.042626892640664327e-01 3.710478623199784387e-01 9.142826458534321077e-01 -3.001495274073096020e-01 8.533127558829769477e-01
-4.893281064290539994e-01 1.331198506692667927e-01 4.072134328006198345e-01 3.659218913356387937e-02 1.223843023980462075e-01 -3.243077242918810388e-01 4.916593059195730753e-01 8.426887445861614978e-01
-9.774521161759335275e-01 9.808583175172038704e-01 -5.450965999601458112e-01 5.911325536627742849e-01 -5.021838985131672484e-01 -2.008037825214359362e-01 -7.707721216069516323e-01 4.848105902558166314e-01
9.843212269975680773e-01 -7.245806878002554186e-01 9.620079280642497288e-01 1.434373590701367718e-01 5.867834701105061335e-01 -3.745871522090440386e-01 3.140889117752805326e-01 -5.947515115563850596e-01
-8.299648873857459197e-01 5.668543102686776081e-01 -4.615403293981144017e-01 -8.629927660883320861e-01 -8.123107318729880788e-01 -3.409666660153058970e-01 4.540644731342673435e-01 -8.007538134807281605e-01
-2.430821201617554550e-01 -7.786894831629531666e-01 8.945678611120773116e-01 8.384817561092396954e-01 -8.286847300372208736e-01 -8.751549173156567552e-01 -1.842150279084375786e-01 7.023246183686662203e-01
9.785986038635015039e-01 -4.860140310870488811e-01 3.049177203511086454e-01 -1.723348875862031893e-01 -6.453929946081660152e-01 -4.480805933420322074e-01 9.614786145655231930e-01 -4.032459233406595622e-01
3.346453576129477803e-01 8.746829767633244046e-01 -9.254074272171912696e-01 2.196507527002358184e-01 -2.197000370501567268e-02 8.900904945429310988e-01 5.085809972819805846e-01 7.849471674864294535e-02
7.824190101466301783e-01 1.192337247419269497e+00 1.185227440529478260e+00 1.444963820770452934e+00 8.946706269061365235e-01 1.000178578160996423e+00 1.191859173151020190e+00 1.107255825250083703e+00
