-6.933193723683548360e-01 -1.266768804303444185e-01 -6.345371372584096559e-01 -6.870735094965221279e-01 1.374284422727354293e-01 7.432765080068737262e-02 8.204100385331229983e-01 7.003569409216650055e-01
2.629856335042131121e-01 8.204519627524822223e-01 2.605639215045307822e-02 4.359488666359971898e-01 -5.708574301043873866e-01 -3.133379954519723842e-01 -4.160156095153881850e-01 7.433001411309780870e-02
-9.105176252117397340e-02 2.702570579366669890e-01 -7.639025786120214878e-01 5.240043058316081748e-01 -7.447440617349796455e-01 2.616373587441533921e-02 -9.579140756362121145e-01 -2.264302235318136347e-01
2.317068641484893998e-01 -2.606094473932274447e-02 4.032881884140748774e-02 2.542347415052710335e-01 4.751501625103522475e-01 -2.679594095967599010e-01 3.323112125741047862e-01 -4.297206796109307447e-01
-5.466346999929589945e-01 -6.093562781313723864e-01 -3.387986187995757348e-01 -8.303593387950194415e-01 -5.863277785489124927e-01 9.202100676808806501e-01 -8.226656450661116171e-01 -3.537555855675402761e-01
7.730672114154133467e-01 8.485706298661410685e-02 -6.044839151620540196e-01 8.098753054823899511e-01 -1.261653238530799914e-01 -9.145253554967625043e-01 -6.229685461342089337e-01 -4.949002250164866723e-01
8.207227465662640942e-01 9.353392315869750728e-01 -7.636813631381849099e-01 -6.977638850730416564e-02 3.084139861552492867e-02 -7.922636885136611351e-01 -7.766339041881529237e-01 -5.638636368064422477e-01
5.825041921293432345e-01 1.801470595325933566e-01 1.182248269682188990e-01 9.725080255591942446e-01 -1.932538818066569242e-01 -6.222480439198805335e-01 6.274854882823295288e-01 -2.052899372871710426e-01
8.357781160710520130e-01 -2.162229436062224064e-01 6.041754830874324078e-01 -2.262803556211996359e-01 3.844707170799948059e-01 6.583626090774541417e-02 -1.823419073901977328e-01 7.765836273800170719e-01
1.061252314598085889e+00 1.482547313287593482e+00 5.516478145255159227e-01 1.353902695195668748e+00 1.386892654047784390e+00 9.544126548928861808e-01 1.312293045729426844e+00 7.178937330526155014e-01
