5.034852152688202853e-01 -3.355689439253617401e-01 -5.825425926244560682e-01 -9.569332941718273755e-01 -9.940183661416095440e-01 -4.761598680362437719e-01 -4.404933583945800368e-01 -8.499488192831843314e-01
2.662376650864415328e-01 -4.146280621963036594e-01 4.596442204234545414e-01 -3.280032419718312831e-01 -5.373835844906047488e-01 5.724760041579057823e-01 3.758996242512899766e-01 -9.735523955095854998e-01
-9.087834064469964002e-01 -6.409714723825949978e-01 5.891951393582810503e-01 -2.887265886126042513e-01 3.572024918444860475e-02 7.563291039026716067e-01 -4.618872776734517238e-02 2.991661795066842267e-01
-5.428397567378457911e-01 -5.688603959800817567e-01 -6.522782736578414120e-01 8.254611706763663737e-01 7.947273470425919584e-02 -6.811221755943575040e-01 5.898668030060862932e-01 -7.249000664919811321e-01
-1.236757140165540836e-01 -5.973927950194115599e-01 -4.097174848115614498e-01 9.860268832533889416e-01 7.876819166073150136e-01 -1.102309182161422818e-01 6.530390013227094226e-01 -2.990550959784479268e-01
2.963747973024011273e-01 1.981640462353235765e-01 -8.484997885011349439e-01 -6.300425396884348217e-01 -9.065590857125116475e-01 -1.677741696756356315e-01 5.107285816722970662e-01 -5.111439581558068213e-01
1.748130741755833384e-01 -6.247306338897762323e-01 7.858169150365756916e-01 -1.867151805539035703e-01 3.561418820408190911e-02 9.558671507259490774e-01 -1.109308929232604157e-01 7.442000746168293546e-01
5.980352595413604977e-01 -5.529518743554817650e-01 2.123164981837717402e-01 -5.448600076806178194e-01 5.002532831681352210e-01 1.068585506917463235e-01 -5.339249135574315464e-01 4.931443955685064218e-01
-9.759602938823186413e-01 -5.140399482804014486e-01 3.287435431697731669e-01 -5.673634756299692494e-01 -1.587695416003642723e-01 7.146388379473211927e-01 -4.094395760583842137e-01 2.491652225558793621e-01
8.801621584084899919e-01 7.455969786368442653e-01 9.305301351036262547e-01 1.430871819702847603e+00 1.139795316188289664e+00 5.389777068871061116e-01 8.268115404750212560e-01 1.477313955664365075e+00
