-9.283762715729839687e-01 1.846164814044715108e-02 2.448339694798542521e-01 -3.374670624872655456e-01 6.304396085222341295e-01 -6.164671767379727996e-01 5.084221671275415133e-01 -4.263373603425122393e-01
-8.278523828392192474e-01 -4.814805770098948834e-01 1.593504409639556751e-01 7.745556667297481823e-01 2.646676997156924838e-01 7.053724441443034454e-01 -7.990130535855397564e-01 8.837647676471340752e-01
-6.502377027871315551e-01 3.822001157577994412e-01 7.233757050312172865e-02 7.337036615486831614e-01 -8.131749882335981283e-02 -9.109814390796275863e-01 -8.163720058590491213e-01 2.382110344923704659e-02
-9.264013309815359865e-01 6.843367750781066405e-01 4.847076764988997866e-01 -7.784167942939637097e-01 7.302481415646788765e-01 3.375189354033916178e-01 -4.376644908858655647e-01 2.781663649180436959e-01
-9.611256160531009840e-01 -6.155446524206520387e-02 4.049274099718718212e-01 -3.910032096439299831e-01 7.050652693876369170e-01 -6.652718580936523018e-02 -6.449003287904280235e-01 6.900329678281471590e-01
2.002792783636411222e-01 -8.406931328683808768e-01 -3.712878393751199990e-01 -7.415273711867962358e-01 -8.084908616774255652e-01 -4.005757186425396021e-01 1.703020450500662974e-01 7.068244066825206673e-01
-2.030322654877090294e-01 6.888023273583234740e-01 8.456845606875420529e-01 -5.919192672930135846e-01 -8.239348509147865762e-01 -9.148140906189381472e-01 5.245450616376157171e-01 9.151673201227883414e-01
-1.276901150105984595e-01 -4.491999974139941898e-01 -9.757302607884916767e-01 1.301458610764338886e-01 2.433532212476099410e-01 6.377036445835801981e-01 -7.226243744364029276e-01 5.657768645365981452e-01
6.015386430582057020e-01 9.633954932576545005e-01 9.842180187907361155e-01 8.682830467476301273e-01 -4.761595957155180248e-01 4.770064085023397737e-01 2.522563401574156039e-01 1.840428269792562244e-01
1.240991649539254560e+00 7.963883017280553034e-01 9.120743689357724282e-01 1.315753794937337240e+00 1.215782292856634861e+00 7.354693757727582826e-01 9.919878972411767526e-01 1.131601162472317013e+00
