7.402654800962740200e-01 1.256582960054288822e-01 5.040656956474842687e-01 -3.064178984967840247e-01 8.704026000666309493e-01 1.915611471412943523e-01 7.018580329886290325e-01 -6.750278956080111303e-01
5.404749694983597141e-01 1.009516718833625148e-02 7.294534493640607575e-01 -8.849477104069818356e-01 -1.413454559319009540e-01 4.257924241450057323e-01 9.520596479215666097e-01 -8.816207063208736372e-03
1.724279101752834720e-01 -4.838755470785094381e-02 -2.518005582622317995e-01 -5.818657391374297827e-01 -5.716705912621904417e-01 -4.276975043955921763e-02 -2.077901776462012240e-01 4.909787673164660582e-01
4.244075510566676090e-01 -9.369631005780314492e-01 -9.055489719866518517e-01 -6.998919759570747523e-01 8.422018530811588022e-01 4.297095398000707611e-01 8.611271086878429237e-01 -9.323509392825777287e-01
-7.791668310729247260e-01 -4.920981201007170736e-01 -6.038330860089629049e-01 9.858383013969840292e-02 9.562313435821949703e-01 -5.116943140976308868e-01 1.545956979706437640e-01 -2.330724938809711766e-01
-6.157412815911578186e-02 -9.241459207050874980e-01 -8.370680078597882989e-01 6.499453973586941657e-01 -9.921321771941991052e-01 -4.660057776907713389e-01 -3.072084090187436889e-01 -3.760954769735622705e-01
6.013446773942718870e-01 5.523821122668450823e-01 8.022636904960367410e-01 -9.443237305994254260e-01 -5.189812965060218719e-01 -6.308231294792907562e-01 6.921604849356886024e-01 1.389087596036799876e-01
2.549939307330022498e-01 5.118380029221714089e-02 5.238751858911976367e-01 1.457703146736826216e-01 -3.653802765733256130e-01 7.813378807174189422e-01 5.903663200912296904e-01 8.484205883671958048e-01
4.482051812046370376e-01 -8.104172205949220498e-01 2.112920994350930837e-01 -6.979234859526151080e-01 5.952203900467862852e-01 -9.114553931870106318e-02 -2.704629996198719688e-01 3.914248067294370248e-01
8.315463356246527438e-01 5.377915385021512229e-01 1.445464348849737179e+00 5.383545673833144418e-01 1.342769584731739130e+00 1.315533956821691053e+00 1.166754974705743297e+00 6.843917744524598001e-01
