-4.678252254301229485e-02 -3.552008389961112123e-01 9.490544899141959423e-01 5.006204845220549871e-01 -8.299467269439180228e-01 8.133609080133825664e-01 3.450537739812651328e-01 3.745125947427236923e-01
2.302040181247340112e-01 9.056194054314636865e-02 -5.392240663174563409e-02 2.976582911685599075e-01 3.165995276949709059e-01 7.495681637890507787e-01 -2.065644449353110090e-01 -7.171917348440808304e-01
-1.289635595104163812e-01 7.168570726512371039e-01 -3.376221317868970395e-01 1.824918798428027955e-01 6.477646798153646746e-01 -6.560800517875287063e-01 9.631642178533941223e-01 9.168522535771594928e-01
9.744902553015206692e-01 -5.131351267501234048e-01 3.919583485370869980e-01 -8.433474160451717161e-01 -7.810476297728128348e-01 6.223967271758239495e-01 -1.808119309615503489e-01 -1.630490882557456001e-01
-4.632346453017797128e-01 -6.624592207244983655e-02 -5.326237121370924754e-01 4.306285447712492331e-01 -7.099046362434511259e-01 8.945325053260813064e-01 9.118906517693761149e-01 -6.215556188851683039e-01
1.754419174995247577e-01 -8.763383632049026595e-01 2.597966878799806700e-02 8.312838237258945995e-02 4.658145355360412410e-01 8.578790487443566093e-01 1.366237157713590111e-01 -8.956101761384078763e-01
-2.389431966503128280e-01 -8.070752771657148106e-01 -8.671996449446339739e-01 -2.462352923478003941e-01 -9.729718856398370530e-01 -2.426859187857000055e-01 2.634091617265901242e-01 2.242258440656212937e-01
7.386477149915944285e-01 -4.182476701677504405e-01 -4.380451655124675270e-01 9.840421220093986676e-03 8.264724074130613829e-02 2.396573324910393765e-01 -3.616929835843600838e-01 3.501545105100811739e-02
-4.649678930046488023e-01 -9.119225956920187226e-01 -1.741242551260939742e-01 -7.271215120916170171e-01 -8.086236942942426342e-01 -2.541350877759835925e-01 5.577706055511975070e-01 -9.648595974362610406e-01
8.154305830645196540e-01 5.779983548698365281e-01 1.194926795476644710e+00 1.278021822348910375e+00 1.229782906315428637e+00 5.252391001496000689e-01 1.122488747860309388e+00 7.736210812586187258e-01
