-7.735730845180575077e-01 -8.027661766654974329e-01 -9.959880191747410016e-01 -4.760628547553806822e-01 4.298629356521685985e-01 -8.120967310818900664e-01 -3.679523847923604762e-02 -7.484269177853317689e-01
-3.060367346184111881e-02 6.683637321188811153e-01 8.625002224740678791e-01 -9.870191025412800023e-01 -1.449730600568923666e-01 -6.602011275577555072e-01 3.633028565059031045e-01 -7.834227718830435450e-01
-7.329545478835810535e-01 4.540284223417034859e-02 -2.098082131908118875e-01 9.980811133171552108e-02 2.505857076034252451e-01 2.826653717783560449e-01 4.091376437652423093e-01 -2.458738160393938443e-01
-6.774494216114148593e-01 -6.993614955691862534e-01 -9.219646920313198102e-01 4.117168323680531206e-01 7.836164531755021034e-01 7.283330117167974294e-03 8.076583094196885249e-01 -6.081416703813784519e-01
1.711911419292273528e-01 3.922732755867348597e-01 8.280220734211618527e-01 1.897493306002975277e-01 -9.179021614209437185e-01 5.833484895888652044e-01 -9.654287009473230263e-01 9.929515067862817457e-01
-9.772553736272313607e-01 -8.515679697825557781e-01 -4.245493597382268280e-01 6.686968125879497737e-01 2.470296785960126584e-01 -9.138679703033525392e-02 8.780873477673363237e-01 -5.083627844379945415e-01
8.832863940611246356e-02 7.837046296091543240e-01 -4.078647655240397185e-01 9.826919302443182236e-01 7.542973682732585505e-01 6.987479663996960522e-01 -6.532243279411493742e-01 -9.991978389455540288e-01
-2.804688457758495179e-01 -8.701943754274148457e-01 1.965776237881602384e-01 6.257878046891209856e-01 -8.941588037617265172e-02 8.419026965189113643e-01 6.000424980807135267e-01 -7.650160246468851177e-02
-1.700003504883835781e-01 -2.843409450295000251e-01 -6.008490368984036323e-01 9.777702542367303629e-01 -6.069189213721686293e-01 9.428751812490585582e-01 5.738488453849088788e-01 8.736119116532106155e-01
1.228709203913749270e+00 5.822311073351887911e-01 8.731987745592521000e-01 5.054218120483090493e-01 8.105201623139209888e-01 1.115317235786841277e+00 7.721895828730402922e-01 1.189193007790139589e+00
