-1.656956333230796830e-01 4.356758209502977763e-01 5.979102587776479183e-01 -4.545029065327601536e-01 -1.006720215786987005e-01 -7.812024898030602849e-01 7.203648561759046220e-01 2.249328599348712210e-01
5.884925422671107853e-01 -4.445611268338669486e-01 -1.606927016991934742e-01 9.451442374045810890e-01 3.067558629667279657e-01 2.605854439419519331e-01 -1.006348674011052768e-01 -1.244095466600805278e-01
1.446207415590581302e-01 2.010683608561345537e-01 3.821925955565890209e-01 -9.475331053647666479e-01 9.132534608159703637e-02 -2.467639616768493305e-01 -5.266257338295421420e-02 1.365995134431343683e-01
7.812583581211938188e-01 -5.169138095350520601e-01 3.762007407357523814e-01 4.687360844406263105e-01 8.675966445368141766e-01 9.724265453213574162e-01 6.958007993404426994e-01 9.690161423570518018e-01
4.061910802006667431e-01 -7.581378278169330631e-01 5.734078183204964763e-01 5.116404345508567264e-01 -9.113136640980794567e-01 -9.350774128583556610e-01 6.272518141056262486e-01 -2.177398281441047523e-01
-3.143022945957374414e-01 -3.856043702301541476e-01 2.596132272644167127e-01 -5.448793876534598901e-01 -7.239273163727597549e-01 -2.163814547572286973e-01 3.758632855934391781e-01 6.185121655953846886e-01
-6.061621401521681829e-01 5.547566662481331345e-01 1.772281736838874355e-01 7.622196934498846055e-01 3.902689437845332510e-01 2.010249277931559497e-01 -3.828305937041140972e-01 -5.824982848046222905e-01
2.544212826035696651e-01 -7.459039155314541869e-01 -6.688336965468311135e-01 2.817298968530916881e-01 -8.703842378598345420e-01 -7.641375180081468876e-01 8.830789391516469244e-01 3.419527868060145970e-01
9.487363615906287961e-01 6.449861063263218064e-02 7.620224872420975348e-01 -7.934629478782586620e-01 -6.722176712739436066e-01 5.132811540763722036e-01 -5.307376408085051622e-01 3.198325524840002210e-01
1.203131974473884203e+00 1.385765694784248936e+00 5.500747222817149451e-01 1.199547610434631650e+00 1.020663980048327257e+00 8.309797896435743292e-01 5.462778539614018269e-01 1.411499203603377106e+00
