4.327236464144768036e-01 -1.431535433557917791e-01 -1.524649032532741089e-01 3.823215092511669244e-01 9.658526353762324490e-01 -3.085698247499923941e-01 -6.600582664052856430e-01 1.545014401599873466e-01
-1.990456698521505530e-01 7.680150938588421461e-01 9.694954830135880108e-01 -6.884731742470400206e-01 6.023472845003912113e-01 7.394694457726267434e-01 -1.189371669488379357e-01 -9.524964094972985240e-01
3.940866772318776245e-01 3.308783119015301644e-02 -3.772655736167556118e-01 1.107376271493725195e-01 -8.291111673135465043e-01 6.893986065195665258e-01 -3.189800205373998221e-01 3.255786920667225193e-01
-6.334993177134320419e-01 -1.564015588318548033e-01 5.321907328199713128e-01 2.081250163148351540e-02 3.491971350593656709e-01 -2.626468581499730170e-01 3.121247796704558208e-01 -9.451695470433265633e-01
-1.150669638421288887e-01 -7.649790423493330049e-01 -1.471874684537239908e-01 -8.653508148231887631e-01 7.916265051517601403e-01 1.852893561349939766e-01 -1.253630924417616921e-01 -5.927145814010466029e-01
1.407519852658041248e-01 1.084363250243827181e-01 -5.831960193590743913e-01 9.462904986851277123e-01 7.577946153375745286e-01 -8.263518382428578501e-01 7.175697988014710926e-01 9.849725219816176658e-01
-3.997538190317784235e-01 -3.958481031199241329e-01 9.538407444214680453e-01 -9.748700733302606558e-01 -5.699627891507454969e-01 1.905153223828688347e-01 -7.872346116609540978e-01 9.791052401069153532e-01
7.428736669114341939e-01 4.383287466288383616e-01 -6.204259053939016333e-01 -2.049752536948397097e-01 -8.694915313154814029e-01 -6.265031152956299643e-01 -9.351611763380469622e-01 -4.972394990588528962e-01
-9.563792194085081189e-01 -8.732549525669373036e-01 7.226692229503461906e-01 -8.869120529052227919e-01 1.136476221239923756e-01 3.241687145115619284e-01 -1.475503448097073012e-01 2.306189464129955180e-01
9.868334658671222837e-01 9.438436106097741751e-01 5.901201989682018922e-01 1.431102839645723712e+00 8.039838038535628284e-01 1.243635511735944998e+00 1.225693633458214915e+00 6.038083566951374381e-01
