-4.650725505649708769e-01 -2.043302201180514643e-01 5.037282780833631790e-01 -7.746852893385811623e-01 6.330964517096555610e-01 -7.245794220993408974e-01 -3.141521139980572030e-01 -4.429267789955209089e-01
-9.518512969673396107e-01 2.600711577748215930e-02 -3.254297055582282550e-01 -7.976538186124846330e-01 3.598041149358266466e-02 7.341253688816318235e-01 -5.177619900958225774e-01 5.390808054407205674e-01
8.069985516336732889e-01 -5.762025343700614144e-01 -1.036578269794934393e-01 -3.008518585499317943e-01 -3.550495731339755601e-01 -8.888661553651771019e-01 6.431661809665132346e-01 -7.717170267368507197e-01
3.224266551001855330e-01 4.847126444481510976e-01 1.326134012815176622e-01 -7.150991744368981884e-01 -1.304370201243114646e-01 -6.166443983451197486e-01 6.592185650609190262e-01 -8.781455053792242005e-02
-4.233410491047475688e-01 -7.292676854214195092e-01 1.678716092156873341e-01 -3.641929729009412142e-01 2.460667474927136222e-01 -2.502355035930536875e-01 3.991130935606743702e-01 -8.603701390420834816e-01
7.046455295122944218e-01 4.280231088024093467e-01 -7.416680541980191776e-02 -8.144523807197492360e-01 -8.457920175986930467e-01 -5.186471340431264565e-03 6.871517150203354518e-01 9.379858834912091492e-01
5.763621555958089449e-01 1.769763136085233945e-02 -7.402221556673205249e-01 -2.176935536843946917e-01 -2.099388642051216447e-01 -2.654717685220246981e-01 8.077152596243144522e-01 -1.321602879222414373e-01
-8.618814382186752443e-01 -3.776612506698806548e-02 -7.870749228267865938e-01 -4.549390833254256528e-01 -4.962813590850689849e-01 2.005514351671078277e-01 -4.462925446099199611e-01 -2.568249718418535998e-01
8.775855874522868749e-01 6.282559789941575268e-01 -4.266315598247363283e-01 8.922931920868524269e-01 -6.669682040325739525e-01 5.030874308581938514e-01 -2.368293933000966689e-01 4.669712504959755428e-01
9.156992110405779428e-01 8.458465958547299879e-01 6.994143037757027948e-01 5.468703194303201620e-01 1.292775668374832154e+00 1.132459964698258936e+00 1.231615310126193075e+00 1.409653950631171382e+00
