-5.812823043078982899e-01 -1.203359003417547868e-02 8.405802775628594681e-01 6.691093532282177403e-01 2.965577751473604806e-01 -7.766326157791936247e-02 -9.006038153109658939e-01 -1.520002133982694126e-01
6.156749889506145657e-01 -4.610306675390543063e-01 -3.081590498005510881e-01 -4.518598069008405993e-01 9.825475500375957516e-01 -1.249420955906219710e-01 1.984584313911468278e-01 -4.099621176555099389e-01
-1.162877814916705166e-01 -9.219773003680451495e-01 1.115329126969242246e-01 -3.169929113249103647e-01 -1.006488135042078458e-01 4.663709651635563613e-01 7.085643136931767394e-01 -3.901749434110273196e-01
-5.275500158458683586e-01 -1.734865348598035872e-02 2.718750986774289835e-01 -9.647658780581740423e-01 9.282830222543678733e-01 4.421840247881159147e-01 4.930545905274330565e-01 -6.933983578007167914e-01
-5.607721002984686898e-01 -5.862262908523885319e-01 -8.272319747755854102e-01 9.655112228620035264e-01 6.014040440206125382e-02 3.845536026135385477e-01 5.629436221446662003e-01 -1.591831858587380299e-01
8.853404120682790701e-01 3.906021538346122757e-01 -2.447106771405922476e-01 6.987286323245431863e-01 -8.760142958516534684e-01 -7.712198884120078368e-01 6.318840445307052356e-01 1.756996457950594781e-01
-7.430079008004584207e-01 5.023571882525663668e-01 8.704786333081122596e-01 6.309279815495800747e-01 5.635746360437496882e-01 -4.402536632531814931e-01 -6.838538401133886779e-02 -8.527866720361856334e-01
-4.479279790599910438e-01 -7.882356323778629825e-01 8.544353974911451655e-01 -3.084753607843999657e-01 -1.876092158884263839e-01 7.778792150894993096e-01 1.991417216714239657e-01 -2.475822343008120541e-01
9.226122760434085635e-01 -9.591721994710771249e-01 5.089012250088800204e-01 3.851200926353248732e-02 5.925321486978649688e-01 -7.211054417589735088e-02 6.038437686602959875e-01 -5.075991894022626738e-01
7.436462166209401037e-01 8.766967776219876107e-01 7.121002221331192983e-01 6.926050386883788601e-01 1.029017204590837675e+00 1.485375651799230923e+00 1.167053743936051102e+00 6.927562137171352497e-01
