2.205985633826095249e-01 1.060013774496104677e-01 -7.442496458857277286e-01 -3.884673535397091815e-01 9.687930958359260991e-01 4.355121340206977720e-01 -9.712078168469870931e-01 5.507514594691922394e-01
3.627306957604781168e-02 2.290510390155249265e-01 6.655588559899325851e-01 1.488335710396015976e-01 -3.534091708815201294e-01 7.497795928864934289e-01 7.555156600684607149e-01 6.524676143872483181e-01
4.817774801495344761e-01 -4.642274484577546545e-01 4.138816339653854648e-01 4.940953257206615046e-01 -8.630027156094550733e-01 -1.397293189021746596e-01 9.018003691482263662e-01 -3.541457989689971164e-01
1.237225796688834478e-01 -9.317465385143590684e-01 6.241789730228968214e-01 1.266352548823623803e-01 -7.990502129278955756e-01 5.937637347193680526e-01 9.198401153819182330e-01 6.942249182872832769e-01
6.475373241737436558e-02 5.230025092992476310e-01 -4.555176161122853618e-01 -5.239782810323316831e-01 4.029032177328095710e-01 -2.621158196041282196e-01 -5.732126223327012049e-01 -3.793473210471580703e-01
-7.134959813196144474e-01 1.083210657228286244e-01 -6.719790652350892124e-01 -9.281193502129316819e-01 7.354275251446111827e-01 -3.785385340569757950e-01 -8.710478818017630687e-01 -2.806182828466199375e-01
6.748256025200449759e-01 2.020815911869788817e-01 -9.646584440485361789e-02 -1.396955555942835936e-02 -1.357237181000905402e-01 8.866731089974146940e-01 4.557744292545313769e-01 7.053227188444852747e-01
4.561435182824014056e-01 -9.696937013054580667e-01 8.120693839086803312e-01 -5.191635338688209700e-01 -1.189140102281698308e-01 3.532735340232564525e-01 -4.123998450325054854e-01 7.044788505541399459e-02
1.245110460238836314e-01 1.740312337364933182e-01 -7.986052921795152582e-01 -8.043497846391789441e-01 9.749007940614857759e-01 5.251789676772733451e-02 -7.773451478869342068e-02 3.340506825077140807e-01
1.447153083008880792e+00 1.302692133743150738e+00 9.801602189851924551e-01 1.257161438147851307e+00 1.489768007649226567e+00 8.293341062913872630e-01 1.101140539070785351e+00 1.267086970740072260e+00
