3.189512342074733997e-01 -5.884213631350754259e-01 2.232215452260626343e-01 5.911706927243107756e-01 7.498522308696702332e-01 -1.229248009845795853e-01 3.787760689884391851e-01 3.937019653810607256e-01
-7.199434499311521130e-01 5.665378208103128976e-01 -6.862438991944597166e-01 9.147753549357309222e-01 8.511702450462403924e-01 -6.923411117755913224e-01 -3.234302436406710779e-01 -9.808589377088103856e-01
-1.676998102944180502e-01 3.399518479642933411e-01 8.153611070060284849e-01 3.757762197523555336e-01 -5.896370828778325635e-01 -3.704846727297381737e-01 2.154100798993741073e-02 -5.480960895303395031e-01
7.603516480777821052e-01 6.094707691808363137e-01 3.645907825345973130e-01 9.403094380539758212e-01 -7.058309466560896972e-02 5.425937166323324679e-01 7.074626473738652166e-01 -6.927858792728349702e-01
-5.345923516955519705e-01 -2.682542812716626202e-03 -7.043222762764951295e-01 -5.914580880361035575e-01 3.001178511240778501e-01 -8.808919686305556329e-01 2.723558756621964339e-01 9.347264929234611053e-02
8.585857079113896617e-01 4.153934764662026158e-01 -6.936843058928849892e-01 -2.930467858175782592e-01 -3.312605778810431278e-01 2.697211210189531805e-02 2.450638557752380375e-01 -8.105826217232303676e-02
4.416844585506591869e-01 9.224795474678777474e-01 3.975982030602476236e-01 3.682783745696718292e-01 3.062715305057750470e-02 -3.696069108677864090e-01 -5.556343246919375201e-01 8.561669002732517075e-01
-2.416528190716771274e-01 7.161330433999606448e-01 7.480130228806314285e-02 3.182257704576523238e-01 5.197446303535819823e-01 -7.026200450220099203e-01 -3.128422089052829147e-01 2.304455731292041065e-01
-5.531309931757366627e-02 -3.900431897261056324e-01 -2.474310105941215365e-01 1.499876382400193719e-01 3.260515729306108224e-01 9.954116629984064435e-01 1.521642362928055103e-01 8.771013967147556212e-01
1.351298969342018541e+00 5.303724573674730713e-01 1.006847868853856021e+00 5.026859966569705573e-01 1.412166173944313652e+00 9.932198838452838130e-01 1.454245949603717003e+00 6.203696302239793958e-01
