2.809842902940151710e-02 8.565094249240234880e-01 -5.988924641803945459e-01 -4.781165232422939226e-01 2.313759091412619373e-01 -4.714408023841274442e-01 7.107473973745550566e-01 -2.693647837916437471e-01
8.236621217301753894e-01 -4.234267550023638194e-01 2.276010047490719668e-01 -6.575423338197752265e-01 -1.720280329569683353e-01 7.825409497606472531e-01 -2.350273319953262163e-01 8.378812409471660949e-01
5.873025830640818956e-01 -2.344779675541186492e-02 1.634055308566710885e-01 3.382668188954298660e-01 8.760872019570311586e-01 -4.701710545899573379e-01 7.172409239297139472e-02 -3.628974677492076140e-01
3.048235811514710125e-01 -4.304529776729262291e-01 -6.677855658950477835e-01 -9.923873911704408357e-01 3.555690863669220825e-01 -3.997406886635168632e-01 6.736435707607666412e-01 5.854088868615012764e-01
4.273759596928592419e-01 5.203134649630745123e-01 -5.593703219951604577e-01 3.711138983218142950e-01 -9.605054094363250083e-01 -3.291839122936046635e-02 -9.148322433561941747e-01 -3.367660421357820955e-01
-5.163017708341897105e-01 -9.872371897409921715e-01 2.573340169719240400e-02 9.740188470745381188e-02 -4.882237219386593718e-01 -4.877106245988409583e-01 -8.273090436711809659e-01 9.157676806234471556e-03
9.583033651972339140e-01 6.365332891171693319e-02 2.846688910235488645e-01 -1.535487976798282084e-01 8.751900278354638463e-01 1.080415056394143924e-01 -9.501112296529714563e-01 -6.064412329987440842e-01
-3.021617874806021842e-01 -1.102626663445656074e-01 -2.436969867950744550e-01 1.915392188083171465e-01 6.190608688196872489e-01 -2.215553371807843508e-01 -3.972353631198235480e-01 2.201014930344102893e-02
-6.527458338692488926e-01 4.588659098836063155e-01 -7.920757881434929981e-01 7.670100099481220735e-01 -7.471629120637275356e-01 5.207852611560856992e-01 1.620546852705424534e-01 -2.030249462409210448e-01
1.334475613595411669e+00 1.269599031063074701e+00 7.525230554891209067e-01 6.113135534909881486e-01 9.422777695295578848e-01 6.709288550253974526e-01 9.033972733346612438e-01 1.387598540714376050e+00
