-7.413351508366456954e-01 -3.924617709143449762e-01 2.476454332817779047e-02 -5.268759488020535731e-01 -5.160843178331078196e-01 8.226254960196579535e-01 -6.620226680126406471e-02 3.293174971937209428e-01
-4.421579108781932277e-01 5.102292230031577613e-01 -3.465816645165500365e-01 6.073011859467987161e-01 -2.615970279300374735e-01 -6.717619428915913016e-01 -8.471837903506302947e-01 5.217580218308466300e-01
-6.525808596129236694e-01 -1.553232884890565213e-01 4.633394805423907137e-01 -5.592340833926483512e-01 -8.063792159763045753e-01 -9.033632621637992521e-01 8.553922944969396536e-01 -2.641314695005192448e-01
3.197128346420321510e-01 -2.429862655109507052e-01 5.040411262583681662e-01 6.038823546473341963e-01 5.397659738961224640e-02 5.149726705816453087e-01 3.415780137396895455e-01 -8.982878048195259701e-01
4.943629718940991680e-01 -6.263627608245758704e-01 4.388373199692590099e-01 6.678241271802025647e-01 7.744554884686889462e-01 7.702057544215969997e-01 -2.891570962510430221e-01 -1.451324312832509289e-01
9.002793308206324951e-01 -5.523222930686455534e-02 8.544775985404422514e-01 9.150729582546885954e-01 5.208243159546974699e-01 -1.416207419435662196e-01 -9.314182291906583089e-01 8.993783590644637282e-01
-3.741657657011185911e-01 6.235805315900473378e-01 8.673873111847945072e-01 2.604472243017497135e-01 -5.549081781861830986e-01 1.874050320190037144e-01 -9.774506974936065795e-01 1.527090704384970188e-01
3.696070362396259856e-01 -9.056393068708166183e-01 -3.438426498663387232e-01 5.401300301738043430e-01 -5.526613602515046964e-01 5.341408691266698039e-01 9.133326221219009167e-01 -6.055629928973891296e-01
3.134273378783187791e-01 -6.211358025622837342e-01 8.288916023545287448e-01 -1.074272803431997048e-01 1.807250480571240825e-01 -9.085239308918935386e-02 -8.555623745985287965e-01 9.781872238430724398e-01
1.035720794377271492e+00 7.705202521915601732e-01 6.317664272123162394e-01 6.349043812570592804e-01 9.247369369174506248e-01 1.057572421376670402e+00 9.748932059650720072e-01 1.049013328675641565e+00
