-2.905654060872500111e-01 -3.737154282135723982e-02 9.694024137402297292e-01 -4.312710405838255934e-01 5.248264958052613061e-01 -2.111583962505014789e-02 -5.189369387765236930e-01 -2.178415793651131693e-01
-6.619965656110446961e-01 -5.238113715520462677e-01 -3.032129191831005599e-01 -7.426150822899646453e-01 8.462389184914473894e-01 6.980936759634766009e-01 -6.062021947584850246e-02 -6.174519537916351997e-01
-4.983570311249945206e-01 7.973944168601294624e-01 3.374221468575788752e-01 4.844895383332281646e-02 3.152216224090380603e-01 2.580614073248679308e-01 -9.256823135591365492e-01 -8.048699088168045357e-01
7.882132335483680308e-01 1.166889780323749903e-01 1.068992116369968937e-01 -6.350030687551255770e-01 -2.594144405899823091e-01 2.005968753386604408e-01 9.553047787477171315e-01 6.548181976049216590e-01
2.234467187245567921e-01 1.315226743623134631e-01 -2.571316047072564892e-01 -7.890815864350038122e-01 -1.889275694455989640e-01 5.978269512849649914e-01 3.783131734629121556e-01 7.662095843543279550e-01
-2.801015112296165732e-01 -6.010432706101092037e-01 -4.561346314237471056e-01 -1.235153581342647300e-01 -6.651124297125909912e-02 7.100562474802556423e-01 -3.126211615713379022e-01 -1.158823652919089842e-01
-8.658996461416590407e-01 5.109928093141629102e-01 -6.667315581946529068e-01 -3.387678519881649475e-01 3.358157617145247631e-01 -5.820724732421906911e-01 -1.597351459958222808e-01 -4.535081621224226200e-01
-2.682822571443355120e-01 -6.521395341881155439e-01 3.561076450135398641e-01 -7.859748095742080665e-03 -8.098507413240352282e-01 -2.868159295459280500e-01 5.319336512122552207e-01 1.866044411706806461e-01
-6.437363476246755756e-01 -2.161426802773174227e-01 -1.526293001118632642e-01 -3.814514860063262791e-01 1.860440546539787743e-01 5.297001000584458108e-01 -4.959120231117044586e-01 -9.559543101710683555e-01
7.015570799087481602e-01 1.472187935432891059e+00 6.698078255247762458e-01 6.794187376232876385e-01 6.457231604156320470e-01 9.220918070584016579e-01 6.671707107729663022e-01 1.025026932987644468e+00
