-8.053481756923901447e-01 -4.102541621387176818e-01 -7.090855238465756383e-01 2.097081470689476923e-02 3.493869416548340823e-01 -7.912633353644982215e-02 -3.844097117797629082e-01 -6.482968017812162920e-02
7.928679071192674677e-01 -8.609852243874727140e-01 -6.651731264153368794e-01 7.348732990059059222e-01 3.922376724830911598e-02 3.847544437469951895e-01 -3.683608087935128506e-01 -7.430691623733347573e-01
-4.843417027307284073e-03 5.139949123710563228e-02 7.090340934007568485e-01 8.153919074957960422e-01 8.189643966025879074e-01 -9.546057791591355812e-01 -1.315089824551367581e-01 2.739583593928012206e-01
6.293801195577251040e-01 -6.604073138202708471e-01 -6.684950209957747358e-01 -6.721535854583031711e-01 4.370752170849567797e-01 5.443695524617162551e-01 3.324432529920182677e-01 -6.072188558144195891e-01
2.595643835001155697e-01 -6.261134815280366972e-02 -9.567370996525619287e-01 3.536313562072241901e-01 -6.011217003740341180e-01 2.361023762041898344e-01 1.844388014382036811e-01 5.200810381299549867e-01
-5.393865663936070476e-03 2.045711422605211993e-01 7.431908555425630336e-01 -4.212645016681937360e-01 4.174229306809662532e-01 1.509397695276710749e-01 8.832692476443508856e-01 -1.907216648524181490e-01
3.801058074644889651e-01 -6.565277181028239539e-02 -3.210562478319580748e-01 3.491519381294105884e-02 3.019232791465853438e-02 4.579119860573594991e-01 7.065779108429008915e-01 -7.438814398107158610e-01
-9.828431598414684167e-01 -4.397375504128486767e-02 8.737698333209542589e-02 -5.119930911928760597e-01 -2.919917955321584824e-01 1.250889570606708023e-01 3.376367875363506244e-01 -1.612343279528032358e-01
-6.620470237589692886e-02 -5.694703709733890395e-01 -3.712819034198804324e-01 7.465815172398266863e-01 -9.671950553303541032e-01 -8.455073805990915847e-01 -9.609066415080360635e-01 2.718303195727187482e-01
9.531010750386508246e-01 9.119264963463354912e-01 1.086877242960514023e+00 9.881578439842220174e-01 1.026450788156002325e+00 5.373661993608505050e-01 8.882999485525278072e-01 9.363784338444283151e-01
