-6.282584297519961947e-01 5.610048770542546137e-01 8.651979309398567519e-01 -5.743985686425148174e-01 -5.884659774846641156e-01 -6.548957024936243876e-01 8.351925678338705250e-01 -1.390458118369035656e-01
2.086073452064514111e-01 2.236206496346260231e-02 9.828563651066501983e-01 9.932609456134655623e-01 9.329524252082133096e-02 -4.840784234600699065e-01 6.239423664345356002e-02 -6.809111028486070083e-02
1.759717148531612096e-01 -3.117993645147119075e-01 -7.694393273930468791e-01 -3.426847604240657041e-02 -9.417984522659492708e-01 -8.320023136914349582e-01 -8.277869146944978329e-01 -1.112664707485138127e-01
1.657694118585215648e-01 -7.872952096307233028e-01 3.146546744205893642e-01 3.508089022574376603e-01 6.410887475916773326e-01 -7.321351484967859591e-01 3.527506226278709356e-02 3.226477896334167816e-01
4.787893946537251644e-01 -3.189897230999427791e-02 7.264981606842400019e-01 -5.708668730712112005e-01 8.341561984048289080e-01 2.089923617047511062e-01 -1.179049437829342573e-01 9.319755032942480533e-01
-5.945818576500760955e-02 5.563412192055503525e-01 -9.105650555465614193e-01 -1.891549203004703195e-01 -7.095219457016572751e-01 3.899643068155538295e-01 -4.341130134399553420e-01 4.808374569074906901e-01
1.404930110735731486e-01 1.358684384343165075e-01 7.296599053157875048e-01 6.843999133240552535e-01 4.268772396646576262e-01 -2.076344228081938859e-01 8.567324654834749253e-01 6.041110193790752980e-01
7.673298085402822100e-01 6.546557618162338610e-01 7.549332687399059605e-01 -8.971727301841014857e-02 7.603480826894208899e-01 5.696618358956444528e-01 -5.306494993135708604e-01 -9.645607865297365358e-01
2.060054078467241645e-01 4.822481372764870766e-01 -3.263597402958620108e-01 -8.030953694646592034e-02 9.133576141216122046e-01 -6.170613329470007180e-01 5.487013293047453555e-01 -9.230651230639521643e-01
1.379447339518732107e+00 8.641425184994120379e-01 1.030377213459429564e+00 6.716053169479090368e-01 1.064279457881040614e+00 1.149155056597352287e+00 7.829769313357226590e-01 1.494660215785250656e+00
