2.869384662040779244e-01 9.220999722475178295e-01 6.512291467709907522e-01 -2.791415431650547951e-01 5.556999156537292262e-01 -6.887860282492015429e-01 3.323820031870692304e-01 1.588343469588888723e-01
-5.195659578225297892e-01 5.541846161133812121e-01 9.677111014223924723e-01 6.885065162891623736e-02 -5.732341607324522581e-01 9.949221632767963897e-01 -3.145063449530678401e-01 6.415731879310746510e-01
9.610183303236594643e-01 3.775618621692087284e-01 -4.976896768545473471e-01 -9.724613631115210932e-01 5.408915656411612538e-01 -5.984254535630593175e-01 9.608457792712592482e-01 8.253891035626101935e-01
6.540680902203894753e-01 7.438198715550992102e-01 -9.028545599861881321e-02 4.347795628564941062e-01 -6.096212381112224854e-01 -5.811561329104943940e-01 -9.814693687337383565e-02 -1.842869264909865468e-01
4.169141891164480640e-01 -8.349868725102060907e-01 7.041609401385588995e-01 -1.513247807192530381e-02 1.253812956190445416e-01 -7.456523907130152562e-01 1.396499522527905324e-01 3.113744261283235559e-02
1.687766612080041639e-01 7.826149576303520483e-01 4.989234667504287568e-01 3.702600522264283267e-01 4.684231322248177953e-02 -1.416167297974424422e-02 -5.122820283169007283e-01 -5.667628714088905895e-01
-2.988928829724235570e-01 -5.513478329142056378e-01 1.293527587606886353e-01 9.326351098495218039e-01 8.564903739921760906e-01 -4.759467359674873776e-02 1.329123545493651193e-01 2.419132670720034461e-01
-4.886269871018000810e-01 -4.735697448070383953e-01 -1.371220838463114156e-01 -2.347918088036315964e-01 4.100644649200895220e-01 4.714702737914651109e-01 2.625270030579922587e-01 7.846018600980309010e-02
-5.683572120148796536e-01 7.816822095723570119e-01 3.717315275582535605e-01 -9.773961582411987425e-01 2.768401451361304222e-01 6.539697717572285907e-01 1.893145854160718233e-01 7.587266801359469071e-01
6.158081162817771181e-01 9.094836408268828221e-01 1.446799275092681913e+00 8.173421870361757824e-01 1.142640507797525462e+00 1.371055950682815494e+00 7.798082168922660928e-01 8.078395338288224536e-01
