-1.172866060290691514e-01 8.056078048854184992e-01 -9.815821431299538435e-01 6.634708929656345511e-01 3.121954537389837192e-01 -4.738406445826481850e-01 -1.751464015622676840e-01 -5.359849745477653915e-01
7.035161151546021063e-01 -5.205809948312749569e-01 7.432560213014025585e-01 -7.356430020804241021e-01 7.439985343865584966e-03 -6.711077153713413956e-01 -8.136855016266544283e-01 -3.164551915531339521e-01
-8.636253493498242673e-01 -1.162711034621577433e-01 4.839927305128211010e-02 4.669096433663113555e-01 3.585836244940290296e-01 5.244808567422620804e-01 -6.363137324120975435e-01 8.675073056503752600e-01
7.063956570478870933e-01 2.442151463847099802e-01 -5.688802489723321365e-01 9.779435834339593736e-01 -2.263928160894266295e-01 -8.288734203985761440e-01 -6.331582883523287908e-01 5.388436401072442816e-01
-3.909475934690580523e-01 -8.221538857864520988e-01 6.061775848878685480e-01 -6.843370097049277234e-01 -5.642918914121997087e-01 8.959323618812691237e-01 -5.254125425829536677e-01 -2.413283395273957410e-01
2.649329990830266990e-01 1.730240774697271444e-01 -4.813576918937514382e-01 -4.366477421483445642e-01 9.071261691176388808e-01 -7.671801902005057627e-01 -7.081242672273451166e-01 -8.017489271754354441e-01
6.048190277256648706e-01 4.021577127171593879e-01 6.138703890870631508e-01 2.170326402747499994e-01 5.014738803443736792e-01 -5.668708818900425328e-01 -5.300489437291697747e-01 -2.495426768074071600e-01
-8.379430036696391415e-01 5.512278920812028193e-01 -7.185757765065070579e-01 8.455541318060608713e-01 6.741887579753662596e-01 2.049689143234638689e-01 -2.000349556736515932e-01 2.907726435795516817e-01
-5.766991583530665100e-01 1.494322922596151848e-01 -6.648380158330335910e-01 -4.707411661131162273e-01 -5.327290025614459523e-01 5.874050219010633622e-01 -5.988546923561424151e-01 -6.745965194216605454e-01
8.275739128023438251e-01 8.221220923280841975e-01 7.963016040126921213e-01 1.240330101188982681e+00 1.043001990688731340e+00 8.837012224390569104e-01 1.378026490421994543e+00 1.178869957070932895e+00
