3.196152680063848450e-01 4.955930485059731883e-01 9.462629687678836277e-01 9.954862107364466084e-01 2.069066072372827136e-02 -9.009816345027155116e-02 7.546507568653793019e-01 -5.185101505571383385e-01
4.372406111411568652e-01 -9.877710803957457930e-01 3.853825723436861139e-01 2.471101771238837230e-01 6.722653404565330781e-01 6.318356524459780577e-01 7.872116159066682162e-01 3.532049332133160302e-01
7.598087441500853689e-01 5.898337347679767362e-01 3.044313921934935774e-01 -5.770210608400492269e-01 -5.306673510678887595e-01 -3.096860911141341433e-02 -5.298286163502039514e-01 -2.881240129650828319e-01
-6.587992151525077222e-01 -4.990380221174735009e-01 1.945533856923489235e-01 -2.936166759904244028e-01 2.256320441802157628e-01 9.498675081760645789e-01 2.361329942590992825e-01 -1.837573807424521810e-01
-8.614067010475823238e-02 -2.897099692148308314e-02 -3.930794159581290081e-01 9.910911693535777722e-01 3.300817714923096613e-01 9.544089776927910940e-02 -5.735428637006518837e-01 -8.067529207067891672e-01
-6.633437527547991763e-02 8.735118474392822296e-01 -4.039217496973586119e-01 -3.076106878617050899e-01 6.444977272884155894e-01 4.190550705753968153e-01 -4.944015505519316900e-01 -2.376097612738163889e-01
8.880564145662042108e-01 -3.573782360449200279e-01 5.984576555575120693e-01 -1.251052943217503266e-01 -9.035187985210959560e-01 1.164744308260061700e-01 8.899786673814202853e-01 -2.674900002394078324e-01
-6.125455927422960301e-01 4.047518041663988875e-02 -4.403131314825912135e-01 -6.588774013577742839e-01 -1.167086481909995754e-02 -1.568672131149839721e-02 -1.685892743347705558e-01 -5.271141414951461268e-01
6.382103059324921723e-01 -6.180877978674410578e-01 4.286634390878523160e-01 5.651552614893948778e-01 7.526557711197081613e-01 3.806616243364999708e-01 6.701853279820442211e-01 9.004393724750805461e-01
1.069451146371051209e+00 1.290536836889177419e+00 6.771754207445171980e-01 1.010545948082123502e+00 1.039270239704469745e+00 1.266288269847362091e+00 1.089860819081593712e+00 1.117329733547813841e+00
