2.849965171204575931e-01 -5.752752979238402453e-01 1.115640757767251134e-01 -4.310198483077425369e-01 -4.659333427731706667e-01 -8.730675932455922439e-01 5.287015374882297891e-03 -8.129022372818950348e-01
-4.345434328109571975e-01 3.472584471204678280e-01 -4.329029127692434198e-01 2.316711833132736320e-01 -2.427476065458706866e-01 5.662661155066894825e-01 4.487469646086372776e-03 6.239453381533937026e-01
-8.751626597045034650e-01 3.909843081918593644e-01 -4.759172135814817572e-01 -2.814564594926616259e-02 -5.678972266448043538e-01 6.586431594539192691e-01 -7.169752961820785586e-02 4.733497303541689405e-02
-8.279651954372551081e-01 1.218820055207416875e-01 6.440218968665716304e-01 -1.476205206364222811e-02 -8.983796512992345829e-01 -8.006701552365602659e-02 -2.525187596191678097e-01 7.207952528202721254e-02
-3.969921648293828209e-01 6.175054913421613723e-01 2.546793084976781696e-01 -1.478948205702625973e-01 -5.052416867994939942e-01 3.541363581740069044e-01 -9.685889201034847407e-01 -3.486890679417342653e-01
-8.234885178675919182e-01 -6.314137396988943607e-01 6.046394787821869343e-01 3.137232664753868416e-01 6.347136946183107309e-01 -3.429518901125687691e-01 -7.850204787841390530e-01 -6.105896799512893214e-01
-3.866688451904025658e-01 7.559214619078409303e-01 7.622789033697379146e-01 -7.837594040118989192e-02 1.909874029198106449e-01 -8.459819455679595812e-01 -6.632159532498140830e-01 -7.603447202862114729e-01
-5.943902146786061991e-01 2.687008725155890509e-01 -7.567424231557986491e-01 -4.883760087736881417e-01 9.860142394701678636e-01 5.554625167159998878e-01 -4.078399331624382729e-01 3.731827593991108305e-01
4.545533934063989978e-01 2.003163236450382634e-01 -6.727790135503706193e-01 -5.201680467292320031e-01 3.159087040170929228e-01 -1.231379750167689302e-01 -8.786878603027188372e-01 8.675681162880370945e-01
1.049918938371380506e+00 1.205802206506784602e+00 1.421474186467189593e+00 8.788516825432776125e-01 9.530265614481361336e-01 8.874514714318237907e-01 7.677691174947403052e-01 6.235554994136383034e-01
