3.277896596034040044e-01 7.851146831795177139e-01 9.823036592501914743e-01 2.453816471239593788e-01 -2.577566556589399038e-01 -8.020198126336937072e-01 6.897252732346734749e-01 -3.728494519556215803e-01
-3.207715793491630052e-01 8.889109610798178185e-01 9.921326725049879336e-01 2.406736799976272323e-03 2.679802566672562225e-01 -2.389169048306882814e-03 -4.702392898648404262e-01 -2.195910550775139747e-01
-3.485707117801484234e-01 -5.213120180122685632e-01 -8.733532826705963092e-01 3.814111879113366577e-01 -7.634655676664883206e-01 -6.566475517297125641e-01 6.187907232515943434e-02 -1.402280907417225997e-01
9.462061853590304494e-01 3.723598164310948366e-01 -6.646428589633961437e-01 8.438739047531809145e-01 -2.103490653004262967e-01 3.145591222167887224e-02 -9.166810615100398074e-01 -9.202427524962633054e-01
8.596914154368200389e-01 -6.087635961830046849e-01 5.911068047141945225e-01 -9.517036217487275795e-01 -3.534188361347134766e-01 1.771157733336150564e-01 -7.856954496106651753e-01 8.259014320985988977e-01
1.392791210921913159e-01 -4.769230950346028397e-01 6.483912781650893464e-01 1.226305332707147144e-01 -3.961282917275106286e-01 9.852361735780765795e-01 -9.505087721087570607e-01 -3.120158010399007864e-01
-1.962315446076292602e-01 5.580680480997437520e-01 1.435195501445738486e-01 2.011137270503460250e-01 -7.948643281786478276e-01 -7.861474199208366986e-01 1.861521395641612120e-01 3.739825787243336030e-01
-7.466794973925063861e-01 7.105170692343156791e-01 -5.249254409898451712e-02 5.655665053803524689e-01 -5.216219139784419312e-01 -1.999883002203013405e-01 7.556840895845811090e-01 -3.784604535872497788e-01
2.222898712322818326e-01 9.032176606016888432e-01 4.041888969651263874e-01 -5.870360126243914234e-01 -8.725761088758996475e-01 8.020424314990706183e-01 2.225104954240280097e-01 2.731032939155140227e-01
1.354552669982363788e+00 1.346923387984774845e+00 9.278087423474178363e-01 5.697645545842555670e-01 1.411830341324736615e+00 1.399889719549187284e+00 6.488838211858195537e-01 1.304354079653798237e+00
