-8.858434284514824508e-01 7.554246125518540023e-01 6.093365812697328909e-01 -1.943976646357561400e-01 -5.472092429867858598e-02 7.945702542599999418e-01 -6.437497505336329251e-01 3.517456671707552829e-03
-3.581745383427858975e-01 -6.798645254420290218e-01 -4.602430821714951215e-01 -2.646902119371667972e-01 3.635658880863288367e-01 8.402181684508469584e-01 -1.426668816128096040e-01 -9.887655370462156146e-01
-1.806680893807732780e-02 5.969939191891380226e-01 -2.687455223792825088e-01 6.376004853139813910e-01 6.018801138548679486e-01 -2.688080139583519657e-01 9.294232453693569429e-01 -9.452480947529640076e-01
2.790356868504308974e-01 -4.616091966066202534e-01 5.331124609142636750e-01 5.318399215150220183e-01 -5.767649179065936771e-01 -4.042140367994795369e-01 -2.119616520350688926e-01 7.517663427226792816e-01
2.755251428491394261e-01 -1.946850608303574148e-01 -1.459830300967124295e-02 2.233457444697972694e-01 2.732669673954088996e-01 -2.213368705137932491e-01 -3.590074585706659605e-02 4.496111804152029823e-01
-6.620217409125832564e-01 -8.449108524435167134e-01 4.775812634231237919e-01 5.312607523758654526e-01 5.848698743330431604e-01 -4.168992657876025021e-02 6.887368584800721560e-01 -3.432092809251563459e-01
-2.690602283728598110e-01 -7.202738561846342424e-01 8.853981202345393431e-01 8.521478631103995838e-01 -4.969871965068859421e-01 6.896511876826494358e-03 -4.414430960671893445e-01 4.179635326921884442e-01
-2.329814669262875171e-01 6.904320967050956437e-01 7.004123689038346257e-01 8.634428994840503968e-02 -7.133852596873142549e-01 -8.772719708915430736e-01 1.894219328932202906e-01 -1.096775131739069487e-02
2.616995421099272967e-01 3.087198215009918645e-01 6.940267325907756302e-01 6.851474098635894627e-01 7.326057795682434648e-01 -7.803318607380065330e-01 -1.085028436742392355e-01 -6.872122108875722279e-01
6.581446554832429685e-01 8.851932689474453220e-01 1.473429958415310770e+00 6.248135735487860831e-01 1.151482137151030649e+00 1.152172230254988383e+00 7.323482990839416118e-01 1.272564150244236192e+00
