3.769419998861414101e-01 -9.748284886186400211e-01 1.292952380875516116e-01 4.420895476022921322e-01 3.184644047082629825e-02 7.189417946365805889e-01 -2.964852185848068089e-01 2.573454734515596698e-01
-3.008995777501348723e-01 -9.775878162140836380e-01 -2.175390609834018107e-01 8.058991663184866816e-01 1.844171797305191873e-01 -7.997116663944703330e-01 3.832856210369453009e-01 -1.735194283756433808e-01
-7.173259746351627886e-01 -4.448765384424875347e-01 1.708871126982618449e-01 -9.204938394063668650e-01 -1.878579684590964138e-01 3.005015721560573283e-01 2.686548748424983923e-01 3.291158181905846636e-01
6.091593865295896748e-02 3.857753202992686425e-01 8.645548759218282253e-01 2.935362045219587213e-01 -1.525339127442923992e-01 -7.618763676099344906e-01 8.797541817920544460e-01 -9.752435266464998254e-01
6.643674408973621048e-01 5.281642229627614427e-01 -9.001309737983949066e-01 4.458489412034520871e-01 8.580642653151171473e-01 -7.602616599335529912e-01 -2.416143178435146144e-01 6.565954795133914779e-01
5.333913144862192368e-01 -5.244998525524879884e-01 -3.698546476216564294e-01 8.572623506506784619e-01 -4.274310249037112097e-01 4.018375123913107139e-01 -9.499128742098985612e-01 2.578411062281533717e-01
7.740549382796235722e-01 -2.228424415605445574e-02 7.880307244224653562e-01 3.096224835876641990e-01 -4.195061240637374400e-01 8.871432940463348515e-01 7.547231827132558912e-01 4.976930187844432751e-01
4.270310038203219971e-01 -6.265698129539878369e-01 2.415042974816814514e-01 3.198626472503518503e-01 -1.456677032372490910e-01 2.847448005099988411e-01 7.650021130390831647e-01 -6.177278761150193365e-01
7.427006604749402108e-01 -1.820948836769442636e-02 4.893817318927244919e-01 3.732868688579920047e-01 3.964510848702402779e-01 -3.283816048344359029e-01 -4.425499117833471274e-01 -1.541525656309272740e-02
3.476798569462855593e-01 -7.825245102171711764e-01 -6.752597788632599407e-01 3.069582694025561054e-01 8.451437223892375172e-01 -5.875127098403214454e-01 -5.804483527015433797e-01 -7.424224315926815088e-01
