7.463659496238437274e-01 9.707108302415545786e-01 9.877522437760379859e-01 8.144124119642779380e-01 2.747213383269719866e-01 -6.125890116621282022e-01 3.434771838305494818e-01 -8.113341240151488165e-01
2.181370942160487658e-02 -1.214479378735549009e-01 -6.911404299028123255e-01 -6.726890716702698114e-01 4.541148838031290325e-01 -8.000127678377166873e-01 1.847425278858174647e-01 -1.892849556912588049e-01
9.145288515816987207e-01 4.031514534651128301e-01 9.951908903696988773e-01 5.515804151124872323e-01 -7.908395477865386436e-01 4.292403872682193366e-01 -7.997009227354292538e-01 -1.419551237131602139e-01
5.647231451392897839e-03 9.181574759746327086e-01 7.295581391740459942e-01 -4.137896137300767219e-01 -9.723520326836334604e-01 8.587048332530264894e-01 -1.043629080282371113e-02 -4.576995639661083359e-01
-4.254848302834661755e-01 2.390956688615499814e-01 5.657782606672490111e-02 -8.439364413191938752e-01 5.703159632259668932e-02 8.372617105874595733e-01 7.920667627642026254e-01 6.715194803273660806e-01
6.907230050584294290e-01 8.358880482778394683e-01 -4.507848118124346826e-01 4.578792387194403624e-01 -4.470355283071087982e-01 4.253244688009354402e-01 7.623933002692648842e-01 4.240364191634633517e-01
-2.618669692750934530e-01 -9.227713239425499037e-01 -9.178224912540875469e-01 -3.394239102979157430e-01 5.749161497794768039e-01 -4.549097103888510851e-02 8.302057756824929857e-01 -3.906566236700965700e-01
-4.592328709737460990e-01 3.878697699932214249e-01 -2.081815484749056644e-01 7.656952003890544756e-01 6.519200267637437207e-02 -5.628836869069686610e-01 5.651474237610143447e-02 -1.362135200315008898e-01
-3.023852772551745005e-01 -1.482436052738342891e-01 -7.234214955226290211e-01 -6.244303551455583356e-01 6.060887297137274032e-03 3.002251658640719967e-02 -5.835595775578583666e-01 -8.057529886425296439e-02
-2.972008852293650527e-01 -4.337663970666900681e-01 6.653574344252384254e-01 -8.187124949434185783e-01 -5.333536330238384249e-01 -5.502407461197496019e-01 -4.461454888251803474e-01 -8.737131121849965876e-01
