6.626525528703735013e-01 -1.044546639801020582e-01 9.599866796675644576e-01 5.442874841303770861e-01 -2.073634653507419046e-01 -8.052747015177592615e-01 3.885420403406223411e-01 -1.392991977338664533e-02
2.559872222396497587e-01 9.213432177400564527e-01 -2.457887479863516411e-01 8.745661767960188904e-02 7.720578760114740202e-01 -6.819754638059483121e-01 -1.272855553010023844e-01 -4.101158652291989615e-01
1.879279234249049413e-01 -9.208678223727353451e-01 5.031329425607475869e-01 2.201468987660926135e-01 8.936051750488971379e-01 9.108911196401170418e-01 4.131060856083899058e-01 3.439816068838110752e-01
2.198084375883042618e-01 3.515901628539368495e-01 -9.487028364831175953e-01 8.821548923688498078e-01 6.090359580093183123e-01 -8.172933596120475208e-01 -1.718040953117634384e-01 4.812987675075377503e-01
1.675751727885723685e-01 1.775217645242568310e-01 8.367586694743394116e-01 -6.380015053511800538e-02 -9.783777958236505867e-02 9.834580942997970254e-01 6.995430313531143529e-01 1.579442450874233295e-01
-1.440749893219546163e-01 -2.942927168084628065e-01 2.734168176289166752e-01 3.560836099332844729e-01 3.536992154097973184e-01 8.932693976689771720e-01 2.041705901362307340e-01 9.525736938379079088e-01
6.950349559669106725e-01 -6.876216413260736182e-01 -6.529911112497444048e-01 6.548058865853445543e-01 5.224209488992856976e-01 -9.144293630567430498e-01 4.190263405506469141e-01 5.144705540297842550e-01
3.575338360288560224e-02 -7.297443757962267519e-01 8.418046236174772101e-01 -3.312205960062013510e-01 -2.450334436715757569e-01 1.186247282241190693e-01 2.655525155926654612e-01 9.858473602397532787e-01
1.270768136424815786e-01 -8.552203898286110384e-01 7.606552475485353071e-01 9.307520503991828509e-01 -7.348107470340810021e-01 6.208735337708208846e-01 5.243825800111936442e-01 -8.481241664456204976e-01
-6.540198479225400874e-02 6.320396851370735369e-01 3.976289735019229443e-01 8.898025454299265391e-01 1.543802273674632630e-01 -2.568223230123172218e-01 6.211661594719875001e-01 4.537773045610575817e-01
