-8.447559714933847719e-01 -6.522813241962222008e-01 -5.773530801462478657e-01 1.461570448169202674e-01 -1.786841187475547432e-01 3.877268337307615553e-01 5.318755321340502551e-01 -3.708585914172468634e-01
-3.121643457727467652e-01 1.563020854510455138e-02 9.830308192665475620e-01 8.748125175551495492e-01 9.600011282861655726e-01 9.841456439246347720e-01 4.945376883451313432e-03 3.405262469302090533e-01
4.547068371112252816e-01 -4.530108217868167308e-01 9.197520281201416736e-01 -1.567498212031770422e-02 8.887177063187090553e-02 -9.261827671681488461e-01 5.956328300777111728e-01 7.508537698566013496e-01
-7.239568171930133023e-01 -1.876648610903035586e-01 -9.559815322551661332e-01 -1.777018409231727603e-01 7.686372753652632728e-01 -1.860334930840104040e-01 3.591351371793585212e-01 -9.591616516244312329e-01
-2.691340720154493660e-01 -8.576932840725917107e-01 9.100117665391795896e-01 -9.913124257389884786e-01 -6.105026042405010678e-01 -2.788200246218162093e-01 -9.019533557609431540e-01 -7.220156200952954073e-01
-5.117874846406635925e-01 6.349743758511874336e-01 9.388912925073515936e-01 2.228240348267540583e-02 -9.950182692604983004e-01 -1.445733850829613587e-01 -6.928278068121427324e-01 5.767240411061937966e-01
6.879668568688321884e-01 -4.274010461844872655e-01 -9.624826033661879610e-01 1.448444663820951384e-01 -9.397137826555237439e-01 3.737353865191590518e-01 -1.333342620203774587e-01 -7.244909393281082632e-01
-7.074652627609001598e-02 3.523730424889865986e-01 4.335876853459272873e-01 -5.702027706281151964e-01 -1.912842644708128148e-01 4.380246839005026427e-01 -7.166015964783805092e-01 3.129937195318679422e-01
2.221745631007019384e-01 2.005446996940558613e-01 -1.388435919843147293e-01 2.591538283437522239e-02 -6.354313922578649354e-01 2.242998239500184621e-01 9.280716524168259873e-01 4.504248973266322675e-01
5.650537485330719978e-01 9.252492053923766502e-01 8.805935428166766776e-02 -7.410535622366920538e-01 -9.646381237240264639e-02 8.120867512121170417e-01 -6.099922708663019222e-01 -9.546757491205899449e-01
