-4.475521189759055218e-01 -7.397451585545720132e-01 6.348749571843299577e-01 8.023493315670422454e-01 -8.937263511944795180e-01 6.304263951152251355e-01 -2.119553403424028204e-01 5.949750260067692142e-01
-1.232052611081704274e-01 1.536249928139443721e-01 -9.456585929410454838e-02 2.892409451552204747e-01 -5.479774612860899285e-01 5.471695059678622908e-01 -5.759850834936051100e-01 -6.295798874030216208e-01
1.615762443397157355e-01 3.778908167026451270e-01 -5.820327828962426064e-01 -3.034310858537758726e-02 -4.929697882199066683e-01 -3.497903495063225954e-02 2.779804517930988261e-01 -6.261236482034582274e-01
5.526934854041241074e-01 7.139251179229484379e-01 2.066096102114705069e-01 8.780153746776551138e-01 -4.942622853311795517e-01 -3.965931528261013028e-02 4.422206355726381322e-01 1.957370195490160114e-02
-7.247153710468716703e-01 -5.438679534882639999e-01 5.078415002910507958e-02 -2.074116571463908709e-01 9.697308517490639268e-01 -4.860694653975872193e-02 -4.386693227351750046e-01 -1.023040184636487826e-01
-6.303695977241332571e-01 7.626407617031014663e-01 -6.494529843493326293e-01 6.479260539713038725e-02 -1.478125280194051427e-01 -8.436756953713344664e-01 9.112542667159131415e-01 5.910182053373527200e-01
9.620045420319400797e-01 -5.282117510916284342e-01 2.861678649444254763e-01 -4.434171990632251870e-01 1.914879670628135688e-01 -2.412109410009861676e-01 -3.832628969064324487e-01 5.021140508462820229e-01
-5.798309672359625022e-01 -1.748104736660383018e-02 -8.075871303461679140e-01 4.459068642730701360e-01 -6.669201671171953727e-02 -2.041268361598140846e-01 7.005735200566047816e-01 -9.952880693476773288e-03
3.885433982789101570e-01 -6.271667392391631068e-01 -4.020930498600749914e-03 7.584740135330472199e-01 -4.124455608638433191e-02 -4.683827720234561287e-01 -5.965889250259301946e-01 2.033493574364904077e-01
8.805551032964951119e-01 5.253702863172413640e-01 -7.331390082884325921e-02 9.280129651012207770e-01 -1.109923751057895203e-01 6.053833048968881858e-01 6.328581350921298476e-01 8.948161045231748378e-01
