9.032726235308103924e-01 7.743386969769037176e-01 -7.525706279012829292e-01 9.154628028476352597e-01 -7.474699547575232028e-01 9.979871831738342802e-01 3.840559990902763232e-01 8.368194282065821721e-01
3.795118221483129162e-02 -7.155580573593132154e-01 7.252170030154252434e-01 4.284067828765261154e-01 -7.388500304420382303e-01 5.911547209732370689e-01 5.294447579560357386e-01 4.085400973286550386e-01
-8.698217006860642364e-01 -9.838895156886178217e-01 4.290919585932311264e-01 -1.629666199140520355e-01 -7.897560560946341734e-01 7.184441223455344527e-01 -1.147942403071100514e-01 -3.302600912027853219e-02
2.332826167924058058e-01 -1.251445859753936851e-01 2.481180626303922665e-01 -6.678028496946244452e-01 3.963682575643499018e-01 -9.417105649292618619e-01 4.895734098472515061e-01 6.446774825873675674e-01
4.252062580598670039e-02 -2.760269235577472724e-01 -4.250354375824283437e-02 -4.202808441333043543e-01 5.696843422338093710e-01 8.838195475506438470e-02 7.403784935419355229e-02 -4.578304959035972566e-01
-9.819526751998763903e-01 -7.058476618585740603e-02 6.000328098990965753e-01 -9.492141186915712403e-01 -2.274626257076060032e-01 1.435187360385943300e-01 6.331209760513880624e-01 -3.169344994830571860e-01
-1.182675455945303433e-02 1.429957770748659929e-01 1.050812737031654454e-01 6.953889064790443886e-01 -1.371438448322239712e-01 8.873053390224927561e-02 -4.498528295146695388e-01 1.124447605824183682e-01
3.086715573209830588e-01 6.254722145893545360e-01 4.737041106609629626e-01 7.408791673030963310e-01 -6.302631489874273019e-01 2.359166482751884342e-01 5.876428490450704700e-01 5.604125206462950981e-01
-6.565257235401000813e-02 -1.271136672269568280e-01 4.049163027222721922e-01 3.911244889800216118e-01 -5.895163280050803589e-01 -7.402813696765699891e-01 5.586214921693770652e-01 -5.041315837285271773e-01
-8.347584538031638246e-01 -4.608310197818112908e-01 -4.238958705826845197e-01 -5.196613850661400136e-01 -2.296421944032502882e-01 -2.699120587830488027e-01 2.996498101681435156e-01 5.982134500780422748e-01
