-7.925568553623372203e-01 -9.147044344721810827e-01 -6.840602157748199019e-02 -4.205865884192661053e-01 -2.449936153302527675e-01 6.142308013365549435e-01 2.747424302237695404e-01 7.344258169140767123e-01
-3.723057070643693844e-01 -8.784289140963701392e-01 6.106300908788449000e-01 6.123806445851920355e-01 -6.147155926936851422e-01 6.800393767999048933e-01 -1.407393367871252465e-01 6.736219272489365473e-01
6.729822993111285179e-01 3.278114812808992085e-01 4.424037494832784301e-01 -3.446490097620087401e-01 -8.432888534903941746e-01 -8.338446434205322166e-01 -2.081832293861964889e-01 7.550309175139768847e-02
-6.958200607421731743e-01 3.029534863077760765e-01 3.346305750707787574e-01 -3.182701856668446183e-02 -5.924419798715914176e-01 2.964260330512789032e-01 1.612941304386599217e-01 -7.622371601690036691e-01
3.347481541421699625e-01 -9.569673440259760522e-01 6.426111975869885917e-02 -3.804219338947820717e-01 -9.737361788171967625e-01 -9.234695109684145642e-01 2.769292473434101787e-01 1.657053582577128203e-01
-5.915468379814645683e-01 2.377221559432285414e-01 4.139381615138044701e-01 -2.870953228552262093e-01 6.627817028357962936e-01 1.844799966709507189e-01 -1.104055565655364113e-01 1.561658130278125167e-01
-7.099297873473104925e-01 -5.546679825601368297e-01 2.008215769588583832e-01 -4.429750743016067638e-01 -3.808986803928835485e-01 -5.574998270505160392e-02 4.486636416245906034e-01 -7.824313522905090856e-02
1.037874566837961865e-01 -9.423737349075518299e-01 -5.057091593966234200e-01 8.986268946637785415e-01 4.631891643397125780e-01 -7.555231457949482810e-01 -8.626251943112825948e-01 6.853373343354887126e-01
5.498053002643779053e-01 7.747448082556571691e-01 1.089119373133617952e-01 5.090292000120135718e-01 -5.042021853836342604e-01 -9.468971318992864816e-01 4.733472812158894261e-01 -5.379079205886945214e-01
-6.099741961041804661e-01 4.431272646160582251e-01 6.741490674727799171e-01 -6.971859440810017627e-01 1.754128010730928722e-01 -8.462507290217131661e-01 -4.677469871513699751e-01 5.703589831785993436e-01
