2.587221873915748205e-01 -7.930032517862257713e-01 9.040006664989008733e-01 -9.222610160233279952e-01 -4.413399011881165013e-01 9.383801007231828972e-01 -1.026805823769971759e-01 1.189004063504774944e-01
-7.733305046329757015e-01 -3.832484156090527616e-01 -1.254671751014324599e-02 5.709688070912986024e-01 -3.403709711659974602e-02 -4.220860552762437656e-01 1.893081430130270082e-01 -2.175399905503816456e-01
-1.308209425481507981e-01 4.085580972005768974e-01 9.114696601527707553e-01 -8.388463668904388992e-01 7.659152414156973343e-01 -8.840021222254228483e-01 -1.311635572611293821e-01 1.366377879568094755e-01
2.678849174759445617e-01 -3.702664652507279275e-01 -1.606535421708519262e-01 -5.841503035067616700e-01 -5.606158884927947561e-02 2.866378156050179982e-01 2.398539347071710903e-01 -4.193115875853359320e-01
2.456616643354676555e-01 -3.945323417226074270e-01 -3.981572851962817960e-01 -8.968968609767120626e-01 -1.533567158907951367e-01 -5.567767037436377464e-02 7.348729942906939705e-02 5.873690913916556067e-01
1.200456913864518249e-01 -2.357756414369061027e-01 -2.921270214844320368e-01 9.126666560226974756e-01 6.283563296098351181e-01 -7.527239424332916595e-01 4.142331788388604608e-01 7.386099121584026594e-01
-5.715359029525048928e-01 1.346519416811378100e-01 5.724048532283401158e-01 -5.901768802961242510e-01 4.627597672918890570e-01 -6.580434878989847025e-01 -8.160403724657647739e-01 -1.358993035502509272e-02
6.370816244649830651e-01 3.765153760710771014e-01 9.143466653226597352e-01 -8.005505656964109207e-01 -6.067830708389903016e-01 -2.824875267601880680e-01 -3.413726204252272023e-01 -8.361886644903782084e-01
7.868155043008966398e-01 -1.529345770641554747e-01 -1.064007927410968168e-01 -4.590391292728803752e-01 -4.505785089690077516e-01 -4.231257765006211091e-01 -6.215651075742667508e-01 -1.416645075825218036e-02
8.674044663222226781e-01 5.418146983485845336e-01 -6.725994103959214154e-01 1.190758170940402483e-01 -2.544681341358876470e-01 9.500245815766501511e-01 8.078943208229114603e-01 5.279480727047369815e-01
