3.253603549796926231e-01 -1.142633950253644226e-01 -1.724635316441278654e-01 4.308433449243862512e-01 4.830721603423309141e-01 8.113989643718844125e-01 -7.282311259023663830e-01 3.276645208212796145e-01
-5.900433256700483575e-01 3.960150693794961541e-02 -6.534750595605629542e-01 -4.317646630354283754e-01 7.208096502146303930e-01 -3.356638448661950491e-01 -8.757457770340613123e-01 8.181667176554530130e-01
-3.485232524257235731e-01 -6.246892139922799458e-02 6.878026086104731540e-01 2.463165327657272918e-01 -4.920029738573388212e-01 -4.320141461392517090e-01 7.674710289835930954e-01 9.146554358740899282e-01
-6.476598173445702322e-01 -2.149288630986718740e-01 -7.848033370600586700e-01 -6.909673591857368180e-01 2.173250924287715158e-01 4.412954604230445721e-01 7.274373338498563157e-01 8.019534035159325835e-01
9.712009490166604309e-01 4.289949374982593433e-02 9.708789336317247276e-01 7.811670712094929137e-01 8.146564663136650619e-01 1.959578751417287990e-01 1.075430374220935903e-01 -3.940368403611196335e-01
5.911602437864096338e-01 5.029831975215746098e-01 9.344395269601093457e-01 -7.443841008687506200e-01 7.470649346956044212e-01 9.439642001684764860e-01 -5.064648034512142516e-02 9.533764107731443893e-01
-2.140008540937654580e-01 4.267875869380011178e-01 4.135553369440316818e-01 4.749074684462919471e-01 6.574078753805498998e-01 3.619391540164031973e-01 -8.528194589751754151e-01 8.277886866972561375e-01
-7.723953826454517113e-01 6.447140222818088517e-01 -5.333313242209329896e-01 -1.982772842357283238e-02 -9.767288032620904392e-01 -5.871233908786346323e-01 9.533871113732206304e-01 9.800419285120240964e-01
-8.362551353982452529e-01 -3.113688048720104629e-01 -8.927626791474385648e-01 5.076011899291608120e-01 -8.341291697601562749e-01 5.020550488176180881e-01 -8.988143010506834951e-01 5.427522358031371397e-01
-8.922155054545988229e-01 -4.264228609910132306e-01 -3.199924725764498046e-01 -3.406185458141082201e-01 -4.651537999575239279e-01 -5.488394558287379432e-02 -7.962774705218635951e-01 -6.115420934257584928e-01
