-7.251944656813493761e-01 -4.545287519135918775e-01 -2.181120271252559029e-01 -9.688305835419839251e-01 -7.306619641466842729e-01 -5.209296251701294178e-01 7.731388297961803158e-01 3.318567537038112913e-01
7.179820887377741379e-02 4.396672076395993223e-01 9.448666433526995423e-01 -4.352741074060193505e-01 8.513134141522373799e-01 6.513870253378788444e-01 9.817968186627858973e-01 -9.470324673150940509e-01
-7.094579911141001283e-01 5.713710339700650565e-01 -9.942876425022983966e-02 2.482799158796662464e-01 -3.263967220107932832e-02 3.183726926514229838e-01 4.449039696340504335e-01 9.667352808044205048e-01
1.212813547660105407e-01 5.758976827564246115e-01 -9.309651527489926082e-01 1.602524312061004430e-01 -3.848736125337590686e-01 -5.751088547555793795e-01 5.644899071431752624e-02 -9.406936860370298525e-01
-5.157075653318361486e-01 2.276391993884194775e-01 -8.891677032721370111e-01 3.107576263146951678e-01 -8.772301130874113895e-01 6.257342785484198977e-02 5.069640492135605303e-01 -3.304431729847772115e-01
6.039531638046340412e-01 6.884776324928152391e-01 -3.429477915941858690e-02 9.697542607437090734e-01 1.555612902367760064e-01 -5.753359275304383846e-01 -1.908429393945156871e-01 -5.944255661568065285e-01
1.321260066519929222e-01 -5.651628788959039973e-02 4.664159678179347068e-02 2.051043131236425232e-01 9.770785504844825553e-02 7.484510421531809232e-01 1.147138226322201859e-01 2.909514336170904159e-01
3.276282383131454701e-01 -6.035361888193562230e-01 -9.850583244368258384e-01 -5.779588838299229980e-01 7.941311402230240013e-01 -6.837587562356037818e-01 3.163963073065809706e-01 2.553607313574204341e-01
-2.927229443867489511e-01 9.420753199591791471e-03 8.322282759629113791e-01 -3.272277105345018366e-01 3.076629191095461291e-01 -3.142041386015170801e-02 3.314078476936559436e-01 -6.544223566466307318e-01
-4.555466699952517295e-01 -6.549366980286122075e-01 -7.419706934086742756e-01 -4.239733966963266099e-02 3.066869234084768081e-02 -4.281955844550802137e-01 8.281924039234622725e-02 7.707651555630978812e-01
