2.297158609851464028e-01 5.051698137468965122e-01 2.938518222113839506e-02 5.980881371704758198e-01 -4.090393084421228842e-01 3.340972465936702385e-01 -1.763969578862898402e-01 9.862152873853253787e-01
-9.097578172496199045e-01 -8.659015777260110625e-01 2.006716352421931138e-01 -8.646819236037224243e-01 1.538442286126018299e-01 -1.938392248510965032e-01 -9.471095284754440513e-01 -2.089430956128255357e-01
9.656830525610322624e-01 -4.772321161978809734e-01 -1.444366873928069062e-01 9.051268173252837723e-01 -3.759554969513587697e-01 5.172207361623073485e-01 8.625811391175737253e-01 -4.805971623804583537e-02
-9.591626273652549273e-01 -7.638742068414738906e-01 -3.597362724183483795e-01 7.048626650677884964e-01 6.860887461579103785e-01 -2.540782157530920848e-01 6.835480759612071466e-01 -4.274990252634034427e-01
2.289406431802467612e-01 -4.528530317776044978e-01 3.112710750626896949e-01 5.280571483004536937e-02 -3.485351260528830597e-01 8.048688451827932244e-01 -3.224523565799723990e-01 -4.645592910033264911e-01
-3.442377645325083169e-01 -3.412179451553556397e-01 -3.885004589691514187e-01 5.271118285779163859e-01 2.417687644111012890e-01 9.987339508446715364e-01 -9.453460953468661998e-01 -7.253661911410460572e-01
-1.532580335200159904e-01 -8.179914095941529517e-01 -3.009774909177180824e-01 -1.139881903079860148e-01 -2.010337617047468495e-01 -5.630372661854976535e-01 5.398597909819926599e-01 -8.541420515073232522e-01
2.983548456556306405e-02 -1.185826249151835654e-01 -1.708814531854119245e-02 5.389551686604880931e-01 9.319831126380160313e-01 -9.980694679296102656e-01 2.364799595860598291e-01 3.424491855890383629e-01
9.188323928938224583e-01 1.143515366955123458e-01 -3.398339106553676103e-01 -4.426188477779313679e-01 8.333502068975597865e-01 -6.605819995871533568e-01 7.353632019888733939e-01 -4.439667117951244801e-01
8.081503131141536400e-01 -1.952475968584388433e-02 8.422970007165377915e-01 6.959097650258572187e-02 -3.506912679221314555e-01 7.378688139271027957e-02 9.781184799486222214e-01 -6.898441599585363182e-01
