8.552246126590801190e-02 5.656374322308010960e-01 3.648847414818203738e-01 -7.778735482664012046e-02 -1.165484247071302271e-01 -7.984320806452662733e-01 9.746557410652845199e-01 7.726103120284035786e-01
-2.595016474835418752e-01 -9.276689483360540667e-01 -3.654035246829641093e-01 1.523507761317905995e-01 -8.242430390927730777e-01 4.710419544417250304e-01 8.850370121706565563e-01 -7.761512458297501471e-01
-2.216361001316591306e-01 8.994081101117665789e-01 3.939499775185033581e-01 -9.572695135117539333e-01 -9.878949547384510144e-01 8.160803017576798712e-01 8.183565134631489713e-01 7.915940727056827164e-01
9.390379963311630274e-01 8.903985643028244912e-01 2.525630214850282940e-01 3.939064106243221897e-01 7.178438494966730143e-01 -4.931370798951695278e-01 2.741533460145735290e-01 -9.009639220731238130e-01
-5.277835430375983350e-01 -7.347383671168870034e-01 -8.507876079454081975e-01 9.236833803172099788e-01 8.840856067521640771e-01 -8.102359114349260150e-01 8.061421657758021109e-01 8.518877098860786479e-01
-1.604843342045854104e-01 6.679594477412982290e-01 -7.312296295733973217e-01 9.845404386908240824e-02 4.209857673602097616e-01 9.530642668301514409e-01 -3.480360237556039404e-01 -1.420830452231218732e-01
7.283432019149118641e-01 -5.486467608978766730e-01 -3.534267444096799160e-01 5.852896923892256797e-01 -4.271670974946149002e-01 -3.680669519053869632e-01 7.961270424831627945e-01 -1.005566575176277677e-01
-4.887385209586736501e-02 9.338382709794703640e-01 1.255518151941095173e-01 -7.592214894627877797e-01 3.593786326545447274e-01 8.540148713738937580e-01 7.081002977914869767e-01 -1.327355484045240619e-01
-6.372513045590013636e-01 9.764587485950992907e-02 2.204571834101884953e-01 7.690762217186535299e-01 1.183898666298643931e-02 3.042296875015875202e-01 -7.471642200605965733e-02 4.456162785273292126e-01
-6.180505288627688998e-01 -6.470101244994430623e-01 3.509962366280607871e-01 9.288237128999776715e-02 8.667788564900495984e-01 -7.599495280826402688e-01 2.528283857725386330e-01 -7.370227806743581134e-01
