3.127083672386221647e-01 -9.818453516574270346e-01 8.784569242399344891e-01 9.322452386391162360e-01 3.524295319341181898e-01 -6.079855856217508681e-01 -3.813153825281998532e-01 5.986277703847993070e-01
-3.105683201202362742e-01 4.472296994443334395e-01 2.287218981206473600e-01 -5.137234011620011032e-01 5.623221253376220474e-01 -8.179136095320473920e-01 1.025297311722956906e-01 -8.486602478317042397e-01
4.723212944584520567e-01 -1.515722026368913067e-01 -5.657747808493274189e-01 7.814577400788920158e-01 7.331391847137098683e-01 -3.656462328093972314e-01 -7.383090162312306859e-01 6.581702689257782346e-01
8.932410285256531246e-02 5.557660671504600636e-01 -9.405920392601476721e-01 -6.302743150754428481e-01 -8.197208862565896759e-01 -6.674621580696968870e-01 9.005216606259036638e-01 -6.278837725163388672e-01
-7.789639134044354929e-01 -8.645568029332921789e-01 -8.305543248408091550e-01 -6.835960562416538711e-01 4.527113124975044034e-01 -5.856178421704156811e-01 -1.911654916754963462e-01 2.078135492263015749e-01
8.744196421032752742e-01 -9.630982281795610334e-01 -2.856644810335531304e-01 -7.183755997397396342e-01 8.898721259543715956e-01 3.000132130668995423e-01 -2.681625324914007624e-01 -6.463354595857584428e-01
-5.892424054412104262e-02 -5.622133667460615936e-01 5.488984805305858750e-01 -7.191239973357643755e-01 -4.772489996835975745e-01 -8.867058133912375517e-02 1.528265040845355749e-02 4.118223154456133184e-01
-2.839420189056973687e-01 -2.713644594381681152e-02 -9.494854296109451752e-01 3.373495207105539073e-01 5.951674841955110207e-01 -5.741890749599254384e-01 1.583317669124428839e-02 -8.913886767394947341e-01
1.068738317335702348e-01 2.145268273882228183e-01 6.307282951063082344e-01 -7.854363842063654122e-01 6.622015333981858820e-01 -8.024542890137587037e-01 -5.642754620371182028e-01 -8.623495147489275148e-01
-1.653726480443662439e-02 4.527143413188743359e-01 8.897517502378671228e-01 -6.222709424313639381e-01 -8.956263869298028979e-01 8.884841474798412797e-01 5.624814208513306824e-02 2.149773053839660886e-01
