-7.798920596209228950e-01 -3.867002953960532174e-01 7.466539685179449659e-01 -2.255099083028293538e-01 6.436169822713861954e-01 -9.053878409584679154e-01 -1.506676110034106397e-01 6.373590907453585697e-01
3.182956922901283292e-01 9.737683528171825476e-01 -8.728726788617051646e-01 9.351418604905936682e-02 -3.210940718475683298e-01 7.766452016476201869e-01 5.326906808376288271e-01 -2.226548613718801750e-01
-9.049810670552551617e-01 -5.278060854712951500e-01 3.429289265474233517e-02 1.944483771770122438e-02 -3.719785783614339980e-01 3.242377678530721230e-01 -4.179971375135862477e-01 -5.273497821807691111e-01
-6.176608787976864967e-01 6.664324681944078232e-01 -6.705695586871651681e-01 9.067661749698909812e-01 8.891118837032507827e-02 9.973652040399603180e-01 7.392323075261009180e-01 2.983971550218609270e-01
-8.491981815841254111e-02 -9.225786999632301644e-02 6.251539600894338022e-01 8.470509577732243667e-01 2.310679189476354534e-01 7.552986582020353445e-01 -4.455944816278232246e-01 7.659319938686710572e-01
-4.282814371324739078e-01 -3.113453741117877538e-01 2.358933989339639936e-02 -4.026364910652804330e-01 8.259411182063032264e-01 2.393966819861181872e-01 2.744349282194649131e-01 8.593217416661802499e-01
-9.781587719668789482e-01 -9.774818546633217142e-01 -4.332259960779123453e-01 7.193800421998419736e-02 -5.120432723731955793e-01 -8.867597409545942000e-01 -3.581838620096216008e-01 5.885233300724146410e-01
3.714722849075611233e-01 -5.620595778142667420e-02 7.518219011836801968e-03 6.401121021664255561e-01 -2.362645834664167666e-01 -2.064907604647858719e-02 6.591355854610498888e-01 5.356294126640352982e-01
4.119980086326506807e-01 2.730372486773324781e-02 4.064131768491816565e-01 -4.634753710105330438e-01 -2.975872127867726924e-01 4.226845829321879133e-01 9.686585683356843113e-01 7.055206375874916169e-01
-5.058269429368404957e-01 -5.516969465085734825e-01 5.418604560875195375e-02 5.235025948458407186e-01 9.742649886323411224e-01 -3.281220265418669513e-01 5.777957538664537651e-01 -4.113389631888149101e-01
