3.764569085147502214e-01 1.284337924795053709e-01 5.960159797283928196e-01 -8.178113041536447803e-01 3.820033740562995828e-01 -5.260117182327397334e-01 7.588839880150235473e-01 -1.969545663082199471e-01
2.020981835914479330e-01 2.865571406837268409e-01 -7.831009545384464143e-01 -7.858177193835464980e-01 -4.915243493747993853e-01 7.240645838821364588e-01 7.768179209966790122e-01 1.863944285404568468e-01
-4.096927898963467207e-01 -9.385758143148623667e-01 4.320005203680792327e-01 -2.204529364448346573e-01 -1.807427804253469716e-02 4.195984799571852442e-01 9.908401086666041024e-01 7.814263342970688697e-01
4.993541595781507691e-01 -1.274501780884760294e-01 6.192671010926769082e-01 1.399033315167330649e-01 -8.691755360579309642e-01 6.509630282958487335e-01 -9.234172553810269246e-01 -2.366705041190606540e-01
-3.370827792454655913e-02 -5.978370953783991304e-01 8.828939125705703717e-03 7.120720999937706353e-01 3.914562959801588526e-01 -2.673617792685936134e-01 4.165720176836538169e-01 -7.536322350354387467e-01
8.579731566792248021e-01 -2.370633306898979331e-01 -9.116868928634016545e-01 -9.207239481303042261e-02 3.505212277953839717e-01 -8.988082659332925495e-01 -5.904180899038162789e-01 2.288823318209407542e-01
1.684239592828928878e-03 6.368905240548485835e-01 -8.507526178433919561e-01 7.600868955044919328e-01 -6.383492507630712520e-01 -4.176454733029890676e-01 -9.902219633186635228e-01 4.893157398722074447e-01
-9.416781562571625575e-01 9.004511164453687933e-02 -8.557692216266787888e-02 4.064214944628916637e-01 3.809847338543952411e-01 6.831715776329096990e-01 5.336852472050295226e-01 8.119756567677629544e-01
-4.899871011091050388e-01 2.392683394045382883e-01 3.499636142283037987e-01 -2.984380734319924677e-02 3.093832252977921637e-01 7.977689754169940972e-01 -9.509779709519730062e-01 3.490604041406109026e-02
2.942758093866095770e-01 -7.250930194560776254e-01 -9.516544513971842978e-01 -3.695218518231844218e-01 -2.066323992338536808e-01 6.618491874807233000e-01 9.281234247022995820e-01 -1.761830107140203161e-01
