5.396728405851543009e-01 -3.238642175394670364e-01 3.196130323449959398e-01 2.493985461709193885e-01 -4.728112107943380771e-01 8.047686354439058665e-01 -8.126893894217597225e-01 9.237081091145180611e-01
3.360251571943915216e-01 -3.659410979716803958e-01 2.831334918658154898e-01 -5.398364623567530884e-02 3.613633235850981507e-01 5.135341108504443142e-02 -8.987118717278606006e-01 2.323492840778345059e-01
-4.617759126594043195e-01 3.330935437237481089e-01 3.621146714355896190e-01 -3.373252878774715136e-01 1.235603539770322445e-01 -2.094031946152130619e-01 1.013692278037827688e-01 3.034587724758814886e-01
-3.334869998800535917e-01 -1.325482618668982759e-01 5.717706804580027224e-01 -4.266496097336223148e-01 9.783952260679344981e-01 -7.173649168248563690e-02 6.530449719995010671e-01 -1.988731451029215336e-01
-8.375368831679868009e-01 1.484969478602875537e-01 1.704757189194707756e-01 5.590237090422238708e-01 3.716027676131365975e-01 -4.303772305913844409e-01 -3.835886515268298602e-01 -6.194016910835151712e-01
-7.663775393424629989e-01 -9.514716117157298036e-01 -5.070379598697605239e-02 8.899945039565126947e-01 -9.262357349158631958e-01 -2.346974946790316707e-01 -4.389756213040838517e-01 -5.002683151615021639e-01
8.272957374296101563e-01 -3.015766789664511283e-01 1.253033756048294034e-01 -3.897071900405764122e-01 -2.167679822720405269e-01 -2.167582345591956283e-02 -4.736769756153025313e-01 -9.855322739056113779e-01
9.801860484747915159e-02 -3.127756399228953654e-02 3.419004473778861630e-01 -4.544120667104358802e-01 3.318026306573864659e-01 3.583804642552235187e-01 -9.989561351109941256e-01 6.998949466097814653e-01
-1.958536012493581335e-01 1.666762622762123502e-01 -5.344511171022101603e-01 8.583540668371014704e-02 7.836219990407540248e-01 -8.618534808343869535e-02 -5.101730962883697096e-01 -5.020514651671035278e-01
-7.728806218582189302e-01 -1.961202534367783024e-01 -9.287991465128730972e-01 1.177742309002500765e-01 -8.479143793835588472e-01 -4.171548290440911799e-01 -7.521869320136707060e-01 -8.440125461153153985e-01
