2.118663396487088235e-01 7.652676480845614915e-01 -8.923772914958427727e-02 -5.065814687775778147e-01 -5.585562050577141946e-01 -2.128368532981597117e-01 -6.970217107780947163e-01 -4.306508705232769962e-02
-1.921550739372008820e-01 9.064274622329844266e-01 3.903521466469339618e-01 6.551937655441237851e-01 4.490770162128561171e-01 -2.397054664670743573e-01 -7.421978905567943041e-01 -8.093361926876145862e-01
-7.740044673618700077e-01 -7.196181429290668952e-01 -9.865168621636417612e-01 4.663572227540671022e-01 7.045737551850865810e-01 5.525985891357123592e-01 -4.403466171227170545e-01 1.256291185293327839e-01
-7.896435378327832932e-01 7.968781499278454472e-01 3.955079947947988117e-01 -5.949024100454969322e-01 7.291667586054124683e-01 5.093966374353906534e-01 -6.050410276839945922e-02 -7.799732113568189629e-01
9.891245420953309608e-01 4.403461782230566612e-02 -5.200369847170340787e-01 -7.525368932252389786e-01 -7.521150689425988300e-01 -2.248672021332973614e-01 -5.951277978654843093e-01 -9.334010953602509542e-01
-9.158476807866353653e-01 -5.041939506118635617e-01 -7.535969318240705039e-01 6.602938694878448533e-01 -4.143736974417149277e-01 1.066726303661711395e-01 -1.964900895160108796e-01 8.581922590640849169e-01
2.336993282678339057e-01 -2.715322511005369144e-02 -7.133500711789371174e-01 -7.830074403399465144e-01 4.539482104845466992e-01 -1.211890480964354921e-01 -7.677666968704586203e-01 8.651295503813700716e-01
-9.006357226945542749e-01 -7.267770402238742378e-01 -9.785913126251459815e-01 -6.369146256203781498e-01 1.496621562386970528e-01 -1.835654304815557136e-01 -1.931430873143378246e-01 9.338210503146620045e-01
-2.315387038481580007e-01 -6.061837732452062255e-01 -6.705232436697945442e-01 -5.251128997483152094e-01 -4.250005169571733354e-01 1.050698796299127658e-01 -6.321803570085877677e-01 9.457590069373364994e-01
7.902231017135852298e-01 7.262601269521478109e-01 -2.769514919774724859e-01 8.733370983638264473e-01 7.064204071978230637e-02 -9.637956794437503305e-01 -5.700938838118907448e-02 5.640250347519664142e-01
