-5.826843331978901475e-01 6.842030370544514017e-01 4.440347990493862529e-01 2.644059716949924699e-01 3.594980003864876039e-01 -1.200988020030862025e-01 -3.190443315633435528e-01 -4.202123776114352616e-01
-6.397791871991835855e-01 8.033031824252361286e-01 7.564871297509423442e-02 -2.561590808007241371e-02 6.023372540478761916e-01 7.059519795937629905e-01 -1.637101745451750023e-01 9.522219961267519572e-02
3.646867164408784667e-01 -6.817971670622768876e-02 4.968828958242399452e-02 -3.052232735564408550e-01 4.594989321480480449e-01 -1.407286791261068704e-01 4.187772389575814547e-01 8.596317736916396779e-01
5.358589016547461448e-01 -5.073999964261488582e-01 7.432514210686724798e-01 3.191649822409479142e-01 8.739063304345291439e-01 -2.872353914388146023e-01 2.436693470123258987e-01 7.452641280000764645e-01
5.627000213464286027e-01 1.996413717202039084e-01 -5.313444138670599948e-01 -3.592180928059902634e-01 -9.229595473306244635e-01 -9.938307109530470917e-01 -4.702204216112950697e-01 -9.503503451805239699e-02
9.286760924263637307e-01 1.998555853928243309e-01 -9.059560124235470635e-01 -6.622997591993289301e-01 -6.202915075971686676e-01 -2.354323613712570040e-01 9.151275001610890136e-01 5.330633024419251242e-02
-7.946229627894643155e-01 -2.577279880398752887e-01 4.082812096414265568e-01 -8.090589707508364370e-01 -3.931271410174015379e-01 -7.796370658562434830e-01 1.992439231950735579e-01 -6.600077443482343931e-02
-9.552186972096254891e-01 8.774340994745120081e-01 -7.833196738399095249e-01 4.082953702006202334e-01 -9.674343590602214604e-01 9.161514654434532723e-02 3.682901128723559125e-01 -3.790399533487298633e-01
9.761489758780552695e-01 -3.806754610117479842e-03 -1.123733568112175174e-01 -3.719558487994150120e-01 -9.499970932779289168e-01 1.295494454344314761e-01 -5.699993629115818194e-01 4.676873759793711560e-01
2.101967048490014367e-01 -4.705842671434763425e-01 4.736392685935462143e-01 9.775852151794801603e-01 7.079369385919778157e-01 -8.187176617141325163e-01 9.735361917417781896e-01 4.474563439684136057e-01
