-7.961518555356319471e-01 7.107880664627361789e-01 -7.769434822999239376e-01 3.889971346581750922e-01 9.911625160563521941e-01 -2.857953886495234741e-03 -5.675610181498893514e-01 -2.744876452302467129e-01
1.505309525384914693e-01 5.028761049778849301e-01 8.917643417424159225e-02 -1.587361870079639914e-02 -4.728512662238415487e-01 -3.025866348614381085e-01 4.342410073558187200e-01 -9.058980479364693306e-01
5.164036503559952251e-01 5.655249916466695836e-01 6.767742313947453514e-01 -8.841324311049081341e-01 9.979988504882497669e-01 9.603717058517535765e-01 -6.982976920389982745e-01 6.063535229886543032e-01
-3.268967924479999621e-01 -9.587671982694356831e-01 -1.156427121048293483e-01 3.992264016920537006e-01 5.528630793306388291e-01 -2.953473100469257151e-01 -9.830473952874323462e-01 -3.784063179241579089e-01
2.860255680676380141e-01 -2.720668793895222315e-01 -9.106120996772422149e-01 6.000911549238541198e-03 -4.168666093287916041e-01 -8.966559611745004155e-01 -8.614005917950133817e-01 -5.401079736452689684e-01
-7.952513467193891294e-01 -1.994433136801143647e-01 2.002851807938963447e-01 -6.772793221336490532e-01 8.210995671730116907e-01 -5.464537492136660735e-01 -6.243366324860064598e-01 6.271863709579854618e-01
1.133375019498705782e-01 3.937356155641944522e-01 -9.465641315837094449e-01 -8.814169636652060547e-01 3.862109656044170336e-01 -2.558962843483507665e-01 -7.894350513344459142e-01 3.493741218680226357e-01
1.718001522087813093e-01 8.160360903684824585e-01 9.231073588965590382e-01 -6.539655878627712582e-01 6.316888638170750081e-01 6.730832402860154051e-01 -4.121578055050569844e-01 9.534786984420171585e-01
-9.345135897549823323e-01 -5.489300405802710614e-02 -1.246465823715992016e-02 8.632559257052603297e-01 -9.612276726110360325e-01 9.527495850142608802e-01 -4.362522361782932290e-01 5.788900693768193051e-01
-8.966384066666619468e-01 -7.216052116729321231e-01 4.112061491161191906e-01 -6.271997727082909702e-01 2.817681786557644230e-01 -7.940084594328347123e-01 -7.184203136471409845e-01 -7.340947823256867011e-01
