-8.687810086720968439e-01 -3.712832461431236908e-02 3.097212822710948554e-01 -9.704381542209243872e-01 -8.491119638372810474e-01 3.495434301841360281e-02 4.167805990301778341e-01 3.280527500520808992e-01
5.906258343021104640e-01 -8.849806454142410406e-01 -5.922154118959057634e-01 -3.491331132069610543e-01 -9.317280023533887068e-01 3.926483144452384000e-01 5.068585554151816552e-01 8.545272907591761058e-01
9.955733048660597717e-01 7.519471228077543312e-01 -1.576462297882486041e-02 1.017688341736031621e-01 -8.753262506476811033e-01 8.408375822634903685e-01 -5.308065966049508866e-01 -4.314339033984844196e-01
3.734829541733353242e-01 6.488781417419293707e-01 -2.468201699067134047e-01 7.446233585079233830e-01 3.613015342838103994e-01 -2.097438127723352252e-01 -4.498082797010616307e-01 -2.661054589015772187e-01
5.822422232092074879e-01 -8.703487767656470364e-01 -2.682523109374757020e-01 4.783064420595701804e-01 -2.980163796674537569e-01 -7.089139548574989735e-01 2.055490241703807897e-01 -9.649306751281327976e-02
-9.639180577495276570e-01 -4.374202202729542410e-01 -7.502070396226869775e-01 -6.240573623382255075e-01 -5.890526842768377680e-01 -5.890089907794733293e-01 5.941470589156347959e-01 9.673928990881581758e-01
-5.421204872211182746e-01 8.814991324534249273e-01 7.835690111765440946e-01 8.643739471227942506e-01 -8.645425193522371377e-01 2.640333312091114326e-01 9.045212288301265335e-01 4.064243667951492611e-01
8.275742004709176758e-01 5.241714526135976548e-01 -9.129599699004169455e-01 -6.546252004898120980e-01 -4.334201145882679018e-01 3.026258898164089217e-01 5.559864626404613652e-01 -7.100701725816602750e-01
9.296441050265122907e-01 6.948847654648901973e-01 -6.060766573641382937e-01 1.225512346169990163e-01 -9.278739128378821199e-01 7.918863110029532582e-01 -6.477067649774930214e-01 -5.601000863222191928e-01
-1.154176012595846679e-01 6.584277342372659714e-01 -4.706941413894072390e-02 6.074686876843553573e-01 -3.075372395886499799e-01 -7.804154015640776265e-01 3.852349569856259315e-01 -6.769724409392592346e-01
