7.082635468968354608e-01 -3.175661988934130875e-02 7.281018553577627284e-01 -5.746794010460074542e-01 -8.600507383683329010e-01 -8.336554383775940380e-02 4.355996938260491280e-01 -3.274274356818243081e-01
6.421864439708462324e-01 -8.608593585338149001e-01 -4.407758232083647254e-01 -5.608194306073381874e-01 2.561978677901948220e-01 -4.671200566642133012e-01 -4.676605648257678993e-01 -8.237444162843445827e-01
8.828612515557949791e-01 4.267423016375462286e-01 -9.681272670105389722e-01 2.242562851198168783e-01 -5.636310947846783215e-01 -7.823364271274069193e-01 1.282730006203049999e-01 9.404667119045564405e-01
3.376963676681927762e-01 -7.220208190072363585e-01 -9.502176673335844814e-01 -7.563133042739433876e-01 -2.743451484268510931e-02 7.101165663711332954e-01 7.217755578604378996e-03 -5.058737687050438581e-01
-5.534454053467847690e-01 5.803619592112922998e-01 7.230779949149932495e-01 -8.020735232881990306e-01 2.231198255032622590e-01 7.708440339613280567e-01 -2.278809641340040493e-01 2.987758194942100598e-01
8.522350438883283807e-01 7.077429667251275980e-01 -5.160973942590552088e-01 5.078012094553550071e-01 8.966590286631523909e-01 -9.639502126229537726e-01 8.141683368363965556e-01 -5.484907282341811019e-02
3.610019793486110018e-01 3.914946357082957906e-01 8.239791692580864524e-01 6.657254857384498070e-01 5.116013743694134419e-01 9.558078040749735660e-01 3.869924479267876638e-01 2.070291608003442807e-01
3.166651179058483923e-01 2.291761457570034022e-01 -4.299185348305734067e-02 2.809242458816145760e-01 1.066521268107223364e-01 -2.544374983753283637e-01 5.966103904801975943e-01 -7.773895385353943865e-01
-9.431875180322419894e-01 6.706912434014637991e-01 -9.404411734295288205e-01 -2.742277083672797211e-01 -9.182814162998946816e-01 1.122830428407677328e-01 3.845940399596929904e-01 -5.259531766143252796e-01
5.091323963832685706e-01 7.833262979379809199e-01 5.341118343543382885e-02 7.166023198507252001e-01 1.704191982717651044e-01 -1.161738673996337567e-01 3.113909943743338182e-01 -2.584219648895007548e-01
