-5.648435628749375326e-01 2.608627224776189912e-01 9.641841570373095305e-01 -3.855496558833393372e-01 9.814623482948139355e-01 3.022305089839050218e-02 -1.231517486383904014e-01 9.315511512598184662e-01
4.863089806412057570e-02 9.095059460879015845e-01 1.849146391517950683e-01 -7.287978730262063554e-01 4.829887561173820121e-01 -5.619169010128186592e-01 6.637166683063153716e-01 3.876128429579863699e-01
-5.212030709124348959e-01 8.805502465277335045e-01 -4.618498598624865004e-02 1.464395273595844316e-01 3.667151721717523127e-01 6.257380403342855946e-01 -2.340439093746038424e-01 -1.422233390411555831e-01
-1.647581206226893524e-01 -2.166752889334646603e-01 -7.330343014237172827e-01 -7.133343364301270029e-01 -1.144103684286057465e-02 -2.913076095982647384e-01 7.886637879370423931e-01 -3.218118557230973398e-01
1.729309605824629337e-01 9.712318066696605801e-01 2.519494632815142410e-01 -6.226918059264796579e-01 -9.393039050875939822e-02 9.163953410165586178e-01 -8.259446126381297937e-01 -2.563488269788911644e-01
-3.207527712498328132e-01 8.993276292813061623e-01 7.926355395152699934e-01 2.998840435629115397e-01 4.093450352552128191e-01 6.678694434147853798e-01 7.557026061588618671e-01 2.168289711135309439e-01
-2.490338124759376992e-01 6.355390697143503687e-02 6.290855863605222531e-01 4.269287257767333532e-01 -2.026293104775649390e-01 -1.853398427154280270e-01 -6.770967798522953274e-01 -3.048720120783610099e-01
-7.045391117591961461e-01 8.587345032663102895e-01 -8.602959199385455946e-01 -4.008864750140730404e-01 -9.487154042614815985e-01 -3.483738131212601452e-01 -8.094211686111507653e-02 -4.753805831996973374e-01
-2.304494123845548526e-01 6.460866404932172902e-01 -9.674388257077166653e-01 -2.824010803142751325e-01 6.934625508840031038e-01 -1.318167230724309746e-03 -8.860835599373813043e-01 9.545523012962608966e-02
-6.603129609099576136e-01 -2.734232943027792295e-01 2.776753066760702104e-01 -4.854142519883719586e-01 4.161881439026824392e-01 -3.869513673376643315e-01 7.310900610319421844e-01 7.986026431330774944e-01
