-4.019645809958649618e-01 -8.873828052041909942e-02 -8.691252684840968801e-01 4.216656321855418721e-01 4.265127880337187261e-01 4.850801694072639503e-01 -1.198907542456040254e-01 -6.622179797458398465e-01
5.311357157289140485e-01 2.260065437406806321e-01 3.392914333195591325e-01 -7.110866314004893329e-01 -4.234274363980301548e-01 -8.279326031451534895e-01 -7.697153481920597784e-01 4.055996081499546602e-01
-1.892957230518410583e-02 -4.408701112747699380e-01 4.205391650311807172e-01 -9.236481895243358053e-01 3.231914873968606550e-01 -2.820319026256685735e-01 -8.662920949364969481e-01 3.191609033899938108e-01
-1.966585091095396365e-02 1.846951088296375776e-01 -2.196026996433531053e-01 2.113390480353705136e-01 2.697792912904668494e-01 4.014658113947553453e-01 4.120045894254369401e-01 -1.629396601713524184e-01
8.673875093292593430e-01 1.448645505409129619e-01 -6.554076050186992131e-01 1.743962394667755156e-01 7.334043096544056173e-01 -2.196655270858793862e-02 -5.423187030125429242e-01 -2.387457194406996663e-01
-9.074716830272198109e-01 -7.992688559087353095e-01 9.546931182171236596e-01 -2.895926502537589098e-01 -9.471641778286568059e-01 -4.224174448831601314e-01 -4.554397526512676819e-02 -3.896229114140417060e-01
9.604600570327084252e-01 -3.953101519990673829e-01 -7.819232979010841689e-01 -4.325867271449488349e-01 4.236072818739635704e-01 -4.014811890304870179e-01 -9.322972024896574172e-01 3.623800598418354113e-01
2.010381496581834515e-01 -9.088029544975015916e-01 -5.018086009270008585e-01 -4.227989426761438185e-01 8.443298658572344628e-01 -6.946189440329422204e-01 -8.677880407353113501e-01 -7.806407190369650806e-01
7.180390027040057799e-01 9.283318678919845190e-01 -7.059680253503473057e-01 7.473724324521522355e-01 -2.530635478575193886e-02 -1.361118100722140678e-01 -2.803829578979490922e-01 -2.868666376228996562e-01
4.075194671438797656e-01 2.744659178925510368e-01 7.323695902819120640e-01 -8.309994351761600395e-01 9.169481063468776227e-01 4.345400586398917575e-01 -9.813469965081860202e-01 -1.218496107723519017e-01
