5.220736845620885802e-01 -2.715618098447531992e-01 8.503032785112336622e-01 -7.670031918319091258e-01 -9.473567773347639775e-01 6.962078987278013109e-01 -8.577509386458201934e-01 4.227979993507768874e-02
-7.434033210636554756e-01 5.957601710550732843e-01 -1.672948498910367121e-01 -1.378153318652366455e-01 1.470387412417513140e-01 8.097909833409688840e-01 6.008762865354444482e-01 -1.107542667654479729e-01
-9.623555774651022521e-01 4.014856694555570815e-01 -4.378808913561071936e-01 5.574253009044203289e-01 -3.358191526852556397e-01 -9.318675120718986626e-01 6.457282185215560411e-01 9.530237994555541547e-01
-9.424202587561651967e-01 -2.494020009927280235e-01 9.777092648341456638e-02 8.663706489082532158e-01 6.262633233622068030e-01 4.752304785587824210e-01 5.877919432848364156e-01 7.293635367159456706e-02
-7.975120083126210346e-01 7.617946150996666166e-01 -2.939016688389946008e-01 6.359898442379006145e-01 1.166981752610443124e-01 -7.835068455545786126e-01 7.426004617801706953e-01 6.233231373145617926e-01
4.378515443122605877e-01 8.526440649327877708e-01 1.200608516186913999e-01 -8.620020628700306720e-01 2.111935923755670075e-01 5.456240322627925465e-01 -3.577939920870978341e-01 -7.140486788498101589e-02
5.058752892667637280e-01 8.369607189813290660e-01 -7.765728101974582742e-01 -2.142861277644283469e-01 -5.362112024428993262e-01 -7.824381232983903534e-01 -6.953305252950874316e-01 8.212000225223885508e-01
4.757655158663698369e-01 9.496561986386198306e-02 -3.713250802344725265e-01 -8.711330076891701246e-01 1.204890677336440952e-01 2.683116270218157684e-01 -1.701954107825482954e-01 6.537529549508105386e-01
-2.289954281763419974e-01 -7.223027727576314394e-01 6.564674152835978660e-01 5.583662877841777394e-02 -5.900695960081909774e-01 -4.471979343057552736e-01 -5.644020933853746147e-01 -6.891716211134992776e-01
-5.647986268112172858e-01 4.454288703642195202e-01 1.664134551226561509e-01 -1.740124354855652200e-01 8.281074978867852820e-02 4.058899476000792372e-01 -2.475343289847471429e-01 -1.571998047809508581e-01
