-2.524191547775231914e-01 4.639902686223658090e-01 9.834847665818007290e-01 1.775111470284640447e-02 -6.540551739543745136e-01 9.722693578669172609e-02 -6.138399693339815499e-01 -5.308637439777164069e-02
-3.508581857143513449e-01 -8.612958314678622607e-01 -3.532544499451530928e-01 5.948360304887210237e-01 5.298593138888296750e-02 -8.803963221852706411e-01 -4.884101927925457165e-01 5.712449872773612825e-01
-8.170287003563234673e-01 5.203895524672483841e-01 -1.128884637702149973e-01 7.329997909777403731e-01 -3.823587445012792685e-01 -9.862189191234516095e-02 5.633428415879031537e-01 -8.864991941082949189e-01
6.087885881636545538e-01 2.811003029591097047e-01 8.469531826670901875e-01 7.755932167862922277e-02 4.672087169785272831e-01 8.573572718416933025e-01 -1.754480655380437071e-01 4.705775998852188557e-01
6.215066842914660494e-01 1.005567244321585729e-01 4.233485819515647730e-01 -1.533682620113527850e-01 6.896690769368496454e-02 -3.317591390516017036e-01 -2.284867552199876251e-01 6.337573946587771179e-01
-7.787603127289786098e-01 6.933419260926674266e-01 3.601749523843529310e-01 -3.153636264881067852e-01 -2.494145340114539700e-01 -9.870074674888988930e-01 -8.251327370274514905e-01 -7.005451476165742708e-01
8.381824221681544174e-04 8.876614216344560493e-01 -4.097112115148451306e-01 -4.653645132112194105e-01 8.334572836300406795e-01 -6.317841349301671627e-01 1.317782497547546061e-01 9.184242804577742447e-01
-7.980127463999115989e-01 -7.272708317048786064e-01 -7.704608298642006137e-01 6.511519095377982236e-01 -2.997977495722012886e-01 1.823992708014139374e-01 8.982913920580286593e-01 6.704095636644529232e-01
9.443402138598908646e-01 -5.023918024584721476e-01 4.610254308311716454e-01 8.976447179434554613e-01 -7.362563821733232317e-01 2.543187557971620105e-01 -2.425648791095216250e-01 4.697106874504954899e-01
3.471226141922709729e-01 -7.740811076772089461e-01 1.055257056108698244e-01 3.279831119996412525e-03 -1.987634308832890717e-01 -4.759239376596280380e-02 -3.258069145250790388e-01 3.112943014549798271e-01
