7.814617250184903163e-01 -1.043826888131518249e-01 7.698078209932861515e-01 -4.066081053278283175e-01 1.774610327469070548e-01 -4.969777526974683557e-01 -7.347777601529938973e-01 -7.232927601647625160e-01
9.384326011079979768e-01 9.676144193523450454e-02 -7.931680483618994693e-01 -3.774020938830053851e-01 -5.270814948765092378e-01 4.853601248514751720e-01 5.719212958984924988e-01 8.366348034814339307e-01
-9.728554807070830535e-01 9.685368410361365754e-01 -6.079285991289085089e-01 -3.450611147524507150e-01 -1.439405691107193963e-01 -3.536209216530261656e-02 5.044699657105522483e-01 -9.823543861345716000e-01
-6.989047966364019260e-01 8.322997450941875819e-01 7.208014058331917440e-01 8.654113419654174688e-01 8.579905949132538012e-02 1.139033996838378915e-01 -1.191183341330650514e-01 9.955780401847085237e-01
1.530058059408105908e-01 2.324657865220436381e-01 8.398638289986863903e-01 2.217324113480048098e-01 6.598712015628689365e-01 5.086510306225724420e-01 6.344148814659191782e-01 -2.031317330678088506e-01
3.705590342198989973e-01 4.410964847767648855e-01 -7.786287756798904169e-02 9.393110763157430654e-02 7.543307434008559298e-01 -9.021754941390252025e-01 5.533765008252511386e-01 5.380341645164674613e-01
7.189988848022497159e-01 2.063550073437936394e-01 5.468417505680345236e-01 -3.293717472648274303e-01 -7.515543455964028841e-01 -7.286281110066146205e-01 -1.210668578561640008e-01 2.740386734116631029e-01
-3.822445902438167398e-01 -8.554690676297087570e-01 -7.534111990595644404e-01 -3.485168558171312103e-01 3.935186618683090831e-01 -5.354199303998754544e-01 -9.154120699001544459e-02 -2.408807588921697551e-01
-1.782849316264616402e-01 -6.439814819622986519e-01 6.413458038789301430e-01 4.545081484206578981e-01 9.995851665634565286e-01 -5.673821357077324379e-01 -2.567775690298095270e-01 -6.145187531388340840e-01
5.358130140043391165e-01 1.759178766742983679e-01 5.953395502047382770e-01 3.969053864839025003e-01 -4.924149288660804036e-01 1.248764467922709454e-01 -6.705824898096393039e-01 3.764323480325004745e-01
