3.529658250775766781e-01 -5.421350197287497785e-01 -1.636950852782868004e-01 -4.228279866781985419e-01 -3.768192738504541062e-01 -4.944934036576895675e-01 -1.311743916951753075e-01 2.804981276681797198e-01
5.979559206356992451e-01 -4.747819574474390070e-01 -1.154953037257129278e-01 6.713520539783242036e-01 -6.260934478258461944e-02 7.074940476875375417e-01 -9.246650279474171175e-01 -2.816281986488329281e-01
-8.396022492860431008e-01 -2.914326862435572263e-01 1.420755272201059682e-01 5.268433617298013960e-01 8.377351747926287118e-02 7.067798277112034011e-01 7.751295616963591595e-01 7.865727129985808919e-01
-6.019849623709332409e-01 -4.911392937241756407e-01 2.459294491371337710e-01 -7.046247730753738558e-01 -2.151911523558527328e-01 6.834575073520101629e-01 5.575352361047589689e-01 -2.187034785282293559e-01
-6.804236585083891509e-01 9.468592995136295709e-01 -3.790885766252716227e-01 -7.615020436783703772e-01 -6.306661516782285926e-01 4.368787727819813949e-01 -7.552969547768897396e-01 -8.795810621026323162e-02
7.422269132918224432e-01 -9.188761814160650854e-01 7.494937679722661894e-01 7.639973217265920713e-01 2.456567159070015549e-01 -7.383097471687469771e-01 -6.737749438300637550e-01 -7.128675978764058563e-01
-9.636127175505224685e-01 -2.870661691438627372e-01 5.857797129715272000e-01 -9.722463481898122595e-01 -4.500961409246901912e-01 -3.960822583492416005e-01 6.079916941969492061e-01 4.321117441867907694e-01
2.187572717233594588e-01 -1.111970646277897767e-01 8.365294010159594063e-01 4.846106009437567419e-01 7.250646124373945067e-01 -1.090052439058419864e-02 -7.774316699701011579e-01 -3.197200164122158128e-01
7.506235877221081321e-01 9.644099115795359278e-01 -9.474959795022861453e-01 2.957078568629603055e-01 1.728061746647735486e-01 -5.298263368223272707e-01 2.205800943852134210e-01 -4.426898552973137502e-01
8.421798712994865710e-01 -1.612590409312379958e-01 8.213230305322456459e-01 4.726215643171749470e-02 1.143268348486723429e-01 -6.877677424479891055e-01 3.232703524596340916e-01 -1.030528312384180190e-01
