9.633790892884921409e-01 -8.802982788608595399e-01 -6.006432144706823628e-01 -8.033853705425466618e-01 -6.338867252351276793e-01 -5.298041632749310725e-01 -1.266406962555317595e-01 -3.300956458566541851e-01
8.773379896561812608e-01 1.804487021737348762e-01 1.195565981543758038e-01 4.946213502531950912e-01 -2.161712317354886892e-01 9.216684055634523087e-01 -5.353247158989058452e-01 -4.903801674647001452e-01
7.457948809443943894e-01 -9.654838088459549716e-02 -8.289257184353155949e-01 -6.262764460393046573e-01 9.100589057027681505e-01 5.628165589468530072e-01 1.186653192332207674e-01 -7.956745308539161510e-01
1.478815522156236018e-01 -2.227894654279527487e-03 -7.356317241037839683e-01 -2.515759866743061401e-02 -1.970593349571025943e-01 -4.701156048712005209e-01 5.615929603964284755e-01 6.079929769474392565e-01
-6.116591380807494538e-01 -6.874335550950916307e-01 5.416399013602388735e-01 8.979653040414956600e-01 1.852179999426211143e-01 -7.147960087367879467e-01 8.144931729923632346e-02 -9.169490724215549893e-01
4.287095450144835507e-01 5.768118257887762113e-01 -8.727225046152100596e-01 -3.862413818513676933e-01 8.471156013422831421e-01 -8.851397711454103145e-01 -7.781295880434071499e-01 2.717488162531458418e-01
5.922230941581219099e-02 -5.177924549389352205e-01 -4.819170432897568190e-01 -6.583908583504027856e-01 -2.269677925247073347e-01 -7.578695622842985813e-01 8.031433022700398272e-01 7.657912056309008619e-01
9.966900003992740231e-01 -9.253549522931663329e-01 -1.091233735817391803e-01 -1.087574385214744588e-01 -7.454739708600448544e-01 -4.976342855154292089e-01 -6.843378817942620262e-01 -7.015635876391617121e-01
-8.550050548696148667e-01 -1.922743423869985868e-01 7.440303906597585115e-01 8.131766175633419191e-01 -5.911614141086320995e-01 4.335429829013737191e-01 -1.771098719269745825e-01 6.371047467798394148e-01
-3.578921557419807442e-01 9.780259043994017354e-01 -4.049225848519859561e-01 9.780250715978200393e-01 -8.904141875542437301e-01 2.966519038653476770e-01 -8.233241745949588797e-01 -2.828022422692040294e-01
