-7.971660639949318394e-01 -8.916696009581337456e-01 1.313915543805150854e-01 8.300168638219662665e-01 2.571565045545682882e-01 2.486697772334636181e-01 -2.102264140035714490e-02 6.781787165658366145e-01
-2.125321197482668012e-01 8.274451724766660465e-01 -6.946358963586569679e-01 1.278895722987485328e-01 -3.067833223049636349e-01 1.612057196658029934e-01 -6.801450227015548577e-01 -6.606134391529612238e-01
-5.775945791332390833e-01 5.149877588232227854e-01 -1.251012556498531936e-02 5.405572026843932232e-01 -7.726336968868241506e-01 -3.807837160582998592e-01 8.344057353600420335e-02 9.796134115575521051e-01
-1.989419036283612829e-01 6.532936322256395201e-01 3.422657411849148179e-01 -3.513145447376158081e-01 1.905188781104061313e-02 5.202851791482980826e-01 -8.606367445754148360e-01 2.787292905394460618e-01
1.364921782386667726e-01 -3.893814679818818902e-01 -2.697415439024519745e-01 -8.379008425912704006e-02 7.081447537844520745e-02 2.685886089334561522e-01 2.083904318637077591e-01 4.702822355323550418e-01
-1.740295378034777407e-01 -6.251572359664991918e-01 -6.254181138717855859e-01 -9.048684106522200121e-01 4.480054117036533778e-01 -8.054881129530173656e-01 3.246214980827379915e-01 8.169005821425052716e-01
5.322494394147270214e-01 3.290140192602462044e-01 -2.392941211554779901e-01 -5.306264224857253353e-01 -3.490084768733714427e-01 -1.583340382175562056e-01 6.421959635590965831e-01 2.516751184198704472e-01
-9.736762032778629727e-01 -4.555387573747153862e-01 -2.380249352461241141e-01 9.004089559478201110e-02 3.818382890167812960e-01 -3.508767446632634623e-01 -5.424295209490110903e-01 2.489277474665736456e-01
-5.537478979508012600e-01 -9.340668492174286630e-01 -6.691189579912160124e-01 9.503589197367077190e-01 1.205741254280185970e-01 7.491993792620328385e-01 4.547566471820907452e-02 -3.252267310104515197e-01
8.442757546530561541e-01 3.304604129235577670e-01 5.023718616662522507e-01 9.112323346810597968e-01 2.896200112283082717e-01 -1.266368947546367973e-01 2.362765782137921100e-02 5.897286165840058825e-01
