9.735060938747674975e-01 -1.589060863619622399e-01 5.245342966014376884e-02 8.808579693450022674e-01 9.291274441679076013e-01 2.475309290310465649e-01 9.077278418273104776e-01 4.262394813506475977e-02
5.306916368749428070e-01 -7.512011825389091069e-01 8.916030920638551294e-02 5.860703000877731661e-02 -1.469917391131760898e-01 9.355686950820103487e-01 1.773781804377594362e-01 -5.171518776992762856e-01
1.297245538820721578e-01 4.854276281931115822e-01 -9.273986685925958984e-01 1.558526957410393265e-01 4.926307772671560947e-01 -8.351170376329475342e-01 2.158093183781264468e-01 1.208555379999034507e-01
-3.634331607759719862e-01 5.394691500257404737e-01 -5.962093280883160595e-01 -2.860679347041830134e-01 -8.145150827138920580e-01 -3.716472270987840609e-01 1.117063192408094263e-01 -6.370155737707552390e-01
-4.615978463685916910e-01 -7.479189489783599765e-01 6.733399763930660864e-01 -8.846915117895504110e-01 -6.993592766264111749e-01 -4.614881898607900990e-01 -2.059818485896720563e-01 -9.108807772721898566e-01
-4.897645238277625879e-05 -5.433406417799695465e-01 7.271294919659583300e-01 -7.564688412771487513e-01 -4.718073028057903073e-01 7.241291163597773917e-01 8.707187999966969905e-02 1.159414976875035030e-01
-9.007015017668722479e-01 -6.850495206312758878e-01 -3.590190998727025296e-01 -9.113641472715772185e-01 -7.613560659772771189e-01 2.822563076833144446e-01 -6.446008823297000312e-02 3.545145330106000969e-01
8.842899185780404014e-01 -7.771829764954920616e-01 -1.268311197816571756e-01 -4.447910620358250799e-01 5.366792372289288515e-01 3.766740910256773933e-01 9.937659592820966559e-01 1.820146344329340860e-01
-9.028478897192508956e-01 -7.002991817095536309e-01 4.159953468538768462e-01 -8.223282073533921821e-01 4.251558872820626611e-02 -4.511361022950246547e-01 -3.060084626072712144e-01 -6.092220405792168059e-01
-1.893213835586569083e-01 7.459486713268430602e-01 -3.169275457925826434e-01 1.831676602059140180e-01 -3.420498754831873267e-01 4.642658685829348375e-01 -5.719595248818685196e-01 -6.366191075125890997e-01
