2.705487950333407277e-01 9.098573349618848116e-01 -2.032218631329008041e-02 -8.961451997358296229e-01 3.023508905708534034e-01 -3.678511863585318675e-01 8.616770161067306422e-01 2.637728138415111889e-01
1.777460863302171568e-02 3.494374432822979770e-01 -3.717422389207247768e-02 -2.944229927548904779e-01 7.214616549783527955e-01 7.139476615780502300e-01 -5.952679112292649233e-01 3.475541313463375026e-01
5.714480347809747229e-01 3.039371267877990501e-01 -7.987753749401118597e-01 -2.777278085200989288e-01 -7.280123124000348334e-02 7.347395201928175190e-01 -3.006588456827483657e-01 1.997760135811703641e-01
8.496685623266637677e-01 9.235350524642882419e-01 5.397805130955455333e-01 3.228489105504817047e-02 9.544826002398698606e-03 5.519136949406970860e-01 4.290561049794281434e-01 2.509661150107200811e-02
8.588964642211003309e-01 -2.557218746774669871e-01 -3.284266209350692467e-01 -6.306429689721548826e-02 -6.275835440115846708e-01 -8.339384278005006479e-01 2.706622072976494486e-02 -7.173767514046054394e-01
1.478235311365199145e-01 9.684130114810265422e-01 6.318945431759228626e-01 9.749170200612977677e-01 -6.884790083699625640e-01 -5.313904003039597868e-01 -2.659405323648567077e-01 -2.603701432644691671e-01
7.357767542653625981e-01 -9.040588899608552609e-01 7.792076862345749255e-01 9.273416988476328449e-01 4.622952910533650872e-01 -7.251321700647228585e-01 5.573528397280449465e-01 -7.789877792284349844e-01
-7.649922931517101343e-01 -7.607882740194555904e-01 5.940150729199529245e-01 7.147496672979931631e-01 7.406234479931972370e-01 2.430792950819682385e-01 -8.869256655487887109e-01 -5.605739234191031706e-01
2.211589715232862297e-01 5.956742191381729778e-01 3.084607719601455411e-01 -3.166009558784299571e-01 -1.011840614777541614e-01 -2.098243402055659512e-01 -3.135902323048147533e-01 -2.276638773770551794e-01
4.578262327235926854e-01 7.992884227363021843e-01 -5.609031542500728662e-01 7.790362282079505984e-01 8.895467199037572215e-01 -5.991038446184917543e-01 1.884818762017614890e-01 4.666611881117328497e-01
