-7.731884054686450902e-01 8.441771386852692238e-02 -1.025804566360188907e-01 8.076977971175662852e-01 -8.094143558981015119e-02 2.630512547331771422e-01 8.951949363023035122e-01 -1.447147873681537966e-01
6.400398329004508557e-01 1.772432157236658590e-02 2.261202912616535610e-01 7.604669374888477495e-01 -8.935171638233903035e-01 4.575588218220594250e-01 -7.503610362198274153e-01 2.335020974443697828e-01
7.173350297213927362e-01 6.627520855142419176e-01 5.899941689656611477e-01 -6.724849329437765366e-01 -3.080987207678718143e-01 9.937273556077887982e-01 3.623612991176334841e-01 3.558526888258710663e-01
-5.384666197269780685e-01 2.132708905022089318e-01 -3.774331949961415855e-01 -3.131605350311332803e-01 8.231832096437550206e-01 3.509765130839730407e-01 5.296218789154281126e-01 -5.138272652216953063e-01
2.399944472499557779e-01 -3.119960635086516110e-01 5.588355115274727947e-01 3.272725295968648140e-02 -2.566665842805526676e-01 9.288311913592721680e-01 4.133685946681353585e-01 6.860759519961541208e-01
8.995053219313584592e-01 8.280935180994490885e-01 -8.453226170347369894e-01 4.433506287799386936e-01 -1.364747777203307866e-01 -7.348637481933397719e-01 1.661283806372602090e-01 3.839986770638050828e-01
-2.847156706686160277e-01 -6.564638636977770947e-01 3.044576287693396832e-01 -9.996592014686873640e-01 -3.188766519838568403e-01 3.355524413819859220e-01 3.130001918167619746e-01 -5.287535508105989379e-02
-5.222490232797758480e-01 4.957244777903988542e-01 8.322229015352067272e-02 3.702527131277786321e-01 -7.904501750137560290e-01 3.561038763199027013e-01 -6.014068083050099212e-01 4.028838962124270395e-02
-6.519603210252424841e-01 -8.144699863314008859e-01 3.404733167026039453e-01 -9.922493507640659516e-01 -3.863559288951876614e-01 -8.428502235185360014e-01 2.731001304478777314e-01 -4.757534098941802458e-01
8.709195288927289447e-01 2.119283417942985359e-01 -5.810858564652063851e-01 -1.094309497643950468e-01 5.499455359195859483e-01 -7.303314492450276862e-01 6.732981319766071504e-01 -9.664994722364594892e-03
