-5.617806380364678276e-01 -4.807038529773242086e-01 -3.174082859043019234e-01 4.227464125651434479e-01 -4.633717081262409554e-01 -8.423690633139127026e-01 1.802894916747606047e-01 8.485922657990221385e-01
8.340429577256798233e-01 -7.313776731995376146e-01 4.469924866955792275e-01 -6.673710474002616522e-01 4.579211584993567730e-01 -5.686179199087719738e-01 -6.483600102293971545e-01 -5.115757147461437171e-01
1.885413343589603663e-01 -4.327808516582438703e-01 5.708583083791514134e-01 -8.781899915006869950e-01 -5.591616580842897477e-01 -5.400542961253556040e-01 6.052424979118065096e-02 8.077985550275257332e-01
-3.954372745970713421e-01 9.185246678546634680e-01 4.384993497196243428e-01 1.519668887922800415e-01 -6.836493938834293793e-01 -1.272040255206958737e-01 7.119253421278093352e-01 8.703159680928318487e-01
4.083046749347341020e-01 -1.974616384303706784e-01 8.090292656528346171e-01 -5.150367370869222139e-01 -5.116709327413131447e-01 -9.593311416571741468e-01 3.710374175609620906e-01 -5.307538040490205056e-01
4.300908830251410908e-01 -8.800234206796651026e-01 -2.251388754725374142e-01 1.394112043468809237e-01 -1.643126401504009237e-01 -9.235942091112114838e-01 -2.186699386017332269e-01 -2.704383954842086712e-01
5.476203700749160408e-01 9.023843999215213074e-01 9.345978373183825294e-01 7.325603318007600784e-01 -1.544127217205670810e-01 6.897298783839935776e-01 6.677348732474459592e-01 8.748084254666901316e-01
3.356222638686601201e-01 -1.217175091855573488e-01 -7.749956338265266975e-01 -3.723995320765867145e-01 -6.962274558864673946e-01 -4.364570377328598205e-01 9.098184528673569638e-01 -6.786884262151529068e-01
8.021564638069171860e-01 9.433212295838515615e-01 2.705049455708985473e-01 7.620581069102880800e-01 -2.362657262806013847e-01 -5.317760473112949082e-01 9.710174366295722947e-01 7.536410903980377274e-01
4.660407462453493022e-01 9.616409398276453135e-01 -7.392904969499403123e-01 1.522610419457424147e-01 5.075278345800418034e-01 9.971873068228718218e-01 -5.421913628150627495e-01 3.806012433626730918e-01
