-7.078452098859149277e-01 1.583908475589406173e-01 -2.047140840273049545e-01 -2.085663476324566279e-01 5.606480611489768062e-01 8.454238008179248975e-01 -3.068685170152762876e-01 -2.117209577055265690e-01
-8.319146302752715716e-01 9.699640902723398739e-01 9.207487204079318754e-01 4.845121967995140722e-01 3.387676631307201536e-01 -6.199963568766493349e-01 -7.839088899620623163e-01 -2.607247603815545656e-01
4.492260370871565822e-01 -2.909520084551924235e-01 -8.984451635956554050e-01 -4.469941102076928630e-01 -7.912555958644089671e-01 1.242827647399722402e-01 -9.436226997209193890e-01 -1.677003762900297623e-01
2.897812115184867920e-01 6.626875057037957539e-01 8.400188281776170829e-01 3.660455630861974008e-01 -7.907348267139788778e-01 -6.601471083981020893e-01 -7.824928621549531726e-02 -7.656615146114842396e-02
-7.571291582536714415e-01 7.946436695350376223e-01 9.722162941340153353e-01 -3.139374672486270335e-01 7.969183487671414046e-01 -5.639085516648019158e-01 -1.992357364272125952e-01 4.976377250635735106e-01
-4.296745386990747928e-01 7.708346395136778106e-01 7.165752575014789905e-01 9.884003110084973454e-01 -2.378202408800933476e-02 -8.682388177486413117e-01 5.476103999824524227e-01 -5.794376692795977224e-01
6.272555777469792648e-01 2.418677348221667245e-01 -1.834015399255408685e-01 9.251841576227732844e-01 -5.911192375199572080e-01 -7.418787883361250834e-01 6.360083642581193519e-01 -1.733176654636414682e-02
-3.226773268539775419e-01 -1.743548411124011821e-01 6.773203443877029439e-01 -3.020165723713181816e-01 -1.191076280858920367e-01 8.333364419709408111e-01 4.071388498848138582e-02 -1.705880304553399895e-01
-1.023243255161452314e-01 8.128305830940230070e-01 9.708967417072735806e-01 4.497293763719607540e-01 1.456269846001405632e-01 -6.183514341935711922e-01 7.702372319793491240e-01 8.336029574883589977e-01
-2.870317696067581359e-02 -2.321711082365942591e-01 -1.554359718399056511e-01 6.778128410543087234e-01 4.756867766182586443e-01 2.666119022236641545e-01 5.118708651566996615e-01 6.315006214753491331e-01
