-3.387289795958445815e-01 -3.081363675004593627e-01 7.800834895680694991e-01 -8.201887111241923378e-01 4.569562043393695649e-01 -7.334620929092583452e-02 -4.220838128915878062e-01 -3.755825997348323231e-01
3.762074451308143885e-01 -7.037659560669373704e-03 -8.715322346473899362e-01 -4.910019875859401584e-01 -8.750108452768357026e-02 -1.894523055301786663e-01 -5.668885598688622185e-01 -5.528910662670807330e-01
-9.955065955093265195e-01 -4.870798110443268492e-01 -7.919865575188589357e-01 -2.217906009379739807e-01 5.050057681096360440e-01 -4.555591288813551909e-01 -6.523576681254559251e-01 -7.207373898477611451e-01
-7.075633663098535031e-01 1.902800864368356937e-01 -9.190968197125279904e-01 8.431977880193017860e-01 -2.676548528217319589e-01 3.519554713252692757e-02 -6.624356726237756732e-01 5.060415017508437252e-01
-1.804752683340460351e-03 1.872100387172563885e-01 3.324081003843912807e-01 -9.380653862122907416e-01 8.563436560041144396e-01 3.935009678833711888e-02 4.560636938711057908e-01 3.138230539114741369e-01
-1.258784123388596576e-01 8.665717322055048744e-01 -1.964348982501977758e-01 2.968246643779366423e-01 9.709753723180238882e-01 9.346879348394936393e-01 3.081459387773066716e-02 9.046973605079067227e-01
8.541445635697557659e-01 3.065481559316496352e-01 1.176071086008032562e-01 1.545370704619990487e-01 6.542711484443697323e-01 -5.284888669364737890e-01 1.904193511884526568e-01 -1.844546115965659538e-01
7.566318949518193726e-01 -6.204165437817146245e-01 1.391737246612709811e-01 7.010664544329612280e-01 6.292591988820464000e-01 -4.633430744368465248e-01 1.141734051478542344e-01 7.908796717121522324e-01
7.157283865403054612e-01 -7.448613503691730031e-01 4.659346330273774761e-01 3.380211822285619228e-01 7.648266895642483743e-01 -4.759043534601792302e-01 8.762826053334871190e-01 -8.362178026882929327e-01
-7.613521455738962995e-01 -5.779225306716164745e-01 1.091236944604274672e-01 1.529680467290384094e-02 3.930305455802780568e-01 4.135488497851971257e-01 -1.751240112194445420e-01 -8.679142847713339215e-02
