-7.957062353305872637e-01 -4.730864006428632251e-01 6.151477129405023003e-01 4.376708064334797754e-01 -7.573900754359543797e-01 -1.895032891414025755e-01 6.386089748226440044e-01 7.160728228158208530e-01
8.410416069497037572e-01 5.559005229590459063e-01 5.979844366071174200e-02 9.132694496354805125e-01 -3.801325555687371516e-01 -5.263168560173252519e-01 2.201632299911315815e-01 5.519380642963753747e-01
9.967004614541448149e-01 6.113566741061291498e-01 -3.612448760015263272e-01 3.150570303579489639e-01 -9.633463280655598648e-01 5.970317532038209585e-01 6.378927147311428403e-01 4.388671746017194231e-01
-3.462450883023557857e-01 2.049834159775740794e-01 5.729899216195801781e-01 -4.395950050797321484e-01 -4.277783458328321409e-02 -5.353166569732803470e-01 -3.191830391954222357e-01 1.600512545108405682e-01
-1.351503598687595620e-01 -9.265743469397014209e-01 -2.489024524882270661e-01 5.396610299851021253e-01 -2.133636454799288096e-01 9.876985008893968132e-01 6.063370547555517742e-01 5.356696687869721973e-01
-2.160583051561806300e-01 6.418023334975275773e-02 3.245514201070853755e-01 8.821086630273280438e-01 1.828079867317740081e-01 -9.525878843552664232e-01 -9.397680278753552940e-01 3.341023539106080520e-01
-3.234380422268205990e-01 -5.910589411764721746e-02 5.208571890109876534e-01 -8.928419960468712002e-01 -4.054237383856733601e-01 6.962887591466111470e-01 -1.158023466976803029e-01 9.237063768540210162e-01
7.842904241959305356e-01 4.093675304863115816e-01 -8.381437555794484240e-01 5.541782536630928124e-01 -1.510177467734870049e-01 4.898853144194803555e-01 -4.797486499817436023e-01 -9.364371702321310220e-01
-2.551949549683218965e-01 2.340702947833817049e-02 5.660423787262185424e-01 3.386209759310854217e-02 4.061812336447252481e-01 -3.559718739924504494e-01 -4.162562291727078811e-01 3.456192405122575639e-01
-7.616176036610244893e-01 -2.997336920433839591e-01 6.414504079245846313e-01 9.714693613159475216e-01 7.502451881052929483e-01 2.056836893201618999e-01 5.745514834264544568e-01 -2.565172350827096270e-01
