-4.442579017153147625e-01 5.951193967190606671e-01 -9.387415782249526330e-01 7.296202509312965656e-01 -2.641831032562351744e-01 1.474219048577751767e-01 1.985824461274219299e-01 -2.494024192003487794e-01
3.575503436760225640e-01 -2.070657293178614911e-01 -6.250955084081881719e-01 -2.084922702553482221e-01 -9.956990457940488870e-01 -9.925397586892359403e-01 5.644378858543475097e-01 7.330527163398090629e-01
3.313035522467511207e-01 5.778480664065934747e-01 -5.810051398307973791e-01 -4.876470743581566847e-01 8.493828343252591839e-01 -2.461601653082605701e-01 6.615800563994027605e-01 5.215154497818093038e-01
6.852409203875553523e-01 -6.272197466489199957e-01 1.819673086616717672e-01 3.551447601374073670e-01 -1.190222062254102653e-01 2.673485804429676094e-01 -1.756622297266763333e-01 7.667526366305825736e-01
-9.208951634973612244e-01 3.361983659351008846e-02 -5.349513876000688839e-04 -4.834171628580588020e-01 7.541438840159100376e-01 9.528412205769998256e-01 8.508675805222105648e-01 4.669972137138356238e-01
2.242847678476556084e-01 -3.390469781283009798e-01 -5.540522394025435560e-01 4.173472384770151589e-01 4.649634018654837941e-01 8.554924647949382344e-01 -9.284809442642005806e-01 8.825309980959854528e-01
3.552802428857655404e-01 2.891899942667917056e-01 7.531038964701342042e-01 4.891626031811850961e-01 3.449249142395927059e-02 2.778605629486388118e-01 1.837333184741871683e-01 6.155401605240151675e-02
1.377867199133584464e-01 2.457749511366158490e-01 7.169549001634798469e-01 6.672242996826645012e-01 -3.449421705616779743e-01 -5.761186336352570603e-01 1.696814293114592420e-01 -9.344941410367053614e-01
8.828188655207622748e-01 -7.963320965124267570e-01 1.325200346763839576e-01 9.339616465879536644e-01 -9.773597445970267916e-01 -4.716472180520070445e-01 9.791233703506809771e-01 -9.108442508430394380e-01
2.802800800656612967e-01 -8.025270040755509982e-01 -6.780818188985227035e-01 5.339871361387307225e-01 2.290743073451935174e-01 9.101079442763562177e-01 -4.663815481734667756e-02 6.390542908770144859e-01
