-2.776523960254577705e-01 5.324322361210733767e-01 -1.747940176753941532e-01 -7.938488195383097690e-02 4.705785432782445543e-01 2.486412741425723105e-01 7.482379532753169471e-01 1.549909087140135533e-01
-7.563262264083079334e-01 9.529087919017129593e-01 4.842797881549452121e-01 8.402296972591627444e-01 6.698113146787769701e-01 -6.852885721762129734e-01 -3.454232353360462415e-01 -8.165333647389703131e-01
-2.871076110498906875e-01 -8.626784411173593625e-01 -4.471985412089718448e-01 -2.875496512415183226e-01 1.708623680449641302e-01 -9.675022414333200871e-02 -3.405573508999124588e-01 4.409354943170655794e-01
1.094025041903949891e-01 4.520367658472863592e-01 -9.387407057631187435e-01 -5.333542941590059261e-01 2.192961342408876746e-01 8.021667803484269221e-01 6.787077761874651394e-01 -1.769511458052008823e-01
2.881747839018875545e-01 -1.064073829805578519e-02 -9.306174263707100991e-01 6.156647327197579678e-01 -7.502180336372001879e-01 -9.662921751296951189e-01 8.036290345780447986e-01 -7.653590437525104040e-01
-6.792606823042708353e-01 4.497616483454560665e-01 7.533649423605743856e-01 2.954845353499679916e-01 -1.762351651906028938e-01 -4.137157533716120383e-01 1.488870000433182295e-01 -4.886849383321334450e-01
-7.252339112934813592e-01 -1.306218346192697943e-01 -8.472520128209048984e-01 7.904372059632280845e-02 7.284089320133542156e-01 3.267929235542863520e-01 -6.356290398525812346e-01 -6.152219101084739350e-01
3.266741278868787735e-01 9.425651118542657247e-01 -3.621776134923948565e-01 4.102607930390371749e-01 -6.816659098101429670e-01 1.934578602879377662e-02 5.765718266109920442e-02 6.108932720301065711e-01
-5.474741410821610810e-01 6.400855257135071863e-01 -1.185985976134926734e-01 -4.101007588126608372e-01 7.016618241657899269e-01 -3.789527743118998870e-01 -9.143391057847309877e-01 -7.627930651132295292e-01
-6.417787200819287108e-01 3.122665128198300888e-01 -7.236339737022001728e-01 9.675295425818288830e-01 9.213069255383607992e-01 5.382695779101971389e-01 -8.746938945943478760e-01 -2.675461979435715953e-01
