-8.196670874905451765e-01 3.678464598968302912e-01 -3.639105167209526481e-01 7.823816112436854375e-02 6.864829614688090498e-01 -6.520346274428860944e-01 -4.967226117026668497e-02 -7.347719325610198027e-01
3.138889455533251382e-01 1.644581502246307281e-01 6.822951378666211042e-01 -6.102914435667701198e-01 6.163249397679819719e-01 5.942740281755778398e-01 6.696691520868987002e-01 8.698224077827392264e-01
-3.568310609761642382e-01 6.838246468264295164e-01 3.606837824960809069e-01 9.328447019379264571e-01 5.219457457499654396e-02 8.691315999217177346e-01 7.750004117010038662e-01 9.775820586712260507e-01
-3.652359044902799834e-01 3.241807822635542902e-01 1.644294343086478705e-01 8.656960088696719069e-01 6.263733298908022995e-01 1.069291356947184024e-01 9.087401074313301574e-01 -5.788111453109086035e-01
-6.173458951128889538e-01 -9.700554659280320458e-01 -5.497912524921040323e-01 4.179466688630093518e-01 -3.378099440013027088e-01 4.970233571073590095e-01 -5.962790982545571605e-01 7.829274886221648799e-01
8.986586264169229565e-01 6.745776956279516678e-01 8.606129799056743135e-01 8.308192080072274166e-03 5.229767742290636345e-01 5.787856691762087724e-01 -7.796838156910126383e-01 2.915494551893815789e-02
-4.035316718731813967e-01 8.264222130276013267e-01 2.189617347415933057e-01 2.743185447529392640e-01 -5.695135076097479487e-01 3.164106162372446462e-01 5.068509581866094127e-01 -1.927750469183855397e-01
-3.493973106011891705e-01 9.674495882883535902e-01 -4.195734517418894249e-01 2.735191826330443110e-01 3.905883961400860027e-01 -9.271699413701806058e-02 -7.174443126539213900e-01 3.350855417991369656e-01
5.438033802946220518e-01 9.894111254590292059e-01 -3.291699377366619217e-03 8.640226710730629645e-01 3.639282097200067234e-01 -1.936451452427652153e-01 9.041931471319000213e-01 6.990773009036288510e-01
-4.160478130469713598e-02 -4.695832270444955103e-01 -3.411821664823928568e-01 9.986961854960421103e-01 -1.232989138373297155e-01 -6.420445327146893089e-01 -5.634070795660497399e-01 6.672931994286088742e-01
