-9.365866908533160284e-02 1.679856804807355886e-02 -5.067806036935493808e-01 2.064201876513676037e-01 9.243532255409303566e-02 7.951436186547204965e-01 9.114048070148772496e-01 8.376087622313541647e-01
4.506904248153222881e-01 -1.258911743706039310e-01 6.977830322547386999e-01 9.783726984596774479e-02 -7.625119211458388779e-01 4.590755443209950659e-01 -3.668745340104562214e-01 9.721880596287668652e-02
-2.931996141988195692e-01 1.353875071772245864e-01 6.217612397652780842e-01 1.188141073720987428e-01 -6.284905485645990719e-01 -9.478519778817817709e-02 1.632327687743335698e-01 -6.341046836612151960e-01
3.134617862364066365e-01 2.042459756989996045e-01 -3.401575740036288931e-01 2.134578362295864729e-01 -5.054454833147392634e-02 8.980000122653075678e-01 -2.292921156584264430e-01 -3.566555590346229820e-01
8.927550577380549690e-02 3.801126270820345265e-01 4.756185086604047818e-01 -7.825280329932493562e-01 9.177435175260222344e-01 9.059581872527666668e-01 7.810241178761456737e-01 1.835523376809717888e-01
2.094717821909219957e-02 6.927160291053469088e-01 -9.810194978104025409e-02 -7.256730482865456633e-01 3.452625162470606135e-01 -4.839241091341539569e-01 9.996279350146319853e-01 -1.338203088219636072e-02
-4.207688145683310399e-01 -6.734361489872979778e-01 2.592968771992840704e-01 -9.557361035923550574e-01 9.206987974365437033e-01 5.795536603660247366e-01 6.800349510549748011e-01 -9.022318868828786975e-01
5.717847194703657987e-01 -7.191722927154329259e-01 -9.058393383389238274e-01 -7.431727493519584282e-01 9.417245325038565706e-01 -5.453560794573801829e-01 -3.764279145403044424e-01 -8.862282142924509110e-01
-8.196561271904454493e-01 -9.574832047671988366e-01 -9.508106949088783733e-01 1.564647642326451038e-01 7.729635640307639388e-01 6.737440786284716321e-01 5.683830440413841778e-01 -5.527392482122825967e-01
2.965098804539247901e-01 -7.845237424953352967e-01 5.975038500453748735e-01 2.356434093402979268e-01 -3.006160902964301052e-01 -3.879193676888095244e-01 1.427404202952291534e-01 -7.815631912374196855e-01
