-6.615118016483911845e-02 -4.567339094787796760e-01 -5.927225450334068224e-01 1.977440156559371331e-01 7.112306165312265449e-02 -9.387760097785091684e-01 -1.009460009792995105e-01 -7.624500402068881133e-01
5.281361862477456093e-01 -2.755101715100418680e-01 -5.130800525283267799e-01 -3.131756868503672298e-01 1.804278903795115685e-01 -1.609390164779456178e-01 6.516693257773862324e-01 1.109455439680451239e-01
8.453904774175020620e-01 3.153378394336001644e-01 -8.243509592768967220e-01 9.943441100092249574e-01 -5.378939698395062141e-01 -5.543228169033678210e-01 6.429640306858974697e-01 7.256442167947116939e-01
-6.001594294662280227e-01 -7.628448359319854877e-01 -9.164931289759288280e-01 -8.142237405127574768e-01 2.283967769182144725e-01 9.213089673273726632e-01 1.767331289269411521e-01 6.327042215641893730e-01
-8.417443235125932066e-01 6.280873455194178057e-01 -6.128871415153838154e-01 -5.761237922150264090e-02 1.616181145415513942e-01 2.999720068566082976e-01 -9.958886418653971617e-01 -9.107389180485334634e-01
-8.745210708384276721e-01 -9.857749532938280268e-01 1.635227821624039013e-01 -1.576452242041386231e-01 -9.369672640121429197e-01 9.045874137552183392e-01 6.981688636236142997e-01 -3.725933989431076121e-01
-2.155575557158366795e-01 -9.615808885891989899e-01 5.920496849638867687e-02 8.470773006815763839e-01 -3.208705326861087670e-01 -7.936721302546843049e-01 2.194208790124090314e-01 3.028622426935696499e-01
-2.873097659150685157e-01 -4.777543511148485411e-01 -6.207108359680191256e-01 -6.664326221009075901e-02 -4.532375322411026364e-01 -2.795575628146231839e-01 -2.346664297531364518e-02 -4.992546522391669850e-01
-4.431084769582007699e-01 -3.011379611589219962e-01 1.698825098660838862e-02 -4.844649534485998554e-01 4.160421700810441603e-01 -7.340851293975509950e-01 6.308355896751867142e-01 -2.026024852912500229e-01
8.466983020558978001e-01 -6.013890252675042625e-01 1.261357671394367497e-01 -3.830669784340356987e-01 -3.539056906657032098e-01 7.887523257479462924e-01 -5.719410907228119623e-01 7.593620309812945113e-01
