-1.855674538881328939e-01 7.589668626049395073e-01 -1.809973100545827496e-01 2.218548677489113885e-01 -7.159031187518658523e-01 -1.267913777987528245e-01 -9.448031843504263172e-01 7.926387383541184661e-01
2.999297059881780303e-01 1.347513937696069863e-01 1.354260518334013952e-01 -7.924292310073179912e-01 7.948865049503870406e-01 6.743586063834308142e-01 -4.709749705509815865e-01 7.203434497935252701e-01
-7.774567290129770214e-01 -5.732145428741772797e-01 -8.630041643233206106e-01 -6.070402950143116705e-02 -2.547529251571964970e-01 6.151158747024436657e-01 -3.244810751759066303e-01 8.531843312304276949e-02
-5.785208033432007735e-01 -9.877281535601727391e-01 -3.641574244416534434e-02 2.392432742480690155e-01 7.332943644686051865e-01 8.241170079777935253e-01 -1.973907798546536974e-01 -9.938338429093152016e-01
7.597379072858734261e-01 9.949240712253886176e-01 3.785675505579990663e-01 -5.129902561443757669e-01 7.122135876012090083e-01 -1.348467285404648663e-01 -8.616815043646901540e-01 -1.841681444232512455e-02
5.215990840603221823e-01 1.672473566171728265e-03 3.416700895435649254e-01 8.420817970767702221e-01 -2.177901203323289181e-01 -4.389895865384576545e-01 9.589857881922370098e-02 3.237329685371805876e-01
9.487025942256952504e-01 -1.339379454485609688e-01 2.507687770827149443e-01 -5.515060356410517173e-02 -7.772024792683227545e-01 -3.673192998617369476e-02 1.347283406119275107e-01 -5.522760364408647593e-01
7.572067939727984420e-01 -9.832788824667260119e-01 4.807714794498378907e-01 3.061874943625020329e-01 6.876250177040970080e-01 2.593003238014881529e-01 -4.955234675792119514e-01 9.992874867162597763e-01
4.490416579232940908e-01 -1.878677996066260292e-01 2.768787906189802417e-01 4.287440391494852232e-01 -2.501364051191226068e-01 7.205290581822827445e-01 3.707821477956119161e-02 -8.605574233104991144e-01
-9.386969688175064164e-01 -4.144610278730886943e-01 2.190355781930233281e-01 9.208064173324581603e-02 -4.052501593439290506e-01 7.371420636572474372e-01 8.045010494550917102e-01 -1.708927832936815161e-01
