-3.801185420404533666e-01 1.464786244501377066e-01 -8.939498511943932968e-01 -4.631753972150822740e-01 1.991836979439678412e-01 6.410375046369711782e-01 8.774476788974139296e-02 5.750081260057235966e-01
2.610498296221008818e-01 8.149922154285564879e-01 -7.490061259981581898e-01 -1.565518955886910923e-01 4.570454807150325927e-01 -5.357721040394047840e-02 5.017961335216221119e-01 6.397028591467135428e-01
-5.544225456175932987e-01 9.353734517355296596e-01 4.728217335618096762e-01 4.907007213107699162e-01 5.377751147496276918e-01 8.827832387547152049e-01 -3.510959842882201976e-01 -6.310699871934715155e-01
-5.119215185428922510e-01 6.804069613028265184e-01 -9.251941323511303494e-02 -9.099584804227198731e-01 -5.993465797308841214e-01 7.183436343675553282e-01 4.758757214193507501e-01 2.882347932841460292e-01
-3.642536644534872803e-01 8.885517852663540328e-01 -6.994959833551546158e-01 4.143809410507905966e-01 -4.078285684189841831e-02 -8.856380345720569203e-01 2.273505871642720333e-01 9.345734530076892366e-01
1.830735541580530423e-01 6.806583532611449883e-01 7.550883102529484248e-01 2.293839149632466157e-01 -3.238340550761316106e-01 5.088834147253638029e-01 2.221603412283466028e-01 3.015602005709867584e-01
-6.284321150352363272e-01 7.463967331913241576e-01 -7.271489094084730986e-01 -9.859593783406461753e-01 6.085041997108362466e-01 5.938867608970084255e-01 -6.381673027014127531e-01 -1.091478111935262341e-02
4.540768732044131450e-01 9.348888362929304030e-01 5.152293726288941222e-01 6.938275278805823287e-01 -4.707250733234931150e-01 6.269658418464325589e-01 -2.597743389351501175e-01 7.479915457944614765e-01
-7.264129283849416474e-01 3.983124437897149761e-01 5.917553460741715732e-01 -3.344821102021466874e-01 2.725202602141816310e-01 -6.937167029383066730e-01 -5.238404569271781774e-01 -3.317689367298823910e-01
7.091348226403053623e-01 -1.827910769682346004e-01 -4.185189054854121515e-01 4.335634579133158528e-01 2.080276843322370617e-02 -7.467566066319271112e-01 1.517868616588722297e-01 -1.147107286140911508e-01
