-2.799000311794135332e-01 -8.685196870730416130e-02 -5.117420566235313384e-01 -3.220940975774273518e-01 -4.821757458452693434e-01 2.760001420304436515e-01 -2.042381557494923339e-01 -9.546651561239758443e-01
9.138956585809852040e-01 -4.420776673937354406e-01 3.485156918239871171e-01 -4.821485595656487266e-01 -2.484759232720963329e-01 4.040464019448397615e-01 3.569845367084678589e-01 8.048095219910220699e-01
-5.071417063267629199e-01 5.157415393937867520e-01 8.251039538574396204e-01 -1.847484175730340628e-01 7.046128161552602798e-01 -6.325901619754437100e-01 -9.110459887223432141e-01 2.436822899561614797e-01
-4.350411741770392471e-01 1.680666816391516161e-01 -3.492952268876337030e-02 3.762739503382053208e-01 7.949765050614889805e-01 -7.932198914982648841e-01 -7.334527665578414179e-01 -2.911007856497360713e-02
-5.939149119501416774e-01 -9.239578545504147922e-01 4.343632801739287785e-01 5.859396943757191334e-01 -2.619887053460492332e-01 1.774925085430172356e-01 2.783232455817032935e-01 9.236962491429945299e-01
-9.625559138407246973e-01 -9.179500280518564370e-01 -7.966989520943270620e-01 -2.597338266683535402e-02 -1.097868291138641705e-01 3.937568679070366784e-01 9.795776696822247054e-01 -8.829363606251836583e-01
6.866949225557381631e-01 -4.398821814175926104e-01 7.767418922811928361e-01 6.111235991727237415e-01 -6.648023193555390176e-01 -5.376347660842668574e-01 4.663136359495680949e-01 -9.318423182762607393e-01
7.499713030706709471e-01 2.135872025979048683e-01 5.435560435574173788e-01 -3.627981316149648805e-01 3.765310664316192657e-01 -5.118486706166560651e-01 -3.729757936287187992e-01 -1.100840360808599261e-01
-9.299976884349756556e-01 -2.840275510265577452e-01 -3.391259144182929841e-01 5.332712212275718677e-01 -6.848063655319844845e-01 1.558312941172492749e-01 2.513518728290031756e-01 7.699622607713676459e-01
-4.979421912521455607e-01 -5.279287244487971265e-01 9.969640180515411121e-01 -3.796916259924119075e-01 -6.781435495304160010e-01 4.698795947894738312e-01 6.559400030218276445e-01 1.116937928308869843e-02
