-5.733306656689201031e-01 2.711080826098146712e-01 1.238645856829447833e-01 5.979610474826513311e-02 6.740896525805537554e-01 -3.765246361354130933e-01 -5.912445869994200631e-01 1.465837276690273860e-01
3.573053369527749989e-01 -7.162724268219409218e-01 -5.056966748226663366e-01 -9.421297731994837665e-01 -3.911534408679937513e-01 8.880585321627598727e-01 5.187381602068223962e-01 -8.274866054930614112e-01
-1.154336121775323409e-01 -9.279263952187168929e-01 3.358232513693419907e-01 -1.795900456880437090e-01 3.037517808209599934e-03 -8.108277587347771931e-01 8.715430431667099409e-01 -1.665066140464104283e-01
-7.723682186221081380e-02 7.163835347366545037e-01 -5.505833315937038730e-01 -5.361731890245113874e-01 -5.956063591948732583e-01 9.290464442726455996e-01 -8.375391837096461956e-01 9.108865497973421821e-01
-4.582963679311482519e-01 8.305984260319339008e-01 -2.756821478586095608e-01 5.735274942558681310e-01 -4.033836403998674047e-01 4.000777019296637427e-01 -4.805330839379517993e-01 -3.907206113643839629e-01
-5.936444911357652288e-02 9.505489946554332992e-01 -6.911180917564836435e-01 -2.290113770664414794e-02 3.584489994739745722e-01 -1.314437452496806102e-01 -5.048288924948993728e-01 -2.323711631321059290e-01
-7.254318292971118076e-02 8.862383029048539473e-01 7.414032356112554289e-02 2.901008045498161270e-01 -7.959376332935315101e-01 -3.127693466854861715e-01 -1.023880110983406144e-01 -1.151034046265757560e-01
-7.194398285445591235e-02 -5.929571985061334871e-01 9.934549626429478586e-02 6.487756634666119737e-02 2.692993383691721920e-01 -4.586377788641162745e-01 6.669993140745456017e-03 2.320008015281045388e-01
-2.240687810261392521e-01 5.898538649005891088e-02 -9.695005652039732080e-01 -5.577352976577027999e-01 4.974936183735958473e-01 -3.452596815280086773e-01 -1.893600754462001490e-01 -8.510777946990311094e-02
5.553189071778592556e-01 5.649312749463466510e-01 -4.623149996633546532e-01 8.493651457090936052e-01 9.074449390951233596e-01 -7.136761962544790894e-01 -5.371911302378973296e-01 9.274963453499611710e-01
