-7.438895072792854890e-01 9.714251090388581478e-01 -8.162067421049570282e-01 3.537278597058026719e-01 9.504026259305575763e-03 9.958683446901441805e-01 -9.619579585893660578e-01 -6.654880388764872201e-02
8.159199620028823041e-01 -4.158406932708096360e-01 7.768653601477959469e-02 9.251319035742779917e-01 5.000565901755504861e-02 -8.712419235616395419e-01 8.466588367634850787e-01 8.571724691855679978e-01
8.031019996436523645e-01 5.029610717441364010e-01 1.982125056101098348e-01 4.671419140860917363e-01 8.771215979149287190e-01 -2.275058264943761177e-01 -1.436566409626882646e-02 -8.405662020779545163e-01
4.408163787316645710e-01 -6.542669285609676866e-01 -2.228163439824921710e-01 1.231031224309275807e-01 7.157855203387335497e-01 -5.456261087669500576e-01 4.701728297003744395e-01 -3.897226724175648638e-01
-9.427488583654519694e-02 5.888153426871352014e-01 -7.617647358808592450e-01 -7.010390772168235696e-01 -9.450389691798222191e-01 7.883366631628376808e-01 1.925070282498495544e-01 -6.093035344082469162e-01
9.671411689207947138e-01 -7.690935799363549652e-01 -8.047420857896308011e-01 -8.807779597047777909e-01 5.474116694448800668e-01 6.574088158140400928e-02 4.693499815398698427e-01 8.383455262215042669e-01
-5.583448183905741491e-01 2.300689711388641534e-01 -5.879342809580705431e-01 -1.798653366435203349e-01 -6.856967540417455709e-01 -4.099819375645801234e-01 -8.832383423325216310e-01 -7.366255147330547093e-01
6.624178406941445552e-01 -9.095647255327026226e-01 9.297134481982127774e-02 4.818807109426481716e-01 3.825153045014371145e-01 -7.250774633351975140e-01 9.342536819309035234e-01 9.491894391504598349e-01
9.805841648612712014e-01 -9.808925638189320839e-01 9.379315168461730412e-01 6.994764867446709999e-01 3.031557194949652256e-01 1.235060266590861655e-01 8.563847486988638291e-01 -8.110240269863868701e-01
-6.391193742513658904e-01 -8.426281269164406229e-01 -9.470554575913419093e-01 3.578200286878030489e-01 8.669032984204361192e-01 8.444055252109003984e-01 8.016606219245507869e-01 3.272677275014745923e-01
