4.062933948584663835e-01 2.342180761252548038e-01 -1.423824883320952139e-01 -1.902157330101716948e-01 2.868033931108937562e-01 -2.721280106656287501e-01 -8.618791695802605624e-01 7.914674871330749095e-01
-6.292439862174425969e-03 -2.985142962968967417e-01 8.339057769621234240e-01 -9.994634598929350577e-01 -1.792569986356964407e-01 -8.763940007806536592e-02 -4.231099280789998307e-01 -4.670575662521363469e-01
-2.105469659832035489e-01 -3.965749605552848500e-02 -9.799768384555189726e-01 7.500358539653877443e-01 -8.218115775322445415e-01 -6.482921113602257979e-01 -6.109586873394834416e-01 -6.826376870996608837e-02
-9.751484680076725198e-01 -6.890747075578957936e-01 -2.657919295775104107e-01 -4.633077533080487420e-02 4.341478655960984145e-01 8.195961179732538238e-01 5.087850332422103605e-01 3.632583348561242431e-01
3.561074958367660415e-03 2.776285972483800712e-01 -2.566197464755550772e-01 8.079150124134011346e-01 9.231427955466871005e-01 -4.134828064712656737e-01 -6.563865264224633123e-02 8.611161133934193135e-01
8.977408224454908048e-01 -3.878688535414358540e-01 9.725199675087814466e-01 8.515186531196401454e-01 5.198008723014870824e-01 -7.307483821005584801e-01 5.750220823524032632e-02 1.010349693372507573e-01
-2.347400357264377568e-01 -8.339033218620732768e-01 -6.639310664180058108e-01 -7.074866455919570640e-02 9.149207052666512574e-01 1.245091038005479156e-01 -4.382981737987878823e-02 -4.754168169871710870e-01
-4.823179985724967977e-02 7.260067184955216746e-01 -1.348405151571236971e-01 -6.502911400415978260e-01 -2.268317826468573273e-01 5.516981284495792170e-01 3.838913331976216980e-01 -1.089630399032603947e-01
-5.981445890017134115e-01 -5.500104168151098705e-01 -4.805131558385673518e-01 1.777724271913783127e-02 -6.097252955503209559e-01 -8.031607686299457871e-01 -5.049804089179659172e-01 -7.848429991849437126e-01
9.923676540624675191e-01 3.795357548378024415e-01 -4.732940852095002260e-01 4.501933299817484357e-01 -1.381329923937897330e-01 -2.888323898525189115e-01 1.940496718477091598e-02 2.930699935130363087e-01
