1.615813534687544628e-01 -6.601792964118389229e-01 -7.421565502513480794e-01 -5.035247804403708560e-01 -2.428992703000079079e-01 4.692128812323503873e-01 -9.620244615197888205e-01 -5.219745119383478738e-01
8.652930967874441492e-01 4.363368567952334853e-01 7.710383743217661401e-01 -5.211597628501731805e-01 9.620893021655292365e-01 -7.029683925824414814e-01 3.643667651012580944e-01 -8.102369016761086229e-01
-1.366551596001086555e-01 4.726771306634660608e-01 1.222078679413218794e-02 3.796392129849059938e-01 2.505994035330052494e-01 9.563357012506827903e-01 -6.075462383670404698e-02 3.341597300459473452e-01
-8.084997282002917007e-01 -5.261715179905135376e-01 -7.666723798610384222e-01 -2.601791345550592549e-01 3.497215211027038251e-02 -8.019350319790681247e-01 -9.320912054940588831e-02 9.646492336967085190e-01
-6.467592569033779881e-01 3.610242917059116596e-01 5.646289621831064309e-01 -4.456024242408631597e-01 -4.157888402096263647e-01 -2.383355236358544182e-01 -6.433841717281172379e-01 9.361520957279567678e-01
-4.245383228384682628e-01 9.507085883439472251e-01 -7.913680682300183733e-01 -6.135550765490001002e-01 -1.495336273088871959e-01 8.163105458376767043e-01 -6.613932467558480965e-03 7.782651094661625635e-01
1.600172125704315551e-01 -4.996649984459229366e-01 -9.980634101917187362e-01 -3.008606792624184401e-01 -4.083830130741836761e-01 -8.778538042823493814e-01 7.457049711011480841e-01 6.348013321543719556e-01
-5.331567933886725008e-01 5.393455874151942275e-02 6.318304818221849306e-01 -5.790607834955363575e-01 -9.067728174962810250e-01 2.690248413981042308e-01 9.320752153777034366e-03 -5.600531417860239447e-01
4.258151022207521397e-01 -8.929607665588272791e-01 -3.316244795881719831e-01 2.116907313617564235e-01 -4.853952576916595874e-01 -7.987138523560790571e-01 8.190988663632092770e-01 -4.959046810568872310e-01
8.451451390113180473e-01 -7.789953205425272920e-01 -5.446446402567572953e-01 -6.737550527128444156e-01 -7.495111101310980573e-02 -3.809668738894831375e-01 1.575425269639054715e-01 -7.008022785872491944e-01
