-6.459770369084221198e-01 7.714661805137175143e-01 8.446241100290416970e-01 1.663503346392256610e-01 -4.048128207307692961e-01 -2.373470362862353245e-01 -8.093645946299661276e-01 9.027678227745468131e-01
-4.459856495548721877e-01 4.520514975509508648e-01 -8.567829420630437287e-01 -7.825821523387579415e-01 4.682862967841172619e-02 5.935062353070124086e-01 -6.952194212305986554e-01 -6.714764277470546272e-01
1.168076512424871538e-01 -4.597908344867696062e-01 -7.562795837437881197e-01 -3.860562002178131724e-01 1.146040702818424961e-01 -2.220045417575315927e-01 -6.317589503391716210e-01 -7.280131257312536519e-01
-5.177893945232625583e-01 8.127462862574394986e-01 1.832820276508975166e-01 8.720227261423021403e-01 -4.464053089579174127e-01 -7.696719873927555522e-01 -6.971202283671047439e-01 4.822828476903693318e-01
9.970860491720994201e-01 1.491687830575596507e-01 7.376134542946561901e-01 -5.781771611108694753e-01 -6.228620731957938972e-01 -5.654396124381626532e-01 -9.835414847431351859e-01 2.027144009773720335e-01
6.455187748909325673e-01 -8.411518214930033821e-01 -9.910391229036819016e-01 -8.803234808635753694e-01 -5.287150163134191061e-03 -9.881895698979141773e-01 -6.602710568302612160e-01 3.899084214372816604e-02
8.210225799535026958e-01 7.551773725635853030e-01 -9.712603271899569179e-01 -3.092195121540042280e-02 7.423437817272757755e-01 -7.870114437626571924e-01 -8.750959162614688758e-01 7.161025855688250008e-01
-5.089295672413927107e-01 1.091191813591407822e-01 1.405244523072690654e-01 -2.957795668353553342e-01 1.800139620593674827e-01 7.563097919563821492e-01 -9.644773677876306017e-02 9.090672921764408887e-01
-3.142588725346922018e-01 2.001265300483945353e-03 4.991921673731367637e-01 -6.662593784492216731e-01 -1.368183065003916177e-01 -6.643104125704790697e-01 2.798445794303801026e-01 -9.079036544763756655e-01
7.212667210379657412e-01 -2.286936029001400694e-01 4.898086704671837932e-01 6.057190975601876026e-01 -6.831717634229503844e-01 6.671370980586011079e-01 -1.981068495540461161e-01 -8.178679557481480789e-01
