4.225081088181965594e-01 7.678825551050867393e-01 -9.283715732391040198e-02 -5.112410300003855657e-01 -3.353410765873037214e-01 8.526419145164836344e-01 -3.579739282885521234e-01 7.846291814044967783e-01
-4.484362763770468607e-01 -5.166864913474542575e-01 7.947400190118452112e-01 -4.110692570793081924e-01 -9.541302127372539577e-01 -5.659937489687665302e-01 5.788180718321700446e-02 -4.363456269402117282e-01
-6.126229340178459548e-01 9.305950981079089690e-01 -8.325164932947659580e-03 1.115767056739518370e-01 -6.631192387826394530e-01 6.216572954640928739e-01 4.241343365874155058e-01 1.514579717664688019e-02
-8.055625943454278737e-01 -2.420054194942067305e-01 3.242109378947359843e-01 -3.646540462349561196e-01 6.602834786214808460e-01 8.817835058092859946e-02 8.299886121775710279e-01 -3.163514154596644978e-01
4.380682298448874690e-01 6.008508398335183909e-01 -8.424681539309064604e-02 -3.373809210448222018e-01 -6.594681582513102214e-01 -8.046397421700750563e-01 -2.912156343008076576e-01 -2.900743226176818457e-01
-3.421515813664524064e-01 2.114028814048281024e-01 9.023299979623469191e-01 4.240439138669187535e-01 2.124776236053962375e-01 8.445816009001032576e-01 1.198797908746283003e-01 9.913791584957687419e-01
9.170113552845418070e-01 8.086032226556782998e-01 -4.267436284059422658e-01 -6.831120676701318839e-01 7.200725818869533335e-01 -4.088020472984839060e-01 -9.622350295558137478e-01 9.347831501736307835e-01
-2.786132409823096623e-01 5.318436411189848556e-01 9.526761158695418175e-01 6.722722434715064921e-01 -2.524718383769113395e-01 9.678166525061038250e-02 4.459866918536952163e-01 5.615177794393122479e-01
-9.827642942079160004e-01 8.343686528900073895e-01 -9.788329662366717088e-01 -4.539855077381875770e-01 -4.338844404724833126e-01 3.816386881349251858e-01 8.543153022681728714e-01 -8.183357260891892526e-01
-8.291251066239002654e-02 -1.006949365263953844e-01 2.312988803719142616e-01 -5.952148694851746580e-01 2.132829015032911002e-02 1.409194515505571843e-01 5.462578947709084698e-01 -8.945593511815210785e-01
