-2.089944106199759233e-02 -4.187651699297798569e-01 -1.836408660866439835e-01 -4.264950115440098166e-01 2.827759179501077025e-01 2.893148845027377902e-01 -1.752476754330576370e-01 1.025181268792203504e-01
9.065285187927321076e-01 -7.139502968034205921e-01 3.555463574358570522e-01 2.267701318578743130e-01 4.707936039451299237e-03 8.751266701516882129e-01 -5.774358597818780581e-01 4.749252795847471731e-01
4.644811091120666369e-01 4.233870624642808167e-01 8.388923024248209348e-01 6.821737229649205148e-02 7.133000241303966149e-02 9.109073513851919657e-01 9.275052992442107680e-01 4.702264837403986597e-01
-8.457359751447499630e-01 9.305422730516559326e-01 9.450694913444681600e-01 6.677018040350404249e-01 -5.156307058506275354e-01 -2.467364672301117778e-01 5.762598153662017442e-01 8.829899216743359869e-01
5.626026026252242129e-01 4.608346689522868633e-01 8.548230893079855619e-02 7.750211319885771388e-01 8.223409811424504667e-01 4.329465335632323164e-01 -7.514556280012769651e-01 9.032169550107764788e-01
-3.003194391867036739e-01 -8.701332431571118242e-01 1.000752382252700912e-02 4.834268227403621943e-01 6.215893279799846738e-01 8.504310619284465300e-01 1.401823378647304441e-01 -3.337487118324937718e-01
3.117105140228515481e-01 -9.019767525524935436e-02 8.752669095348750705e-01 -6.907466749804132000e-01 5.778383832914881779e-01 8.728954150910119836e-01 -7.094548057855754042e-01 -5.992951675951991852e-01
6.830496307563918013e-01 3.115102897091257539e-01 -2.524441836805861872e-01 9.303724564144373321e-01 4.705594471989504868e-02 -5.051732961364570063e-01 -3.630274274495515208e-02 5.663567017360842115e-01
-9.243333580319814669e-01 1.202933103279326676e-01 -4.775829088543144252e-01 -6.614609904311907762e-02 4.301436257677402342e-01 -3.452485613651863350e-01 9.375838593060044079e-01 -4.270835030887583095e-01
-9.273775747787784685e-01 5.740478563539461732e-01 -8.370755119232071717e-01 -8.720171208856069001e-01 -8.002843655168208059e-01 2.964518718373381212e-01 3.386243297408280117e-01 -1.669108425100884752e-02
