7.832165087951368232e-01 6.936852786052214448e-01 8.297720305464977297e-01 -7.525333257476882753e-01 -7.433209588677325286e-03 -6.728572470535427730e-01 -7.245301462968529727e-01 -6.889216897633703152e-01
7.100343366426065117e-02 3.746271623816133101e-01 -7.710028761783374041e-01 -3.742361290568552157e-02 -7.155679294048493677e-01 -6.333004506082604568e-01 -5.376036832526160936e-01 -6.876890584834631781e-01
-9.195294867614027812e-01 5.863932392672275284e-01 -3.331475709598441526e-02 7.253369231906678927e-01 -5.675076617681700242e-01 -9.518519192697563192e-01 -5.006245963834397017e-01 -7.820634419397514137e-01
5.146625914481897102e-01 6.166018749807815613e-01 -2.708446833686293242e-01 -5.302532816872118637e-02 2.670231005212104769e-01 9.779641032001509249e-01 -1.758854157919811367e-01 2.654364885368725169e-01
-8.351736395146864833e-01 -5.272918821212393414e-01 3.500610595617053011e-01 -9.597912976701821197e-01 -4.821311513805874860e-01 -2.562319944350552881e-01 -9.735433919507117118e-01 -3.784839519115918982e-01
5.637779475816782071e-01 -7.062635995533468325e-01 -4.170627401491584507e-01 -9.638751254013988579e-01 -4.478912584172580758e-01 7.666210811650235879e-01 -9.596880295331098321e-01 -9.753493972058886463e-01
4.521961268546610402e-01 7.020398556975178117e-01 4.008192061636692838e-01 -1.822813449628366556e-01 9.312314871628259993e-01 6.752128145395002168e-01 8.973405725266334620e-01 3.438228435150032514e-01
2.379734019535639789e-01 -5.031059469835517106e-01 -4.308452091873851142e-01 2.481841189658968716e-01 4.085787766955650824e-02 -5.172304853112210665e-01 6.567509602188015272e-02 -8.404322647509250288e-01
-3.138517597355083844e-01 4.874059570304920541e-01 -9.291983802307453022e-01 3.799311470495569942e-02 -3.823217590251259956e-02 -4.241949026349807195e-01 3.198282048637857145e-02 -5.787271792151817973e-01
-6.058433558724085621e-01 -3.342860636408184760e-02 4.916060280255221127e-01 9.763045367854046308e-01 -6.012962851715248913e-01 -8.015575737002045287e-02 -2.883999692448708796e-01 -8.125871618901303606e-02
