-5.333803402212453637e-01 -3.036649829423541114e-01 -6.440028977698446511e-01 8.688969586867316686e-01 2.059319269241508543e-01 -3.110706915334455758e-01 -6.885134008016853269e-01 9.933665565994509450e-03
9.807341217791740728e-01 -4.409939165784144688e-01 -8.920246507159916849e-01 -4.177241017130557399e-01 3.141414895380929551e-01 -6.703403235898333090e-01 7.528979720228825556e-01 -3.196141945961303854e-01
-9.879590582099047058e-01 7.454815442129802960e-01 -4.159834858783526546e-01 8.364692955249375395e-02 -1.677280355628203434e-01 -9.839233645794951411e-01 7.553709244208177687e-01 -7.086166141228997795e-01
-1.045553396302034699e-01 1.062624716392985835e-01 -1.240258687063755527e-01 -8.593793667851639118e-01 7.097128735417457257e-02 4.446782262111201867e-01 -4.279670555765233697e-01 9.717295201992517395e-01
7.483559012512575048e-01 -9.167907365740473047e-01 7.468218057009101685e-01 -6.908284865614089387e-01 9.971971131643793118e-01 6.982920457537376002e-01 -2.288791090572186437e-01 1.510593446961756570e-01
8.120974048065803252e-01 -6.124972318732191390e-02 8.994064177827836293e-01 7.044729973952235103e-01 3.566601390866108723e-01 -7.278473396473617019e-01 -2.563132301765924659e-02 3.438909276127850578e-01
-2.945812508968246313e-01 -7.715195384685946678e-01 2.514197855638209411e-01 6.299293456106502820e-01 4.440908907959615348e-01 -8.914875797321906159e-01 1.522230955174443956e-01 -2.275066320379348639e-01
8.769095327430360687e-01 -5.452921394142251632e-01 8.907974943720700090e-01 2.258534624346333342e-01 1.550234496792135541e-01 9.151102707735048192e-02 4.867454695503719009e-01 -8.942976934482729234e-01
8.589560838765293305e-01 -5.508104171619065959e-01 -9.678860993432625293e-03 7.491216082135763177e-01 -9.219564163707212323e-01 -7.633833795145097412e-01 2.410715029464893799e-01 -1.138642913073000251e-01
-2.842289545264569117e-01 3.132393165132991708e-01 8.492855046443590350e-01 -3.013861700074023098e-01 1.952932706553336395e-01 -8.303105504692522842e-01 -4.591133386443218001e-01 4.924735087756524354e-01
