-4.695941736273239187e-01 4.235419904736443808e-01 -7.152784904506659380e-02 -6.342616562799312518e-01 -2.115034043954506782e-01 3.418278661240228278e-01 3.683164303403514417e-01 5.900488127239666980e-02
3.866351055508774337e-01 1.206444028079602937e-01 2.857083570379908011e-01 8.373550181691635785e-02 -3.002033711643772307e-01 3.730321192091423654e-01 1.300774480394748522e-01 -1.446979091645252957e-01
-7.327992647974415075e-01 6.441360821048827123e-01 -7.890718448310931610e-01 2.493933308509654889e-01 1.233638962250889204e-01 4.947346451297340852e-01 -6.530675913015855372e-01 -8.527328110849976550e-01
8.480693829783110260e-01 -9.004710546042178354e-01 4.117695817378956846e-01 -8.328575793173802477e-01 4.928098824081699192e-01 -3.646859365383847695e-02 -5.823011895640435309e-01 -3.538815367044076954e-01
4.956383536837902781e-01 -1.024713603440656762e-01 9.372712737471178279e-01 4.573816826417185233e-01 9.502838622385829659e-01 7.321413116192851955e-01 8.020917143841486130e-01 3.107465565824458764e-01
-9.205777800838372826e-01 1.246953240659980366e-01 -9.048113523039964523e-01 4.655187540478533670e-01 -6.584119767357248243e-01 -8.763182121801484925e-01 -6.024644113514103783e-01 -8.712297528952475112e-01
-5.323198959939676733e-01 -1.024081649747403677e-01 1.691487166835676792e-01 -3.321507242626853262e-02 9.182320231093155094e-02 -4.973051909487238298e-01 -4.148892805576787080e-01 3.143892096901372835e-01
-5.833316177908851596e-01 -9.946307477570877076e-01 -6.937775896291549227e-01 5.740562872866468158e-01 -5.629824542923254072e-01 5.945260604295292683e-01 2.053424753943744463e-01 6.552929932680657821e-01
-2.662393808294138964e-02 -3.935953666943778906e-01 -3.249889040741402724e-01 -9.823553982528065998e-01 9.557127660450381867e-01 -1.346688833168263599e-01 -2.133912631625674017e-01 -6.756487385200546925e-01
2.769937804833033645e-01 -3.824043894573347924e-01 -6.797285994486337302e-01 8.825527327688951207e-01 -6.182263384936321771e-01 6.163779577094172790e-01 9.131719359918542001e-01 7.362531843225601502e-01
