-9.239000215739900934e-01 -3.729219610483294201e-01 4.200720592036775169e-01 -4.511059165038058261e-01 -9.503944050077901551e-01 -9.501549408911540429e-01 3.981328768389389428e-01 9.297552287976045271e-01
-9.165990752792718688e-02 5.627531156912901622e-02 -9.741640232462001059e-01 5.564451839497654984e-01 -9.443083347329546129e-01 -4.228335739916941893e-01 7.956576559466712606e-01 -9.888235028397887039e-01
-9.692010721329458178e-01 7.470417211396784829e-02 8.200172313514266786e-01 4.077562460320247606e-01 8.721997640971534960e-01 1.035682285274484027e-01 -2.904897477953229945e-01 -6.255450898353738243e-01
6.014929389742860177e-01 5.292866605680555114e-01 -8.740853002617012812e-01 7.854958609050488594e-01 4.599173377543921415e-01 -8.592438082869946481e-01 4.043370267135348861e-01 1.590140351531967866e-01
-3.899694567489959685e-01 -7.521294397066606852e-01 -1.101635018303048774e-01 5.269875368423904138e-01 -2.335336418253086688e-01 9.567876116317672874e-01 -4.181955692161889448e-01 -5.700868827006160267e-01
7.984048768033622512e-01 6.195475624770161449e-01 2.353662140263792502e-01 6.236231978947159860e-01 -2.725638416384943419e-01 -5.335231546729317653e-01 5.633752349908014434e-01 9.712279905195817520e-01
-3.340066370639649396e-01 -9.770469111968904663e-01 1.832940756362342327e-01 -7.292687447487353758e-01 -4.208467652928218339e-01 1.241114205695406092e-01 3.218040862869031571e-03 -5.250914689910997080e-01
-3.222208485745570172e-01 -8.731949652991577437e-02 -5.091041479640212586e-02 1.264996103788664783e-01 -3.215417585316144855e-01 -3.088221231868029104e-01 2.445551381392687684e-01 2.601237905775815040e-01
5.718765752501449029e-01 6.292551171593712134e-01 5.654394938811202476e-01 8.411061585671815166e-01 -2.613914279475273439e-01 -8.302150908978209731e-01 9.661848548055540498e-01 5.242588921473643193e-01
-5.804303976211409033e-01 7.900263237178826170e-01 -9.686928420643936555e-02 -4.143294166920108434e-01 -3.592894633621013245e-01 7.063179769626277693e-01 -7.073154153447887005e-01 1.360026639787594860e-01
