8.067338815129554419e-02 -9.924451029525318546e-01 -4.012739045286251027e-01 8.334635398390410899e-01 7.842761300563019233e-01 -5.529371415482708940e-01 -1.616726559971368715e-01 -7.430009211002523983e-01
8.076732925497920323e-01 8.974351619917619871e-02 -7.259901814515152818e-01 8.819572332543643700e-01 -8.988394012029812252e-01 -7.585151560835723394e-01 -6.354439149329780268e-01 -6.689272720747907464e-02
6.904600709321533358e-01 2.211187504340228482e-01 -5.962967340851599296e-01 1.993897966141244815e-02 1.934493478124996724e-01 5.496997991831662489e-01 9.107561004880753153e-01 -9.871892826427521861e-01
6.700578637071910038e-01 -5.518285235867927963e-01 -3.632232102340979818e-01 2.924036261618672139e-01 7.417382127439788864e-01 5.378912436446323664e-01 3.930582826674580144e-01 9.686669449494966777e-01
8.904532015349082563e-01 3.819601824635061593e-01 -7.831851516241459255e-01 1.845816171010754569e-01 -2.589153301057276479e-01 -2.988027517204998595e-01 -5.809975095135533341e-01 2.264073060072184784e-01
-8.534149106085813230e-01 1.565545785245139321e-01 2.493653906496484662e-01 1.338489951516685927e-01 1.264045443562999971e-01 4.650996911646494425e-01 2.089558414908490036e-01 1.067028204083908527e-02
-5.739632682998792035e-01 9.549489382332341236e-01 -4.474856094072463542e-01 9.041563064574753561e-02 9.216972588761715990e-01 1.746108973768942807e-01 -7.360127463862817798e-01 4.044308370570526279e-01
-6.913399342412336335e-01 6.859674737194174643e-01 -9.443661330894381756e-01 3.253085918028855161e-01 2.227795446986438055e-01 2.242406781240495750e-01 -5.969166404048702468e-01 9.841499439940770699e-01
3.374942296850333978e-01 3.193869109231675107e-01 3.754216284349689570e-01 -6.932744589004842251e-01 -3.311355691137383150e-01 1.725454742869183544e-01 8.595111090438956047e-02 -4.661134733241054651e-01
8.923156495402495558e-02 -8.959640021585923986e-01 2.150449437495647320e-01 4.910060753087075458e-01 5.589741934094074605e-01 -6.624938271173195226e-01 5.240017946201636079e-01 -5.843303763237295279e-01
