-4.554651643840388342e-01 -3.821561756255984488e-01 3.168334904582694733e-01 4.282875033048685331e-01 9.877608234190733416e-01 6.004474014636611567e-01 -9.082032415170921968e-01 3.552678332974679165e-02
7.369381786930020439e-01 -2.227884755937912242e-01 5.685717766649389660e-02 5.373885931071284983e-01 6.994029153413945377e-01 -7.651479262172622420e-02 -2.620298141542267700e-01 1.774731824613693387e-01
9.120297217322843597e-01 1.078852689878118110e-01 -2.672868870525977325e-01 5.386982129137907194e-03 -8.752279891364858067e-01 -5.496938275333851376e-01 -3.424489311204310660e-01 -8.611481832633587352e-01
9.917208036916240754e-01 4.595229742692226171e-01 4.822695408634374292e-01 6.198660210080850774e-01 2.642616193566476035e-01 -6.896046506371806828e-01 2.644383466953943440e-01 9.383348777934481522e-01
-1.827388943269165900e-01 7.018182131439067994e-01 -6.817255015168304233e-01 6.894728659465687581e-01 -1.322003274259475614e-01 2.765411115512084184e-01 -2.628716185672628214e-01 -1.516358055168887109e-01
6.355509222681323678e-01 2.065751870471281837e-01 -2.491207831328461353e-01 -1.748476228948199207e-01 -8.297474102502520044e-01 -7.152808568923825217e-01 -1.692370402383165384e-01 5.280772675773330871e-01
-9.416508755320112112e-01 8.194743863143707507e-01 -2.891839618954414881e-01 2.301767927569282612e-01 -2.094486682246117226e-01 7.454346850345352493e-01 1.375262682638074274e-01 9.048783103835944530e-03
5.339065377557086212e-01 4.133757046175252636e-01 4.800311296708481557e-02 4.706179366017833043e-01 6.820498490502653333e-01 4.615377132468461152e-01 -1.681610722388013901e-01 5.677601599712964742e-01
-3.793249249214178942e-01 -6.905476094880484972e-01 8.469522562124172094e-01 -9.900500317573406317e-01 9.759613087618970173e-01 7.566380525656932754e-01 -2.985297662917041350e-01 -8.788015018219605956e-01
-4.060228816719906320e-01 -6.350312947312408696e-01 -8.074542639118613696e-01 -9.091871624462166679e-02 9.288114313344613127e-01 -1.875689097494608326e-01 -8.441394319599582197e-01 -2.112051913721673113e-01
