8.330132584239382521e-01 5.617108869065987609e-01 -5.747045455681805137e-01 6.614735112318108623e-01 7.486223959283435647e-01 5.821317015549991591e-01 -7.759808431879628987e-01 -9.213821122678236275e-01
-2.565811594434943554e-01 -1.186654190555189725e-01 8.526796652921597719e-01 9.792457627801329778e-01 2.185741126349198815e-01 3.122271430490834998e-01 7.340920166048316986e-01 -6.224323301417877818e-01
-5.033825584453330837e-01 5.694403929494076255e-01 -4.210585817511887097e-01 -5.484369665106147984e-02 4.259967978154324264e-01 -2.101834882838378160e-01 6.129208212937531375e-01 7.620413878456628876e-01
-2.031307846283136875e-01 7.997313047808196629e-02 2.328569082422000669e-01 8.954978817105185840e-01 6.702337899864765358e-01 2.905276183977492099e-01 -4.544468119464712963e-01 7.424579040370546945e-01
-1.053949769240190015e-01 1.342166129353346005e-01 2.485249547894634592e-01 -5.925804582673488419e-01 -9.688265920934677755e-01 6.483807677029616023e-01 9.610012606827353920e-01 -3.615500936326980774e-01
-3.081880330149755487e-02 3.400097377900777040e-01 3.809828358224780498e-01 2.008560447029799079e-01 -1.039293158031169284e-01 4.072266928370971151e-02 6.727328088122486172e-02 -1.628601588784803766e-01
9.674267717345477191e-01 3.086926435775223521e-01 -7.128958759111232446e-01 -7.669983531493598239e-01 -1.431199761443910923e-01 -5.315741564693352572e-01 8.484847484190227718e-01 4.402416978590719676e-01
-9.565592258591268937e-01 -6.314025304410917361e-01 4.677666052006963504e-01 -5.403661460099000724e-01 -5.338936445755455562e-01 9.918078355386827916e-02 1.604944188049979292e-01 3.810623193798226005e-01
-6.278560741331085104e-01 -8.892393331858217120e-01 9.298617817123726592e-01 -2.922022707879157188e-01 3.280391614426576563e-01 6.031583013380665825e-01 -2.548689287193155462e-01 6.767937587249412967e-01
3.923372130927105239e-02 -4.501533175697691735e-01 8.981872780351614072e-01 4.702926879758451140e-01 9.767212833126137639e-02 9.697556737432353469e-01 9.251182277738378978e-01 9.807814071241169884e-01
