6.737702775885188178e-01 9.310631792282888508e-01 -6.112244151229719868e-01 1.730632597904653291e-01 8.031452654367099431e-01 -9.784726411347686170e-01 9.602766516948619824e-01 -2.695219082795892174e-01
2.626271097603636306e-01 8.562901698868912170e-01 4.149315189366715728e-01 1.511726831275994609e-01 2.056149157094275814e-01 6.086789270898536053e-01 2.594571962718956737e-01 -2.355499598658044036e-01
-2.158612035004361385e-01 9.358638312127174341e-01 7.194666735753529885e-01 2.734298033732267541e-01 9.749452053282219310e-01 -2.937715116668135895e-01 -8.135880700174507041e-01 1.984080373995686930e-01
9.595275134141900697e-01 8.270678381947311752e-01 -2.099737205676386331e-01 6.163913148880757475e-01 6.811493620994202303e-02 -9.986268104491142772e-01 -7.512551261190993923e-01 6.453619847208253990e-01
-3.781468017110212188e-02 9.437320808706908259e-01 3.820427800075254510e-01 1.433065056517888181e-01 2.135449923283394558e-01 5.068790817676083194e-02 -3.999989750447836556e-01 -4.389810874872090984e-01
-5.057494917832408010e-01 3.067703685424227888e-01 -7.516663193796226938e-01 8.578441968834837894e-01 -4.268665392033221817e-01 2.118638560909247293e-01 2.584828531831411258e-01 1.810254237302488800e-01
2.923435201500694802e-01 8.409570985495713469e-01 6.309750851550579576e-01 -1.170073276639236326e-01 4.724382330664855800e-03 2.365565413113768223e-02 9.079606888105169471e-01 8.283527835114898874e-01
-4.663133066571705232e-01 1.142225214909897701e-02 -5.797667255251011120e-01 -9.544212975509682728e-01 9.850452082948824017e-01 6.137711381482826578e-01 1.153795431084547740e-01 -7.539452445933181313e-01
-8.068702327481216408e-01 -8.861938894387773047e-01 1.075192610775401736e-01 3.125446716816231429e-01 4.509049543854091180e-01 -3.274966482101044907e-01 -6.200468642837595468e-01 -6.394585386349567191e-01
-3.791710784671256107e-01 -5.784297429573506122e-01 -6.969296558532396269e-01 -5.423548782859162198e-01 -4.873606103981655835e-01 1.565739974284885427e-01 5.584067378243775526e-01 6.480088469122757822e-01
