-6.800058596102367403e-01 6.742520602536852259e-01 2.263584442780097739e-01 -2.253166280709515412e-01 4.808424156949904216e-01 -3.950380869362601910e-01 4.113144250079225905e-02 1.336902993365782777e-01
-4.463637962677258209e-01 -7.665132692076861431e-01 -7.570883693538166259e-01 -2.203400867465574731e-01 -5.135301197752131230e-01 -3.496052405358940351e-01 -9.649691052781577127e-01 -4.181335792318616740e-01
8.628114721828537004e-01 -3.724835048908712309e-01 4.014394354634449602e-01 5.452409793958605810e-01 -8.852619823404939137e-01 -3.111236082584194484e-01 8.004970228921464148e-01 4.594928764047849779e-01
9.765949211584421530e-01 -7.141436175831508137e-01 3.891005106815306203e-01 3.547722334204892469e-01 5.072938424224620046e-01 -3.063024862328991293e-01 8.956254833202059729e-02 7.607740310397328454e-01
-4.943168246566089774e-01 -1.122075566650033718e-01 2.284387402491003805e-01 -5.313093951616902899e-01 7.142418197581386075e-01 8.531535123780988883e-01 -7.413003574880114854e-01 6.196151199646295904e-01
-6.617865509234361898e-01 5.383075261879588513e-01 -2.806650168425828262e-01 -5.912675809723066944e-01 -4.033995385014681467e-01 -8.954624882142618869e-01 -6.846964596451357021e-01 -7.747014388760418147e-01
1.625968858425499430e-01 -5.194618940101238813e-01 -2.639459058892243970e-01 -3.497205178230888833e-02 7.531973953991737414e-01 -5.491863011399522598e-01 1.982930105660951625e-02 -2.967798085025725729e-01
6.641626796834363411e-01 -5.206862560554990083e-01 5.972973372652086166e-01 2.056154268160965692e-01 7.413620197485168983e-01 2.453881615104311908e-01 8.617530152322694370e-01 -5.776885927352970462e-02
-6.034485658306616429e-01 9.261577173468364954e-01 -1.949609921647073030e-01 9.702757827645507316e-01 -2.525058116977607625e-01 3.199468143882824300e-01 -3.907120021259162801e-01 -9.520643927796912376e-01
7.971376467407940147e-01 9.367006967123649996e-01 -1.730893610417658657e-01 6.513881086377706353e-01 1.358955929047176436e-01 4.312611416587210922e-01 -7.810257562508728935e-01 1.084916081984210745e-01
