-8.012140953132247390e-01 -1.022682028367269957e-01 5.355907394391494769e-01 -3.007437989926360355e-01 5.330368290223592709e-01 -1.261911855225887891e-01 -6.952745649662486205e-01 8.636470977831374185e-01
-4.010235360692351314e-01 -8.521977045061406297e-01 7.259828006802611089e-01 -2.373433834735168002e-01 -9.960629211760916313e-01 7.240120246818586569e-01 4.751918203159346543e-01 -1.083093471539247066e-01
2.559649176399265702e-01 4.848065561954306713e-01 2.068457599179278628e-01 9.408229108550618669e-01 -9.744656826512931858e-03 -9.555106989740356216e-01 -8.026910929616262180e-01 -5.816648196911187174e-01
-3.534289924142621775e-01 2.483578301295614743e-01 -4.115041649062665119e-01 -8.377208605957890963e-01 -5.504329265962335516e-01 -8.478289669437915066e-01 -2.220203755764091902e-01 -2.367180773424744089e-01
-5.452000020946401460e-01 4.640254091107096635e-01 3.562044636242409634e-01 1.543221848496827420e-01 9.290669625844989454e-01 -9.087586390466118047e-02 -8.949910275038341911e-01 8.698355416073162427e-01
5.690538329976613241e-01 3.506682293202987299e-01 8.312847148387809693e-01 -3.444827113483341918e-01 -8.903573880057715773e-01 -4.075384768968772775e-01 -7.071368656167851263e-01 -5.496426144738895125e-01
2.473813612071440460e-03 -6.253883207774386666e-01 7.310907788708231880e-01 -3.598103118951370138e-01 -7.972920121081126243e-01 2.182612354291322276e-01 1.758298417866051011e-01 -6.671238302377200391e-01
9.716357061582181487e-01 -5.515184105909576306e-01 8.730847634756195852e-01 3.437813874922959201e-01 3.638615253301433761e-01 -1.002627434540468432e-01 -1.843247226792543714e-02 5.916915976734709037e-01
-5.411750868909770418e-02 -9.982553542834782245e-01 -2.873470564711422259e-01 -1.372229714289638913e-01 -5.258121633471022349e-01 1.981918038943755178e-01 6.553308657725536168e-01 -1.718868324849911478e-01
-8.106951193702458536e-01 -5.918637776820625529e-01 7.300108110971710307e-01 4.120735056187019296e-02 -5.934013643672824134e-01 -2.844704251397593975e-01 -9.456088452800925914e-01 6.852666744325492942e-01
