-2.421735108488363153e-01 -2.593736797289165619e-01 8.693025751062626316e-01 -6.043404227004960383e-01 3.644022937554853847e-01 6.996488779956038240e-01 -6.513102147512597195e-01 -4.465901044727904612e-01
-2.502250844878761704e-01 -5.570084786879736516e-01 3.297374871046494516e-01 2.274779389941985475e-01 8.987309310567503928e-01 1.327312576349772844e-01 -9.834271323635379591e-01 5.408072908411831747e-02
4.782033037509254569e-01 -3.349643188049087339e-01 -9.790191475548684075e-01 -9.367365027643579367e-01 1.765344603409022550e-01 3.705271159264591496e-01 2.747894146198965881e-01 6.687985971817007602e-01
6.306263533043470204e-01 1.993299986592034223e-01 -7.077934406359336350e-01 3.622960820629714807e-01 5.510266640808736405e-01 6.796791721010502219e-01 8.070803656666982739e-01 8.329863430435575644e-01
-7.275347196476620315e-01 1.534901977398053230e-01 7.434628918267849329e-03 5.785364439236952983e-01 -5.758133715994000479e-01 9.799252609505539890e-01 -5.699762627751974176e-01 5.741905058689851238e-01
1.913224498302956711e-01 -7.377546243925212632e-01 4.009336035976882595e-01 5.768483854684633982e-01 8.680509143326287091e-01 -7.158141750814082105e-01 4.239373149199041624e-01 7.378090267109507217e-01
1.165100009049415686e-01 -3.956198512589108596e-01 -3.776651505906900574e-01 2.310216925093317997e-01 -3.925294725888637259e-01 -2.510382530729959871e-01 -2.519627998721247764e-01 -5.016098547397596086e-01
-4.014104104491833525e-01 1.793863456443567372e-02 -6.899444649457076029e-01 1.402215960676114204e-01 -2.516686302763151417e-01 3.408349399655929979e-01 -6.586057337098687459e-01 -6.379782048341937628e-01
2.160047577500576743e-01 7.070786808458009443e-01 -3.842910118756102111e-01 1.294593969636268493e-01 -2.587695491998029951e-01 8.202926651740276576e-01 -7.127832916780063588e-01 2.108649593817324419e-01
-8.419678856384076315e-01 -6.201196037913978554e-01 6.942079766989663892e-01 -5.380017473009206519e-01 -8.911382952900126497e-02 2.336266797924102523e-01 6.554811323993532390e-01 -9.161263775383776675e-01
