3.039566443316690236e-01 -1.082719711149877639e-01 -7.724042369431010080e-01 -5.924579008937966851e-01 -5.213729983469179707e-01 1.801531203132196168e-01 1.563394930248360737e-01 3.415137271379207196e-01
-9.719062819575075007e-01 -6.534096125834478741e-01 -7.086393751397885854e-01 -7.225070128989430351e-02 9.035612312112306643e-01 4.569189614727149351e-01 7.863126047256492335e-01 -6.436904151305671284e-01
9.534998816305217950e-01 -5.441999883548767070e-01 -8.342066593940917762e-01 5.004376215449617415e-01 -8.889535174126490524e-01 9.148085795397613573e-01 -6.884257209157287338e-01 -2.175090180980590038e-01
-6.206568956317484176e-01 7.872255822812521675e-01 -2.938981653505980951e-01 -7.381853385585435134e-02 -9.232143642630976643e-01 -5.612546293939866260e-01 -9.745581013345059329e-01 9.010364987687147220e-02
-6.079763701634874895e-01 3.001949551399918370e-02 -1.404152966401488456e-01 -4.362938508274452065e-01 8.588528717064030094e-01 3.242738373983833355e-02 8.161784273061272188e-01 -5.842578328115903830e-01
6.044404391780269226e-01 -7.265859914448018486e-01 -6.188191189242464585e-01 5.732209684773130753e-01 5.370377801767072246e-01 -8.677915698358518171e-04 6.354610023778064498e-01 -2.208191733046309668e-01
-1.576813139626307425e-01 -5.432781389286223117e-01 3.558061705804096420e-01 -2.670687330061574105e-01 8.887203199657853769e-01 8.930054444949628856e-01 -5.562630241691786104e-01 -9.875119048051999027e-01
6.679940183148569410e-01 -9.285782012045336042e-01 -4.293494413817922073e-01 8.122603899050595544e-02 -1.858624949500824464e-01 2.855284354133318381e-01 7.454740423347061551e-02 1.153945983000321807e-01
-4.727761635631069215e-01 -9.705573798490529924e-01 7.518594894373038517e-01 -1.171788253709629135e-01 -2.145896321613274260e-01 3.798426269284618240e-01 -7.771719910000416398e-01 -6.271550829071190769e-01
5.008991331065344443e-01 -4.245893177170350086e-01 7.714775102169468823e-01 9.326854354356337584e-01 -1.236872683367755688e-01 -7.660763342685812383e-01 8.458269724455398375e-01 6.781131785522511723e-01
