-5.005943640303764930e-01 9.760284193768420380e-02 8.434643463490978377e-01 1.465895617356371972e-01 -3.839021741743198213e-01 7.925226765491544256e-02 -3.691987833104004579e-01 -6.826398232534980348e-01
5.977609416224081151e-01 -8.532654868032152340e-01 8.095327161678222971e-01 9.197953332571986440e-01 2.838225728584689023e-01 -7.346511169621949833e-01 9.358337603304300867e-01 3.565164355021643861e-01
4.165171961336648909e-01 2.167726256187485490e-02 -5.896952587200599005e-01 -5.347948626026184371e-01 6.240389796839922454e-01 5.327911660905511049e-01 -8.490792696374602766e-01 5.443742819387253906e-01
-3.474632649230584569e-01 3.739956067323413347e-01 -8.648596511546333687e-01 -7.650892818921619654e-01 -1.337996350127483858e-01 6.858206215862032717e-01 -8.582420670499470994e-01 4.844367292556523985e-01
-4.677229447572304188e-01 3.369858297701002758e-01 -6.372575789606553798e-01 2.971924835916397445e-01 -5.701348192243642643e-01 -4.145373271605228283e-01 1.471429312019001401e-01 3.835852145041376282e-01
-6.472529695500841562e-01 -9.444649586191142809e-01 4.945344447507675767e-01 2.355812875918730231e-01 -6.936078493769137765e-01 4.282719502167575687e-01 6.072045139784736367e-01 9.715233589609351128e-02
7.641854456062582290e-01 -8.244448832270023786e-02 -2.267604005030470216e-01 9.344744943480260968e-01 -4.975563430830280964e-01 3.896879570168059193e-01 -1.130279631929795858e-01 3.719663290760211183e-01
7.233882386633176953e-01 -4.918510436001277686e-01 6.127693869087760259e-01 5.098341755951094623e-01 1.103901474076576239e-01 7.226875980640814490e-01 5.121848576264982356e-01 2.297153762640515851e-01
-3.849608570202547320e-01 7.450971892579123512e-01 -1.660885264091704894e-01 -7.627723005456010785e-01 1.049021641896905610e-01 3.358094392368620174e-01 1.553807067403560893e-01 5.506112440203769776e-01
-8.105688772396328901e-01 6.086393352019614511e-02 4.376142592723608615e-02 4.518415289907005139e-01 -9.222151838588530381e-01 8.348161686761510492e-01 -5.249358916979283141e-01 4.782993039759679821e-01
