-1.214092337673782218e-01 -3.733442041774526210e-02 -8.642404644652375012e-01 3.433987441768764359e-01 -1.001866615911657377e-01 -2.363980841298329860e-01 -6.524470088841278770e-01 -9.632585073175505830e-01
-5.715741656145476579e-01 4.980483545833644943e-01 9.233790567203015165e-01 -3.699164950052977741e-01 -2.227765942305988123e-01 -6.064274901650024141e-01 2.533102460626301955e-01 -5.357907224518707601e-01
5.537546296538871093e-01 -5.103054396196007314e-01 9.125956369180503458e-01 -1.895613467950807429e-01 -8.974598538204896503e-01 -9.839735433319656277e-01 4.215398875635183451e-01 5.256650612559812252e-01
4.776371248145028225e-01 -2.016109271385935209e-02 -3.672289294747355104e-01 6.306421115281257705e-01 7.694908875390216174e-01 3.607587358373924857e-01 8.668435112501446937e-01 -1.435631956783334218e-02
6.966811129934047386e-02 8.112848707616560073e-01 7.916207991564818691e-01 -6.361342222830879134e-01 -5.236758418089413336e-01 -3.262778025153214578e-01 -1.296238462344803111e-01 2.961768950393222077e-01
3.882356246813569722e-01 2.252393062600610563e-01 -8.121933296131134128e-01 -1.267750654685886325e-01 -4.332011064561918090e-01 -1.471343291751441296e-01 -9.616613202395978277e-01 6.808139056482482854e-01
-1.526602653381057273e-01 -2.469311749155775892e-01 -2.563698918450192377e-01 -2.926759002954046895e-01 4.859121984367944513e-01 -5.946702570091986217e-01 6.528781249350028570e-01 8.051907010255374697e-01
-3.705352086805657752e-01 7.584693686499854870e-02 8.840650963141296614e-01 4.116972812369330548e-01 -9.866945595646057221e-01 8.182586785285879127e-01 9.638586084455031955e-01 -8.350155216320209739e-01
9.641663674416323104e-03 4.250913780191811764e-01 -1.637230226009294132e-01 -9.996347858090470773e-02 -6.173573261976239568e-01 3.140505416002774552e-01 7.393953456507904587e-01 -5.424126964405615592e-01
-5.807930387076181145e-01 -1.597375782032639524e-01 3.227057737267082782e-01 -3.401417745000767656e-01 -9.974211153351308923e-02 -1.371033064357365383e-01 -8.381240071845499351e-01 9.390152953786761181e-01
