-1.703896252880388040e-01 6.892869621421979787e-01 5.565285547276488387e-01 7.919840883137454490e-01 -3.371661487133992274e-01 -1.682203370066992498e-01 -2.650269794618393959e-01 -1.195018335043132041e-01
7.469419829621459783e-01 -9.518221789854286463e-01 1.870013993944932285e-01 1.179426000904402194e-01 -7.993651104643517691e-02 6.456196860017067163e-01 -5.042337498911630966e-02 8.045352096345550486e-01
9.383516901661588250e-01 3.177537224847419850e-01 1.249542489908426202e-01 -8.574613392340291185e-01 -5.750266734328879359e-02 3.202561198571660661e-01 8.030024914375626377e-01 -6.671911411328972363e-01
5.484825293767647825e-01 -8.746025272058233213e-01 -4.001690761052214551e-01 4.621717596709806752e-01 -2.825109925397126798e-01 5.952648850924284751e-01 4.324265118652179662e-01 4.983858874591988730e-01
-6.717921990641118057e-02 1.490963617667568908e-01 -3.011446100940220472e-01 -8.034294933530332639e-01 -6.687595818494185274e-01 3.928552177424622371e-01 -1.238282546366549219e-01 -8.060455762245983813e-01
4.536644301294325832e-01 6.670676502911669914e-01 -3.046224275398943249e-01 1.766738218944636785e-01 -3.332500491922336661e-01 -9.701129977140003913e-01 9.375098178597747189e-01 -6.371320913704783262e-01
-6.226376278585026292e-01 7.762866641441530380e-01 7.032940611379645546e-01 -1.316236636518708369e-01 -5.328091258420761811e-01 9.832820737494980534e-01 7.206727822329521693e-01 -7.335306815485214127e-01
-8.528796916471108602e-01 -9.244434555794409647e-01 9.005573093817851316e-01 -5.261492601469002217e-01 2.391868944210764347e-01 -3.033691152625752618e-01 -9.880521619680882051e-01 -7.372963201833679925e-01
2.640530197456314454e-01 9.228156000535547854e-01 8.419034777388700874e-01 3.718559726466623694e-01 2.597497857755326489e-01 8.341287941172443876e-01 1.189586475762696161e-01 8.889380032835769718e-02
-5.630644583892014943e-01 1.273543745954499595e-01 7.964409430301846449e-01 -2.568769635741647850e-01 9.657825047263663976e-01 4.465278099983580606e-01 -2.021982522074823319e-01 -3.759510806925803195e-02
