7.329848733633712587e-01 -1.677504503297311267e-01 -5.218780116571797301e-01 5.185642774861969340e-01 7.436488084527681508e-03 -1.762452364553457329e-02 3.283507315063109999e-01 -1.240701994677750886e-01
2.185549359465923658e-01 6.365909251175139172e-01 -5.231929985667340688e-01 -4.904647913683091165e-01 -7.208955542031412200e-01 -7.751502913819623419e-01 -8.970881409579418708e-01 4.667512072828006175e-01
-4.283506240286643063e-01 7.966964413854160654e-02 -6.081039389809776985e-01 -1.393083693302659132e-01 3.139692617609806113e-01 -9.507010462730345335e-01 -3.146157433723388852e-01 9.121138775251247388e-01
3.198843500153258912e-01 -5.394201233352293734e-01 -9.356613231484069981e-01 -6.869830324260270960e-01 -8.756270401632983980e-01 -7.358321320286174139e-01 2.806853230000589949e-01 -5.757896398379904745e-01
5.015589656428531828e-01 6.048350748680397793e-02 4.294367096597955236e-01 5.075906918942774126e-03 7.013088135567082659e-01 -4.983919014260767000e-01 -4.358216305240707467e-01 2.544409221163708157e-01
2.779368076596013815e-01 -8.731159236913346167e-01 2.292614101651264669e-01 1.243085220660975487e-01 -8.436820160548252900e-03 8.400592541177769323e-01 9.830352875885501884e-01 -8.474382261495809754e-01
-6.566317927597895565e-01 -1.325012638889466743e-01 -4.441642644704106857e-01 4.924370153335801970e-01 -3.022331108548834688e-01 -5.713249975187448815e-01 2.966636979339001279e-01 9.802311796138891697e-01
-4.556200053315826448e-01 -4.300262703229873473e-02 6.901783540687245200e-01 -7.310503154531062808e-01 -7.818668967541029247e-01 -8.765438264892726483e-01 -4.249324488848988945e-01 1.379411568503865482e-01
-8.392231228558233447e-02 -1.101396617710204140e-02 9.416973355923874411e-01 -4.768451428803006653e-01 6.498306008003065237e-01 -2.544803512874569407e-01 -8.020746198580572806e-01 -6.753592511111596863e-01
6.398066873879602046e-01 -7.986574850916365875e-01 -4.745732564861904201e-01 6.822911406525389300e-01 -5.500680069793961735e-02 -9.837693803840408258e-01 -5.151463524819717144e-01 6.493749445229932693e-01
