-7.998198698536398421e-01 -1.480615194364640619e-01 -2.652296724830653929e-01 8.153203776217892162e-01 -7.866477196416450379e-01 9.555502475577877242e-01 -8.975619461400403676e-01 -1.592814113546126009e-01
5.764744879680530065e-01 7.724229177429722260e-01 2.078254421587981682e-01 3.186783696441299885e-01 -1.617607518804078381e-01 4.952589386616010891e-01 6.696413065808628495e-01 6.517799567527367000e-01
9.126084386318131791e-01 6.416786262068365776e-01 -9.486710914367622038e-01 -2.083102076212939302e-01 -6.328237122587847541e-01 6.022293225061894351e-01 8.426379419643392765e-01 -7.818049236249060563e-01
-4.500868294943753956e-01 9.515520388988372158e-01 -5.794086937370810375e-01 -2.765672778703391899e-01 9.467161559850156838e-01 5.937208311168140629e-01 2.101469948367973295e-02 6.322273562067679542e-01
1.513084753431102047e-01 -2.196870835071500494e-01 8.050891805606679164e-01 -9.185423523736255813e-01 2.686710526056386161e-01 4.041172371112560224e-01 3.688068512056934534e-01 9.346942093489425396e-01
-9.857485839099628944e-01 -4.334750729127172519e-01 -9.800505626466096132e-01 4.143374338189795836e-01 7.864278580418255782e-01 -4.626875584790817175e-01 -4.203613280515594575e-02 4.592044338944420989e-01
-4.898779877702570396e-01 -7.101604414210165306e-01 -1.072070158938913664e-01 -1.245763117778708740e-02 -3.509587849496165202e-01 -8.676870601737864952e-01 -9.676769942579035444e-01 -2.175582629334253948e-01
6.167230492951181198e-01 -4.929000658385147560e-01 -8.086736686203477298e-02 -2.948117414645217149e-01 9.252076504705184501e-01 -8.768908420570120654e-01 -1.715921395787554093e-01 -9.311394711280112091e-01
3.406506365228196831e-01 -7.068494080104101851e-01 5.679856595749319670e-01 5.024837743720311778e-02 8.711473522908512734e-01 6.084043296964745107e-01 1.123407477844096114e-01 -4.092047880557925232e-01
8.726492908747118804e-01 8.172796831770028358e-01 -3.082918276716823947e-01 3.946530524233629045e-01 4.128759472113225915e-01 -8.438087807867169499e-01 9.886057539206818401e-01 -8.413386170106902373e-01
