-5.342094938087693645e-01 6.916458388596029572e-01 9.186759697637232325e-01 -6.376523956172268637e-01 5.687291989166716188e-01 -8.198690617487596199e-01 2.241498703750957056e-01 1.966604802200730973e-01
-1.506982629708000232e-01 9.589521006597470087e-01 -8.448333768304066016e-01 -7.466113243497674024e-01 -7.968080414637375153e-01 -6.353401538966489959e-01 8.576897879665690283e-01 -1.067728608418441194e-01
-3.876032951232131207e-01 5.312819865352851334e-01 2.893376793558277704e-01 4.490000737646115958e-01 -5.813815007695368742e-01 8.621271986013183675e-01 -8.564050039667501224e-01 -5.640331987677662529e-01
2.530410956962609870e-01 7.078764290847243679e-01 -2.611254438782695253e-01 -4.172766502939035949e-01 -4.083893417929300718e-01 6.930690908705061659e-02 -2.120015617660717666e-01 -2.842614910306546783e-01
9.569113807787004156e-01 4.726335861368482494e-01 7.855994280664562179e-01 8.418509220294725370e-01 5.947918733874448804e-01 4.681383570174573183e-01 -3.654138913483557793e-01 -4.915475696287434637e-01
9.911325427688708611e-01 8.952082613652994070e-01 -6.641575110613791022e-01 2.257376048363537446e-01 2.502246897823170446e-01 -7.984796701775502825e-01 3.156701860135913140e-01 8.751988870733955483e-01
6.723734995760219935e-01 6.558758995548288340e-01 3.564097825615071269e-01 -8.413258433549524185e-01 4.458824245778421069e-01 6.944138944360558341e-01 -9.076791746671273309e-01 2.640381854783209192e-01
6.763476083518327187e-01 1.708847743079968673e-01 8.281725591236901440e-01 -1.885790931650002111e-01 4.805887969775692881e-01 1.564377631271267610e-01 9.948935371723932608e-01 -5.213959256922697794e-01
-5.918492693338186506e-01 5.819177752812632054e-01 7.623087485001489583e-01 9.320924906018612788e-01 -6.835188180001614544e-01 -9.415324769800559324e-03 -2.204216406104102521e-01 -8.038184691394663073e-01
4.487658017241649144e-01 -2.678787415994006160e-01 5.055490095977341891e-01 -2.953429722967784166e-01 -3.816675241036717736e-01 -5.157776778856952848e-01 -9.643646297217189911e-02 4.632056198870138086e-01
