6.365703009058434336e-01 1.818627400689689644e-01 5.854134785206459579e-01 1.239365826011382676e-01 6.556096767159469429e-01 7.203672022883487180e-01 -9.182663160171611327e-01 -3.171988971096659782e-01
9.257923139198573903e-01 1.247105960511252221e-02 -1.322146937224868424e-01 -9.924381534200388266e-02 -1.044988447949719568e-01 -9.438055183415448024e-01 2.460383817069897727e-01 5.156054599857440301e-01
-4.661456680511339989e-01 3.030604827998402140e-01 6.006076297599127756e-02 -4.288077037809669978e-01 8.463468833451217588e-01 3.862917544902493283e-01 -2.398016143179684256e-01 3.881110697703844536e-01
-8.731233300817478060e-01 -4.146531468639946816e-01 -7.382539819767659495e-01 -8.489985268950841490e-01 3.113857817542178275e-01 -7.367914004564157793e-03 6.559643069076650512e-01 1.403182521522454707e-01
2.087662742759088808e-01 8.120497118413034787e-01 -4.620982160505693326e-01 5.163705978205663794e-01 7.588183457612796001e-01 -4.181601408908335316e-01 8.399657661897066419e-01 8.673804581446846740e-01
2.000068747177508044e-01 8.308123642285716315e-01 5.341450157349589833e-01 -5.396112087648345934e-01 -9.678298932581963498e-01 -9.914301745618425699e-01 5.168054694956745188e-01 9.879031991299094262e-01
-4.391876359436037713e-01 -2.714016687445197640e-01 -6.975003421674579318e-01 -5.072612740251218888e-01 -5.225340842499859306e-01 3.387299710135283082e-01 -4.029337625103324161e-01 2.555078720925307856e-01
2.852082682660330715e-01 -1.528406170722562685e-02 -2.749296506017961939e-01 -8.436164725650221463e-01 -7.632620492929267364e-01 -9.516604000053141554e-02 9.923948256164192294e-01 4.903977508648336148e-01
-7.950256696466826423e-01 -5.837307664009001584e-01 9.761925333780061553e-01 9.999016145703369940e-01 -8.718939809682604292e-01 -8.994470486095209605e-01 3.277836134689871006e-01 -2.878643186138767351e-01
-9.017228157822598789e-02 8.538969890488041781e-01 -3.607564806939700386e-01 -3.937107877634817843e-01 5.363661543204540916e-01 7.083362084863187302e-01 -1.861059643586371326e-01 -8.866853232313443023e-01
