-8.683505893434029232e-03 -6.921125531242022788e-03 -3.577895916152571409e-01 -8.558806906104439172e-01 2.166223901345722958e-01 -9.634380498470811460e-01 -4.267868507972405467e-01 9.051015216630649007e-01
5.958141865377928337e-01 7.837103797706197472e-01 -3.101745161239426452e-01 -1.151818547650327318e-01 1.753318671873087542e-01 -9.434595459759960168e-01 -9.167288812727252267e-01 -8.003626585713274899e-01
-3.557764045678957210e-01 -5.058679597150110840e-01 2.288076713942077678e-01 1.150755511284478061e-01 3.677892020777677740e-01 -1.046069389553616613e-01 -4.939862472543044003e-01 1.246465669127951870e-01
-8.229639581054817299e-01 3.010637354034986224e-01 5.472543524128117287e-01 8.839837081663484142e-01 -6.307096382710459803e-01 -6.930401578096310189e-01 -6.861381725267436948e-01 7.379076640497987949e-01
9.790745851844722125e-01 5.382509145833163089e-01 5.906302034766095499e-01 -4.395147797923080191e-01 -9.805899002036200240e-01 8.954699203606721891e-01 7.298209730089406655e-01 -1.860782095773083622e-01
2.424312194250679564e-01 -1.251245029732268588e-01 -4.455795583369979163e-01 -2.866672457547305708e-01 1.897972309269135849e-01 -5.104134253320871117e-01 1.573955094190342408e-01 4.050849276887393824e-01
6.553438244442104654e-01 -9.740162035787900408e-01 -2.181668896603758956e-01 6.307115861699452708e-01 8.457083783861569781e-01 -3.427555185868165211e-01 -8.754042237162118489e-01 -9.945132674842123155e-01
-2.426048728977958646e-01 -7.368174592161689240e-01 2.701037774004895198e-01 -2.966205541324129502e-01 -2.654392801223459664e-01 8.914057479136860973e-01 -4.699689526839765374e-01 -6.504282803091558929e-01
6.173692026991319803e-01 -4.832328314023470739e-01 -6.092997056351912022e-01 9.370326050975639198e-01 -7.065401078154049941e-01 -1.627496449216452312e-01 7.418872523630983817e-01 -9.748393438577549475e-01
4.815839379706934320e-01 2.839784618474325839e-01 -9.441973268390468910e-02 7.385858255504393899e-01 1.317665474298412853e-02 -3.590309452647821864e-01 -8.326181894085029622e-01 -2.293936878460924866e-01
