8.418697881258272453e-01 -8.267795761726273174e-01 -3.202491520246808498e-01 9.182142211813015820e-03 -1.005077932484323977e-01 8.710949345803218336e-01 2.731430514307098267e-01 3.266409111492893924e-01
-2.990644905070289905e-01 -5.910636976908878459e-01 3.641644827709673571e-01 2.306382566852602789e-01 -9.001506568943917763e-02 -1.121398249006655412e-02 6.098801293025124526e-01 3.879510028831809620e-01
-9.610406957883059764e-01 -8.805405894294462410e-01 -5.494623948803305513e-01 -8.696649613951887847e-01 9.497642841416615855e-01 2.237875339987249745e-02 1.110553219335452813e-01 -6.294863853555185962e-01
-2.473849331352815373e-01 -2.095705919346293467e-01 8.300728357934092916e-01 6.299657719017157653e-01 2.561497414771876091e-01 3.986347647055097365e-01 2.468540625645032627e-02 6.628285688866057956e-01
7.301932016103220846e-01 -2.491849269517343313e-01 -2.375120819915126358e-01 1.804151714050428179e-01 4.386203373309656151e-01 5.355641748492887544e-01 7.911222635926946634e-01 6.606375329716964728e-01
-7.034601387391699046e-01 5.645722786782301217e-01 2.615841039318118622e-01 2.400487595443794309e-01 -1.532648373367269112e-01 -8.970543698658068887e-01 1.360309868122739907e-01 -4.767478659916335459e-02
-8.677636216878850117e-01 1.044834149222879649e-01 -8.520165462537081513e-01 6.339321557392445516e-01 -6.822579501399101964e-01 -5.310278580217071553e-01 -5.713790766762134599e-01 1.207172642252343220e-01
-6.076817746623432992e-01 -3.714617614202919693e-01 5.109563387821318692e-01 -7.657649021164185665e-01 5.774389371520527448e-02 6.072657352324022373e-01 -5.693114440338573612e-01 -7.292184929695180173e-01
-6.856435299601748579e-01 8.793827612985571918e-01 -3.521914885725982991e-01 -3.641198740618003526e-01 8.476312942558987817e-01 3.155849350507233808e-01 4.478976652644730549e-01 -3.848920369496924287e-01
9.622065001072603874e-01 -5.777419384926918422e-01 -6.800775245260171076e-02 -3.474120561282776354e-01 2.326579713293286389e-01 6.953023984073196662e-01 -5.127269063437469576e-01 3.028335613355159772e-01
