1.369457395526250121e-01 3.541476194237442865e-01 1.230947250500213919e-01 -7.850053859516656907e-01 7.799677132311038097e-01 -2.465669243031589630e-01 7.243571036835538823e-01 3.019461612951548357e-01
8.769603122879332524e-02 -6.831650074735657885e-01 7.054652417309787982e-01 -2.783442408130223367e-01 -9.692703981483730136e-01 -7.216543755497255574e-01 -8.714498827060241926e-01 4.294253068028941467e-01
3.207075271036630149e-01 7.470575682849700527e-03 -7.249374548694991205e-01 -4.454773493639485604e-01 6.803406420877398109e-01 7.698750766059232475e-01 -9.000653657646164874e-01 2.331230440238640789e-02
-9.558318418037667907e-01 8.161928032172103276e-01 4.292426898973731308e-01 9.855255641178064518e-01 6.521244007659796615e-01 -4.593498362683610114e-01 -5.375919176305641312e-01 3.774332114222429535e-01
9.560637127959275006e-01 5.848926861399823540e-01 6.757605428473594245e-01 5.499203757202801857e-01 8.093220306015802556e-01 -8.059792566773160694e-01 1.672091960476345118e-01 4.184297785796549096e-01
3.932558922670730261e-01 3.017763689012689099e-01 1.933604340446395398e-01 -6.925175210973555373e-02 -6.021865561845198833e-01 -5.458775608001029678e-01 8.868194280120320627e-01 4.813661557227555399e-02
-1.172113445755065264e-01 -5.591504721141005163e-03 -3.270910958997874651e-02 4.460082210317468654e-01 -1.160236538416283825e-01 -7.067965174693002783e-01 2.391424084609101719e-01 -4.773136884976572070e-01
7.581195301653027574e-01 3.458711606396736027e-01 6.560028539249838087e-01 -6.602776391060762862e-01 5.863202542461911637e-01 9.954622437612110630e-01 7.575846014542590989e-01 9.935133107662794671e-01
4.460464099750121036e-01 -6.852735822509941066e-01 -2.412856157469971397e-01 9.075620250731244454e-01 -3.305145211788724779e-01 4.212203326733414688e-01 7.002618927254629089e-01 5.156866415427709960e-01
-9.940830417786172823e-01 2.159153946049636730e-01 8.485193286088192899e-01 -3.533160077003949517e-02 6.035246253116954840e-02 6.503382300452609233e-01 -9.880168194148308825e-01 -5.108431194080220727e-02
