4.666749407017873885e-01 -7.126199747836317044e-01 6.904537356958262428e-01 -9.450413220168354389e-01 -2.400930226351649655e-01 -8.139490102321949028e-01 -5.380217411086307688e-01 3.808382625268704746e-01
4.836239713085324077e-01 -6.106474821999634539e-01 -3.488332039622277225e-01 7.603643220763434130e-01 -2.144628477162315860e-01 4.752698358810780732e-02 -1.224621856201928427e-01 -2.889052692285243307e-01
3.543550334483531739e-01 6.153752989300020904e-01 -6.203739959102629875e-01 8.595272373132532007e-01 -5.383432244408130618e-01 -1.118628019980540955e-01 6.142728512081170322e-01 1.902166285959587810e-01
-2.601702634360192334e-02 1.689759415642198004e-01 1.809728085380690743e-01 5.074036451122476699e-01 6.368166109051365265e-01 -2.894279984955194784e-02 8.585546970310842241e-01 -6.584331096970028607e-01
8.392177088800196749e-01 2.573933792892217909e-01 -9.357891608065660449e-03 -9.828033282705934681e-01 -9.184596270946892016e-01 5.805328385891443954e-01 5.627151731874304730e-01 3.931490272944866415e-01
-9.334381890346639121e-01 6.640799731044502163e-01 2.166268013099528211e-01 2.560080565313322953e-01 8.837789192785618919e-01 4.150873648145321226e-01 -2.859550401219033144e-01 -6.264413910700727950e-01
-9.505830493726772357e-01 9.442658627230731128e-01 -9.566716335550073946e-01 -8.110051323966378511e-01 -8.520942309318013663e-01 -5.544467384408506838e-01 -7.780202557725157675e-03 -8.972072423545607300e-01
-1.030042871332863541e-01 7.348485954691836852e-01 -4.655228903033683530e-01 -5.350370995336370950e-01 3.739676708291013174e-01 -9.600556898358973967e-01 4.347892792701897324e-01 -5.808998316939935069e-01
7.858845562194072265e-01 2.372620010229671283e-01 -8.239154151091621081e-01 -9.117941193114176279e-02 -8.074988488133301168e-01 7.287016788354514496e-01 -7.661973463115139271e-01 5.998956026338588821e-01
3.194921759731528255e-02 -5.105321681470043060e-01 -9.515722565139759226e-01 5.417508372532391370e-01 9.955190882785045492e-01 2.796379876179504453e-01 2.846246533235414766e-01 3.479271698173307392e-01
