3.741030069687869553e-01 7.102427356790004254e-01 -4.589352910567396915e-01 -4.291399729328260193e-01 2.823161356984946746e-01 -7.919167080668325642e-01 7.674056029182294569e-01 5.834429934112910221e-01
7.051377833806422579e-01 -2.100211299437357848e-01 1.600802055273269353e-01 8.051377609558980630e-01 -1.647875534568175038e-01 -4.536956234618356731e-01 6.412301139079366052e-01 5.705422227691487880e-01
9.567528534220510750e-01 8.873895985289330657e-01 -7.703184706665640036e-01 -8.688857939218652682e-01 -3.812148667907950816e-01 3.912509171608853364e-01 2.867575164921938313e-01 -6.526500724561903333e-01
6.880450720638915385e-01 -7.733490352705147952e-01 5.687578634767658237e-01 -5.865714250909914718e-01 -7.063357682694197948e-01 1.422977740153577031e-01 7.730945215284446004e-01 3.437060731637830990e-02
6.062596556873907083e-01 -8.243642067448007094e-01 -7.282550470601232284e-01 7.181508921583501515e-01 -7.280555624917219859e-01 7.074169963632415126e-02 -5.969129575390630382e-01 -8.647164954670769621e-01
-3.415853206705576905e-01 -6.242487200750490572e-03 5.981099504160583002e-01 3.322484202387328001e-01 -6.573264842934589680e-02 2.181229184200159654e-01 -1.833302944613659502e-01 -6.120824227178833787e-01
-6.578107804593316121e-01 2.349162658693944028e-01 -6.301428687540318041e-01 2.892909049786340780e-01 2.493808042133980329e-01 5.341484641933609279e-01 -8.197447326946987189e-01 -8.046465382175560510e-01
-3.644468139297158960e-01 9.262241839691913725e-01 8.486046964605002962e-01 -5.380855755648166205e-01 4.709537577628952754e-02 -4.424356604996069198e-01 3.899740343592419389e-01 -9.145028416309022301e-01
1.427342460413936198e-01 -8.103471813042573135e-01 -1.230666074883985939e-01 6.777899358293342225e-01 4.061254025326903605e-01 5.146109022362383989e-01 4.334758242565386333e-01 1.989724696596262277e-01
6.292568901066950549e-01 3.845986313369842424e-01 -7.079382645171850008e-01 -6.522069804502410584e-01 2.102153926856233923e-01 -7.022298944360170214e-01 6.943149178325469517e-01 -7.176231697869079884e-01
