4.670175720119491558e-01 9.653083857782394084e-01 -6.471453370641220282e-01 4.887905765364599642e-01 4.668147508509534749e-01 1.206143034747890752e-01 5.658087461182790268e-01 8.549814825210861891e-01
-3.425890752219129531e-02 4.815245728979280493e-01 -7.543242241969940753e-01 -9.911082548913969781e-01 7.851462194328420185e-01 -8.200416659096407823e-01 -5.635524779667957507e-01 6.654860900681482949e-01
-3.608047941594918484e-01 2.165149578968816879e-01 8.439556614669272427e-01 -6.485354459834988816e-01 1.953912985280761294e-01 5.378102849023576049e-01 -1.603591774229107259e-01 1.665005473815073245e-01
1.467050387174546611e-01 6.183461326135950564e-01 -5.450350021340042428e-01 9.300726311418479053e-01 -2.860583110874801438e-01 -7.573256473438907399e-01 5.999279169369462483e-01 -4.566533800094594309e-01
7.668523207048687507e-01 6.936227694176979597e-01 -4.160712521721812163e-01 -7.620500590672949492e-01 2.398897568899962529e-01 -5.544049045020305044e-02 8.990615229429632649e-02 2.475030703099518892e-01
4.001574271484502621e-01 8.413049362434790179e-01 1.464998566463584506e-01 5.179558403277959577e-01 -2.505273296538983452e-01 -1.168417767206930691e-01 -1.843567824371945552e-01 1.920922901023280893e-01
5.974119802527346756e-01 2.038949365987330342e-01 -7.326499540223494478e-01 -5.116941798951706311e-01 3.826534388986235768e-02 2.564034038272919869e-01 1.243648430272981109e-01 -5.431036481256104054e-01
-3.536435797498667100e-01 1.940485088522680979e-01 -9.848913241018568687e-01 -7.481206290424324834e-01 5.003134190524458624e-01 4.913668171402543194e-01 -4.493997924740440464e-01 1.496116042095521070e-01
-7.173276692948991062e-01 8.713132943597343694e-01 -5.474551780439613768e-01 -2.117801759620894231e-01 -2.115648572744754929e-01 -9.271672138392352824e-01 7.245459777379117394e-01 -1.355393724175992798e-01
-7.158991916265122768e-01 1.508308537636786628e-01 -9.512643439919810096e-01 -3.374233915239439607e-01 -1.716370441299068794e-01 4.241377167531936720e-01 -6.283743653611597590e-01 -3.217114806358329915e-01
