1.057586983566478622e-01 5.693083210984091203e-01 1.382826431567569792e-01 2.076097420417393202e-01 -6.322547485011356105e-01 1.655173324308549798e-01 -1.824211951986320912e-01 -2.475843826009613835e-01
6.555058603742336398e-01 -8.429419427598439096e-01 4.122900637537942892e-01 2.711322700211535874e-01 -4.791156288736881930e-01 -3.229184896600760801e-01 -8.834636005208753584e-01 -2.031729996212654488e-01
-9.132594751584885984e-01 5.156997838082422181e-01 -8.525703858096271848e-01 -8.140682857883922985e-01 8.173115188730966096e-01 -1.418560279719240924e-01 -2.031556869118671393e-01 8.677379519165269173e-01
-5.869804746476536828e-01 -3.558522396042762548e-01 -6.013634913280982985e-01 -3.529580931814049194e-01 8.664064180029718010e-01 9.560842584685702583e-01 -4.306126954025282227e-01 -7.815178765491517243e-01
5.357190003239766796e-01 -9.515984211481918198e-01 -1.948388564229932562e-01 8.367027626316363431e-01 4.693104221339476911e-01 2.984634162112094202e-01 1.072695740140547915e-01 8.783173717173486938e-01
8.209466186977971702e-01 -4.366684226003920699e-01 7.067787942281595903e-01 9.828795286104496931e-02 8.790451149508171635e-01 -9.237311910716463625e-01 -8.121084461808303345e-02 5.282478458584420888e-01
-4.244668362883481372e-01 -2.547458981580359438e-01 9.566412423358030548e-01 6.964548839476496500e-01 -5.716337083572469169e-01 7.706219583254385608e-01 5.774314094812560416e-01 5.813041378872465526e-01
2.836382724182113790e-01 -7.523994330062340197e-01 8.563481418058660477e-01 -3.131369493287732286e-01 -8.961984234065416555e-01 -1.275756959469755980e-01 3.306589483154627196e-01 -3.965574845232120449e-01
5.964413617944308577e-02 3.849224460938116543e-02 6.490263421335258354e-01 9.091532030363878025e-01 -1.795263472054557941e-01 5.376685455872991515e-01 4.516933218998988586e-01 -6.771603077170758045e-01
7.653247280879864611e-01 -3.822884644161059775e-01 -1.411473707867498817e-01 3.922491612566896269e-01 6.261439663516357168e-01 2.961504628214692847e-01 1.868963896739959107e-01 2.293990114355586307e-01
