-6.846180873928342514e-01 4.001831715022869940e-01 7.927186754174244676e-01 -7.155355360806137099e-02 7.168641802874324842e-01 6.481081677017119791e-01 2.280114922960874146e-02 5.257551002798412920e-01
-9.404334806840335403e-01 2.477822373681415336e-02 -2.415712334084085811e-02 -3.809573747531511678e-01 -9.812421466638663325e-01 -5.178397293236578491e-01 5.093898920361492610e-01 1.103361307856036699e-01
5.357446619399808263e-01 -2.741508428288963461e-01 -6.110895228249024758e-01 6.556669350654924511e-01 -2.713377441192639239e-01 -5.685071224428006609e-02 1.854989195329908025e-01 -3.899947534872352239e-01
-1.625949699160378348e-01 -1.399445257805946863e-01 5.332870801565181562e-01 4.111868319528344529e-02 1.141208019243915572e-01 -2.806253183363047743e-01 5.188159752446057649e-01 5.963637523562570486e-02
6.999601007934479480e-01 2.470019570631150074e-01 -8.788528361889667018e-01 -8.464506995601368544e-01 3.249732272441840930e-01 6.646020627124773483e-01 -1.381690009840750299e-01 -5.314312621352066390e-01
-7.119706203936915223e-02 6.543809703340994766e-01 7.180405570991776898e-02 -8.787767422266952178e-01 -3.581680619701952395e-01 -8.997947937995920409e-01 3.819254369150761885e-01 -5.732426238895746984e-01
-1.314629559462499042e-01 -6.873535594381592340e-01 6.306407909448075166e-02 7.708957193935228602e-01 9.198259689824201946e-01 -1.745583218548867332e-01 4.248856329343813076e-01 9.682365099938816666e-01
5.311190194391066655e-01 -7.072679901095189070e-01 -8.161770996178183690e-01 4.999155528259138226e-01 -6.713629066462849515e-01 -5.609454982684614066e-01 -7.023936545116538088e-01 8.018537287673930258e-01
2.688754327323661375e-01 -7.228618556976111886e-01 2.662735998123950676e-01 4.149208627103921909e-01 -7.169211175072893738e-01 -1.365566764308441261e-01 4.514549057169521262e-01 -2.527006154254349823e-01
-1.149531879540104384e-01 8.110536451324990015e-01 1.418153824404195795e-01 8.377726649157104521e-01 4.796471420498362725e-01 8.435592915760774524e-01 -4.648094332182042265e-01 5.061312978013521313e-01
