-3.920544723169305801e-01 6.643358451001606380e-01 -2.252705931421263852e-01 7.717921710794544143e-01 9.264222771828212188e-01 2.557915117401659000e-01 7.339972818391133913e-01 -5.605681609742692029e-01
-3.937338443663718213e-01 -6.152648324683043235e-01 -9.588805356146761216e-01 -7.569096200238407679e-01 1.150270956193302219e-01 -8.802374023825687566e-02 2.187063123377654961e-01 -5.606982669020941223e-01
5.881951666105711407e-01 1.570411396784558988e-01 -5.268377341537773262e-01 9.258001403704676502e-01 9.428777406959074625e-01 -4.600314280979029835e-01 6.625129002321710203e-01 9.313116957330578316e-01
1.065214325804733075e-01 6.218719746639771451e-01 -7.598342689941575134e-01 5.111231910874813877e-03 9.017494225071698288e-02 5.388829718316026085e-01 4.485182931552156305e-02 2.331017345122132767e-02
-5.243768782444873100e-01 1.356500139438481245e-01 4.265610592427988568e-01 3.529144280325999805e-01 -2.426566980426996256e-01 -8.913163805233030867e-01 -7.319196809716421726e-02 -8.945362398136660342e-01
2.349129061006489660e-01 8.919603526094912471e-01 -9.187676020082784500e-01 6.572607789671036649e-02 -5.898050601516695579e-01 2.380011692427437264e-01 -8.042054850508371100e-01 7.894342952351198761e-01
-3.419304699243286283e-01 -7.604751351215732758e-01 1.632618280723541204e-01 -5.626309611928450582e-01 -8.215676093867556595e-01 9.266860781500454447e-01 4.647592481597007108e-01 8.432420186931584016e-01
5.273011969887499983e-01 -5.500301106996772216e-01 5.353319970316374743e-01 4.514204105748007567e-01 -1.599082694871001298e-01 -5.439940970479046900e-01 4.620828058332904220e-02 9.592358909760319019e-01
8.522544445613633446e-01 -9.075025056972290116e-01 9.992949514459541493e-01 4.626310208769248700e-01 5.747739997621974517e-01 3.723424901708183299e-01 9.080703443376576534e-01 7.965153811592458055e-01
-3.587375184545689155e-01 -8.774808614853069066e-02 9.517244930568227179e-01 3.629461726131082422e-01 -8.871761672299292023e-01 5.040271135076836995e-01 2.940989812886860566e-01 -6.759715038613267613e-01
