-4.951427177014433578e-01 -1.803457747302357195e-01 -2.438231210031858165e-01 9.899648087629819848e-01 -9.280649814389099195e-01 9.733089036520348181e-02 -4.249916549240742025e-01 5.601782675587188010e-01
-9.190642318851511838e-01 -9.647394585930573196e-01 2.637963981217386067e-01 -2.830662612568008996e-01 7.606604105639098723e-01 -1.352229562795688178e-01 4.363026614770957323e-01 5.662255146922687832e-01
-3.496418495567639173e-01 4.989414872919775146e-01 -1.617513636946039668e-01 4.481732511887559500e-01 2.906670006212070945e-01 -9.454534304787072241e-01 -1.534768000851980396e-01 5.935205870034110376e-01
-7.731073691084995314e-01 6.770258934157735720e-01 6.817248288432096182e-01 -4.174941082863434794e-01 4.741466430036378465e-01 -4.472208297532531684e-01 -8.125348746404197353e-01 6.075168318815837853e-01
-7.001449760926483634e-01 -9.880806688085885803e-02 -9.652168265823479754e-01 -8.308102716212300010e-01 -1.239570686581175085e-01 -6.548898736479051852e-01 1.749728017790641577e-01 2.717385172501165513e-01
1.155059442765893341e-01 -1.208405917703656574e-01 -8.738240616012369344e-01 -5.564342266913684387e-01 4.299029809669518976e-02 -3.724861783854644948e-01 8.573575329692317837e-02 -4.022244413047175726e-01
6.597271074527863988e-01 6.342494292057900829e-01 8.149739853328177297e-01 -1.426915685343901341e-01 2.546835908620674882e-01 7.720537544319885370e-01 6.401031700647590306e-01 -5.169652614698754256e-01
7.684398490517954095e-01 -2.367703359735091606e-01 -8.238663663023864103e-01 -8.000270008636656272e-01 3.245829149131940206e-01 2.544516549179935971e-01 7.032352008577065217e-01 5.819833399069507252e-01
8.622924417212427528e-01 8.851266432339244261e-01 -2.644648967681155760e-01 5.298795772990172459e-01 -2.027469300333026858e-01 -1.794996570716247408e-01 5.172784124067324463e-01 -3.519685009939332865e-02
1.459034992216778903e-01 2.224427753701265775e-01 -5.519977991452373889e-01 -3.790510118940899620e-01 3.834480557660664424e-01 -2.885056937511636388e-01 5.646040300401944378e-01 8.851383093955489390e-01
