-8.201414142231489013e-01 -3.319867875673114810e-01 -5.305601420407599633e-01 1.124396663790481199e-01 3.078345401284443561e-02 -5.730056659327102953e-01 -5.407453034304385842e-01 4.940781955172981466e-01
3.760854974170242393e-01 8.782144889873868543e-01 -3.095884968744804233e-01 5.945976620936488377e-01 8.095283113712210543e-01 -3.505150795416782650e-01 -9.962038022168400175e-01 -7.850213737986593276e-01
-4.121786615554048350e-01 9.060908385962296308e-02 -9.505815262806036614e-01 -6.655449535753916734e-01 4.167671777531822830e-01 7.857987131626869015e-01 5.391137410657531603e-02 3.533613470513929933e-01
-9.791697073545240215e-01 5.106807169761040655e-02 7.210600474920421110e-01 -7.992705989285679991e-01 -7.206042846906102195e-01 -7.829942267976075509e-01 -1.239368643900391476e-01 -3.124403520052889682e-01
-4.142766491047988886e-02 -8.499482612439912543e-02 9.818974461973182244e-01 8.573777307478795962e-01 8.368104998931560345e-01 -1.601627774283005401e-01 -6.402486870917900585e-01 -5.106295024918228176e-01
-9.654488968923111702e-01 -4.264805119783747767e-01 4.227589370429067905e-01 9.529019389320709799e-01 -3.029049656420024217e-01 -8.883027749199381429e-01 7.920989601935775060e-01 -4.849412520094400492e-01
-2.532388699130618814e-01 1.623640970948998508e-01 -7.822261303273532196e-01 2.085266939826488919e-01 8.283976874970981896e-01 4.752423708050099727e-01 3.557561026955580186e-01 2.153454207300531387e-01
2.061812159125999688e-01 2.082045801228389337e-01 7.840220169753979729e-01 -3.444836151504651056e-01 -6.879583222836176404e-01 9.151207213258614193e-01 7.771435052693294043e-01 -9.336605968361451069e-01
5.453981484366177135e-02 8.832066228721928702e-01 4.197514636757440076e-01 5.230591016298302698e-01 -4.125069126675069420e-01 1.017984694523119682e-01 -5.298467285641128566e-01 3.677036300015508186e-01
7.896400865031001359e-01 7.253002284896414853e-01 8.561991792768373077e-01 -4.233804718637057540e-02 2.645996015929497069e-01 3.402080396800899464e-03 8.052619802126204096e-01 8.651325350633085609e-01
