-4.603955921740650048e-01 -3.166400624248828510e-01 -3.846018994895969989e-01 9.264760898944579548e-01 2.706841016065368866e-01 6.807111860642534040e-03 6.013702687021948989e-02 -2.588369900787006461e-01
-4.084305601568400945e-01 -9.299788130697996813e-01 -1.384995583415515874e-01 -7.372490122105563870e-01 -7.831153376703385849e-01 -6.045683557736585279e-01 4.151479563333750900e-01 -2.136021120004103491e-01
3.993275180717015260e-03 4.707656798501753670e-01 -2.041684000102368390e-01 3.488276157894836249e-01 -2.396136239414181635e-01 -6.138375081507845277e-01 8.236508667680486617e-02 -1.463580801533719278e-01
8.099976518194083042e-01 7.950524594751311458e-01 -8.587613201977222221e-01 2.312416559009060624e-01 -2.009452740952046845e-01 -7.584547941938912796e-01 3.653012162485560488e-01 -7.281916431041979276e-01
-2.743113741639142678e-01 -9.000762263320944978e-01 -1.338301413439999532e-01 -4.594494996770097650e-01 4.737940313963560079e-01 -7.626071157148219815e-01 -4.001605838993673725e-01 1.174429679925603764e-02
-1.707395274768395144e-01 4.029467287236454531e-02 -7.069213756722354525e-01 5.098121334739602606e-01 6.026264774989984474e-01 8.652551624108872907e-01 -7.808058624701090800e-01 -6.068254954496292708e-01
8.488770308104502949e-01 -7.317467778996920025e-01 -1.383853262104524084e-01 2.975790501779220776e-01 -8.004854902449367593e-01 7.614486780360605334e-01 6.074979876509665200e-01 6.230738292115787225e-01
6.732611826138956701e-02 -6.267729385757765392e-01 -4.129806673355811419e-01 -8.363319850835524427e-01 6.474083442238327546e-01 -3.305166287453658036e-01 9.557024174443848885e-01 5.542758139737169465e-02
-6.613349915214075114e-01 6.654230601919952637e-01 -6.140755173996346183e-01 -1.040274742732496538e-01 -7.443372543253636842e-01 1.946137923752562227e-01 4.777891243518905817e-01 -5.138898145443173693e-01
-6.111952094844703698e-01 -5.617954524419368489e-01 5.006660851507440668e-01 3.312683488911229990e-01 -9.246569258628574151e-01 -1.043908299906683990e-01 -9.346267331684532387e-01 -3.229356073321250076e-01
