-4.335858440421060944e-01 -1.859694385330603605e-01 -8.742160185025520391e-01 7.056287355149903906e-01 7.635630987251436075e-01 -8.126558031037549590e-01 1.088474322882371226e-01 -2.289590304408284371e-01
8.543836881941497818e-01 -4.738329694120839708e-01 8.457663818004501621e-02 -4.750718560896551868e-01 8.488637684543451911e-01 -1.338620426377208350e-01 -2.888160042072358547e-01 3.984234077693180609e-01
-5.007856926396474506e-01 -9.833671757152433468e-01 -2.128563670637395600e-01 -9.718269719167689225e-01 5.299252639485099170e-01 7.503914795246353631e-01 -1.427868558490423823e-01 -1.194196365999180554e-01
5.649869147690365079e-01 -8.591743491187475712e-01 -8.493210290211608005e-01 -4.142461984314882439e-01 -3.595634297555228009e-02 1.638879591764008659e-01 -9.431313377267191989e-02 -4.654751470709770356e-01
4.251189385922962138e-01 -5.011765047006579987e-01 9.129935436213598710e-01 5.732434631108556111e-01 5.398288981805854370e-02 3.905944197477666524e-01 8.053895117631950651e-01 1.015869823421720053e-01
-9.323134457273898335e-01 6.753112715676623523e-01 1.933361632714130085e-01 7.184813607129734159e-01 7.655548233694953186e-01 5.443962929782568683e-01 -2.983910865829415560e-01 4.514198690800832470e-01
8.683693301965722533e-02 7.408687159558100532e-01 4.637818315832209493e-03 -1.554195108953844162e-01 -9.072912385833953319e-01 3.227513970283508726e-01 9.302892253203316475e-01 5.525748274685489125e-01
-2.680925507767788485e-01 -1.112124912839342894e-01 3.623207100451539819e-01 2.503893809192325737e-01 1.816508039805766472e-01 -1.430900791129638971e-01 -5.998090309503554263e-01 2.812699138102869867e-02
6.930100185607928065e-01 -9.509731113404411573e-01 2.201481577103425735e-02 -3.707292483569468722e-02 7.323510748504622470e-01 -9.605793201202883491e-01 9.624425204230853126e-01 7.139478958523410856e-01
-6.502060909423201807e-01 -3.223688503584232201e-01 -8.373375959130391344e-01 4.758621796088717826e-01 -5.471981722446948027e-01 -9.716437608711159246e-01 -5.399084055630263279e-01 -9.083363942421180948e-01
