-7.541062234157238642e-01 -8.152566501480802419e-01 -3.751707644998725222e-02 -2.765753633599732364e-01 4.994887571663215731e-01 1.357184695961244358e-03 9.759622590827674582e-01 1.170433005710576069e-01
3.250273047780656288e-01 -7.707070656458412383e-01 5.056471916773874753e-01 -6.891006437988913547e-01 -4.853021302248279323e-01 5.995193094445054882e-01 -4.156396827591823939e-01 1.139724358429843321e-01
-7.420035020942477022e-01 -1.799234305644548115e-02 -1.734860664544222164e-01 8.324830254036810206e-01 4.680525063365310601e-01 -9.392860829032767533e-02 -2.369067904225037324e-01 -1.174760697157894995e-02
5.009731504427124005e-01 3.175545342236336666e-01 -2.273883955282729463e-01 2.989036821607484740e-01 3.381177893205873364e-01 7.151091631722621411e-01 -2.651754799314940403e-01 -5.642211212665915188e-01
-4.103551416064654678e-01 -5.511016907668675469e-01 -1.592654321289552755e-01 4.703443444028907461e-01 9.062393115368747587e-01 6.239003480700620052e-01 5.757628700487633644e-01 5.914255125441085781e-01
-4.203752101567455046e-01 2.384440680116159950e-01 -5.825185634076086583e-01 2.721144704695135363e-01 -1.063642604848042961e-01 -5.634676753888689937e-02 -9.294008492254772769e-01 -2.904758850203390530e-01
4.576968678982273886e-03 5.631865496555625850e-01 -6.678920203341451867e-01 9.559869339537407917e-01 -2.571785448474963598e-01 -3.415080037953786007e-01 -2.446332510046564934e-01 7.475805579377481358e-01
3.798626484639244794e-01 2.475557638400363025e-01 -8.771797033512347408e-01 -6.898088382171845279e-01 -2.884407130816644127e-01 5.717739359066391636e-01 -8.360617884220786777e-01 -4.993275970708592748e-01
2.900899396137046615e-01 7.383241785696337267e-01 -4.281871527687857171e-01 -8.802665475158000241e-02 2.518793891138093599e-01 9.040186806200047887e-01 5.788610333569146338e-01 -7.466179850809013807e-01
-2.277704344304307682e-01 6.553373844799859071e-01 -7.845573214081857927e-03 3.313269008676256178e-02 2.714317618926507247e-01 -8.015790495350265665e-01 -9.456729022310705890e-01 8.224419969142515718e-02
