-5.809652432700129765e-01 -4.595892273288357810e-01 -8.240258504861961431e-01 -9.739473011158921167e-01 8.048773540978744201e-01 9.825271898398069137e-01 9.554283969725929637e-01 7.526252452076500621e-01
9.825341485527343544e-01 5.483598500143638255e-01 4.388591898730938023e-01 6.255770872508406022e-01 -5.433124080227902386e-01 5.584571448819830586e-02 2.214634950644505107e-01 -2.286511425928001717e-01
1.382641702635094560e-01 6.710894695697073864e-01 -2.969326764259550000e-01 4.017710275931587471e-01 6.253041011799771454e-01 -5.874500786596703605e-02 1.634883860597313721e-01 -1.234550498830033760e-02
-5.859860611304745781e-01 -8.387174608294774014e-01 9.540739532552933166e-01 4.772977671184830406e-01 -5.283184678271575230e-01 -9.645525225832782823e-01 -2.042691490899297690e-01 -3.610201366850940286e-01
-9.771462259828480601e-01 6.822284304989403303e-01 -9.655159695328512370e-01 6.446784812295482947e-01 3.058929934216987334e-01 6.270048918294328644e-01 7.702049136829409726e-01 8.315186775596894453e-01
7.161624559756250008e-01 8.295126244022867912e-01 7.722167024355175435e-02 -7.241236581575687392e-01 6.586485351195139337e-01 4.138743604456751601e-01 -9.905277598118171767e-01 -5.722513509188422720e-01
8.733162698856653527e-01 6.099174025269715749e-01 -3.398499621046413566e-01 -2.806471385154838405e-01 1.401602593550577147e-02 2.433568886131154407e-01 6.522726262307461109e-01 8.789660205143430272e-01
2.875538554225067767e-01 -2.593451580607060158e-01 -2.666513251672992801e-01 -4.273732267729162260e-01 8.778877931701762893e-01 2.605372309831599509e-03 -7.981871007122613992e-01 9.330941991315986339e-01
9.966493960951394726e-02 -5.554991781833706899e-01 6.213206186304185419e-01 -6.252397896287889001e-01 -3.276372178902031695e-01 -1.396053212975669755e-01 -3.451375592118732794e-01 -9.292273515850519860e-01
3.324140861202717900e-02 2.031614159728525326e-01 8.035399449894566892e-01 -7.973384815635098377e-01 -6.171317007806464972e-01 7.033323365289350093e-01 3.204015543273055489e-01 -9.107651398955793898e-01
