-7.844332212601468068e-01 5.867898643228193212e-01 2.202214510828439664e-01 3.006784086262339617e-01 -7.757330836494198412e-01 5.762121348016735478e-01 -1.703436657452910286e-01 2.321732457574610109e-03
2.488930687149653043e-01 1.982979582093771231e-01 -7.675695260198434067e-01 5.560068806536371255e-01 -7.338501748282129089e-01 -1.390144335867589120e-01 7.073734157972544345e-01 3.476706120137658118e-01
-7.378802655275507050e-02 8.785587341349567758e-01 -9.032323308721315058e-01 5.336834423366969560e-01 -2.113684310993246829e-01 6.516041191605597138e-01 7.781442189913507779e-01 6.575767799879781439e-01
-5.654565265028157484e-01 7.870410344592346785e-01 2.773622688921837387e-01 5.252005196440627799e-01 -1.827956874978409196e-01 -3.173091892260000435e-01 8.638861495069427576e-03 1.192266776422323815e-02
-8.238884926015281884e-01 -2.166031283942833063e-01 8.187004246766196314e-01 8.163633551121300957e-01 -2.106114424153662235e-01 7.658716408521917263e-01 -4.108473929710343420e-01 -7.371650014650610316e-02
-7.166892315662836133e-01 -2.290336529516157071e-01 7.955479039240687111e-01 -9.630845825909126745e-01 3.312984542152439538e-01 3.769782651461706102e-01 -2.002166667111104914e-01 5.075332053696477441e-01
5.628127640401476839e-01 -7.025991072662596260e-02 -7.439745052334618691e-01 2.471152696506748736e-01 -8.269675214301577260e-01 2.232149848055504648e-01 5.719645024247765885e-01 -6.736990362376726882e-01
7.146931648652294911e-01 2.791961473146493677e-01 2.028986214031185398e-01 5.099616720403659098e-01 -3.251605175249985269e-01 8.647562696328014997e-01 1.793930050219332273e-01 7.425456635624250179e-01
5.096602159754775041e-01 2.785579086866012410e-01 4.918950791965537306e-02 -1.593128895133189005e-02 8.645647203246320522e-02 7.225113785767653951e-01 9.674495660169655231e-01 -1.139021253674130651e-01
-5.775452925982009766e-01 7.233997729850789593e-01 -1.791883046777975608e-02 -7.376700109538318895e-01 -1.477485625442631623e-02 -4.981470800246017294e-01 2.175884815722983756e-01 8.493560515139428890e-01
