-1.705359688678997898e-01 -3.016445997663510514e-01 8.832245851189699515e-01 -5.457100416951177202e-01 -7.362300848290836974e-01 7.104077941414381758e-01 9.634493483667083691e-01 1.658443452798312734e-01
4.634311110002784506e-01 -7.664249350619456447e-01 -8.908488006044557039e-01 -6.110735872764441190e-01 8.919054574594349472e-01 1.280680839082943834e-01 -1.654939705440494624e-01 -9.010678339151811933e-02
-8.026628188457372026e-01 2.391422340618465370e-02 7.898102071191293039e-01 -1.096030859076835284e-03 -7.156089616886729399e-01 -5.653855183756952840e-01 -4.811192556862240455e-01 -1.217690978667105295e-01
-1.697213461381541499e-01 2.058429700513069172e-01 3.247882267485286967e-01 -2.884931385026994199e-01 -6.213884233460214013e-01 -3.967854739036638101e-01 -9.405873603477798994e-01 3.052288665625593200e-01
-9.020680494092192525e-01 -3.131959428970445547e-01 -4.110544024687281528e-01 -2.875907288119972094e-02 2.041377103818762251e-01 6.016924109441013080e-01 4.617186060731770514e-01 8.416303393788131526e-01
3.039964743655758639e-01 -7.208308900986908352e-01 -6.525632749137750821e-01 3.884093265022312558e-01 3.362206816777126850e-01 -8.485926805065528988e-01 -6.820215659720563206e-01 -5.289611605358446322e-01
-6.716921946465730375e-01 -1.544312372008977974e-01 2.584010776328860004e-02 -8.950643282628349962e-01 -1.075107415597105209e-01 9.575782870792437507e-01 7.884635819224503628e-01 -2.190504507080419661e-01
5.537753969324343828e-01 -6.079688375126952593e-01 -2.193158432509201283e-02 7.704914295848697137e-02 -3.679814174252984404e-01 -8.290894875647161211e-01 9.291721291980428177e-01 8.416346656740492094e-01
9.419547471667566452e-01 9.846961720389582062e-01 -2.431278423375224929e-01 1.238678901359688833e-01 -8.094215856259667774e-01 5.866913458559446237e-01 3.773936335087304528e-01 -3.638685310077323098e-01
-2.171112793144087671e-01 2.523478263096294860e-01 3.929977928107601937e-01 7.316505216746382878e-02 5.566114313277856773e-01 4.119217981730511902e-01 7.510259668615579809e-01 6.712166032256314807e-01
