4.652647122803257318e-01 -3.796643879896444140e-02 1.793100263054943078e-01 -6.737233301552725262e-01 6.709675816803528647e-01 7.326816753946663319e-01 -8.816476277287657037e-01 9.052992640721091444e-01
2.376313308239721422e-01 1.761572262538444456e-01 -5.886065538441451750e-01 -9.023562130449902519e-01 3.001422872067480707e-01 -3.772663918618270884e-01 -3.801934414018461883e-01 4.558323112094988527e-01
-7.477003395851959944e-01 5.111257073956543273e-01 3.045736530699554301e-01 -2.290669952243178376e-01 9.817462115702524361e-01 6.296895597568661351e-01 -7.122820997532939291e-01 -8.880281156096061501e-01
-9.818099959349273487e-01 -7.187189367013533392e-01 -6.521985290430989402e-01 6.262156466852504266e-01 -8.814090425588851918e-01 -6.964234027779525604e-02 7.459258407277713498e-01 -6.340027823037679422e-01
7.157219996180264054e-02 -6.271072529271159990e-01 9.315660499074083223e-01 -9.992923388416925512e-01 -7.479165419835793749e-01 8.633276515629562109e-01 -6.248440761084037565e-01 -2.591521688617017816e-01
-7.754691093823717907e-01 -3.983651959185467994e-01 -6.569487957357209584e-01 -6.692592965573593844e-01 6.691791230923895828e-01 -5.464548705018315022e-01 4.062003937068459081e-02 -1.235865952145540625e-01
-7.208023839258084209e-01 -3.702951257945905628e-01 -2.328957329221470474e-01 9.278598217784437274e-01 3.485634389152807433e-01 4.771306930336383090e-01 -8.517564257658822857e-01 8.752727742765460395e-01
-2.557166394793308761e-02 -2.544676699845220824e-01 -2.426480873001428673e-01 -9.649050986347629255e-01 7.901366757441636857e-01 -7.425476948120075527e-01 -7.835388961881641912e-01 -6.109768857344566317e-01
-5.141892529153087033e-01 5.127012126364594025e-02 -5.285070383505221514e-01 7.194164228570265607e-01 -3.322633661996083898e-01 -2.882399890107367746e-02 6.734046346715698572e-01 -8.384725362238103497e-01
7.679723956478901048e-01 -3.822430548858433141e-01 -5.616638996929295136e-01 6.610423700076819564e-01 -8.550575819427208568e-01 -7.099022173782707501e-01 6.348338460540392525e-01 -8.959223573267349749e-02
