2.142187029004953835e-01 9.826484044005370233e-01 4.873033393368761956e-01 -4.480176377520990183e-01 -8.924049790331451959e-01 -3.096091174129715906e-01 -5.162790450778604878e-01 2.988024483172118106e-01
5.125854606260751289e-01 -8.901568518080171799e-02 -5.758895383799109702e-01 5.752726528911249471e-01 -6.108148367418559932e-01 8.763905620113934258e-01 9.043577718327113768e-01 -7.290604133802476294e-01
-5.359747918064290406e-01 6.843258138244527888e-01 -7.263038966462906920e-01 8.018624899601445311e-01 8.231867502687573168e-01 1.696575543396003916e-01 -8.229549602950709808e-01 -8.092021647332456880e-01
6.204489735521991900e-01 4.377870291104684064e-01 9.024960756608808587e-01 7.779522517528227876e-01 4.714522836135257577e-01 -7.352155421472303942e-01 4.339559373112236162e-01 -7.967526501143977757e-01
-8.157786957896173696e-02 1.793518429847786866e-01 -9.458690913676206513e-01 3.972902069982888751e-01 8.810893137107769224e-01 8.512239494285784858e-01 -3.465020984931608261e-01 -9.445605497272713258e-01
4.611851719514676873e-01 -6.702559741337865695e-02 8.747506785855099221e-01 -3.880274896502651227e-01 -1.352376039247271677e-02 -2.522663351939915533e-01 -6.028140428310873045e-01 5.121785053032672508e-01
3.367486299049697873e-01 6.505044333506981857e-02 6.220729493273760013e-01 9.105392011493174120e-01 3.907989891013325945e-01 1.434418806532151702e-01 -1.276052493583048619e-01 -8.452510737884311176e-01
6.181126718519469598e-01 8.452022719910681214e-01 -3.597974940842860736e-01 -7.173863753801121845e-01 2.325367061269749680e-01 -6.962931531269909158e-01 7.882195017414495020e-02 4.775913732033429948e-01
9.545705226162077839e-01 -8.985699021075208570e-01 5.718344013116312130e-01 2.083978766616276790e-01 -4.032992632417276013e-01 -8.325918589544083481e-01 1.169268541412444851e-01 -4.791586008035115807e-01
9.298607028897503124e-01 -4.668454158136887688e-01 -9.956682815427086997e-01 -1.179276718293942317e-01 -2.348465393114211874e-01 -9.182530432484632410e-01 -5.223837767558552336e-01 3.466317391033693074e-01
