2.938456289879356476e-01 9.957944723765366213e-01 -9.754770039644298230e-01 6.038426763979025669e-01 -1.812262956564714145e-02 7.428232330516353343e-01 7.288930795852308631e-01 -6.419416959852859428e-01
-2.903651961589792663e-01 -9.311511405810890540e-01 -7.660729786327182822e-01 -4.401249419614305936e-02 -2.238987540503001306e-01 5.536486876857518169e-01 -7.944342102702068864e-01 5.177958167092089337e-01
-4.665943899164279873e-01 8.731014045184182226e-01 -6.373943242847106561e-01 -8.579475495738004831e-01 7.741538577490925110e-01 -1.219152328467536517e-01 2.689240895862927694e-01 6.835951734685832282e-01
-6.432108699094585269e-02 4.829099292317424741e-01 -9.189734607372128661e-01 3.571462890879617547e-01 -3.485286185900098310e-01 5.302278354960978657e-01 -8.666408432321104360e-01 7.976172452320724471e-01
-4.031079379034441246e-01 1.760849561836963506e-01 -1.737187987729151839e-01 -1.774883399095192882e-01 8.601214993168804224e-01 -7.051539151180878928e-01 -2.836195143624846704e-01 9.995918663284419914e-01
-6.668954785061489421e-01 1.034215162544405153e-01 1.936670795153676572e-01 2.750235326991650187e-01 4.662598884854740611e-01 -6.575360409715529375e-01 -6.845977739637802983e-01 -2.272435585576462191e-01
-9.069338137228166730e-01 6.674744602448963171e-01 2.067480337656393274e-01 4.309680904217159103e-01 6.616893706438526923e-01 -6.380768124665214813e-02 3.004487562571656056e-01 4.187969342514146209e-01
-3.906760457669027353e-01 -6.710637478112240206e-01 -3.926564292806828949e-01 -1.196639047382963561e-02 1.638282306728193749e-01 -2.105799441313265241e-01 5.497105268816846468e-01 1.161597440669344117e-01
-5.620123113841661855e-01 8.003326911282233613e-01 2.071573274934688236e-01 5.146688458667030286e-01 -7.021016486320661443e-01 4.576117843056144441e-01 -9.409957195667695284e-01 5.274283836644966250e-01
3.667022193341584746e-01 -1.265610352651791448e-01 -1.418522233545533862e-01 8.318561415974070616e-01 6.107950490441016456e-02 3.989442443626443069e-01 4.317835782896926045e-01 5.835962902230844573e-01
