-9.428962271440219922e-01 9.876817175140335525e-01 -8.285233457430827286e-01 -5.640030508663891329e-01 -5.846101975512378868e-01 -2.501910546355046172e-02 3.652784851114239117e-01 8.875126669650692524e-01
-1.591895079704728211e-01 2.244754655649705555e-02 2.531817952273978101e-01 8.296291260486960972e-01 7.672643350467034384e-01 8.968962517999288231e-01 2.126974074575891382e-01 8.522428713159420077e-01
-8.349939119332334680e-01 1.722346956234450666e-01 3.136892951646939043e-01 6.643587578776604108e-01 4.389187581622822076e-01 1.112266187946413520e-01 -6.542178584747879722e-01 2.067073476450433933e-01
-3.044439463121448863e-01 -1.104529578304098703e-01 -8.087104782539840109e-01 4.821267610144062132e-01 -2.184168411176048430e-01 6.255720611793105235e-01 9.009147289859418262e-01 -8.996338188870933728e-01
-5.290475934999425700e-01 8.098555759674854748e-01 -3.640409107672784028e-01 -6.000955029650045791e-01 9.236503234698112408e-01 -9.095810976050269225e-01 9.752354091333250707e-01 5.733438307745206686e-01
9.518668537515926342e-01 -1.947882165073846483e-01 -8.391242930680489209e-01 9.200393042071870475e-01 2.752880465744276250e-01 -4.472177131908843251e-01 -3.005281109389954519e-01 -7.682920622683362399e-01
8.545843372644312819e-01 -6.181712924236186790e-01 -2.628568635111716567e-01 -6.489966327178815497e-01 -4.240017838359233515e-02 6.024438915468415257e-01 3.170201945050679093e-01 -8.868199076204907882e-01
3.722797735967420252e-01 2.060379829523404371e-01 -2.862376763373695177e-01 4.484017732976475212e-01 1.664366471496103728e-01 7.749540796540055343e-01 6.596291639448652599e-01 9.870683932509018987e-01
4.231778395000376225e-01 -1.064791425471172115e-01 7.870137457748560550e-03 2.471429513343026407e-01 -9.218986556165005286e-01 -2.501146605669788414e-01 8.768659753847434235e-01 4.590353764920107604e-01
-4.186858579460199792e-01 7.009702892775362404e-01 -5.753186532607548198e-01 -1.907499824957930024e-01 3.778124427600415558e-02 -2.137533973600094228e-01 6.600305026954720322e-01 4.868654100028195764e-01
