-3.829734316007074035e-01 5.341947600120562356e-01 4.973442893321431413e-01 -6.903021316977908661e-01 -3.259105590345703352e-01 -4.827010636391311227e-01 -7.984138798025819383e-01 -8.095849910340175981e-01
7.866853085302438764e-02 -8.602536717916602349e-01 9.641462961335034443e-02 -8.564327876737247713e-01 6.884012287906144945e-01 -2.134725552402116922e-01 -7.851200804327689298e-01 -5.738814245729779717e-01
6.092192713823578742e-01 1.785255509825383058e-01 -6.130251125646166699e-01 -5.823245673493322450e-01 2.124826239492727531e-02 -7.031106110857692215e-01 5.249837019169416585e-01 6.929730270062928188e-01
-9.336061193700073702e-01 8.254231600687986781e-01 -6.843582185697543174e-01 -4.855797049586394465e-01 -4.115065007265046315e-01 7.420961031356809734e-01 -2.136036831939118752e-01 -3.494064678928912038e-01
-8.270647711947629599e-01 -1.486865445633025473e-01 5.702139106152166459e-01 5.530211904606980866e-01 2.763402806991772653e-01 7.329707409793735362e-01 2.948990928518369081e-01 7.187672210536668604e-01
-9.096215161277250161e-01 -5.228237007515939005e-01 6.427743335607980502e-01 -7.768442842306897411e-01 6.600533897597162802e-01 4.323686720775119507e-01 -2.846001335197421156e-01 6.886570979484392119e-01
7.941025504060998941e-01 -6.166080367517834393e-01 8.020223875564154170e-01 -1.967206098053266849e-01 3.465156236848825344e-01 8.225673840840259654e-01 -7.720956560589067319e-01 -7.823791593867730487e-01
-1.611942048421148854e-01 -6.193197066165212483e-01 7.434083231617807375e-01 7.023784329736111331e-01 -5.329592440924437735e-01 -9.421175290024410565e-01 2.392355845589371199e-01 -8.183816942215418333e-01
-2.911062105375861186e-02 9.772504468212983575e-01 7.375762076417680113e-01 -4.048198948937300479e-01 -9.023435537336352841e-01 -7.623306385943269259e-01 -7.465183380073618924e-01 6.336678948609000273e-01
-7.746590164536160117e-01 -4.603623387121547061e-01 -1.340198983466680538e-01 -5.853843669612861511e-01 5.934431865964284736e-01 -2.791180418963341570e-01 1.272585458605681730e-01 -7.411291035843909913e-01
