2.890905983245872779e-01 -5.361732774148710856e-01 4.899261090392263984e-01 8.290967152300312559e-01 -8.381036607388148152e-01 -5.675045770097277842e-01 8.607882762466265714e-01 1.110978582073802734e-01
7.736164982703344073e-01 1.590743444821649533e-01 -9.916372926236747265e-01 1.244041498992924932e-01 4.109403428991760254e-01 9.575313446600899336e-01 -2.688315527720428477e-01 -3.870414367286747481e-01
4.388583371401117983e-01 -7.406536351103305549e-01 3.495285841392554715e-01 5.368075799675460225e-01 5.693274227258240394e-01 -8.930047967485492677e-01 -4.566478561012898840e-01 3.554013131846294193e-01
3.453928857981218847e-01 -6.807048681932439393e-01 -3.180913745792752767e-01 -8.964978348392886875e-01 -5.077138787637984763e-01 2.285011133248451287e-01 -2.244670453972987811e-01 2.664209846091640799e-01
8.528848237642840946e-01 4.439280573261155105e-01 1.290217820304340179e-02 -8.134890773893550531e-01 3.833846781579399732e-01 -9.357769686682504418e-01 -9.385833529576483869e-01 -2.265193915598751051e-01
9.621516206816786987e-01 8.028688071416298921e-01 -3.634089997487390811e-01 -5.399510704561185648e-01 2.841546924905136162e-01 -8.218839476743242667e-01 -2.429597105746192920e-01 3.544132627808249669e-01
-3.454854711316963645e-01 3.788685396180377918e-01 -8.534849755754680967e-01 7.227121120889865580e-01 8.691945220500403302e-01 -4.505908946250092306e-01 -9.199841896730105439e-01 -4.045742960350442452e-01
5.398599317128163211e-01 9.579916511942825341e-01 2.453630767069334695e-01 -4.572758697780912041e-01 8.898484412128575549e-01 -7.301274076871837604e-01 5.201510261812318792e-01 -3.966823524984548488e-01
1.215951364455756245e-01 -3.628048108589254639e-02 -6.135397706294354325e-01 6.229289648586242567e-01 -2.468805646727556535e-01 1.724486911665874533e-01 9.992777423500236456e-01 6.177594510959272256e-02
7.833564590481589818e-02 -8.399633262821111224e-01 -4.933590077884542069e-02 3.458404878450360709e-01 7.095467917589679541e-01 -8.455928056432731044e-01 -9.214956733664099175e-01 9.647390455073598936e-01
