-8.175708579230409612e-01 -5.862922273480815072e-01 -5.251386737295724583e-01 -3.526281081326370082e-01 -1.369991631141420640e-02 4.755537472186459613e-01 7.840314725353421110e-01 -3.557215095127757021e-01
-8.741485294978175169e-01 2.078947667600636873e-01 9.964701717153625626e-01 7.376029316728915930e-01 2.212155964806079567e-01 -5.175254070791244221e-01 -2.964071999886144226e-01 -1.165938414113949495e-01
-3.475135310186863169e-01 8.084437619588487056e-01 -8.455248672064163973e-01 -1.807134320308272368e-01 2.539538866626744884e-01 6.356646874530356151e-01 4.903809169225368247e-01 7.856899046660612562e-01
8.320796334778683967e-01 4.648186681897703565e-01 9.306035235657821314e-01 1.669650901266812593e-01 2.610423471587084432e-01 5.018144290324677570e-01 -6.890525431883156582e-01 -8.787689257987683078e-01
-7.039349311359193173e-01 9.437380480811485839e-01 5.610532789341298177e-01 6.203318176306140685e-01 -3.462974159023604059e-01 -7.942738755644946913e-01 -2.992435048804309439e-02 5.187333608012347774e-01
-1.150191888275511332e-01 -4.243128165881802083e-01 2.182615933655991380e-01 -7.563034252935481039e-01 -5.413356230840349337e-01 7.826282410069125284e-01 2.814498880483267129e-01 -3.971799832668452268e-01
-5.037623133181439172e-01 3.602320237207616849e-01 -8.533369611445644765e-01 -6.494030495955029902e-01 -1.724276067772245735e-01 9.815038635446171611e-01 1.502947118361392942e-01 4.725030788232689183e-01
-8.555054243429551786e-01 -4.397587120486277090e-01 7.045564480115789063e-01 9.961726242195600989e-02 -9.423185489605743204e-01 1.751870861212949659e-01 -9.606047852183090541e-01 7.421845793568828675e-01
-6.824796059401361248e-01 -9.858097769332991867e-01 -7.600669983274521702e-01 1.054503182934201089e-01 2.233506710820414298e-01 2.686386590097433746e-01 -9.935495562745164655e-01 6.065719801823099555e-01
-6.355503770193786650e-01 -8.521224672894323060e-01 -7.958875485716796483e-01 7.627321050929307678e-01 -8.826428976445794827e-01 9.461494142269264440e-01 2.834181468483900623e-01 -2.763699575647824425e-01
