-8.883395875309199052e-01 5.517865603744309677e-01 -7.192016963923073547e-01 3.239761923845216884e-01 1.755251690297341405e-01 -5.340323167155973660e-01 -8.516801441343793133e-01 -9.716892901050562248e-01
5.684750463747436644e-01 -8.367312045023989064e-01 -8.455693073043466512e-01 -5.950561850514506368e-01 5.544071565969144189e-01 9.406534162347179873e-01 9.136340534720253093e-01 8.579125466004229317e-01
9.409695615317170692e-02 -8.632804150313535541e-01 -1.455799721435857563e-02 6.495393995922897901e-01 1.294038031803197430e-01 9.312592645633634980e-01 9.343910764517491252e-01 -9.935742678774406311e-01
3.655401466724452764e-01 -2.677477631152673787e-01 9.362182006110422172e-01 9.320780809543003365e-01 2.254950466562994915e-01 3.353169100068182917e-01 -5.597263593740307019e-01 7.682624222100149503e-01
1.443517808478234077e-01 4.513858447842935551e-01 -4.225070482298127761e-01 -7.360030050121555423e-01 -1.642577873898840579e-01 -7.393962204063975197e-01 9.490737198075016590e-01 -2.373417673182849352e-01
-9.542570597943864641e-01 3.652664781488779155e-01 -4.361878831147838476e-01 -6.914728896235791122e-01 6.029891129439868269e-01 -9.817724112314265561e-01 -9.152100024372338272e-01 3.555467042792253007e-01
5.461310685210649662e-01 3.355941518490088704e-01 -5.563508765277800361e-01 -4.852621269757848577e-01 9.261191572857669918e-01 -7.868586678374300813e-01 -7.361451166067893848e-01 2.727787677113455711e-01
1.289527958112879347e-02 7.180515441507668850e-01 -6.558866543770980329e-01 -1.326902277771524474e-01 -8.064804553365749751e-01 2.878254388299754662e-01 -1.408932735979688822e-01 2.987355976080903197e-01
-6.840320267748032368e-01 -5.952948749567839037e-01 7.657985894089140988e-01 -7.997559652415571207e-01 9.062431241293444906e-01 -7.641414875909426918e-01 3.053439391158490057e-01 -4.463848594494068678e-01
8.257232052926832822e-01 9.865531040306769750e-01 8.229562818761089193e-01 8.122727014500630283e-02 -7.885814120550183048e-02 9.401351483540909548e-01 -1.138777596475153420e-01 -9.139710809439927086e-01
