7.000933239818076803e-01 7.665653194703134776e-01 -9.149264308866451589e-01 -5.184315509543047096e-01 4.240302141122382906e-01 -7.515793492387976560e-01 -1.732836669987578571e-01 5.099423384935630743e-02
-8.112627276452839542e-01 8.124668017259633057e-01 -7.693907985814019135e-02 1.011795618375288530e-01 2.384484326100941853e-01 -9.459682391153005909e-01 -5.262541786018120060e-01 7.130317305914066761e-01
3.535450347083493039e-01 1.176888257348203126e-01 -9.249049680703158582e-01 -2.274106177543366858e-01 5.197911644073571757e-02 7.859148605254140385e-02 -4.524961765271262593e-02 -7.413879214309266885e-01
-6.048270939285593784e-01 7.059297871558305459e-01 7.883727729015250763e-01 -3.917841803535524470e-01 -9.420862379538474940e-01 1.680202519104823100e-01 4.919897153694618996e-01 8.523248567623049610e-01
7.756383274280360673e-01 1.986622042334340588e-01 -3.981968221012839315e-01 1.808595695916481727e-01 -3.243796306819977104e-01 5.876558299674523589e-01 3.088775314665035410e-01 2.878101527335061860e-01
9.685422060277928402e-01 -6.536653662944158505e-01 -9.595522042898811943e-01 -8.355365885568577511e-02 -8.530668930234417413e-01 3.405009527895026533e-01 6.004919370695647185e-01 -3.965726946456180624e-01
3.956225276137754765e-01 1.856425994341535102e-01 -9.269899266841550300e-01 7.710784906344374523e-01 6.972094007650284642e-01 7.905660065790156565e-01 8.340060188133959773e-01 -1.348052191180417747e-01
-4.830363606100496199e-01 7.474660757580946502e-01 -6.250545428836096207e-01 -7.254089033846802259e-01 -8.604281381828955411e-01 4.031083284632395181e-01 2.138321974761447919e-01 4.319226640936810746e-01
9.294566504079975200e-01 1.837408818674557409e-02 7.718841803269966828e-01 1.930938257246210821e-01 3.488685456160833809e-01 7.438910060785475231e-01 1.550405547501276793e-01 -8.256508124094903422e-01
-8.041036197409361375e-01 6.870052728975410972e-01 -6.435824091806432445e-01 4.664907282810468736e-01 -9.461531071823112704e-01 -9.882870044993852243e-01 4.778892576821103244e-01 7.189667543334969935e-01
