-1.291216137595776470e-01 8.212445355546236225e-01 9.383171311794775704e-01 6.021472725143992566e-01 -4.843930996000314071e-01 -8.427360378749821912e-01 -5.127196882962052893e-01 -2.656771975645710882e-02
5.614266042124385070e-01 -6.304089717746121924e-01 -1.067591240353757964e-01 -1.164942290620822885e-01 -9.208772199397616820e-01 -9.112265542656239337e-01 -9.626898851409726454e-01 -1.179647245248487408e-01
2.689434445238230165e-01 -5.200118544796421549e-01 2.940903876959657381e-01 2.502184424182283262e-01 4.023876825095777932e-01 1.581936679968216630e-01 -1.601883739432246045e-01 3.870523717484688486e-01
-7.815260890106552338e-01 -4.955044640187937777e-01 -2.205182720480818315e-01 9.031762889528534011e-01 8.487573980015836739e-01 4.380672967986083410e-01 1.245019866720986634e-01 4.436649598605437728e-01
-9.219292353931685113e-02 -2.715642744062565228e-01 2.085454854635084843e-01 -3.169084376513520152e-01 -2.896110599454631007e-01 -3.831052710041209508e-01 -7.863815390030315378e-01 -3.127943118837615000e-01
-9.201111467138471944e-01 -8.862496815593317034e-01 2.490309242803845358e-02 -1.749243010689187638e-01 7.560807180111293047e-01 3.444147200122311681e-01 -7.280991929138522778e-01 1.507398679066138669e-01
-7.683020149552388656e-01 -1.127873669706769277e-02 -5.992020315136763475e-01 4.391335718958342405e-01 6.281054066234239563e-01 4.201360965304430373e-01 -3.568172665773228225e-01 -5.873157165972666682e-01
-7.165796937656783161e-01 -8.393276398780522563e-01 3.063130527504398515e-03 1.520323543258059740e-01 8.082368065017457859e-01 -7.574298970361430516e-01 4.135605297608844211e-01 -1.899669394963454661e-01
2.114645469212255158e-01 7.419604870508120786e-01 -8.124484347562526132e-01 7.666470747815106179e-01 2.969036887691700599e-01 4.139358239967236841e-01 -8.788988769547589897e-03 -8.901790941362808240e-01
-2.092248562267242651e-01 6.188383489780102664e-02 6.060631762474006923e-01 -7.764796072695727691e-01 1.206617847880286920e-01 -3.756535142444250575e-02 6.621288484863145918e-01 -4.924331504097636536e-01
