7.186900672044258531e-01 -5.927550778240913143e-01 -7.402719555425523179e-01 7.583222278895560553e-01 5.462318395392107284e-01 8.491242170488073615e-01 8.993733689170313461e-01 -6.953971920010988406e-01
5.441819775154284056e-01 2.697044286353920128e-01 -5.804779106935082922e-01 -6.743961292869888879e-01 -6.557750073839647698e-01 4.107180203531273222e-01 7.667621793741132841e-01 -9.682957307287363147e-01
8.846419867562815842e-01 7.113129856278912477e-01 1.369488415673636439e-02 4.657789898229152126e-01 5.269332975267837504e-01 1.174224886286225900e-01 -2.326872335418723736e-01 -1.706197295162441563e-01
-9.742835655094452818e-01 9.297971592663840656e-01 -4.386548334479687394e-01 -5.927401350053314033e-01 -1.481141919234107984e-01 -8.860212353503833516e-01 -3.295471954551221216e-01 -1.113525135797885923e-01
-3.531490541532060767e-01 -1.441923289723829882e-01 8.543829218113740964e-02 -5.861443618964556901e-01 -6.999169379750371789e-01 -4.666555320939238527e-01 6.695824662148313067e-01 6.075116392878552318e-01
5.027045336673281462e-01 -9.862618359913755128e-01 8.636097630511132550e-01 -8.569445399207988867e-01 1.076756940063783308e-01 -4.714427951102924119e-01 -1.773530814063561944e-01 4.084786683154915110e-01
-1.274795454036246056e-01 9.421644934652098069e-01 9.577333491207071781e-01 1.566160393383819738e-02 -7.052412847104396754e-01 -8.805776657179915645e-01 2.310548543552219947e-01 -4.128260345038687884e-01
-2.208577389520309797e-01 5.927216259436915990e-01 1.722684671863425887e-01 -6.446654056645719777e-01 8.031831476283071147e-01 5.928289868969351950e-01 4.300597952846048067e-01 -8.598013361529388554e-01
9.889778091798409054e-01 3.502978327435535277e-02 -9.283748804703015889e-01 -9.509238365069037080e-01 -3.929536608272043985e-02 4.165968175417560371e-01 -9.213268136226093752e-02 -3.796144613753922314e-01
-6.448473726239989379e-01 -9.843587458871609908e-01 2.588201200354043330e-01 -1.912122998611747171e-01 2.307459006690151249e-01 9.612867582562671931e-01 -6.847303932123769421e-01 9.576147358333846338e-01
