8.441274184120353130e-01 -9.089981040442884908e-01 -9.830189139404477139e-02 7.795146777547661276e-01 9.662269408773649371e-01 -5.392970579918701102e-01 -6.596949097936288808e-02 9.605564248340254796e-01
-5.763021515084971735e-01 5.760200358038878310e-01 -5.463400213785987170e-01 -1.724711389195165978e-01 -7.076034626496947588e-01 -5.828908016356353361e-01 -1.091160952873952983e-01 -7.465089450892252732e-01
8.530546367105089622e-01 -3.264669006736100609e-01 7.482227141151516214e-01 -4.504672366947743978e-01 -5.376404846794622383e-01 -4.276154824453448633e-01 5.378978450654634536e-01 -4.946912715077254052e-01
-8.841955031907677842e-01 6.547720686018416725e-01 -2.092098816528233929e-01 -2.868432906634610369e-02 -6.644834717668761659e-01 2.969062659176784358e-01 -9.582234410966394833e-01 8.730614354539139033e-01
6.483392402160155221e-01 5.748594144630119196e-01 3.132397997400606648e-01 2.281405823528763754e-01 6.869883679008772503e-01 7.442018560109049385e-01 -6.365046066956563386e-01 4.156627612853815990e-01
-3.258486653247072429e-01 5.357681037839574500e-01 3.054093665919155320e-02 9.428323756569798597e-01 4.895786365032717136e-01 -5.717926543240299253e-01 2.615323059700560560e-01 2.882436261248269016e-01
-9.717994810447234677e-01 6.089254681751081755e-01 -2.338071368984393494e-01 6.603864651898028182e-01 -7.410880559348795860e-01 -2.741903599499115884e-01 9.868891664012657827e-02 7.028248258775682267e-02
1.312872456500069340e-02 1.535820120409274736e-01 5.427481936767408754e-02 -1.054244020110681745e-01 -5.202101372860004069e-01 -6.038839300798735099e-01 3.921891169417841549e-01 -8.406365657500260991e-01
-6.480305096134630904e-01 -8.978266833543686598e-01 8.108721969251833084e-01 2.857787213126214976e-01 4.511238078737853652e-01 6.932338703345364284e-01 7.435648625924506927e-01 8.866408293174103949e-01
6.716233932441912913e-01 -3.486841099766144758e-01 9.009766757465371700e-01 7.405555059011934560e-01 3.563291674786790431e-01 7.741130707541381550e-01 8.635913074227317132e-01 -3.271430446545442461e-01
