3.184562906819081718e-01 2.969589064049338312e-01 4.685247983563882723e-01 8.971106736655891645e-01 -8.347077247041827519e-01 -5.764050538367533338e-01 9.923094851939495697e-02 -4.441356078040805677e-01
1.810016327940879854e-01 -5.241276877930582945e-01 -8.635814790871700897e-01 -2.321808635836655199e-01 -6.826859487140604088e-01 3.973882802939852077e-01 1.647045625065821639e-01 8.563401134356132260e-01
-4.910542667315498377e-01 3.653081201964329949e-01 2.584838599470729026e-01 -2.297842219142927078e-01 5.485088960926276513e-02 1.831431537668586351e-01 -5.914795819199554217e-01 -9.581929359894234555e-01
-9.856118755564489131e-01 -9.783187634056655924e-01 -6.004314154142567084e-01 -7.856633682359759341e-01 4.356296347762398380e-01 6.455730044870295892e-01 -1.837127228252595224e-01 -4.179959991283874743e-01
1.277143670231628558e-01 -6.753986462826100379e-03 -8.054314970140721286e-01 -8.809048896991700239e-01 -7.487938881384623713e-01 -3.176780110051835582e-01 -1.235401932165947070e-01 -6.627704702151693272e-01
4.375811533475522097e-01 2.288378386888392235e-01 9.795951537636027329e-01 4.592384814040006979e-01 4.035628839768914400e-01 3.065308690233401467e-01 3.919645488291294555e-01 1.412337322223566893e-02
-7.263395224430162500e-01 -4.598720306436574479e-01 3.851135938703587058e-01 -3.053048231386243927e-01 -8.541064414760366486e-01 -7.280612664577852389e-01 4.877663857924825486e-01 6.805977235602573838e-01
8.906013545396365139e-01 7.160637949575257011e-01 -6.493186576381475561e-01 -7.449472208087211111e-01 5.087764221195669734e-01 -6.725257515490605797e-01 1.396696747177115228e-01 -5.250380771531297786e-01
8.382777715709937016e-01 -3.850459276609581316e-01 -3.419993548091593283e-02 9.216062246194414165e-01 2.454128052671045168e-01 1.354858328755290664e-01 -7.060452059664115154e-01 1.883010182255642206e-01
2.917312778239669058e-01 3.669260969417060814e-01 -5.765326755817070659e-01 2.773524625453194226e-01 -2.232938384693139433e-02 8.739116176947332448e-01 2.780770982829789961e-01 5.188787789490050262e-01
