-7.482523092763684325e-01 -6.728154309349470008e-01 8.577362449792444998e-01 -2.896453037098600802e-02 -4.441187369631449666e-01 -4.703056078873955048e-01 -3.801275480139107987e-01 -5.519702869457991934e-01
-6.227263708657502228e-01 9.142132468551726898e-01 -6.921697308310781338e-01 1.628995971335771564e-01 -6.541191312117242695e-01 -5.909847295295924674e-01 3.816725832428888854e-01 4.027557474768994616e-02
-9.544229652463991354e-01 -2.813808596255578109e-01 8.088827306579691179e-01 -2.560312945811265006e-01 -3.163153613751974458e-01 4.486086359815411040e-01 5.887242187153907125e-01 1.619478164419037025e-01
1.993987696355810080e-01 -3.260631924368431189e-01 -7.125047329774192306e-01 -7.195931596079403469e-01 5.088962516458059859e-01 -5.606039549313157622e-01 -8.069877554236113415e-01 6.160202785724404606e-01
3.846631653366552328e-01 7.383924808467581258e-01 8.483445688326760603e-01 1.803873159926183689e-01 -3.089483264639270033e-01 1.642258590225049719e-01 -2.270777454848809107e-01 -3.990111528918103279e-01
-9.961258643748849284e-01 9.194800007782806262e-01 -3.025559878367236610e-01 -7.742053242650517308e-01 3.295633008037754941e-01 -4.086820487283844283e-01 -7.890212685774145029e-02 7.799382774654732842e-01
2.161062655984644643e-01 -2.796618195501476833e-02 7.614823251315749886e-01 -1.292826873852017666e-01 9.578349110652339959e-01 -4.384469492522302669e-01 8.409930553828852684e-01 3.721508242334710115e-01
3.689787293166160165e-01 -1.616727521694500957e-01 3.566232650900593715e-01 8.455152704079833548e-01 -3.368689342429709299e-01 -8.554720060100757806e-01 -8.067152215927522185e-01 -8.960568561522921360e-01
7.072927863131583948e-02 6.870799652760477549e-01 -5.761189663915784465e-01 -5.798636064034139448e-01 9.494858050259256110e-01 7.918165015690428188e-01 -8.166803745691564309e-02 -5.411356817729706670e-02
6.986185916196085977e-01 7.333186685869710342e-01 -1.700512294034266514e-01 -1.070903908183717945e-02 -7.239068473384091540e-01 -2.733613063968214352e-01 7.063153393083685394e-01 9.191335729231542295e-01
