-4.344019529491185416e-01 6.669444087187939019e-01 5.199131223113213629e-01 -6.830561714297456177e-02 3.943483852426963310e-01 2.390544927664814967e-01 -3.036380033235897002e-02 3.015451550440397810e-01
-9.705598997433764197e-01 5.391277916589256591e-01 7.640226979733133472e-01 -6.784228505245799568e-01 8.387318733658100101e-02 -7.404767491318096084e-01 4.822248449269908033e-01 5.990347321857123486e-01
-5.671750369193770958e-01 -1.325210234036515722e-01 -8.077745828595881417e-01 4.238805269120948793e-01 2.185571307714293532e-01 1.696669640423853487e-01 -4.781888410654639987e-01 4.613400860071925624e-01
-5.913710871362574117e-01 6.940496261852526771e-01 -9.771491312942024443e-01 -5.245958790955194129e-01 -1.486067706411222655e-01 9.001629349682853665e-01 8.111690880644277790e-01 5.783009331994259927e-01
6.161014229125680863e-01 -2.780010651546327427e-01 -6.849310750943258252e-01 -1.497930066070929378e-02 -8.604833027313198990e-01 2.022684753334922370e-01 4.660259200472403052e-01 8.725649060455555883e-01
-3.939023853157299637e-01 2.464964407194523144e-01 1.922901026270253944e-01 -7.748508022087934322e-01 9.152434068211059426e-01 6.699383590050800308e-01 2.172371011347213887e-01 7.776543987249660006e-01
2.464929643561588612e-01 -9.897377408678020849e-02 6.573776282270968885e-01 -4.819619390272733561e-01 3.403622296224411148e-01 -7.804789900630622057e-01 4.391844270044016341e-01 3.583871641232623251e-01
5.429460119674713869e-01 -7.137262508952813000e-01 -6.746895663280976230e-01 -1.670849968053009782e-01 -4.864274077770507354e-01 9.150224924927443659e-01 -3.971319839101556948e-01 -1.052392448227916777e-01
-9.052348521092954403e-01 8.488077082258147499e-01 -3.299079385919241325e-01 5.031890331415973527e-01 -8.224216529052497116e-02 2.370575394551466264e-01 -6.626079500185699800e-01 -3.740850653658014391e-01
8.313926827858741930e-02 8.043734848932222459e-01 3.398440249177205885e-01 -7.257862252949198734e-01 3.647698332133919585e-02 9.667097185593398478e-02 7.226759425785251878e-01 -4.529873013467202725e-01
