2.005994203179446433e-01 5.065558445099935803e-01 5.868999572959230360e-01 -3.998890790713958143e-01 -2.266150403252158441e-01 6.092544778108888170e-01 -6.454043010685699411e-01 8.772719920359901558e-01
-7.290194630469128967e-01 -1.335629362217087834e-01 1.491674265688753831e-01 -3.701845365896896389e-01 2.768382389075738637e-01 2.729976310848254428e-01 9.347540575712469657e-01 4.544004209819545448e-01
9.137053693057273218e-01 -3.536090905826914099e-01 -2.621001438574521725e-01 -7.393679373473074357e-01 2.852474221853311676e-01 -7.383490989278624905e-01 6.519512249685486260e-01 3.721654448321227715e-01
-1.932800435932688909e-01 3.813168312342618549e-01 -8.575939911388408277e-01 7.703136510091712630e-01 -9.058212672220609107e-01 -9.423430861173032191e-01 3.118021579861740555e-02 2.297634356161162295e-01
4.227679626396727564e-01 -1.789662192967944598e-02 -8.307590092923138325e-01 -8.313101690947457545e-01 2.491106471871211703e-01 9.915629967018568802e-01 6.347843798444949837e-01 -9.295823939377496625e-01
8.555257284234460968e-01 -4.669296278179297932e-01 5.871343500255672421e-01 -4.127627647985823156e-01 6.172815751164055786e-01 -2.979688567454479298e-01 -7.935937134549080341e-01 -9.402451548190926545e-01
-3.710628468086940579e-01 2.465210788091702909e-01 2.433125007073471124e-01 4.681862624239108150e-01 3.810552830531832580e-01 -1.270871726658118206e-02 7.597298251395829816e-01 -2.013514572187338203e-01
3.016062698269854625e-01 -5.606365529515007218e-01 -8.762259243665944108e-01 7.709383808291951912e-01 9.738789571511146104e-01 -7.384261077474159052e-01 4.204055214111317440e-01 1.514376686908349701e-01
-5.622518414869661640e-01 -9.159649025767617747e-01 9.471927592022593156e-01 -6.747287860587476427e-01 -1.089887011306351905e-01 2.121917797872789890e-01 -4.460178451044671810e-02 -6.721621759442206745e-01
1.509662179861888109e-01 4.725062618519015878e-02 8.865909411733554624e-01 -4.869067032844998089e-01 -9.921599422192175499e-01 7.626089256091188595e-01 8.113452565748275891e-01 -7.640519637503655481e-01
