-1.354410791208835452e-01 4.400323068918965408e-01 -7.184477964342876888e-01 -6.461343363702904963e-01 -4.068593586331070711e-02 -1.757650954179583724e-01 8.207359384613370779e-01 1.700174063766268784e-01
8.846404093555104708e-02 2.793045235549924676e-01 3.408748260379799166e-01 -8.316351008561195801e-01 -7.156880303220702899e-03 7.169872840882780540e-01 6.987941875220116117e-02 9.167831574909302006e-02
7.287684034112700271e-01 5.361880450301228507e-01 -5.069400442067071300e-01 -3.453609126867578372e-01 -5.288808969684912764e-01 -1.035360322324332394e-01 4.220360144124120083e-01 5.462630188794801445e-01
-8.566414163357167766e-01 -9.860530641756044545e-01 6.870532926877994662e-01 9.691502349225242785e-01 8.947270262088753423e-01 1.610532737891763322e-01 4.109819749214727036e-01 -3.798438567377446784e-01
4.183207837742388691e-01 -1.853430304769374537e-01 7.363167503219374410e-01 -5.212326371221134291e-01 3.898126327393263146e-01 -7.448019860815489057e-01 1.450145917266028039e-01 -6.109805244732193774e-01
5.478891504939289447e-01 6.418113542537853267e-01 7.493067058993163609e-01 -6.516684088742585867e-01 2.203526507169202286e-01 6.555329883115399436e-01 -6.989972096898926512e-01 7.011782460645146209e-01
2.224657591327847683e-01 -4.955171213227511640e-01 -6.412407248231943857e-01 -3.167358662057389029e-01 4.120722338983764388e-01 -8.668902420357509353e-01 6.965778052570932299e-01 2.607157836658389183e-01
5.656797786213378920e-01 -8.572244420507941776e-01 7.157167483930710894e-01 9.485989303912643056e-01 4.831634079252153935e-01 4.065468783497314664e-01 -5.761886509337612594e-01 1.718547507567869115e-01
9.948691252617340997e-01 1.853988921371567677e-01 2.227213392239981715e-01 3.762124689635326646e-03 -8.330227096240241380e-01 -3.845643444414255097e-01 6.253480139073486210e-01 1.379249290021409280e-01
-1.723130002920789661e-01 2.826845001229532084e-01 -1.343537946923201165e-01 -4.102960967154816174e-01 4.653306023586134543e-02 -6.797095960805763504e-01 -7.850263509532544592e-01 3.986788574173776301e-01
