9.321953285915320908e-01 4.845204208147966263e-01 3.602819070926925882e-01 -9.846975038190175500e-01 -3.073473145607943380e-01 -5.782572099091576323e-01 -5.461397910372345343e-01 2.686714129294487385e-01
-2.518252653286205955e-01 6.887433976467631780e-01 -8.124033231044343051e-01 2.448850394182668921e-01 5.581548755787784089e-01 -2.176717387072018006e-01 2.998256238414083175e-01 -6.966454049887562672e-01
-6.782677158488903402e-02 -5.019965391642966512e-01 7.742979547958277475e-01 -5.127049012953586171e-01 1.244550594202913363e-01 2.882874875973806539e-02 -5.744648613209351051e-01 1.361916261032836140e-01
-5.325126825486445892e-01 -3.110319726860732992e-01 -6.412526643838856177e-01 -4.962991527341420461e-01 9.002801954172545695e-01 -5.893786154256295262e-01 2.710807441747373758e-01 -1.799478466587320913e-01
9.748393685035108280e-01 7.787677120837559475e-01 -6.380260374936677081e-01 -2.333176313135185698e-01 -5.609528031772488266e-01 -1.098426713124591725e-01 -3.664458726914383568e-01 -3.451455131384888464e-01
-3.371332594440892283e-01 9.182329605661621041e-01 -3.282316370656277460e-01 -8.857671339963286705e-01 6.830400585147307080e-01 7.211449547177417596e-01 7.580119784213055212e-01 -9.374500540428956086e-01
1.878859606952438810e-01 8.879269618263823105e-01 6.686433493781847037e-01 8.732086281172901643e-01 -2.320574171914013828e-01 -7.320891300403908897e-01 -1.625342831631291229e-01 5.505873795928302172e-01
2.980028327360852991e-01 2.819928893014973514e-01 -5.725901089209259887e-01 3.837999755582035544e-01 5.647442739423245150e-01 9.368467758899212683e-01 -4.755180040455062596e-01 1.126288860554391924e-02
6.861839787871901741e-01 5.019338447200807352e-01 -6.569606608050067020e-01 2.723069094372230214e-01 -9.556651677511620591e-01 -4.424279004217910316e-01 3.888526476913576335e-01 -5.429152303741646701e-01
-2.770790311816968554e-01 -8.431131584096762666e-02 2.192033319967037208e-01 3.848541239011278314e-01 -8.157072888090382001e-01 5.659937755746557997e-02 7.132933062916824163e-01 6.361796796307310764e-01
