8.796865984020862950e-01 7.010595581955243460e-01 -3.463309822755376022e-01 -8.383539362700813680e-01 -7.339609556527666445e-01 -1.891437423133099927e-01 3.751511028096670142e-01 3.260143951883252011e-01
4.668226338600078851e-01 8.195152005509602766e-01 2.705308542475524103e-01 -2.191211427368073839e-01 9.396996017883239016e-01 2.125853001295736622e-01 3.103939035663738633e-01 -8.559570020254323452e-01
-6.806922627653408941e-01 -2.719218316025266979e-01 -4.644517834338630635e-01 6.834733066051414951e-01 1.674710948568460811e-01 8.785078144241404985e-01 -9.001755689614450162e-01 5.639476208830451753e-02
-9.403977785773642850e-01 -9.707645608079991106e-01 -9.063999192992269194e-01 -1.855883261732871325e-02 3.631846992930685136e-01 -2.514537150094562357e-01 -6.615320665438775283e-01 -4.547615658659458493e-01
7.133420601546969220e-01 8.707772375808531251e-02 -7.825127243210687755e-01 2.468716100736803032e-01 6.338667443120764577e-01 1.008605506721440559e-01 3.636546545188650281e-01 8.149467440491935388e-01
2.235178074490957734e-01 7.489947812252932824e-01 -4.815913059971894672e-01 -3.027990785428633647e-01 -2.912495014176497143e-02 1.736926126685238714e-01 -1.882321637589230434e-01 2.234518059093135722e-01
-6.716984037562980792e-01 7.566907498563102408e-02 4.962420681640333786e-01 8.178863905830289216e-01 -6.640125280672923846e-01 -9.639294086579333065e-01 8.958267033274989188e-01 -7.008376100283515431e-01
-6.652039187494975803e-01 -1.844766955153547272e-01 -4.061949480170117255e-01 -6.431921102303854720e-01 -1.058116360624756780e-01 -5.715045833116245699e-01 -9.349669714898463102e-01 -9.056145760811671330e-01
-4.566941050742452379e-01 -1.464903228259708534e-01 -7.253515827553218553e-01 3.177660237075552452e-02 -4.230494028291342801e-03 -5.292079881268785257e-01 -3.253396227188509737e-01 -7.404076121295881663e-01
4.169515672754695590e-01 -5.584447085543620126e-01 -7.184745200583562141e-01 -1.986344219139333234e-01 7.447252642004971168e-01 -8.908244286587032601e-01 3.793192592276379838e-01 6.645898483443124505e-02
