3.580120186535067361e-01 9.763350417392815395e-01 8.385194769440400542e-01 -9.948464473299125643e-01 -3.269084465839551257e-01 -6.324427402775809615e-01 -1.512705991810103789e-02 5.672690655448420216e-02
-7.733979550478453646e-01 9.861855191417794320e-01 -2.802357009623959172e-01 9.576729724945780564e-01 9.790414449433400002e-01 -3.480451687027292795e-01 -8.503272760747879744e-01 5.775097363119987559e-01
-5.330959984912289062e-01 8.317912544375360984e-01 1.647195355230486324e-01 7.232126139728691783e-01 -3.887656130725922754e-01 -5.317875503097895251e-01 6.958426471689704851e-01 -7.851770463935652256e-01
1.899744958716431675e-02 -4.416317738166388729e-01 3.499680087213492552e-01 -3.167182360169484845e-02 8.606013832188337265e-01 5.478584531069037311e-01 6.115011993299683812e-01 7.462364305015340982e-01
-5.932659018540831219e-01 -4.850978158058250056e-01 -5.912054423096035904e-02 -9.789919385189442824e-01 -3.583081696071510613e-02 -4.169349751491147060e-01 -1.646541228329685413e-01 -9.170080644701616990e-02
2.601920668797406133e-01 -6.492639136618831852e-01 -5.459025205384764323e-01 -1.484183801247751511e-01 5.472501376114276006e-01 3.808750882982048225e-03 -9.831657545313765567e-02 7.367676822094559874e-02
-9.370098900550321019e-01 9.606981566289594099e-01 1.304652136827777476e-02 -2.283506090262878985e-01 -8.249317918046192855e-01 9.175811117789920424e-01 -4.496990630492143648e-01 5.183809802219399021e-01
-7.899513318963238273e-01 7.788336409679272876e-01 6.430513781356756997e-01 -4.362622323413105629e-01 8.787022800696988600e-01 -1.301625657522431645e-01 7.293657108699314051e-02 -5.210028775435127102e-01
-7.002916620647534618e-01 6.620916190705397053e-01 3.981150063957197283e-01 9.577829350503526129e-01 -5.410825212941767770e-01 -7.091488090125641630e-01 5.351213638688230301e-01 -1.786482619536042815e-01
4.682891163095710407e-01 -4.066948195253252685e-01 -4.657521245643723162e-01 4.565937848463654802e-01 -7.798094029142694783e-01 9.364923109920391120e-01 4.799423829797713204e-01 -2.775476630551751978e-01
