6.785628397460750083e-01 -4.624415204262668500e-01 -6.857224341592487171e-01 -3.801130357143900351e-01 -3.803033000242181938e-01 -3.084800949159418604e-01 -5.701501817297682795e-01 5.939946036382175443e-01
5.774857424753292445e-01 -7.589004346150396429e-02 2.271616099724913518e-01 9.426299513998237511e-01 1.039685633272791065e-02 -3.221911727088084820e-01 7.476517574753611672e-01 -6.685939347814013889e-01
-4.120506153025655927e-01 4.725413536109710488e-01 -7.415766062814326265e-01 -7.524423966563689170e-01 4.565335199398523613e-01 -9.421723053297685890e-01 2.477147742939955766e-01 3.767534212490843970e-01
-3.299498914662928328e-01 -4.547518077530543490e-01 7.789329729775127387e-01 -1.390887492221273281e-01 -2.368955361671365445e-02 -1.579063301465186697e-01 5.865240538962008809e-01 -9.766123576003005180e-01
5.577721210719857048e-01 -9.109143324629935812e-01 -7.204060380038437295e-01 -1.736141982584484822e-01 -9.231728752553072237e-01 -8.064683515541348768e-02 7.852235533181244342e-01 1.442589013655557473e-01
-7.514243263898734426e-02 4.244790517344010361e-02 2.750968899368475551e-01 2.814255981925717354e-01 6.179178323334300060e-02 -7.884979477768516709e-02 -6.391488906926428015e-01 -9.813696522256769583e-01
-8.978912146401227812e-01 9.764600450416776045e-01 -3.825430179678184217e-01 -9.226428301561317991e-01 2.388346132588148318e-01 1.790196748321388753e-01 -7.250179192875270129e-01 5.041473543354997311e-01
3.287324176536765563e-03 -5.329272966129749989e-01 7.868575789154093059e-01 -4.737325942505392629e-01 -4.190967543368500081e-01 2.481349952573494999e-01 5.169241788330098952e-01 8.124468131949758032e-02
-7.208880080656474565e-01 -1.303058304713244908e-01 -4.042480186316788071e-01 -5.359575798518665390e-01 -2.344513817431286284e-01 -2.164739265095447784e-01 2.516988866154610260e-01 -8.721697484262964650e-01
-9.794969640152610957e-01 -2.569592003964800142e-01 2.908198344224566245e-01 -8.273244684987379749e-01 -4.366820683099272848e-01 9.090582527578692229e-01 -7.922329448274614272e-01 5.213219307801524316e-01
