-6.045008290793836281e-01 1.896283012125445921e-01 4.990111917764035177e-01 -6.900611907351037466e-01 -9.731103556662827891e-01 9.008000358886765202e-01 4.433427624777259712e-01 -1.465690360729157149e-01
9.514032760229242935e-01 9.793623652423728565e-01 8.204370071483662041e-01 -7.628114462081678759e-01 7.153294326938051118e-01 8.761599233902861439e-01 -3.989747958479674672e-01 -3.351552999713940384e-01
6.421305008650930457e-01 -1.605792932590421884e-01 -5.018507139615324686e-01 8.290964305497070530e-01 -5.427697448108892431e-03 7.337998480784557742e-02 5.586505371083478888e-01 4.694293853483373358e-01
-1.210355705597283560e-01 1.953203449106151179e-01 -7.525646553584468545e-01 -9.585711664058984560e-01 3.005238724947780771e-01 6.712102592130262391e-01 2.064420389052499250e-01 7.964200388010000964e-02
-7.893495395302698725e-01 7.729382661016825917e-01 7.963888483855994238e-01 -6.636775791162425886e-01 -7.712041428627864903e-01 8.161756523441356936e-01 -2.203360349861174239e-01 -2.960240465133379129e-01
3.776041243448360341e-01 4.549273139484215633e-01 -3.468888800097360559e-01 -9.851839406832147983e-01 -4.913713657788620903e-01 -8.702478628267562577e-01 8.156645300734257642e-01 3.135355395734389372e-01
9.525837038097622056e-01 8.137937218014414942e-01 -5.122971244912015720e-01 9.980798396132450900e-01 7.546637795650532610e-01 -5.301516558307701743e-01 -2.518295314383236505e-01 -1.836832904638154851e-01
5.718601354887584698e-01 -6.752844819261307752e-01 -3.333880872391008499e-01 2.290422726500171979e-01 -4.747548705422848236e-01 -3.577914474026229197e-01 7.645288111646659779e-01 -8.344432224229529904e-01
7.914245458226696339e-01 -1.549178249320843914e-01 -8.837057645819124119e-02 9.765939772966085730e-01 -1.749774838596578341e-01 1.110494923651554888e-01 -9.535967308307125023e-02 5.540264477991760916e-01
-4.561549138397762437e-01 -6.843623325439418537e-02 -2.162742025932813394e-01 -5.619982405606398501e-01 -2.945855149540381746e-01 3.015272376187279058e-01 9.066483163189231753e-02 9.291647685154384995e-01
