-7.057678734276280341e-01 7.373445070563977577e-01 -2.411869959475458902e-01 7.625685841254330466e-01 4.202497089462540192e-01 -9.893852258620672302e-02 3.536133535189642796e-01 9.557315522970792898e-01
-8.140246681517553373e-01 9.972820105283806136e-01 -7.934034762243107330e-01 -4.761294497298178552e-01 -1.091669750932657834e-01 -6.076908214605769576e-01 6.225786473131831311e-01 -7.505031015708398812e-01
-2.217186559672863488e-01 2.456298962101666206e-01 -5.593279316710062510e-01 2.251303431758999718e-01 4.141336939400710460e-01 3.536839895244483500e-01 -5.965813818988197070e-03 -9.905532394276961305e-02
7.870487349058397086e-01 -7.621013476695772670e-01 -2.350009835250510548e-02 6.155703850996803173e-01 -6.765778175086893942e-01 -4.402777403434927628e-01 -8.967708752710710218e-01 -5.608745386598783522e-01
-2.747297522388740809e-01 -7.423918040436394694e-01 7.616300641878313016e-01 1.293369107834159148e-01 6.948025014602161598e-01 8.763745178331943109e-01 -9.562210310162266858e-02 5.191288481317481995e-01
7.932666981718827781e-01 1.091181530184421877e-01 6.834434714608801364e-01 -3.036575221515236400e-02 -5.462423366464941310e-02 8.934169282639747856e-01 -8.832658728473947729e-01 9.003576916591553569e-01
-1.435979920893055706e-01 -5.677530466890186034e-01 -8.918944167289357683e-01 -2.289061952148128132e-01 8.041145735420203167e-01 -7.044983613842139558e-01 -6.819672043706537234e-01 9.855445896286862961e-02
-9.233736035349044968e-01 -5.984715374594551385e-01 -3.291851689567679706e-01 -1.065808744850691436e-01 -6.314422711172382741e-01 -8.434969762798356641e-01 -2.411391876004014279e-01 8.617633900773769007e-02
-8.391515582054513978e-01 3.795136845492033117e-01 4.699907581028726078e-01 -9.265510277858979293e-01 -9.519247703824436080e-01 1.818431295154814276e-01 6.601513819172850628e-01 4.991941865025535385e-01
9.224837127490495003e-01 9.949365583802987079e-01 -7.203698505879152503e-01 -7.851855150074673606e-01 -6.046634169094489142e-01 8.820550942850879927e-01 -7.452260975243072405e-01 4.976048002727548880e-01
