9.109297333856067880e-01 1.098461430096573377e-01 8.729206078094140508e-01 -5.490348049128856989e-01 1.549132278299161225e-01 -3.556641744531452431e-02 8.108763413219022276e-01 -6.716564395917874464e-01
-5.926483441787300244e-01 -2.493087048433211272e-01 -2.115710394752541301e-01 -3.152265125892190767e-01 3.964201675003362624e-01 6.003220833850009264e-02 7.184645352597884838e-01 8.840632842084139575e-01
5.666722336528118298e-01 8.436489055863505282e-01 -2.179890289769990108e-01 -7.280098755290651535e-01 1.050758306216659221e-01 7.975338322263603175e-04 6.276508332251993227e-01 2.890365312768203854e-01
-3.312572751586628783e-02 -5.288644268628663880e-01 -8.431067034875097121e-01 7.338308744728117006e-01 5.805687285782168416e-01 -2.111048282407654852e-01 4.117667654514900466e-01 7.403788241204853904e-01
7.686517306247631076e-02 8.045753740668022402e-01 4.851363868414826364e-01 -7.562929261290263216e-01 -4.734793626227418173e-01 4.540269313923892547e-01 -6.723269131847451341e-01 -9.126316383859633952e-01
-9.436659778731786297e-01 -7.559539422003713760e-02 5.660338323346014722e-01 1.925752616581055676e-02 8.843217631278155189e-02 -7.378103095334958006e-01 3.083670533385185486e-01 9.326285244827325904e-01
7.489364551857184971e-01 -1.799536318999312989e-01 -8.957821628995583652e-01 -6.368979320522785148e-01 -8.952958050807335866e-01 5.818953727955045174e-02 2.080371618387657495e-01 7.952991613097799561e-01
4.447489531846233746e-01 4.052485995700019217e-01 9.588461578319591450e-01 2.584526042385575373e-01 -6.731447912229595598e-01 7.667740983417388190e-01 2.417744931596845781e-01 -5.340856083600740156e-01
1.007717742162221874e-01 -8.696792164884541432e-01 9.788186028596321808e-01 2.702055317524783007e-01 8.805380648595371174e-01 6.661971299068250030e-01 -5.051319007085788293e-01 -1.101861368538203934e-01
-6.553557766143283114e-01 -7.363332381368137280e-01 -1.741412619075404233e-01 4.246281101625990484e-01 -4.252164213838858231e-01 -7.748396611709811310e-01 -8.438771333850989542e-01 -4.804016062214664373e-01
