3.848706234310881324e-01 9.893213581088411424e-01 5.070476891122166485e-01 -2.929406631670610217e-01 4.408153186670860091e-01 -1.779204373324771993e-01 -2.843530973456198652e-02 -1.627030869117844780e-01
8.145938419574338951e-01 9.008739675064425523e-01 -3.026324298628426668e-01 3.999029151359041467e-01 -4.057425952282420756e-01 5.971430201983447539e-01 7.922331860071101239e-01 -8.337476968362702578e-01
-5.974443819650858689e-01 -8.959638696334695229e-01 -8.757927503201228259e-01 -1.668042532996507621e-01 -1.151903955631730092e-01 -8.520460136707344034e-01 -3.149704454263895226e-01 -5.549840752010040124e-01
-4.816495396305489063e-01 3.780739358934905869e-01 8.403983298799913015e-01 7.528493130458733251e-01 7.935417935049438043e-02 -4.997391479809807358e-01 5.313078583775765473e-01 4.378423679594978246e-02
5.188602829360928759e-01 3.259142826896119782e-01 5.790615285963991443e-01 -5.270041184940978951e-01 -6.600884947966858540e-01 7.687276461405687655e-01 -7.010673760636416674e-01 -7.364468661111911452e-01
1.969390430010273807e-01 9.301155374626495220e-01 8.699902642427608246e-01 2.680894340532669062e-01 -3.113325291761264157e-01 4.291796146922732813e-01 2.888586449450751825e-01 6.774878562617756561e-01
-8.509484892355034802e-03 -8.259133418117319270e-01 2.585718687957585527e-01 -7.338245814712054393e-01 -9.617308038471594767e-01 5.570319430825227958e-01 -4.762927816185325014e-01 2.609985271946830832e-01
-1.000471279704573391e-02 8.049978941033140156e-01 3.191489686796082914e-01 4.625525463882491639e-01 8.663951896319237456e-01 5.256720629897486674e-01 -2.732137908111309521e-02 4.576906043855071271e-01
-6.796937020509787875e-01 9.429948298565202780e-01 -9.195197426189405387e-01 -8.586008503743833842e-01 -4.489738928761528580e-01 -5.799932512333543233e-01 6.101658040864588184e-01 -3.875240159219510705e-01
7.624098601141704457e-01 -8.993505837778583700e-01 2.456838233973792640e-01 -3.912240710875467542e-01 -7.287701669433364060e-01 7.281785286057200768e-01 8.168267826062991510e-02 4.408980683058560945e-01
