2.648512405048377705e-01 -1.644205266032030543e-01 -5.038981022161985734e-01 4.586894937099110781e-01 7.165026754923244923e-01 -4.539368097295364279e-01 -4.949127927413374817e-01 9.803862826064699831e-01
2.862568499454680726e-01 1.390310103373264550e-01 2.812905017107927286e-01 4.361070185839845958e-01 -9.238908499009386155e-01 -4.626883564641732782e-01 -4.121782771804609613e-01 1.957842925652857335e-01
-7.054076610542938663e-01 -3.587454413437911604e-01 2.779771506634998168e-01 8.307539621103885441e-01 2.113644011198603234e-01 -4.981221670595388229e-01 -3.519840854518923035e-01 -4.481622041471704510e-01
-4.267538309675316111e-01 -1.792137900014585394e-01 -5.839215890676441312e-02 7.336804926013742456e-01 -3.313138400080388735e-01 -8.264949279708890817e-01 -2.556986934562028857e-01 -7.779782474269705261e-01
-6.095523707923951040e-01 5.365473831140501471e-01 -9.501897179171880925e-01 7.142587659050334548e-01 -6.444557374151365092e-01 -1.847567451453770992e-01 4.349617302199737523e-01 4.978934148233604695e-01
-9.684161031641276285e-01 -4.745369774028416199e-01 4.719976258816922510e-01 5.327225795073287085e-01 -7.543189542556698601e-01 -6.430398498793361561e-01 -8.712570982343157411e-01 1.309995142354860587e-01
5.622541166412413638e-01 -6.927963893898645420e-01 -5.651086010476595867e-01 5.478855565977891473e-02 3.995144437461888298e-01 -8.670606803594735901e-01 4.549543176488244356e-01 -7.932280559270863396e-01
-7.365648012732246563e-01 -7.419724188340217630e-01 3.554074175475230302e-01 -2.212409794480520997e-01 7.694866865766845088e-01 3.052337006611631764e-01 7.135641385428606043e-01 9.967694953699113292e-01
4.558710493308042455e-01 2.434465905349139092e-01 6.787554204068253494e-01 5.958732339571894965e-01 -1.941543546857873448e-01 4.287434914973182742e-01 -9.774087625451977068e-01 -1.044156907356399433e-01
8.031999139592760351e-01 2.723672921512063638e-01 4.992916691781426053e-01 9.315865122539992438e-01 6.036242399981504025e-01 -2.626781156605995093e-01 9.549426003864092127e-01 -6.164994547331072994e-01
