1.555475321248565024e-01 -2.422998011676591457e-01 4.954351367927476435e-01 6.188668842121560765e-01 -9.774839632896370478e-01 4.443017813421046291e-02 9.090108972113448704e-01 9.268163352720655279e-01
-5.966994609633042845e-01 -5.085835019688700331e-01 -7.940852327928180632e-01 -3.801422325572794136e-01 6.560312431901451635e-01 -2.033004144614385389e-01 9.681579260329915559e-01 9.439982107374547127e-01
-8.980410883968734659e-01 1.210818567781224431e-01 4.280184130944979515e-01 5.036526341045672872e-01 4.962641366176134827e-01 -3.276335068913023285e-01 -1.648892391179757055e-02 -4.877989141574434750e-01
7.437165136987644587e-01 -4.472601874718586945e-01 -7.276583242815286567e-01 -7.093154304314557290e-01 6.374383258859290802e-01 1.502563950366051504e-01 2.270419597739581352e-01 5.903923778243311826e-01
6.082379932595209926e-01 9.881049203935829972e-01 9.877276842121029965e-01 -8.205847295517907369e-01 2.094274541387599609e-01 5.977715025525340842e-01 -6.863677024664223136e-01 -4.832867794084272361e-01
6.920287822182880078e-02 5.819973902171919899e-01 -8.350482589826804247e-01 -8.981740700739329064e-01 3.824647270339323057e-01 -2.053401678210924342e-01 8.249686532879896284e-02 -5.803333733263797978e-01
5.095259792576676272e-01 -2.242320888534434786e-01 -6.064558496510772390e-01 3.853795601143232830e-01 8.266051636353064502e-01 9.923414908653425126e-01 -4.530868396338134652e-01 -9.602135604740809072e-01
-2.194693243317209497e-01 -7.736169481028569717e-01 -8.457874724829439472e-02 1.780105429702909525e-01 1.510434251430619046e-01 -8.276569366018249330e-01 -3.250412798820518923e-01 -1.936837453058370961e-02
8.198888754003748058e-01 3.942977846258721719e-02 6.619426528462424297e-01 6.205125683756689270e-01 4.837610065130044656e-01 -4.070012062837125022e-01 -6.400045085143604151e-01 -5.172458419398837659e-01
-3.170790876131464042e-01 -2.412496576534697290e-01 8.150229586884729649e-01 -8.063960960111939968e-01 1.055543147878954535e-01 9.426848885797283195e-01 -9.822567001026158984e-01 1.165584144099354180e-01
