5.996996341011422427e-01 1.512363957468356723e-01 -6.937858615325875888e-02 -5.697328032146420362e-02 -1.314622935013847194e-01 -3.755823067887598121e-02 2.695281289189455087e-01 -5.040674798932469614e-01
-6.193988689882297116e-01 4.010986298832055486e-01 -5.847226789006831904e-01 1.650144624766749502e-01 7.825679094165578498e-01 8.827508869485667375e-01 4.679041152048957208e-02 7.868034725030943477e-01
4.070490731024414277e-01 9.593235054991589017e-02 2.066872194831941290e-01 -6.359264730863645187e-01 9.735697804872105454e-01 8.617809944177010628e-01 5.055846236116430248e-01 -3.258055026003987553e-01
1.727536147745909467e-01 -8.651903928766384588e-01 -5.565948786227679079e-01 -7.587116646930780473e-01 9.719105181731360066e-01 8.119200938869648443e-01 6.017089962992274721e-01 2.932019863462256293e-01
-2.499270505150910093e-01 -5.690586128772283647e-01 6.882637394061426050e-01 2.269830617160235597e-01 -3.243803079622493701e-01 -8.148906768860613159e-01 -3.664454940993655541e-02 8.433562319551375364e-01
1.405462525232481497e-01 -5.696284277143797148e-01 2.478547527382390925e-01 -7.997683684814624883e-01 -6.757505128727434585e-01 -5.397109887190101318e-01 -7.223601860156410037e-01 -4.690150026354173995e-01
1.412821861571222914e-01 -7.839696226584089711e-01 6.153581630402211733e-01 1.670734269399356542e-01 9.290952001352912326e-01 -1.359543078674241290e-01 7.556116230392380118e-01 -3.049840716330425305e-01
-1.470793476833689439e-01 -9.423972469059993529e-01 -5.835036853104198507e-01 -1.857179235912820303e-01 9.700960146312564980e-01 -6.067304215982449733e-02 7.083833120637672565e-01 -9.334096254466242026e-01
4.989322758082601617e-01 -7.748547687833167164e-01 6.176410110117436236e-01 -1.758096917015428140e-01 5.506208410012802812e-01 3.137190268372667123e-01 8.405049146312171260e-02 -9.365618619888023133e-01
-3.375540711845133046e-01 -4.631989588886646914e-01 -7.333276536217705477e-01 -2.577070478925351793e-01 2.317288414924345563e-01 2.353184847584797179e-01 -3.776966426028212087e-01 -2.432999370349286927e-02
