-4.608061723307299573e-02 2.597144616800683981e-01 8.613753385594402623e-01 -2.949769964953685708e-02 -5.556549859808197489e-01 3.428482600784394929e-01 -7.170020040458011668e-01 5.086889889551331478e-01
1.152127437512209251e-01 -5.974915430882434819e-01 8.514387117372939073e-01 7.296638079902217910e-02 2.107816711690124745e-01 -5.874955887755448636e-01 -7.272352436697433475e-01 -8.259200135400281972e-01
6.042601678015602218e-02 -3.873328436824272636e-01 -4.877184584473304163e-01 -7.238576055697070188e-01 -7.883098667700465523e-01 6.650382249746187302e-01 -3.765189668717452420e-01 2.176033157871073431e-01
1.673440037417677217e-01 -3.081322735114024880e-01 -9.361358044261083311e-01 -5.870839021399356650e-01 8.088896301832027014e-01 1.935928945190834582e-01 -8.281802861584854902e-01 4.523329071615265207e-01
3.842887681335598327e-01 -5.042747826446092319e-02 -3.545922658107159009e-01 5.160696906457333810e-01 4.924855059170507587e-01 4.855050759894012913e-01 -8.955467137022217194e-01 6.070206856070667900e-01
-3.099701433260424466e-01 1.576080530368526578e-01 8.736659059682525541e-01 -1.933633905492682103e-02 -2.591260210290839971e-01 9.897399286060437618e-01 8.383102999565448243e-01 -6.120646181577200640e-01
5.680802054372060539e-01 -5.432976846806643056e-01 -4.074266436254747603e-01 -9.922738480030786068e-01 -9.335493781416486225e-01 3.705409034731543816e-01 5.363775263497587709e-01 5.126450425657098631e-01
9.009416243806021019e-01 4.547791905276401536e-01 9.654498011942291846e-02 -3.082608540486224680e-01 2.752215394490329370e-01 4.530569897905953880e-01 8.995908764921773937e-01 2.937077067950968345e-01
-3.253441269088646060e-01 1.434799437943379274e-01 7.205895336527761152e-01 -7.996705868301241527e-01 -1.664184086854125777e-01 -6.210886959769568172e-01 -1.530117498981993229e-01 -8.339624907657894326e-02
-8.066356830660710298e-01 9.500533356345539637e-01 -4.600979204034507664e-01 3.087341240682741628e-01 2.842921657394308355e-01 -6.756418464026032744e-01 -3.980976255668944308e-01 4.835439023836007877e-02
