2.234180353012809039e-01 9.009258321715118978e-01 -4.708894001201342494e-01 -7.763626234005449600e-01 -8.747325416818207966e-01 7.428731292960419896e-01 8.226339977915579915e-01 9.052976197671049885e-01
4.030266062577081421e-02 -5.763940124254600672e-01 1.125467581392738392e-01 5.567091390308243071e-01 3.721693784550543782e-01 -5.984809893400848679e-01 -9.709253401079047663e-01 1.800411278659721503e-01
1.229882856128883262e-02 8.330844313958458702e-01 -4.952688115861312301e-01 -2.618131805074828122e-01 8.847182265136441792e-01 6.301999260867963137e-02 -3.370393961659625681e-01 1.409293058498735096e-01
-8.611170047949157080e-01 -6.783629159738393533e-01 5.895895548045992918e-01 1.470101578728730818e-01 1.090383863697739208e-01 8.894968648720880111e-02 -4.311466485937121007e-02 7.835315800910638284e-01
-1.791955673654190839e-01 6.220618687722219153e-01 2.018598820573995756e-01 -1.677991902645288302e-01 9.584939391777751450e-01 -5.613446476565162602e-01 -3.389445999012867805e-01 8.690395124797822834e-01
1.625139402462227878e-02 6.219971766069545271e-01 4.522328147536982534e-01 -5.541262051306605763e-02 4.459135939120342229e-01 -6.745843060282279424e-01 2.912836522899908687e-02 9.002022042019097725e-01
7.025573058179879204e-01 7.876533338393865158e-02 7.585135212912303970e-01 -3.661484413535325277e-01 -4.330786261723980068e-01 4.752235754903602061e-01 -1.191989474386063730e-01 3.641053158656606392e-01
9.962709191650587215e-01 -6.719601162679782469e-01 -5.493679624997560573e-02 5.342871090443959137e-01 -4.069261758703128784e-01 -7.267223715827382247e-01 6.329792019860938090e-01 -4.586535046912065816e-01
3.497371626466947436e-01 2.980554824828913763e-01 1.320967416393317162e-01 -6.634733442857596586e-01 -6.679882395274341356e-01 -2.443967421038200083e-01 -3.191040415659065488e-01 -1.999105277351915788e-01
5.314119655917963758e-01 9.668967929091629721e-01 4.935082666395473883e-01 -3.607615885415851320e-01 7.927700330017377617e-01 1.693086596704072022e-01 7.352183702066927840e-01 -6.476665689589078401e-01
