<neuralNetwork>
    <neuron name = "0" type = "sensor" linkName = "Torso" />
    <neuron name = "1" type = "sensor" linkName = "BackLeg" />
    <neuron name = "2" type = "sensor" linkName = "FrontLeg" />
    <neuron name = "3" type = "sensor" linkName = "LeftLeg" />
    <neuron name = "4" type = "sensor" linkName = "RightLeg" />
    <neuron name = "5" type = "sensor" linkName = "BackLowerLeg" />
    <neuron name = "6" type = "sensor" linkName = "FrontLowerLeg" />
    <neuron name = "7" type = "sensor" linkName = "LeftLowerLeg" />
    <neuron name = "8" type = "sensor" linkName = "RightLowerLeg" />
    <neuron name = "9" type = "motor"  jointName = "Torso_BackLeg" />
    <neuron name = "10" type = "motor"  jointName = "Torso_FrontLeg" />
    <neuron name = "11" type = "motor"  jointName = "Torso_LeftLeg" />
    <neuron name = "12" type = "motor"  jointName = "Torso_RightLeg" />
    <neuron name = "13" type = "motor"  jointName = "BackLeg_BackLowerLeg" />
    <neuron name = "14" type = "motor"  jointName = "FrontLeg_FrontLowerLeg" />
    <neuron name = "15" type = "motor"  jointName = "LeftLeg_LeftLowerLeg" />
    <neuron name = "16" type = "motor"  jointName = "RightLeg_RightLowerLeg" />
    <synapse sourceNeuronName = "0" targetNeuronName = "9" weight = "0.5393042910156918" />
    <synapse sourceNeuronName = "0" targetNeuronName = "10" weight = "0.8598114158013428" />
    <synapse sourceNeuronName = "0" targetNeuronName = "11" weight = "-0.7520351033413872" />
    <synapse sourceNeuronName = "0" targetNeuronName = "12" weight = "-0.35631980446721534" />
    <synapse sourceNeuronName = "0" targetNeuronName = "13" weight = "-0.993253080109896" />
    <synapse sourceNeuronName = "0" targetNeuronName = "14" weight = "0.6490058949994879" />
    <synapse sourceNeuronName = "0" targetNeuronName = "15" weight = "0.9552409304400642" />
    <synapse sourceNeuronName = "0" targetNeuronName = "16" weight = "0.28749476083739345" />
    <synapse sourceNeuronName = "1" targetNeuronName = "9" weight = "0.5382565949079767" />
    <synapse sourceNeuronName = "1" targetNeuronName = "10" weight = "-0.19193996478357866" />
    <synapse sourceNeuronName = "1" targetNeuronName = "11" weight = "0.6450771743409844" />
    <synapse sourceNeuronName = "1" targetNeuronName = "12" weight = "0.10398994604908052" />
    <synapse sourceNeuronName = "1" targetNeuronName = "13" weight = "0.7941841459642953" />
    <synapse sourceNeuronName = "1" targetNeuronName = "14" weight = "-0.4458787837086866" />
    <synapse sourceNeuronName = "1" targetNeuronName = "15" weight = "0.1002895910119379" />
    <synapse sourceNeuronName = "1" targetNeuronName = "16" weight = "-0.9191747521779345" />
    <synapse sourceNeuronName = "2" targetNeuronName = "9" weight = "0.9830018510488634" />
    <synapse sourceNeuronName = "2" targetNeuronName = "10" weight = "0.5615816177865955" />
    <synapse sourceNeuronName = "2" targetNeuronName = "11" weight = "-0.13591772069633" />
    <synapse sourceNeuronName = "2" targetNeuronName = "12" weight = "-0.23609617537743466" />
    <synapse sourceNeuronName = "2" targetNeuronName = "13" weight = "0.6111501753345212" />
    <synapse sourceNeuronName = "2" targetNeuronName = "14" weight = "-0.8020220308785613" />
    <synapse sourceNeuronName = "2" targetNeuronName = "15" weight = "0.6863395990507832" />
    <synapse sourceNeuronName = "2" targetNeuronName = "16" weight = "0.6802718820173015" />
    <synapse sourceNeuronName = "3" targetNeuronName = "9" weight = "-0.06928762829395385" />
    <synapse sourceNeuronName = "3" targetNeuronName = "10" weight = "-0.8260207442876808" />
    <synapse sourceNeuronName = "3" targetNeuronName = "11" weight = "-0.950008195258385" />
    <synapse sourceNeuronName = "3" targetNeuronName = "12" weight = "-0.3662944884049708" />
    <synapse sourceNeuronName = "3" targetNeuronName = "13" weight = "-0.17242632206323694" />
    <synapse sourceNeuronName = "3" targetNeuronName = "14" weight = "-0.5108977254954188" />
    <synapse sourceNeuronName = "3" targetNeuronName = "15" weight = "0.8247773358539248" />
    <synapse sourceNeuronName = "3" targetNeuronName = "16" weight = "0.0916830320958193" />
    <synapse sourceNeuronName = "4" targetNeuronName = "9" weight = "-0.28808127425581986" />
    <synapse sourceNeuronName = "4" targetNeuronName = "10" weight = "0.09680833717213644" />
    <synapse sourceNeuronName = "4" targetNeuronName = "11" weight = "-0.7903531487747448" />
    <synapse sourceNeuronName = "4" targetNeuronName = "12" weight = "-0.38665020780348613" />
    <synapse sourceNeuronName = "4" targetNeuronName = "13" weight = "-0.8445316745654552" />
    <synapse sourceNeuronName = "4" targetNeuronName = "14" weight = "0.5385451393230873" />
    <synapse sourceNeuronName = "4" targetNeuronName = "15" weight = "0.4064102315021927" />
    <synapse sourceNeuronName = "4" targetNeuronName = "16" weight = "-0.41365702750103006" />
    <synapse sourceNeuronName = "5" targetNeuronName = "9" weight = "0.15093647099494767" />
    <synapse sourceNeuronName = "5" targetNeuronName = "10" weight = "0.4103080677313855" />
    <synapse sourceNeuronName = "5" targetNeuronName = "11" weight = "0.5265730892115625" />
    <synapse sourceNeuronName = "5" targetNeuronName = "12" weight = "-0.9793961505568405" />
    <synapse sourceNeuronName = "5" targetNeuronName = "13" weight = "-0.8627796439532442" />
    <synapse sourceNeuronName = "5" targetNeuronName = "14" weight = "-0.18749690051329426" />
    <synapse sourceNeuronName = "5" targetNeuronName = "15" weight = "0.44434184628883" />
    <synapse sourceNeuronName = "5" targetNeuronName = "16" weight = "0.12806722487591204" />
    <synapse sourceNeuronName = "6" targetNeuronName = "9" weight = "0.582196190525115" />
    <synapse sourceNeuronName = "6" targetNeuronName = "10" weight = "-0.5151548722577379" />
    <synapse sourceNeuronName = "6" targetNeuronName = "11" weight = "0.9456667451217107" />
    <synapse sourceNeuronName = "6" targetNeuronName = "12" weight = "-0.7711731626267193" />
    <synapse sourceNeuronName = "6" targetNeuronName = "13" weight = "-0.1919192169258641" />
    <synapse sourceNeuronName = "6" targetNeuronName = "14" weight = "-0.5967674483728829" />
    <synapse sourceNeuronName = "6" targetNeuronName = "15" weight = "-0.6233173819755362" />
    <synapse sourceNeuronName = "6" targetNeuronName = "16" weight = "-0.36497598561829325" />
    <synapse sourceNeuronName = "7" targetNeuronName = "9" weight = "-0.08217409163292055" />
    <synapse sourceNeuronName = "7" targetNeuronName = "10" weight = "0.8862615555096311" />
    <synapse sourceNeuronName = "7" targetNeuronName = "11" weight = "-0.665650428559533" />
    <synapse sourceNeuronName = "7" targetNeuronName = "12" weight = "-0.1138082515933454" />
    <synapse sourceNeuronName = "7" targetNeuronName = "13" weight = "-0.45008178447148905" />
    <synapse sourceNeuronName = "7" targetNeuronName = "14" weight = "0.017159858314750753" />
    <synapse sourceNeuronName = "7" targetNeuronName = "15" weight = "0.45726211639419234" />
    <synapse sourceNeuronName = "7" targetNeuronName = "16" weight = "-0.7699339396052542" />
    <synapse sourceNeuronName = "8" targetNeuronName = "9" weight = "-0.6721095783256601" />
    <synapse sourceNeuronName = "8" targetNeuronName = "10" weight = "0.024266609854639132" />
    <synapse sourceNeuronName = "8" targetNeuronName = "11" weight = "-0.1476573759365032" />
    <synapse sourceNeuronName = "8" targetNeuronName = "12" weight = "0.31329021614940533" />
    <synapse sourceNeuronName = "8" targetNeuronName = "13" weight = "0.4122685468171319" />
    <synapse sourceNeuronName = "8" targetNeuronName = "14" weight = "0.29500085176638713" />
    <synapse sourceNeuronName = "8" targetNeuronName = "15" weight = "-0.31836458335630247" />
    <synapse sourceNeuronName = "8" targetNeuronName = "16" weight = "-0.8877803721738917" />
</neuralNetwork>