<neuralNetwork>
    <neuron name = "0" type = "sensor" linkName = "Torso" />
    <neuron name = "1" type = "sensor" linkName = "BackLeg" />
    <neuron name = "2" type = "sensor" linkName = "FrontLeg" />
    <neuron name = "3" type = "sensor" linkName = "LeftLeg" />
    <neuron name = "4" type = "sensor" linkName = "RightLeg" />
    <neuron name = "5" type = "sensor" linkName = "BackLowerLeg" />
    <neuron name = "6" type = "sensor" linkName = "FrontLowerLeg" />
    <neuron name = "7" type = "sensor" linkName = "LeftLowerLeg" />
    <neuron name = "8" type = "sensor" linkName = "RightLowerLeg" />
    <neuron name = "9" type = "motor"  jointName = "Torso_BackLeg" />
    <neuron name = "10" type = "motor"  jointName = "Torso_FrontLeg" />
    <neuron name = "11" type = "motor"  jointName = "Torso_LeftLeg" />
    <neuron name = "12" type = "motor"  jointName = "Torso_RightLeg" />
    <neuron name = "13" type = "motor"  jointName = "BackLeg_BackLowerLeg" />
    <neuron name = "14" type = "motor"  jointName = "FrontLeg_FrontLowerLeg" />
    <neuron name = "15" type = "motor"  jointName = "LeftLeg_LeftLowerLeg" />
    <neuron name = "16" type = "motor"  jointName = "RightLeg_RightLowerLeg" />
    <synapse sourceNeuronName = "0" targetNeuronName = "9" weight = "0.09559068331813836" />
    <synapse sourceNeuronName = "0" targetNeuronName = "10" weight = "-0.061971453904629215" />
    <synapse sourceNeuronName = "0" targetNeuronName = "11" weight = "0.13728694350161774" />
    <synapse sourceNeuronName = "0" targetNeuronName = "12" weight = "0.11155396847489207" />
    <synapse sourceNeuronName = "0" targetNeuronName = "13" weight = "-0.117246023102348" />
    <synapse sourceNeuronName = "0" targetNeuronName = "14" weight = "0.6527894253625832" />
    <synapse sourceNeuronName = "0" targetNeuronName = "15" weight = "-0.6650134255469826" />
    <synapse sourceNeuronName = "0" targetNeuronName = "16" weight = "-0.9701689944468364" />
    <synapse sourceNeuronName = "1" targetNeuronName = "9" weight = "0.6099089828519673" />
    <synapse sourceNeuronName = "1" targetNeuronName = "10" weight = "0.8492192180367855" />
    <synapse sourceNeuronName = "1" targetNeuronName = "11" weight = "0.936261767631827" />
    <synapse sourceNeuronName = "1" targetNeuronName = "12" weight = "-0.6768148084804315" />
    <synapse sourceNeuronName = "1" targetNeuronName = "13" weight = "0.9149178419130741" />
    <synapse sourceNeuronName = "1" targetNeuronName = "14" weight = "-0.6177091801525372" />
    <synapse sourceNeuronName = "1" targetNeuronName = "15" weight = "0.2183968053385108" />
    <synapse sourceNeuronName = "1" targetNeuronName = "16" weight = "0.7962611308898608" />
    <synapse sourceNeuronName = "2" targetNeuronName = "9" weight = "-0.13232804942328769" />
    <synapse sourceNeuronName = "2" targetNeuronName = "10" weight = "0.9997675625959863" />
    <synapse sourceNeuronName = "2" targetNeuronName = "11" weight = "-0.4121424904132531" />
    <synapse sourceNeuronName = "2" targetNeuronName = "12" weight = "-0.3367510746187248" />
    <synapse sourceNeuronName = "2" targetNeuronName = "13" weight = "-0.21212505871259313" />
    <synapse sourceNeuronName = "2" targetNeuronName = "14" weight = "0.7660817216348381" />
    <synapse sourceNeuronName = "2" targetNeuronName = "15" weight = "0.5984794076903186" />
    <synapse sourceNeuronName = "2" targetNeuronName = "16" weight = "-0.21608981220131684" />
    <synapse sourceNeuronName = "3" targetNeuronName = "9" weight = "-0.4562451311615905" />
    <synapse sourceNeuronName = "3" targetNeuronName = "10" weight = "-0.12342070325069376" />
    <synapse sourceNeuronName = "3" targetNeuronName = "11" weight = "0.16614732660452614" />
    <synapse sourceNeuronName = "3" targetNeuronName = "12" weight = "-0.9384923175135422" />
    <synapse sourceNeuronName = "3" targetNeuronName = "13" weight = "-0.2697816299662754" />
    <synapse sourceNeuronName = "3" targetNeuronName = "14" weight = "0.9892700995322901" />
    <synapse sourceNeuronName = "3" targetNeuronName = "15" weight = "0.7255451937376189" />
    <synapse sourceNeuronName = "3" targetNeuronName = "16" weight = "-0.24697598618003092" />
    <synapse sourceNeuronName = "4" targetNeuronName = "9" weight = "0.7839973614949172" />
    <synapse sourceNeuronName = "4" targetNeuronName = "10" weight = "-0.7207958653864215" />
    <synapse sourceNeuronName = "4" targetNeuronName = "11" weight = "0.7204378275019561" />
    <synapse sourceNeuronName = "4" targetNeuronName = "12" weight = "0.04867242885595768" />
    <synapse sourceNeuronName = "4" targetNeuronName = "13" weight = "-0.14054201263860522" />
    <synapse sourceNeuronName = "4" targetNeuronName = "14" weight = "0.8168442758209453" />
    <synapse sourceNeuronName = "4" targetNeuronName = "15" weight = "0.8868144901850916" />
    <synapse sourceNeuronName = "4" targetNeuronName = "16" weight = "0.4025385195264328" />
    <synapse sourceNeuronName = "5" targetNeuronName = "9" weight = "-0.941095345691932" />
    <synapse sourceNeuronName = "5" targetNeuronName = "10" weight = "0.6278080651362576" />
    <synapse sourceNeuronName = "5" targetNeuronName = "11" weight = "-0.6821335065029606" />
    <synapse sourceNeuronName = "5" targetNeuronName = "12" weight = "-0.7991509974435314" />
    <synapse sourceNeuronName = "5" targetNeuronName = "13" weight = "0.23770880361776126" />
    <synapse sourceNeuronName = "5" targetNeuronName = "14" weight = "0.40043197581051637" />
    <synapse sourceNeuronName = "5" targetNeuronName = "15" weight = "-0.17980040982878798" />
    <synapse sourceNeuronName = "5" targetNeuronName = "16" weight = "0.8699863557691194" />
    <synapse sourceNeuronName = "6" targetNeuronName = "9" weight = "0.03337997229447898" />
    <synapse sourceNeuronName = "6" targetNeuronName = "10" weight = "-0.9004372202542548" />
    <synapse sourceNeuronName = "6" targetNeuronName = "11" weight = "-0.6353680058420579" />
    <synapse sourceNeuronName = "6" targetNeuronName = "12" weight = "-0.23675224525025462" />
    <synapse sourceNeuronName = "6" targetNeuronName = "13" weight = "0.012461169983331244" />
    <synapse sourceNeuronName = "6" targetNeuronName = "14" weight = "-0.8177763496530901" />
    <synapse sourceNeuronName = "6" targetNeuronName = "15" weight = "-0.5550249814098758" />
    <synapse sourceNeuronName = "6" targetNeuronName = "16" weight = "-0.973989498943135" />
    <synapse sourceNeuronName = "7" targetNeuronName = "9" weight = "-0.597237232696779" />
    <synapse sourceNeuronName = "7" targetNeuronName = "10" weight = "-0.8339056615644296" />
    <synapse sourceNeuronName = "7" targetNeuronName = "11" weight = "0.09374757361836816" />
    <synapse sourceNeuronName = "7" targetNeuronName = "12" weight = "-0.09970825274641171" />
    <synapse sourceNeuronName = "7" targetNeuronName = "13" weight = "-0.23563171110815384" />
    <synapse sourceNeuronName = "7" targetNeuronName = "14" weight = "0.9280961514805999" />
    <synapse sourceNeuronName = "7" targetNeuronName = "15" weight = "0.6047672818478709" />
    <synapse sourceNeuronName = "7" targetNeuronName = "16" weight = "-0.15045419271303717" />
    <synapse sourceNeuronName = "8" targetNeuronName = "9" weight = "0.8643603928010648" />
    <synapse sourceNeuronName = "8" targetNeuronName = "10" weight = "-0.5309763946114665" />
    <synapse sourceNeuronName = "8" targetNeuronName = "11" weight = "0.4834388866387691" />
    <synapse sourceNeuronName = "8" targetNeuronName = "12" weight = "0.28254335855938884" />
    <synapse sourceNeuronName = "8" targetNeuronName = "13" weight = "-0.6248926107532788" />
    <synapse sourceNeuronName = "8" targetNeuronName = "14" weight = "-0.9731309786205189" />
    <synapse sourceNeuronName = "8" targetNeuronName = "15" weight = "0.7281168122676576" />
    <synapse sourceNeuronName = "8" targetNeuronName = "16" weight = "0.3249285973192102" />
</neuralNetwork>