<neuralNetwork>
    <neuron name = "0" type = "sensor" linkName = "Torso" />
    <neuron name = "1" type = "sensor" linkName = "BackLeg" />
    <neuron name = "2" type = "sensor" linkName = "FrontLeg" />
    <neuron name = "3" type = "sensor" linkName = "LeftLeg" />
    <neuron name = "4" type = "sensor" linkName = "RightLeg" />
    <neuron name = "5" type = "sensor" linkName = "BackLowerLeg" />
    <neuron name = "6" type = "sensor" linkName = "FrontLowerLeg" />
    <neuron name = "7" type = "sensor" linkName = "LeftLowerLeg" />
    <neuron name = "8" type = "sensor" linkName = "RightLowerLeg" />
    <neuron name = "9" type = "motor"  jointName = "Torso_BackLeg" />
    <neuron name = "10" type = "motor"  jointName = "Torso_FrontLeg" />
    <neuron name = "11" type = "motor"  jointName = "Torso_LeftLeg" />
    <neuron name = "12" type = "motor"  jointName = "Torso_RightLeg" />
    <neuron name = "13" type = "motor"  jointName = "BackLeg_BackLowerLeg" />
    <neuron name = "14" type = "motor"  jointName = "FrontLeg_FrontLowerLeg" />
    <neuron name = "15" type = "motor"  jointName = "LeftLeg_LeftLowerLeg" />
    <neuron name = "16" type = "motor"  jointName = "RightLeg_RightLowerLeg" />
    <synapse sourceNeuronName = "0" targetNeuronName = "9" weight = "-0.22501172395614355" />
    <synapse sourceNeuronName = "0" targetNeuronName = "10" weight = "0.23335614389862536" />
    <synapse sourceNeuronName = "0" targetNeuronName = "11" weight = "0.22966626126993273" />
    <synapse sourceNeuronName = "0" targetNeuronName = "12" weight = "-0.7537403455633218" />
    <synapse sourceNeuronName = "0" targetNeuronName = "13" weight = "0.2438146785842077" />
    <synapse sourceNeuronName = "0" targetNeuronName = "14" weight = "0.21894899848847404" />
    <synapse sourceNeuronName = "0" targetNeuronName = "15" weight = "-0.46164148732396626" />
    <synapse sourceNeuronName = "0" targetNeuronName = "16" weight = "-0.831195306311594" />
    <synapse sourceNeuronName = "1" targetNeuronName = "9" weight = "0.7567389862559846" />
    <synapse sourceNeuronName = "1" targetNeuronName = "10" weight = "0.17499791404471932" />
    <synapse sourceNeuronName = "1" targetNeuronName = "11" weight = "0.08013549640539841" />
    <synapse sourceNeuronName = "1" targetNeuronName = "12" weight = "-0.9429785629665433" />
    <synapse sourceNeuronName = "1" targetNeuronName = "13" weight = "0.3323186245860008" />
    <synapse sourceNeuronName = "1" targetNeuronName = "14" weight = "0.7064014628257067" />
    <synapse sourceNeuronName = "1" targetNeuronName = "15" weight = "0.9658739220163528" />
    <synapse sourceNeuronName = "1" targetNeuronName = "16" weight = "-0.2943474823780259" />
    <synapse sourceNeuronName = "2" targetNeuronName = "9" weight = "0.3793172703912828" />
    <synapse sourceNeuronName = "2" targetNeuronName = "10" weight = "0.9913458031305236" />
    <synapse sourceNeuronName = "2" targetNeuronName = "11" weight = "0.23575049163975748" />
    <synapse sourceNeuronName = "2" targetNeuronName = "12" weight = "0.8253797133727525" />
    <synapse sourceNeuronName = "2" targetNeuronName = "13" weight = "0.3596497622839645" />
    <synapse sourceNeuronName = "2" targetNeuronName = "14" weight = "0.9027740417267254" />
    <synapse sourceNeuronName = "2" targetNeuronName = "15" weight = "0.27783277811880813" />
    <synapse sourceNeuronName = "2" targetNeuronName = "16" weight = "-0.938184489784567" />
    <synapse sourceNeuronName = "3" targetNeuronName = "9" weight = "0.695008761378342" />
    <synapse sourceNeuronName = "3" targetNeuronName = "10" weight = "-0.5348669347331305" />
    <synapse sourceNeuronName = "3" targetNeuronName = "11" weight = "0.8547746498953241" />
    <synapse sourceNeuronName = "3" targetNeuronName = "12" weight = "-0.1007039145240749" />
    <synapse sourceNeuronName = "3" targetNeuronName = "13" weight = "-0.19106624232358627" />
    <synapse sourceNeuronName = "3" targetNeuronName = "14" weight = "-0.8116904579695787" />
    <synapse sourceNeuronName = "3" targetNeuronName = "15" weight = "-0.9032620451376367" />
    <synapse sourceNeuronName = "3" targetNeuronName = "16" weight = "0.5621165730603266" />
    <synapse sourceNeuronName = "4" targetNeuronName = "9" weight = "-0.6741291027644556" />
    <synapse sourceNeuronName = "4" targetNeuronName = "10" weight = "-0.3081443055100801" />
    <synapse sourceNeuronName = "4" targetNeuronName = "11" weight = "-0.8624765984532408" />
    <synapse sourceNeuronName = "4" targetNeuronName = "12" weight = "0.28183634280077263" />
    <synapse sourceNeuronName = "4" targetNeuronName = "13" weight = "0.24165067893206138" />
    <synapse sourceNeuronName = "4" targetNeuronName = "14" weight = "-0.1323545541213904" />
    <synapse sourceNeuronName = "4" targetNeuronName = "15" weight = "0.6551312357331429" />
    <synapse sourceNeuronName = "4" targetNeuronName = "16" weight = "-0.9374160466880865" />
    <synapse sourceNeuronName = "5" targetNeuronName = "9" weight = "-0.3640914995486153" />
    <synapse sourceNeuronName = "5" targetNeuronName = "10" weight = "-0.4179203050074147" />
    <synapse sourceNeuronName = "5" targetNeuronName = "11" weight = "0.26842741558536076" />
    <synapse sourceNeuronName = "5" targetNeuronName = "12" weight = "-0.939941989262802" />
    <synapse sourceNeuronName = "5" targetNeuronName = "13" weight = "0.6643708032538711" />
    <synapse sourceNeuronName = "5" targetNeuronName = "14" weight = "0.5821567484894048" />
    <synapse sourceNeuronName = "5" targetNeuronName = "15" weight = "0.03322611905170736" />
    <synapse sourceNeuronName = "5" targetNeuronName = "16" weight = "-0.5787900414204332" />
    <synapse sourceNeuronName = "6" targetNeuronName = "9" weight = "-0.9378989701430474" />
    <synapse sourceNeuronName = "6" targetNeuronName = "10" weight = "0.2387068130592398" />
    <synapse sourceNeuronName = "6" targetNeuronName = "11" weight = "0.029369806355812766" />
    <synapse sourceNeuronName = "6" targetNeuronName = "12" weight = "0.03452232345317907" />
    <synapse sourceNeuronName = "6" targetNeuronName = "13" weight = "-0.5126840427478874" />
    <synapse sourceNeuronName = "6" targetNeuronName = "14" weight = "-0.0276334800706155" />
    <synapse sourceNeuronName = "6" targetNeuronName = "15" weight = "-0.6487970574164992" />
    <synapse sourceNeuronName = "6" targetNeuronName = "16" weight = "0.2910519002956329" />
    <synapse sourceNeuronName = "7" targetNeuronName = "9" weight = "-0.3928156077867575" />
    <synapse sourceNeuronName = "7" targetNeuronName = "10" weight = "0.12429562130126959" />
    <synapse sourceNeuronName = "7" targetNeuronName = "11" weight = "0.9860562038454668" />
    <synapse sourceNeuronName = "7" targetNeuronName = "12" weight = "0.447538288237044" />
    <synapse sourceNeuronName = "7" targetNeuronName = "13" weight = "0.5675201916060995" />
    <synapse sourceNeuronName = "7" targetNeuronName = "14" weight = "0.30368546521067197" />
    <synapse sourceNeuronName = "7" targetNeuronName = "15" weight = "0.759279891673329" />
    <synapse sourceNeuronName = "7" targetNeuronName = "16" weight = "-0.24815106887587324" />
    <synapse sourceNeuronName = "8" targetNeuronName = "9" weight = "0.8390591419898981" />
    <synapse sourceNeuronName = "8" targetNeuronName = "10" weight = "0.10979255806048682" />
    <synapse sourceNeuronName = "8" targetNeuronName = "11" weight = "0.35032640529784453" />
    <synapse sourceNeuronName = "8" targetNeuronName = "12" weight = "0.9686100024329634" />
    <synapse sourceNeuronName = "8" targetNeuronName = "13" weight = "-0.9992312666665777" />
    <synapse sourceNeuronName = "8" targetNeuronName = "14" weight = "-0.38461987296823263" />
    <synapse sourceNeuronName = "8" targetNeuronName = "15" weight = "-0.26497821221733786" />
    <synapse sourceNeuronName = "8" targetNeuronName = "16" weight = "-0.9762493132600241" />
</neuralNetwork>