<neuralNetwork>
    <neuron name = "0" type = "sensor" linkName = "Torso" />
    <neuron name = "1" type = "sensor" linkName = "BackLeg" />
    <neuron name = "2" type = "sensor" linkName = "FrontLeg" />
    <neuron name = "3" type = "sensor" linkName = "LeftLeg" />
    <neuron name = "4" type = "sensor" linkName = "RightLeg" />
    <neuron name = "5" type = "sensor" linkName = "BackLowerLeg" />
    <neuron name = "6" type = "sensor" linkName = "FrontLowerLeg" />
    <neuron name = "7" type = "sensor" linkName = "LeftLowerLeg" />
    <neuron name = "8" type = "sensor" linkName = "RightLowerLeg" />
    <neuron name = "9" type = "motor"  jointName = "Torso_BackLeg" />
    <neuron name = "10" type = "motor"  jointName = "Torso_FrontLeg" />
    <neuron name = "11" type = "motor"  jointName = "Torso_LeftLeg" />
    <neuron name = "12" type = "motor"  jointName = "Torso_RightLeg" />
    <neuron name = "13" type = "motor"  jointName = "BackLeg_BackLowerLeg" />
    <neuron name = "14" type = "motor"  jointName = "FrontLeg_FrontLowerLeg" />
    <neuron name = "15" type = "motor"  jointName = "LeftLeg_LeftLowerLeg" />
    <neuron name = "16" type = "motor"  jointName = "RightLeg_RightLowerLeg" />
    <synapse sourceNeuronName = "0" targetNeuronName = "9" weight = "0.6621921667678206" />
    <synapse sourceNeuronName = "0" targetNeuronName = "10" weight = "-0.3948362487189072" />
    <synapse sourceNeuronName = "0" targetNeuronName = "11" weight = "0.6100172832677522" />
    <synapse sourceNeuronName = "0" targetNeuronName = "12" weight = "-0.9836467583623212" />
    <synapse sourceNeuronName = "0" targetNeuronName = "13" weight = "0.5058500940735451" />
    <synapse sourceNeuronName = "0" targetNeuronName = "14" weight = "0.4303511019350752" />
    <synapse sourceNeuronName = "0" targetNeuronName = "15" weight = "-0.7130591160662387" />
    <synapse sourceNeuronName = "0" targetNeuronName = "16" weight = "0.8883677644449013" />
    <synapse sourceNeuronName = "1" targetNeuronName = "9" weight = "0.7045489205712969" />
    <synapse sourceNeuronName = "1" targetNeuronName = "10" weight = "0.5746344874580311" />
    <synapse sourceNeuronName = "1" targetNeuronName = "11" weight = "0.13780336187618958" />
    <synapse sourceNeuronName = "1" targetNeuronName = "12" weight = "0.40313984896201815" />
    <synapse sourceNeuronName = "1" targetNeuronName = "13" weight = "-0.3945084519711015" />
    <synapse sourceNeuronName = "1" targetNeuronName = "14" weight = "-0.10811088740303654" />
    <synapse sourceNeuronName = "1" targetNeuronName = "15" weight = "-0.7530319381694444" />
    <synapse sourceNeuronName = "1" targetNeuronName = "16" weight = "0.0707557064335147" />
    <synapse sourceNeuronName = "2" targetNeuronName = "9" weight = "0.99843712542194" />
    <synapse sourceNeuronName = "2" targetNeuronName = "10" weight = "0.26972304585078244" />
    <synapse sourceNeuronName = "2" targetNeuronName = "11" weight = "-0.05919766002684401" />
    <synapse sourceNeuronName = "2" targetNeuronName = "12" weight = "0.4229225614332832" />
    <synapse sourceNeuronName = "2" targetNeuronName = "13" weight = "-0.6583546339787871" />
    <synapse sourceNeuronName = "2" targetNeuronName = "14" weight = "-0.40267401126626456" />
    <synapse sourceNeuronName = "2" targetNeuronName = "15" weight = "-0.9032977669859572" />
    <synapse sourceNeuronName = "2" targetNeuronName = "16" weight = "-0.2507820361777511" />
    <synapse sourceNeuronName = "3" targetNeuronName = "9" weight = "0.42651557255816286" />
    <synapse sourceNeuronName = "3" targetNeuronName = "10" weight = "0.8522041549840527" />
    <synapse sourceNeuronName = "3" targetNeuronName = "11" weight = "-0.6793605531387281" />
    <synapse sourceNeuronName = "3" targetNeuronName = "12" weight = "-0.6101607531295301" />
    <synapse sourceNeuronName = "3" targetNeuronName = "13" weight = "0.17002614007082673" />
    <synapse sourceNeuronName = "3" targetNeuronName = "14" weight = "-0.7684884154170317" />
    <synapse sourceNeuronName = "3" targetNeuronName = "15" weight = "0.012962668226613738" />
    <synapse sourceNeuronName = "3" targetNeuronName = "16" weight = "-0.5014091334558168" />
    <synapse sourceNeuronName = "4" targetNeuronName = "9" weight = "-0.7092758464835642" />
    <synapse sourceNeuronName = "4" targetNeuronName = "10" weight = "0.8570997469613226" />
    <synapse sourceNeuronName = "4" targetNeuronName = "11" weight = "-0.47706292019193675" />
    <synapse sourceNeuronName = "4" targetNeuronName = "12" weight = "0.5342350894586274" />
    <synapse sourceNeuronName = "4" targetNeuronName = "13" weight = "0.312870635908012" />
    <synapse sourceNeuronName = "4" targetNeuronName = "14" weight = "-0.4417157406277108" />
    <synapse sourceNeuronName = "4" targetNeuronName = "15" weight = "-0.9413145144940798" />
    <synapse sourceNeuronName = "4" targetNeuronName = "16" weight = "0.8887173896344258" />
    <synapse sourceNeuronName = "5" targetNeuronName = "9" weight = "-0.3726842192637818" />
    <synapse sourceNeuronName = "5" targetNeuronName = "10" weight = "-0.6684276506516871" />
    <synapse sourceNeuronName = "5" targetNeuronName = "11" weight = "-0.25233698265174764" />
    <synapse sourceNeuronName = "5" targetNeuronName = "12" weight = "0.06556530096688618" />
    <synapse sourceNeuronName = "5" targetNeuronName = "13" weight = "0.7775613171594293" />
    <synapse sourceNeuronName = "5" targetNeuronName = "14" weight = "0.5971438402274052" />
    <synapse sourceNeuronName = "5" targetNeuronName = "15" weight = "0.918842927850289" />
    <synapse sourceNeuronName = "5" targetNeuronName = "16" weight = "-0.534755017232672" />
    <synapse sourceNeuronName = "6" targetNeuronName = "9" weight = "0.619495863365193" />
    <synapse sourceNeuronName = "6" targetNeuronName = "10" weight = "-0.48439017101139736" />
    <synapse sourceNeuronName = "6" targetNeuronName = "11" weight = "-0.9120507496485073" />
    <synapse sourceNeuronName = "6" targetNeuronName = "12" weight = "0.6169853956430111" />
    <synapse sourceNeuronName = "6" targetNeuronName = "13" weight = "-0.43092731267835105" />
    <synapse sourceNeuronName = "6" targetNeuronName = "14" weight = "0.6508650088051722" />
    <synapse sourceNeuronName = "6" targetNeuronName = "15" weight = "0.21013571781571394" />
    <synapse sourceNeuronName = "6" targetNeuronName = "16" weight = "0.8611668306874629" />
    <synapse sourceNeuronName = "7" targetNeuronName = "9" weight = "-0.9548280369626521" />
    <synapse sourceNeuronName = "7" targetNeuronName = "10" weight = "0.7173586674424901" />
    <synapse sourceNeuronName = "7" targetNeuronName = "11" weight = "-0.590182260737989" />
    <synapse sourceNeuronName = "7" targetNeuronName = "12" weight = "0.8492844058849938" />
    <synapse sourceNeuronName = "7" targetNeuronName = "13" weight = "-0.8774899004357941" />
    <synapse sourceNeuronName = "7" targetNeuronName = "14" weight = "-0.8949398793881638" />
    <synapse sourceNeuronName = "7" targetNeuronName = "15" weight = "-0.09933569914096774" />
    <synapse sourceNeuronName = "7" targetNeuronName = "16" weight = "0.5951670498583601" />
    <synapse sourceNeuronName = "8" targetNeuronName = "9" weight = "-0.7290977710348305" />
    <synapse sourceNeuronName = "8" targetNeuronName = "10" weight = "0.6044740593617979" />
    <synapse sourceNeuronName = "8" targetNeuronName = "11" weight = "-0.22721417076792205" />
    <synapse sourceNeuronName = "8" targetNeuronName = "12" weight = "-0.7441646104468862" />
    <synapse sourceNeuronName = "8" targetNeuronName = "13" weight = "-0.62842645668464" />
    <synapse sourceNeuronName = "8" targetNeuronName = "14" weight = "-0.2878660455160127" />
    <synapse sourceNeuronName = "8" targetNeuronName = "15" weight = "-0.09794725142805727" />
    <synapse sourceNeuronName = "8" targetNeuronName = "16" weight = "-0.8576782792606559" />
</neuralNetwork>