<neuralNetwork>
    <neuron name = "0" type = "sensor" linkName = "Torso" />
    <neuron name = "1" type = "sensor" linkName = "BackLeg" />
    <neuron name = "2" type = "sensor" linkName = "FrontLeg" />
    <neuron name = "3" type = "sensor" linkName = "LeftLeg" />
    <neuron name = "4" type = "sensor" linkName = "RightLeg" />
    <neuron name = "5" type = "sensor" linkName = "BackLowerLeg" />
    <neuron name = "6" type = "sensor" linkName = "FrontLowerLeg" />
    <neuron name = "7" type = "sensor" linkName = "LeftLowerLeg" />
    <neuron name = "8" type = "sensor" linkName = "RightLowerLeg" />
    <neuron name = "9" type = "motor"  jointName = "Torso_BackLeg" />
    <neuron name = "10" type = "motor"  jointName = "Torso_FrontLeg" />
    <neuron name = "11" type = "motor"  jointName = "Torso_LeftLeg" />
    <neuron name = "12" type = "motor"  jointName = "Torso_RightLeg" />
    <neuron name = "13" type = "motor"  jointName = "BackLeg_BackLowerLeg" />
    <neuron name = "14" type = "motor"  jointName = "FrontLeg_FrontLowerLeg" />
    <neuron name = "15" type = "motor"  jointName = "LeftLeg_LeftLowerLeg" />
    <neuron name = "16" type = "motor"  jointName = "RightLeg_RightLowerLeg" />
    <synapse sourceNeuronName = "0" targetNeuronName = "9" weight = "0.11586484962806964" />
    <synapse sourceNeuronName = "0" targetNeuronName = "10" weight = "0.15313039635552306" />
    <synapse sourceNeuronName = "0" targetNeuronName = "11" weight = "0.7186318581526157" />
    <synapse sourceNeuronName = "0" targetNeuronName = "12" weight = "0.04163665223598434" />
    <synapse sourceNeuronName = "0" targetNeuronName = "13" weight = "-0.7495733458520784" />
    <synapse sourceNeuronName = "0" targetNeuronName = "14" weight = "-0.06444208931162176" />
    <synapse sourceNeuronName = "0" targetNeuronName = "15" weight = "0.854092778947267" />
    <synapse sourceNeuronName = "0" targetNeuronName = "16" weight = "-0.8523989027891157" />
    <synapse sourceNeuronName = "1" targetNeuronName = "9" weight = "-0.7067318911516807" />
    <synapse sourceNeuronName = "1" targetNeuronName = "10" weight = "0.6063780972134329" />
    <synapse sourceNeuronName = "1" targetNeuronName = "11" weight = "-0.443252121435173" />
    <synapse sourceNeuronName = "1" targetNeuronName = "12" weight = "-0.9509171840717896" />
    <synapse sourceNeuronName = "1" targetNeuronName = "13" weight = "0.48688551578124817" />
    <synapse sourceNeuronName = "1" targetNeuronName = "14" weight = "-0.19266690140017095" />
    <synapse sourceNeuronName = "1" targetNeuronName = "15" weight = "0.9748543513459293" />
    <synapse sourceNeuronName = "1" targetNeuronName = "16" weight = "0.42760021854686103" />
    <synapse sourceNeuronName = "2" targetNeuronName = "9" weight = "0.9931305292035373" />
    <synapse sourceNeuronName = "2" targetNeuronName = "10" weight = "0.9399880621294239" />
    <synapse sourceNeuronName = "2" targetNeuronName = "11" weight = "-0.5535569030071039" />
    <synapse sourceNeuronName = "2" targetNeuronName = "12" weight = "0.4569924698755199" />
    <synapse sourceNeuronName = "2" targetNeuronName = "13" weight = "0.9182009485091374" />
    <synapse sourceNeuronName = "2" targetNeuronName = "14" weight = "0.43982744275405383" />
    <synapse sourceNeuronName = "2" targetNeuronName = "15" weight = "0.22946108196143822" />
    <synapse sourceNeuronName = "2" targetNeuronName = "16" weight = "0.2601943195941112" />
    <synapse sourceNeuronName = "3" targetNeuronName = "9" weight = "-0.07128422897825892" />
    <synapse sourceNeuronName = "3" targetNeuronName = "10" weight = "-0.9072571456999072" />
    <synapse sourceNeuronName = "3" targetNeuronName = "11" weight = "-0.4342039972247247" />
    <synapse sourceNeuronName = "3" targetNeuronName = "12" weight = "-0.25193745988980676" />
    <synapse sourceNeuronName = "3" targetNeuronName = "13" weight = "-0.25513077804714324" />
    <synapse sourceNeuronName = "3" targetNeuronName = "14" weight = "0.37523157033509325" />
    <synapse sourceNeuronName = "3" targetNeuronName = "15" weight = "-0.34556400790559283" />
    <synapse sourceNeuronName = "3" targetNeuronName = "16" weight = "-0.5201767270718769" />
    <synapse sourceNeuronName = "4" targetNeuronName = "9" weight = "-0.7035566628707122" />
    <synapse sourceNeuronName = "4" targetNeuronName = "10" weight = "0.9148611038112144" />
    <synapse sourceNeuronName = "4" targetNeuronName = "11" weight = "-0.17502415696401474" />
    <synapse sourceNeuronName = "4" targetNeuronName = "12" weight = "-0.8314280530730094" />
    <synapse sourceNeuronName = "4" targetNeuronName = "13" weight = "0.4503166832178602" />
    <synapse sourceNeuronName = "4" targetNeuronName = "14" weight = "-0.8546562940752747" />
    <synapse sourceNeuronName = "4" targetNeuronName = "15" weight = "0.693858945768894" />
    <synapse sourceNeuronName = "4" targetNeuronName = "16" weight = "-0.8948561962508406" />
    <synapse sourceNeuronName = "5" targetNeuronName = "9" weight = "0.5979744577565564" />
    <synapse sourceNeuronName = "5" targetNeuronName = "10" weight = "-0.426415924916939" />
    <synapse sourceNeuronName = "5" targetNeuronName = "11" weight = "0.025532267980494794" />
    <synapse sourceNeuronName = "5" targetNeuronName = "12" weight = "0.903905292020059" />
    <synapse sourceNeuronName = "5" targetNeuronName = "13" weight = "-0.24432948579096814" />
    <synapse sourceNeuronName = "5" targetNeuronName = "14" weight = "-0.538025781572077" />
    <synapse sourceNeuronName = "5" targetNeuronName = "15" weight = "-0.6679687122625044" />
    <synapse sourceNeuronName = "5" targetNeuronName = "16" weight = "-0.8209259201169561" />
    <synapse sourceNeuronName = "6" targetNeuronName = "9" weight = "-0.9946116251432506" />
    <synapse sourceNeuronName = "6" targetNeuronName = "10" weight = "-0.47274071230674175" />
    <synapse sourceNeuronName = "6" targetNeuronName = "11" weight = "-0.44733414370118885" />
    <synapse sourceNeuronName = "6" targetNeuronName = "12" weight = "-0.3979594714457584" />
    <synapse sourceNeuronName = "6" targetNeuronName = "13" weight = "0.03900357060763393" />
    <synapse sourceNeuronName = "6" targetNeuronName = "14" weight = "-0.09470903829415422" />
    <synapse sourceNeuronName = "6" targetNeuronName = "15" weight = "-0.26985368373858676" />
    <synapse sourceNeuronName = "6" targetNeuronName = "16" weight = "-0.6828057342523794" />
    <synapse sourceNeuronName = "7" targetNeuronName = "9" weight = "-0.8220732624413638" />
    <synapse sourceNeuronName = "7" targetNeuronName = "10" weight = "0.32429074592305884" />
    <synapse sourceNeuronName = "7" targetNeuronName = "11" weight = "0.735233847350445" />
    <synapse sourceNeuronName = "7" targetNeuronName = "12" weight = "-0.6385535164436205" />
    <synapse sourceNeuronName = "7" targetNeuronName = "13" weight = "-0.7823677122259118" />
    <synapse sourceNeuronName = "7" targetNeuronName = "14" weight = "-0.3863877420797903" />
    <synapse sourceNeuronName = "7" targetNeuronName = "15" weight = "0.2260639229998922" />
    <synapse sourceNeuronName = "7" targetNeuronName = "16" weight = "0.003778093477241784" />
    <synapse sourceNeuronName = "8" targetNeuronName = "9" weight = "0.9317556582023061" />
    <synapse sourceNeuronName = "8" targetNeuronName = "10" weight = "0.40304522478236326" />
    <synapse sourceNeuronName = "8" targetNeuronName = "11" weight = "0.6625875512503043" />
    <synapse sourceNeuronName = "8" targetNeuronName = "12" weight = "-0.39443567584024297" />
    <synapse sourceNeuronName = "8" targetNeuronName = "13" weight = "-0.8383210976658457" />
    <synapse sourceNeuronName = "8" targetNeuronName = "14" weight = "0.6147034129913846" />
    <synapse sourceNeuronName = "8" targetNeuronName = "15" weight = "-0.7784184850108822" />
    <synapse sourceNeuronName = "8" targetNeuronName = "16" weight = "0.8217800663420838" />
</neuralNetwork>