<neuralNetwork>
    <neuron name = "0" type = "sensor" linkName = "Torso" />
    <neuron name = "1" type = "sensor" linkName = "BackLeg" />
    <neuron name = "2" type = "sensor" linkName = "FrontLeg" />
    <neuron name = "3" type = "sensor" linkName = "LeftLeg" />
    <neuron name = "4" type = "sensor" linkName = "RightLeg" />
    <neuron name = "5" type = "sensor" linkName = "BackLowerLeg" />
    <neuron name = "6" type = "sensor" linkName = "FrontLowerLeg" />
    <neuron name = "7" type = "sensor" linkName = "LeftLowerLeg" />
    <neuron name = "8" type = "sensor" linkName = "RightLowerLeg" />
    <neuron name = "9" type = "motor"  jointName = "Torso_BackLeg" />
    <neuron name = "10" type = "motor"  jointName = "Torso_FrontLeg" />
    <neuron name = "11" type = "motor"  jointName = "Torso_LeftLeg" />
    <neuron name = "12" type = "motor"  jointName = "Torso_RightLeg" />
    <neuron name = "13" type = "motor"  jointName = "BackLeg_BackLowerLeg" />
    <neuron name = "14" type = "motor"  jointName = "FrontLeg_FrontLowerLeg" />
    <neuron name = "15" type = "motor"  jointName = "LeftLeg_LeftLowerLeg" />
    <neuron name = "16" type = "motor"  jointName = "RightLeg_RightLowerLeg" />
    <synapse sourceNeuronName = "0" targetNeuronName = "9" weight = "-0.78071877117547" />
    <synapse sourceNeuronName = "0" targetNeuronName = "10" weight = "0.865043024901526" />
    <synapse sourceNeuronName = "0" targetNeuronName = "11" weight = "0.20950972406820778" />
    <synapse sourceNeuronName = "0" targetNeuronName = "12" weight = "0.1624951173669016" />
    <synapse sourceNeuronName = "0" targetNeuronName = "13" weight = "0.6093885509465531" />
    <synapse sourceNeuronName = "0" targetNeuronName = "14" weight = "0.12897345112021874" />
    <synapse sourceNeuronName = "0" targetNeuronName = "15" weight = "0.3578485233874007" />
    <synapse sourceNeuronName = "0" targetNeuronName = "16" weight = "-0.23873113707824234" />
    <synapse sourceNeuronName = "1" targetNeuronName = "9" weight = "0.7723878400791102" />
    <synapse sourceNeuronName = "1" targetNeuronName = "10" weight = "-0.09809001355927105" />
    <synapse sourceNeuronName = "1" targetNeuronName = "11" weight = "0.34263937593033056" />
    <synapse sourceNeuronName = "1" targetNeuronName = "12" weight = "-0.29698286890112513" />
    <synapse sourceNeuronName = "1" targetNeuronName = "13" weight = "0.6761671648063743" />
    <synapse sourceNeuronName = "1" targetNeuronName = "14" weight = "-0.6657699091206835" />
    <synapse sourceNeuronName = "1" targetNeuronName = "15" weight = "-0.5947567257663711" />
    <synapse sourceNeuronName = "1" targetNeuronName = "16" weight = "0.87985113348709" />
    <synapse sourceNeuronName = "2" targetNeuronName = "9" weight = "-0.3191756719285148" />
    <synapse sourceNeuronName = "2" targetNeuronName = "10" weight = "0.05675783455962935" />
    <synapse sourceNeuronName = "2" targetNeuronName = "11" weight = "-0.6969753172919206" />
    <synapse sourceNeuronName = "2" targetNeuronName = "12" weight = "0.737724753205816" />
    <synapse sourceNeuronName = "2" targetNeuronName = "13" weight = "0.8488333610396943" />
    <synapse sourceNeuronName = "2" targetNeuronName = "14" weight = "-0.5183801999231932" />
    <synapse sourceNeuronName = "2" targetNeuronName = "15" weight = "0.16005724901264418" />
    <synapse sourceNeuronName = "2" targetNeuronName = "16" weight = "0.7924521452365487" />
    <synapse sourceNeuronName = "3" targetNeuronName = "9" weight = "0.3567120033532296" />
    <synapse sourceNeuronName = "3" targetNeuronName = "10" weight = "0.39611416476092587" />
    <synapse sourceNeuronName = "3" targetNeuronName = "11" weight = "-0.6272932454392819" />
    <synapse sourceNeuronName = "3" targetNeuronName = "12" weight = "-0.869504746472429" />
    <synapse sourceNeuronName = "3" targetNeuronName = "13" weight = "0.32174547821064814" />
    <synapse sourceNeuronName = "3" targetNeuronName = "14" weight = "0.138493682083342" />
    <synapse sourceNeuronName = "3" targetNeuronName = "15" weight = "-0.3343086954276584" />
    <synapse sourceNeuronName = "3" targetNeuronName = "16" weight = "-0.6612837585325981" />
    <synapse sourceNeuronName = "4" targetNeuronName = "9" weight = "0.3238020476668595" />
    <synapse sourceNeuronName = "4" targetNeuronName = "10" weight = "-0.8169075437810052" />
    <synapse sourceNeuronName = "4" targetNeuronName = "11" weight = "-0.3275771611353766" />
    <synapse sourceNeuronName = "4" targetNeuronName = "12" weight = "-0.986610511907136" />
    <synapse sourceNeuronName = "4" targetNeuronName = "13" weight = "0.03273385027096731" />
    <synapse sourceNeuronName = "4" targetNeuronName = "14" weight = "-0.5576854538457521" />
    <synapse sourceNeuronName = "4" targetNeuronName = "15" weight = "0.9322675812115904" />
    <synapse sourceNeuronName = "4" targetNeuronName = "16" weight = "-0.27503940011938877" />
    <synapse sourceNeuronName = "5" targetNeuronName = "9" weight = "0.6632618624831412" />
    <synapse sourceNeuronName = "5" targetNeuronName = "10" weight = "0.8176335207626184" />
    <synapse sourceNeuronName = "5" targetNeuronName = "11" weight = "0.3508225321477665" />
    <synapse sourceNeuronName = "5" targetNeuronName = "12" weight = "-0.1821837723172739" />
    <synapse sourceNeuronName = "5" targetNeuronName = "13" weight = "0.8315632900669658" />
    <synapse sourceNeuronName = "5" targetNeuronName = "14" weight = "0.24267245062973664" />
    <synapse sourceNeuronName = "5" targetNeuronName = "15" weight = "0.44684835452992977" />
    <synapse sourceNeuronName = "5" targetNeuronName = "16" weight = "-0.6414327234197257" />
    <synapse sourceNeuronName = "6" targetNeuronName = "9" weight = "-0.7256679715355585" />
    <synapse sourceNeuronName = "6" targetNeuronName = "10" weight = "0.5006367631887201" />
    <synapse sourceNeuronName = "6" targetNeuronName = "11" weight = "-0.44960551022139716" />
    <synapse sourceNeuronName = "6" targetNeuronName = "12" weight = "-0.5884393513223283" />
    <synapse sourceNeuronName = "6" targetNeuronName = "13" weight = "0.7924817442819307" />
    <synapse sourceNeuronName = "6" targetNeuronName = "14" weight = "0.039581344748005565" />
    <synapse sourceNeuronName = "6" targetNeuronName = "15" weight = "0.10332329199632428" />
    <synapse sourceNeuronName = "6" targetNeuronName = "16" weight = "-0.2417280016219805" />
    <synapse sourceNeuronName = "7" targetNeuronName = "9" weight = "0.9622049401498076" />
    <synapse sourceNeuronName = "7" targetNeuronName = "10" weight = "-0.41068799004153744" />
    <synapse sourceNeuronName = "7" targetNeuronName = "11" weight = "0.42387857570538845" />
    <synapse sourceNeuronName = "7" targetNeuronName = "12" weight = "-0.8051174680397042" />
    <synapse sourceNeuronName = "7" targetNeuronName = "13" weight = "-0.345390944464228" />
    <synapse sourceNeuronName = "7" targetNeuronName = "14" weight = "0.22294312289785223" />
    <synapse sourceNeuronName = "7" targetNeuronName = "15" weight = "0.43604464616386784" />
    <synapse sourceNeuronName = "7" targetNeuronName = "16" weight = "0.6176361927551064" />
    <synapse sourceNeuronName = "8" targetNeuronName = "9" weight = "-0.9910048330837544" />
    <synapse sourceNeuronName = "8" targetNeuronName = "10" weight = "-0.3109449573234566" />
    <synapse sourceNeuronName = "8" targetNeuronName = "11" weight = "-0.5969639496075909" />
    <synapse sourceNeuronName = "8" targetNeuronName = "12" weight = "-0.7324670468825631" />
    <synapse sourceNeuronName = "8" targetNeuronName = "13" weight = "-0.396455101986976" />
    <synapse sourceNeuronName = "8" targetNeuronName = "14" weight = "0.3036612969503929" />
    <synapse sourceNeuronName = "8" targetNeuronName = "15" weight = "-0.6991181073582451" />
    <synapse sourceNeuronName = "8" targetNeuronName = "16" weight = "0.26987805064674153" />
</neuralNetwork>