<neuralNetwork>
    <neuron name = "0" type = "sensor" linkName = "Torso" />
    <neuron name = "1" type = "sensor" linkName = "BackLeg" />
    <neuron name = "2" type = "sensor" linkName = "FrontLeg" />
    <neuron name = "3" type = "sensor" linkName = "LeftLeg" />
    <neuron name = "4" type = "sensor" linkName = "RightLeg" />
    <neuron name = "5" type = "sensor" linkName = "BackLowerLeg" />
    <neuron name = "6" type = "sensor" linkName = "FrontLowerLeg" />
    <neuron name = "7" type = "sensor" linkName = "LeftLowerLeg" />
    <neuron name = "8" type = "sensor" linkName = "RightLowerLeg" />
    <neuron name = "9" type = "motor"  jointName = "Torso_BackLeg" />
    <neuron name = "10" type = "motor"  jointName = "Torso_FrontLeg" />
    <neuron name = "11" type = "motor"  jointName = "Torso_LeftLeg" />
    <neuron name = "12" type = "motor"  jointName = "Torso_RightLeg" />
    <neuron name = "13" type = "motor"  jointName = "BackLeg_BackLowerLeg" />
    <neuron name = "14" type = "motor"  jointName = "FrontLeg_FrontLowerLeg" />
    <neuron name = "15" type = "motor"  jointName = "LeftLeg_LeftLowerLeg" />
    <neuron name = "16" type = "motor"  jointName = "RightLeg_RightLowerLeg" />
    <synapse sourceNeuronName = "0" targetNeuronName = "9" weight = "-0.7078452098859149" />
    <synapse sourceNeuronName = "0" targetNeuronName = "10" weight = "0.15839084755894062" />
    <synapse sourceNeuronName = "0" targetNeuronName = "11" weight = "-0.20471408402730495" />
    <synapse sourceNeuronName = "0" targetNeuronName = "12" weight = "-0.20856634763245663" />
    <synapse sourceNeuronName = "0" targetNeuronName = "13" weight = "0.5606480611489768" />
    <synapse sourceNeuronName = "0" targetNeuronName = "14" weight = "0.8454238008179249" />
    <synapse sourceNeuronName = "0" targetNeuronName = "15" weight = "-0.3068685170152763" />
    <synapse sourceNeuronName = "0" targetNeuronName = "16" weight = "-0.21172095770552657" />
    <synapse sourceNeuronName = "1" targetNeuronName = "9" weight = "-0.8319146302752716" />
    <synapse sourceNeuronName = "1" targetNeuronName = "10" weight = "0.9699640902723399" />
    <synapse sourceNeuronName = "1" targetNeuronName = "11" weight = "0.9207487204079319" />
    <synapse sourceNeuronName = "1" targetNeuronName = "12" weight = "0.48451219679951407" />
    <synapse sourceNeuronName = "1" targetNeuronName = "13" weight = "0.33876766313072015" />
    <synapse sourceNeuronName = "1" targetNeuronName = "14" weight = "-0.6199963568766493" />
    <synapse sourceNeuronName = "1" targetNeuronName = "15" weight = "-0.7839088899620623" />
    <synapse sourceNeuronName = "1" targetNeuronName = "16" weight = "-0.26072476038155457" />
    <synapse sourceNeuronName = "2" targetNeuronName = "9" weight = "0.4492260370871566" />
    <synapse sourceNeuronName = "2" targetNeuronName = "10" weight = "-0.2909520084551924" />
    <synapse sourceNeuronName = "2" targetNeuronName = "11" weight = "-0.8984451635956554" />
    <synapse sourceNeuronName = "2" targetNeuronName = "12" weight = "-0.44699411020769286" />
    <synapse sourceNeuronName = "2" targetNeuronName = "13" weight = "-0.791255595864409" />
    <synapse sourceNeuronName = "2" targetNeuronName = "14" weight = "0.12428276473997224" />
    <synapse sourceNeuronName = "2" targetNeuronName = "15" weight = "-0.9436226997209194" />
    <synapse sourceNeuronName = "2" targetNeuronName = "16" weight = "-0.16770037629002976" />
    <synapse sourceNeuronName = "3" targetNeuronName = "9" weight = "0.2897812115184868" />
    <synapse sourceNeuronName = "3" targetNeuronName = "10" weight = "0.6626875057037958" />
    <synapse sourceNeuronName = "3" targetNeuronName = "11" weight = "0.8400188281776171" />
    <synapse sourceNeuronName = "3" targetNeuronName = "12" weight = "0.3660455630861974" />
    <synapse sourceNeuronName = "3" targetNeuronName = "13" weight = "-0.7907348267139789" />
    <synapse sourceNeuronName = "3" targetNeuronName = "14" weight = "-0.6601471083981021" />
    <synapse sourceNeuronName = "3" targetNeuronName = "15" weight = "-0.07824928621549532" />
    <synapse sourceNeuronName = "3" targetNeuronName = "16" weight = "-0.07656615146114842" />
    <synapse sourceNeuronName = "4" targetNeuronName = "9" weight = "-0.7571291582536714" />
    <synapse sourceNeuronName = "4" targetNeuronName = "10" weight = "0.7946436695350376" />
    <synapse sourceNeuronName = "4" targetNeuronName = "11" weight = "0.9722162941340153" />
    <synapse sourceNeuronName = "4" targetNeuronName = "12" weight = "-0.31393746724862703" />
    <synapse sourceNeuronName = "4" targetNeuronName = "13" weight = "0.7969183487671414" />
    <synapse sourceNeuronName = "4" targetNeuronName = "14" weight = "-0.5639085516648019" />
    <synapse sourceNeuronName = "4" targetNeuronName = "15" weight = "-0.1992357364272126" />
    <synapse sourceNeuronName = "4" targetNeuronName = "16" weight = "0.4976377250635735" />
    <synapse sourceNeuronName = "5" targetNeuronName = "9" weight = "-0.4296745386990748" />
    <synapse sourceNeuronName = "5" targetNeuronName = "10" weight = "0.7708346395136778" />
    <synapse sourceNeuronName = "5" targetNeuronName = "11" weight = "0.716575257501479" />
    <synapse sourceNeuronName = "5" targetNeuronName = "12" weight = "0.9884003110084973" />
    <synapse sourceNeuronName = "5" targetNeuronName = "13" weight = "-0.023782024088009335" />
    <synapse sourceNeuronName = "5" targetNeuronName = "14" weight = "-0.8682388177486413" />
    <synapse sourceNeuronName = "5" targetNeuronName = "15" weight = "0.5476103999824524" />
    <synapse sourceNeuronName = "5" targetNeuronName = "16" weight = "-0.5794376692795977" />
    <synapse sourceNeuronName = "6" targetNeuronName = "9" weight = "0.6272555777469793" />
    <synapse sourceNeuronName = "6" targetNeuronName = "10" weight = "0.24186773482216672" />
    <synapse sourceNeuronName = "6" targetNeuronName = "11" weight = "-0.18340153992554087" />
    <synapse sourceNeuronName = "6" targetNeuronName = "12" weight = "0.9251841576227733" />
    <synapse sourceNeuronName = "6" targetNeuronName = "13" weight = "-0.5911192375199572" />
    <synapse sourceNeuronName = "6" targetNeuronName = "14" weight = "-0.7418787883361251" />
    <synapse sourceNeuronName = "6" targetNeuronName = "15" weight = "0.6360083642581194" />
    <synapse sourceNeuronName = "6" targetNeuronName = "16" weight = "-0.017331766546364147" />
    <synapse sourceNeuronName = "7" targetNeuronName = "9" weight = "-0.32267732685397754" />
    <synapse sourceNeuronName = "7" targetNeuronName = "10" weight = "-0.17435484111240118" />
    <synapse sourceNeuronName = "7" targetNeuronName = "11" weight = "0.6773203443877029" />
    <synapse sourceNeuronName = "7" targetNeuronName = "12" weight = "-0.3020165723713182" />
    <synapse sourceNeuronName = "7" targetNeuronName = "13" weight = "-0.11910762808589204" />
    <synapse sourceNeuronName = "7" targetNeuronName = "14" weight = "0.8333364419709408" />
    <synapse sourceNeuronName = "7" targetNeuronName = "15" weight = "0.040713884988481386" />
    <synapse sourceNeuronName = "7" targetNeuronName = "16" weight = "-0.17058803045534" />
    <synapse sourceNeuronName = "8" targetNeuronName = "9" weight = "-0.10232432551614523" />
    <synapse sourceNeuronName = "8" targetNeuronName = "10" weight = "0.812830583094023" />
    <synapse sourceNeuronName = "8" targetNeuronName = "11" weight = "0.9708967417072736" />
    <synapse sourceNeuronName = "8" targetNeuronName = "12" weight = "0.44972937637196075" />
    <synapse sourceNeuronName = "8" targetNeuronName = "13" weight = "0.14562698460014056" />
    <synapse sourceNeuronName = "8" targetNeuronName = "14" weight = "-0.6183514341935712" />
    <synapse sourceNeuronName = "8" targetNeuronName = "15" weight = "0.7702372319793491" />
    <synapse sourceNeuronName = "8" targetNeuronName = "16" weight = "0.8076246051817282" />
</neuralNetwork>