<neuralNetwork>
    <neuron name = "0" type = "sensor" linkName = "Torso" />
    <neuron name = "1" type = "sensor" linkName = "BackLeg" />
    <neuron name = "2" type = "sensor" linkName = "FrontLeg" />
    <neuron name = "3" type = "sensor" linkName = "LeftLeg" />
    <neuron name = "4" type = "sensor" linkName = "RightLeg" />
    <neuron name = "5" type = "sensor" linkName = "BackLowerLeg" />
    <neuron name = "6" type = "sensor" linkName = "FrontLowerLeg" />
    <neuron name = "7" type = "sensor" linkName = "LeftLowerLeg" />
    <neuron name = "8" type = "sensor" linkName = "RightLowerLeg" />
    <neuron name = "9" type = "motor"  jointName = "Torso_BackLeg" />
    <neuron name = "10" type = "motor"  jointName = "Torso_FrontLeg" />
    <neuron name = "11" type = "motor"  jointName = "Torso_LeftLeg" />
    <neuron name = "12" type = "motor"  jointName = "Torso_RightLeg" />
    <neuron name = "13" type = "motor"  jointName = "BackLeg_BackLowerLeg" />
    <neuron name = "14" type = "motor"  jointName = "FrontLeg_FrontLowerLeg" />
    <neuron name = "15" type = "motor"  jointName = "LeftLeg_LeftLowerLeg" />
    <neuron name = "16" type = "motor"  jointName = "RightLeg_RightLowerLeg" />
    <synapse sourceNeuronName = "0" targetNeuronName = "9" weight = "-0.7763156960933857" />
    <synapse sourceNeuronName = "0" targetNeuronName = "10" weight = "-0.3360346253168338" />
    <synapse sourceNeuronName = "0" targetNeuronName = "11" weight = "-0.8383306452117529" />
    <synapse sourceNeuronName = "0" targetNeuronName = "12" weight = "0.29096489277856996" />
    <synapse sourceNeuronName = "0" targetNeuronName = "13" weight = "0.7071853370707679" />
    <synapse sourceNeuronName = "0" targetNeuronName = "14" weight = "0.18731872942065841" />
    <synapse sourceNeuronName = "0" targetNeuronName = "15" weight = "0.09452396676349117" />
    <synapse sourceNeuronName = "0" targetNeuronName = "16" weight = "-0.5554046509770294" />
    <synapse sourceNeuronName = "1" targetNeuronName = "9" weight = "-0.14514450825542258" />
    <synapse sourceNeuronName = "1" targetNeuronName = "10" weight = "0.13396276988613054" />
    <synapse sourceNeuronName = "1" targetNeuronName = "11" weight = "-0.13577859095382538" />
    <synapse sourceNeuronName = "1" targetNeuronName = "12" weight = "-0.0013729435107681098" />
    <synapse sourceNeuronName = "1" targetNeuronName = "13" weight = "-0.46340108847788186" />
    <synapse sourceNeuronName = "1" targetNeuronName = "14" weight = "-0.9085496652403282" />
    <synapse sourceNeuronName = "1" targetNeuronName = "15" weight = "-0.8040657642952163" />
    <synapse sourceNeuronName = "1" targetNeuronName = "16" weight = "0.3090561383484769" />
    <synapse sourceNeuronName = "2" targetNeuronName = "9" weight = "-0.4339331997964482" />
    <synapse sourceNeuronName = "2" targetNeuronName = "10" weight = "-0.30606088420386834" />
    <synapse sourceNeuronName = "2" targetNeuronName = "11" weight = "-0.227039538191679" />
    <synapse sourceNeuronName = "2" targetNeuronName = "12" weight = "-0.27106052455394924" />
    <synapse sourceNeuronName = "2" targetNeuronName = "13" weight = "-0.11709623956094939" />
    <synapse sourceNeuronName = "2" targetNeuronName = "14" weight = "0.46741116613655587" />
    <synapse sourceNeuronName = "2" targetNeuronName = "15" weight = "0.6666444044936779" />
    <synapse sourceNeuronName = "2" targetNeuronName = "16" weight = "0.44658915233464724" />
    <synapse sourceNeuronName = "3" targetNeuronName = "9" weight = "-0.11571219306480174" />
    <synapse sourceNeuronName = "3" targetNeuronName = "10" weight = "0.37100296896262885" />
    <synapse sourceNeuronName = "3" targetNeuronName = "11" weight = "0.6776948071415716" />
    <synapse sourceNeuronName = "3" targetNeuronName = "12" weight = "0.026590022972271088" />
    <synapse sourceNeuronName = "3" targetNeuronName = "13" weight = "0.3403043030982662" />
    <synapse sourceNeuronName = "3" targetNeuronName = "14" weight = "-0.593657107378158" />
    <synapse sourceNeuronName = "3" targetNeuronName = "15" weight = "-0.5503045502215744" />
    <synapse sourceNeuronName = "3" targetNeuronName = "16" weight = "0.924556796299187" />
    <synapse sourceNeuronName = "4" targetNeuronName = "9" weight = "-0.08916065004491558" />
    <synapse sourceNeuronName = "4" targetNeuronName = "10" weight = "0.6928726825841951" />
    <synapse sourceNeuronName = "4" targetNeuronName = "11" weight = "0.21833981913081013" />
    <synapse sourceNeuronName = "4" targetNeuronName = "12" weight = "0.3805491276383295" />
    <synapse sourceNeuronName = "4" targetNeuronName = "13" weight = "-0.8761774683055639" />
    <synapse sourceNeuronName = "4" targetNeuronName = "14" weight = "-0.4395144396971682" />
    <synapse sourceNeuronName = "4" targetNeuronName = "15" weight = "0.37477556982231097" />
    <synapse sourceNeuronName = "4" targetNeuronName = "16" weight = "-0.36289063091942575" />
    <synapse sourceNeuronName = "5" targetNeuronName = "9" weight = "0.314655120669997" />
    <synapse sourceNeuronName = "5" targetNeuronName = "10" weight = "0.8415886096988232" />
    <synapse sourceNeuronName = "5" targetNeuronName = "11" weight = "0.1657164441397454" />
    <synapse sourceNeuronName = "5" targetNeuronName = "12" weight = "0.8245828481213842" />
    <synapse sourceNeuronName = "5" targetNeuronName = "13" weight = "0.7058830460478971" />
    <synapse sourceNeuronName = "5" targetNeuronName = "14" weight = "0.7322489583416962" />
    <synapse sourceNeuronName = "5" targetNeuronName = "15" weight = "0.7315173454920845" />
    <synapse sourceNeuronName = "5" targetNeuronName = "16" weight = "-0.5782519830827655" />
    <synapse sourceNeuronName = "6" targetNeuronName = "9" weight = "-0.8188700646573295" />
    <synapse sourceNeuronName = "6" targetNeuronName = "10" weight = "0.5344858623136499" />
    <synapse sourceNeuronName = "6" targetNeuronName = "11" weight = "-0.5078887270819936" />
    <synapse sourceNeuronName = "6" targetNeuronName = "12" weight = "-0.3967147336126413" />
    <synapse sourceNeuronName = "6" targetNeuronName = "13" weight = "-0.23676119639201665" />
    <synapse sourceNeuronName = "6" targetNeuronName = "14" weight = "-0.001322903780545559" />
    <synapse sourceNeuronName = "6" targetNeuronName = "15" weight = "-0.5161683267715269" />
    <synapse sourceNeuronName = "6" targetNeuronName = "16" weight = "-0.08072735336837566" />
    <synapse sourceNeuronName = "7" targetNeuronName = "9" weight = "0.9796713024126047" />
    <synapse sourceNeuronName = "7" targetNeuronName = "10" weight = "0.31461812233185404" />
    <synapse sourceNeuronName = "7" targetNeuronName = "11" weight = "-0.36570247129703226" />
    <synapse sourceNeuronName = "7" targetNeuronName = "12" weight = "-0.5274195791085805" />
    <synapse sourceNeuronName = "7" targetNeuronName = "13" weight = "-0.5050741531427312" />
    <synapse sourceNeuronName = "7" targetNeuronName = "14" weight = "0.5130313673679059" />
    <synapse sourceNeuronName = "7" targetNeuronName = "15" weight = "-0.05898214589232631" />
    <synapse sourceNeuronName = "7" targetNeuronName = "16" weight = "-0.3133367322447367" />
    <synapse sourceNeuronName = "8" targetNeuronName = "9" weight = "-0.3248680357573419" />
    <synapse sourceNeuronName = "8" targetNeuronName = "10" weight = "-0.29347833961177905" />
    <synapse sourceNeuronName = "8" targetNeuronName = "11" weight = "0.15376955917125135" />
    <synapse sourceNeuronName = "8" targetNeuronName = "12" weight = "-0.9346533819536074" />
    <synapse sourceNeuronName = "8" targetNeuronName = "13" weight = "0.9410501138291356" />
    <synapse sourceNeuronName = "8" targetNeuronName = "14" weight = "0.5211944679414626" />
    <synapse sourceNeuronName = "8" targetNeuronName = "15" weight = "0.8451081382435233" />
    <synapse sourceNeuronName = "8" targetNeuronName = "16" weight = "-0.8301497131402649" />
</neuralNetwork>