<neuralNetwork>
    <neuron name = "0" type = "sensor" linkName = "Torso" />
    <neuron name = "1" type = "sensor" linkName = "BackLeg" />
    <neuron name = "2" type = "sensor" linkName = "FrontLeg" />
    <neuron name = "3" type = "sensor" linkName = "LeftLeg" />
    <neuron name = "4" type = "sensor" linkName = "RightLeg" />
    <neuron name = "5" type = "sensor" linkName = "BackLowerLeg" />
    <neuron name = "6" type = "sensor" linkName = "FrontLowerLeg" />
    <neuron name = "7" type = "sensor" linkName = "LeftLowerLeg" />
    <neuron name = "8" type = "sensor" linkName = "RightLowerLeg" />
    <neuron name = "9" type = "motor"  jointName = "Torso_BackLeg" />
    <neuron name = "10" type = "motor"  jointName = "Torso_FrontLeg" />
    <neuron name = "11" type = "motor"  jointName = "Torso_LeftLeg" />
    <neuron name = "12" type = "motor"  jointName = "Torso_RightLeg" />
    <neuron name = "13" type = "motor"  jointName = "BackLeg_BackLowerLeg" />
    <neuron name = "14" type = "motor"  jointName = "FrontLeg_FrontLowerLeg" />
    <neuron name = "15" type = "motor"  jointName = "LeftLeg_LeftLowerLeg" />
    <neuron name = "16" type = "motor"  jointName = "RightLeg_RightLowerLeg" />
    <synapse sourceNeuronName = "0" targetNeuronName = "9" weight = "0.4983402062830551" />
    <synapse sourceNeuronName = "0" targetNeuronName = "10" weight = "-0.6062251120208311" />
    <synapse sourceNeuronName = "0" targetNeuronName = "11" weight = "0.8810850239130268" />
    <synapse sourceNeuronName = "0" targetNeuronName = "12" weight = "-0.37710231950884454" />
    <synapse sourceNeuronName = "0" targetNeuronName = "13" weight = "0.08849875001940899" />
    <synapse sourceNeuronName = "0" targetNeuronName = "14" weight = "-0.6210992555327186" />
    <synapse sourceNeuronName = "0" targetNeuronName = "15" weight = "-0.86412066983131" />
    <synapse sourceNeuronName = "0" targetNeuronName = "16" weight = "-0.9735958426659888" />
    <synapse sourceNeuronName = "1" targetNeuronName = "9" weight = "-0.24160318727581065" />
    <synapse sourceNeuronName = "1" targetNeuronName = "10" weight = "0.048809258799960675" />
    <synapse sourceNeuronName = "1" targetNeuronName = "11" weight = "0.8332745889402235" />
    <synapse sourceNeuronName = "1" targetNeuronName = "12" weight = "0.47199354728533494" />
    <synapse sourceNeuronName = "1" targetNeuronName = "13" weight = "0.1105847409513867" />
    <synapse sourceNeuronName = "1" targetNeuronName = "14" weight = "-0.8656542687639452" />
    <synapse sourceNeuronName = "1" targetNeuronName = "15" weight = "0.38516650017083487" />
    <synapse sourceNeuronName = "1" targetNeuronName = "16" weight = "0.7618965146936569" />
    <synapse sourceNeuronName = "2" targetNeuronName = "9" weight = "0.7584432064984585" />
    <synapse sourceNeuronName = "2" targetNeuronName = "10" weight = "0.3673515734262245" />
    <synapse sourceNeuronName = "2" targetNeuronName = "11" weight = "-0.6517404982370456" />
    <synapse sourceNeuronName = "2" targetNeuronName = "12" weight = "-0.22043210806716607" />
    <synapse sourceNeuronName = "2" targetNeuronName = "13" weight = "-0.3938089491160657" />
    <synapse sourceNeuronName = "2" targetNeuronName = "14" weight = "-0.802255010413399" />
    <synapse sourceNeuronName = "2" targetNeuronName = "15" weight = "0.9525558732636765" />
    <synapse sourceNeuronName = "2" targetNeuronName = "16" weight = "0.3913603458491244" />
    <synapse sourceNeuronName = "3" targetNeuronName = "9" weight = "0.6046061390863147" />
    <synapse sourceNeuronName = "3" targetNeuronName = "10" weight = "-0.4048194057200867" />
    <synapse sourceNeuronName = "3" targetNeuronName = "11" weight = "0.06437946250036686" />
    <synapse sourceNeuronName = "3" targetNeuronName = "12" weight = "-0.009359314985072587" />
    <synapse sourceNeuronName = "3" targetNeuronName = "13" weight = "-0.8717551315644718" />
    <synapse sourceNeuronName = "3" targetNeuronName = "14" weight = "0.6550065369504643" />
    <synapse sourceNeuronName = "3" targetNeuronName = "15" weight = "0.7944567933794984" />
    <synapse sourceNeuronName = "3" targetNeuronName = "16" weight = "-0.7508153934219384" />
    <synapse sourceNeuronName = "4" targetNeuronName = "9" weight = "-0.9863340935600853" />
    <synapse sourceNeuronName = "4" targetNeuronName = "10" weight = "0.3143114584433613" />
    <synapse sourceNeuronName = "4" targetNeuronName = "11" weight = "-0.9069159880865842" />
    <synapse sourceNeuronName = "4" targetNeuronName = "12" weight = "0.2103968017365141" />
    <synapse sourceNeuronName = "4" targetNeuronName = "13" weight = "-0.4183818632931149" />
    <synapse sourceNeuronName = "4" targetNeuronName = "14" weight = "0.2504159839158866" />
    <synapse sourceNeuronName = "4" targetNeuronName = "15" weight = "0.39368439024335933" />
    <synapse sourceNeuronName = "4" targetNeuronName = "16" weight = "0.21307286590507668" />
    <synapse sourceNeuronName = "5" targetNeuronName = "9" weight = "-0.28551189048678816" />
    <synapse sourceNeuronName = "5" targetNeuronName = "10" weight = "0.8741514874519711" />
    <synapse sourceNeuronName = "5" targetNeuronName = "11" weight = "0.8351986315764308" />
    <synapse sourceNeuronName = "5" targetNeuronName = "12" weight = "0.7358938165332212" />
    <synapse sourceNeuronName = "5" targetNeuronName = "13" weight = "-0.25123638017699523" />
    <synapse sourceNeuronName = "5" targetNeuronName = "14" weight = "0.016143729266522522" />
    <synapse sourceNeuronName = "5" targetNeuronName = "15" weight = "0.2342441959274133" />
    <synapse sourceNeuronName = "5" targetNeuronName = "16" weight = "-0.9128781374304378" />
    <synapse sourceNeuronName = "6" targetNeuronName = "9" weight = "0.7906909840339298" />
    <synapse sourceNeuronName = "6" targetNeuronName = "10" weight = "-0.5597785693591637" />
    <synapse sourceNeuronName = "6" targetNeuronName = "11" weight = "0.8039565576447711" />
    <synapse sourceNeuronName = "6" targetNeuronName = "12" weight = "0.5737753732455781" />
    <synapse sourceNeuronName = "6" targetNeuronName = "13" weight = "-0.833683655769865" />
    <synapse sourceNeuronName = "6" targetNeuronName = "14" weight = "-0.02361794410711804" />
    <synapse sourceNeuronName = "6" targetNeuronName = "15" weight = "0.5203208959941337" />
    <synapse sourceNeuronName = "6" targetNeuronName = "16" weight = "-0.797728087133915" />
    <synapse sourceNeuronName = "7" targetNeuronName = "9" weight = "-0.7457986937145344" />
    <synapse sourceNeuronName = "7" targetNeuronName = "10" weight = "-0.23171895425260858" />
    <synapse sourceNeuronName = "7" targetNeuronName = "11" weight = "-0.5782790718095752" />
    <synapse sourceNeuronName = "7" targetNeuronName = "12" weight = "-0.9907503595140046" />
    <synapse sourceNeuronName = "7" targetNeuronName = "13" weight = "-0.05551093976154475" />
    <synapse sourceNeuronName = "7" targetNeuronName = "14" weight = "-0.980707750434261" />
    <synapse sourceNeuronName = "7" targetNeuronName = "15" weight = "-0.4883511153532045" />
    <synapse sourceNeuronName = "7" targetNeuronName = "16" weight = "0.627304231080418" />
    <synapse sourceNeuronName = "8" targetNeuronName = "9" weight = "-0.8317651778505599" />
    <synapse sourceNeuronName = "8" targetNeuronName = "10" weight = "-0.06483738254782412" />
    <synapse sourceNeuronName = "8" targetNeuronName = "11" weight = "-0.4555771692388786" />
    <synapse sourceNeuronName = "8" targetNeuronName = "12" weight = "0.6715180194069914" />
    <synapse sourceNeuronName = "8" targetNeuronName = "13" weight = "0.27406857823999475" />
    <synapse sourceNeuronName = "8" targetNeuronName = "14" weight = "-0.30443311224027525" />
    <synapse sourceNeuronName = "8" targetNeuronName = "15" weight = "0.4924950891714901" />
    <synapse sourceNeuronName = "8" targetNeuronName = "16" weight = "-0.6350122660050086" />
</neuralNetwork>