<neuralNetwork>
    <neuron name = "0" type = "sensor" linkName = "Torso" />
    <neuron name = "1" type = "sensor" linkName = "BackLeg" />
    <neuron name = "2" type = "sensor" linkName = "FrontLeg" />
    <neuron name = "3" type = "sensor" linkName = "LeftLeg" />
    <neuron name = "4" type = "sensor" linkName = "RightLeg" />
    <neuron name = "5" type = "sensor" linkName = "BackLowerLeg" />
    <neuron name = "6" type = "sensor" linkName = "FrontLowerLeg" />
    <neuron name = "7" type = "sensor" linkName = "LeftLowerLeg" />
    <neuron name = "8" type = "sensor" linkName = "RightLowerLeg" />
    <neuron name = "9" type = "motor"  jointName = "Torso_BackLeg" />
    <neuron name = "10" type = "motor"  jointName = "Torso_FrontLeg" />
    <neuron name = "11" type = "motor"  jointName = "Torso_LeftLeg" />
    <neuron name = "12" type = "motor"  jointName = "Torso_RightLeg" />
    <neuron name = "13" type = "motor"  jointName = "BackLeg_BackLowerLeg" />
    <neuron name = "14" type = "motor"  jointName = "FrontLeg_FrontLowerLeg" />
    <neuron name = "15" type = "motor"  jointName = "LeftLeg_LeftLowerLeg" />
    <neuron name = "16" type = "motor"  jointName = "RightLeg_RightLowerLeg" />
    <synapse sourceNeuronName = "0" targetNeuronName = "9" weight = "-0.8947843756422953" />
    <synapse sourceNeuronName = "0" targetNeuronName = "10" weight = "0.8246227283570595" />
    <synapse sourceNeuronName = "0" targetNeuronName = "11" weight = "0.2977455220200891" />
    <synapse sourceNeuronName = "0" targetNeuronName = "12" weight = "0.18728060415931602" />
    <synapse sourceNeuronName = "0" targetNeuronName = "13" weight = "0.7533406752681382" />
    <synapse sourceNeuronName = "0" targetNeuronName = "14" weight = "0.5704759907413397" />
    <synapse sourceNeuronName = "0" targetNeuronName = "15" weight = "-0.874638075435302" />
    <synapse sourceNeuronName = "0" targetNeuronName = "16" weight = "0.04559408948672172" />
    <synapse sourceNeuronName = "1" targetNeuronName = "9" weight = "-0.9384712791218748" />
    <synapse sourceNeuronName = "1" targetNeuronName = "10" weight = "0.6517394902680358" />
    <synapse sourceNeuronName = "1" targetNeuronName = "11" weight = "-0.790146211167889" />
    <synapse sourceNeuronName = "1" targetNeuronName = "12" weight = "-0.11818682524700241" />
    <synapse sourceNeuronName = "1" targetNeuronName = "13" weight = "0.506057436830885" />
    <synapse sourceNeuronName = "1" targetNeuronName = "14" weight = "0.21383868564726005" />
    <synapse sourceNeuronName = "1" targetNeuronName = "15" weight = "-0.3426141247195629" />
    <synapse sourceNeuronName = "1" targetNeuronName = "16" weight = "0.6625394163566738" />
    <synapse sourceNeuronName = "2" targetNeuronName = "9" weight = "0.7502033010678058" />
    <synapse sourceNeuronName = "2" targetNeuronName = "10" weight = "-0.10346415787471908" />
    <synapse sourceNeuronName = "2" targetNeuronName = "11" weight = "0.07703924837380782" />
    <synapse sourceNeuronName = "2" targetNeuronName = "12" weight = "-0.9593966387967783" />
    <synapse sourceNeuronName = "2" targetNeuronName = "13" weight = "0.513052173388179" />
    <synapse sourceNeuronName = "2" targetNeuronName = "14" weight = "0.5771587000728275" />
    <synapse sourceNeuronName = "2" targetNeuronName = "15" weight = "-0.5333690493775991" />
    <synapse sourceNeuronName = "2" targetNeuronName = "16" weight = "0.9978541097257483" />
    <synapse sourceNeuronName = "3" targetNeuronName = "9" weight = "-0.9987281613582004" />
    <synapse sourceNeuronName = "3" targetNeuronName = "10" weight = "0.8706936476461793" />
    <synapse sourceNeuronName = "3" targetNeuronName = "11" weight = "-0.7290631355948392" />
    <synapse sourceNeuronName = "3" targetNeuronName = "12" weight = "-0.22936902852286378" />
    <synapse sourceNeuronName = "3" targetNeuronName = "13" weight = "0.8465379555912322" />
    <synapse sourceNeuronName = "3" targetNeuronName = "14" weight = "-0.8209225158153763" />
    <synapse sourceNeuronName = "3" targetNeuronName = "15" weight = "0.9306212265831089" />
    <synapse sourceNeuronName = "3" targetNeuronName = "16" weight = "-0.8903890450794343" />
    <synapse sourceNeuronName = "4" targetNeuronName = "9" weight = "-0.9271170139810561" />
    <synapse sourceNeuronName = "4" targetNeuronName = "10" weight = "-0.9758728639502448" />
    <synapse sourceNeuronName = "4" targetNeuronName = "11" weight = "0.2866471599237521" />
    <synapse sourceNeuronName = "4" targetNeuronName = "12" weight = "0.17819511634704543" />
    <synapse sourceNeuronName = "4" targetNeuronName = "13" weight = "0.2937863882447487" />
    <synapse sourceNeuronName = "4" targetNeuronName = "14" weight = "0.11752200550364744" />
    <synapse sourceNeuronName = "4" targetNeuronName = "15" weight = "-0.4222760459154862" />
    <synapse sourceNeuronName = "4" targetNeuronName = "16" weight = "0.1200085277278855" />
    <synapse sourceNeuronName = "5" targetNeuronName = "9" weight = "-0.3545118057271659" />
    <synapse sourceNeuronName = "5" targetNeuronName = "10" weight = "0.28374606498408306" />
    <synapse sourceNeuronName = "5" targetNeuronName = "11" weight = "-0.41542947307475364" />
    <synapse sourceNeuronName = "5" targetNeuronName = "12" weight = "-0.4243647943170563" />
    <synapse sourceNeuronName = "5" targetNeuronName = "13" weight = "0.07663727686482513" />
    <synapse sourceNeuronName = "5" targetNeuronName = "14" weight = "-0.192477402482514" />
    <synapse sourceNeuronName = "5" targetNeuronName = "15" weight = "-0.5366940859661296" />
    <synapse sourceNeuronName = "5" targetNeuronName = "16" weight = "-0.31481142093698633" />
    <synapse sourceNeuronName = "6" targetNeuronName = "9" weight = "-0.8193269217830177" />
    <synapse sourceNeuronName = "6" targetNeuronName = "10" weight = "0.6593527040393563" />
    <synapse sourceNeuronName = "6" targetNeuronName = "11" weight = "-0.5610396968474984" />
    <synapse sourceNeuronName = "6" targetNeuronName = "12" weight = "-0.06400375428464367" />
    <synapse sourceNeuronName = "6" targetNeuronName = "13" weight = "-0.2593548888762247" />
    <synapse sourceNeuronName = "6" targetNeuronName = "14" weight = "-0.35205404474960034" />
    <synapse sourceNeuronName = "6" targetNeuronName = "15" weight = "0.3360039643663544" />
    <synapse sourceNeuronName = "6" targetNeuronName = "16" weight = "0.46307801597804366" />
    <synapse sourceNeuronName = "7" targetNeuronName = "9" weight = "0.014334337409860565" />
    <synapse sourceNeuronName = "7" targetNeuronName = "10" weight = "-0.32236288205267494" />
    <synapse sourceNeuronName = "7" targetNeuronName = "11" weight = "0.6727561186704547" />
    <synapse sourceNeuronName = "7" targetNeuronName = "12" weight = "0.1455286799312281" />
    <synapse sourceNeuronName = "7" targetNeuronName = "13" weight = "0.693727113529236" />
    <synapse sourceNeuronName = "7" targetNeuronName = "14" weight = "0.2533568794844272" />
    <synapse sourceNeuronName = "7" targetNeuronName = "15" weight = "0.534171869898795" />
    <synapse sourceNeuronName = "7" targetNeuronName = "16" weight = "0.142913754835027" />
    <synapse sourceNeuronName = "8" targetNeuronName = "9" weight = "-0.7995102681397297" />
    <synapse sourceNeuronName = "8" targetNeuronName = "10" weight = "0.057641241787435016" />
    <synapse sourceNeuronName = "8" targetNeuronName = "11" weight = "-0.35028321997475853" />
    <synapse sourceNeuronName = "8" targetNeuronName = "12" weight = "0.6760049137097384" />
    <synapse sourceNeuronName = "8" targetNeuronName = "13" weight = "-0.8940794492832844" />
    <synapse sourceNeuronName = "8" targetNeuronName = "14" weight = "-0.9230420918910522" />
    <synapse sourceNeuronName = "8" targetNeuronName = "15" weight = "-0.0011143959072967835" />
    <synapse sourceNeuronName = "8" targetNeuronName = "16" weight = "-0.5113624706987561" />
</neuralNetwork>