<neuralNetwork>
    <neuron name = "0" type = "sensor" linkName = "Torso" />
    <neuron name = "1" type = "sensor" linkName = "BackLeg" />
    <neuron name = "2" type = "sensor" linkName = "FrontLeg" />
    <neuron name = "3" type = "sensor" linkName = "LeftLeg" />
    <neuron name = "4" type = "sensor" linkName = "RightLeg" />
    <neuron name = "5" type = "sensor" linkName = "BackLowerLeg" />
    <neuron name = "6" type = "sensor" linkName = "FrontLowerLeg" />
    <neuron name = "7" type = "sensor" linkName = "LeftLowerLeg" />
    <neuron name = "8" type = "sensor" linkName = "RightLowerLeg" />
    <neuron name = "9" type = "motor"  jointName = "Torso_BackLeg" />
    <neuron name = "10" type = "motor"  jointName = "Torso_FrontLeg" />
    <neuron name = "11" type = "motor"  jointName = "Torso_LeftLeg" />
    <neuron name = "12" type = "motor"  jointName = "Torso_RightLeg" />
    <neuron name = "13" type = "motor"  jointName = "BackLeg_BackLowerLeg" />
    <neuron name = "14" type = "motor"  jointName = "FrontLeg_FrontLowerLeg" />
    <neuron name = "15" type = "motor"  jointName = "LeftLeg_LeftLowerLeg" />
    <neuron name = "16" type = "motor"  jointName = "RightLeg_RightLowerLeg" />
    <synapse sourceNeuronName = "0" targetNeuronName = "9" weight = "0.6051840681411838" />
    <synapse sourceNeuronName = "0" targetNeuronName = "10" weight = "0.887579282136912" />
    <synapse sourceNeuronName = "0" targetNeuronName = "11" weight = "0.2861655605061848" />
    <synapse sourceNeuronName = "0" targetNeuronName = "12" weight = "0.3758656479354541" />
    <synapse sourceNeuronName = "0" targetNeuronName = "13" weight = "-0.388539559594393" />
    <synapse sourceNeuronName = "0" targetNeuronName = "14" weight = "-0.8905036421689676" />
    <synapse sourceNeuronName = "0" targetNeuronName = "15" weight = "-0.48931443150014564" />
    <synapse sourceNeuronName = "0" targetNeuronName = "16" weight = "-0.0873118799719168" />
    <synapse sourceNeuronName = "1" targetNeuronName = "9" weight = "0.21696192127790392" />
    <synapse sourceNeuronName = "1" targetNeuronName = "10" weight = "-0.7921909092444217" />
    <synapse sourceNeuronName = "1" targetNeuronName = "11" weight = "0.01908586855833061" />
    <synapse sourceNeuronName = "1" targetNeuronName = "12" weight = "-0.973220562971908" />
    <synapse sourceNeuronName = "1" targetNeuronName = "13" weight = "-0.7075105356935254" />
    <synapse sourceNeuronName = "1" targetNeuronName = "14" weight = "-0.7206602144530101" />
    <synapse sourceNeuronName = "1" targetNeuronName = "15" weight = "-0.9690227257957396" />
    <synapse sourceNeuronName = "1" targetNeuronName = "16" weight = "0.3770372560465811" />
    <synapse sourceNeuronName = "2" targetNeuronName = "9" weight = "-0.1367714149068202" />
    <synapse sourceNeuronName = "2" targetNeuronName = "10" weight = "-0.3956278794102175" />
    <synapse sourceNeuronName = "2" targetNeuronName = "11" weight = "0.4210362699803849" />
    <synapse sourceNeuronName = "2" targetNeuronName = "12" weight = "-0.387707983504485" />
    <synapse sourceNeuronName = "2" targetNeuronName = "13" weight = "-0.14872540673129375" />
    <synapse sourceNeuronName = "2" targetNeuronName = "14" weight = "0.7476196333005205" />
    <synapse sourceNeuronName = "2" targetNeuronName = "15" weight = "-0.8521395298957837" />
    <synapse sourceNeuronName = "2" targetNeuronName = "16" weight = "-0.37880096499329063" />
    <synapse sourceNeuronName = "3" targetNeuronName = "9" weight = "-0.822736306936777" />
    <synapse sourceNeuronName = "3" targetNeuronName = "10" weight = "0.241534672591335" />
    <synapse sourceNeuronName = "3" targetNeuronName = "11" weight = "0.04469420664667423" />
    <synapse sourceNeuronName = "3" targetNeuronName = "12" weight = "0.7356443135507649" />
    <synapse sourceNeuronName = "3" targetNeuronName = "13" weight = "-0.7801389514168964" />
    <synapse sourceNeuronName = "3" targetNeuronName = "14" weight = "-0.5724345990154502" />
    <synapse sourceNeuronName = "3" targetNeuronName = "15" weight = "0.8692582722347268" />
    <synapse sourceNeuronName = "3" targetNeuronName = "16" weight = "-0.3717243877230014" />
    <synapse sourceNeuronName = "4" targetNeuronName = "9" weight = "-0.279259907703459" />
    <synapse sourceNeuronName = "4" targetNeuronName = "10" weight = "0.4596639364996953" />
    <synapse sourceNeuronName = "4" targetNeuronName = "11" weight = "-0.3371678673509959" />
    <synapse sourceNeuronName = "4" targetNeuronName = "12" weight = "0.23413087085844486" />
    <synapse sourceNeuronName = "4" targetNeuronName = "13" weight = "0.8900246674800603" />
    <synapse sourceNeuronName = "4" targetNeuronName = "14" weight = "0.9152207408056388" />
    <synapse sourceNeuronName = "4" targetNeuronName = "15" weight = "-0.7813904498205817" />
    <synapse sourceNeuronName = "4" targetNeuronName = "16" weight = "0.14251102396364468" />
    <synapse sourceNeuronName = "5" targetNeuronName = "9" weight = "-0.8043809086470339" />
    <synapse sourceNeuronName = "5" targetNeuronName = "10" weight = "-0.6758315711107439" />
    <synapse sourceNeuronName = "5" targetNeuronName = "11" weight = "-0.12484562416842038" />
    <synapse sourceNeuronName = "5" targetNeuronName = "12" weight = "-0.11674906118814565" />
    <synapse sourceNeuronName = "5" targetNeuronName = "13" weight = "-0.996053930282534" />
    <synapse sourceNeuronName = "5" targetNeuronName = "14" weight = "0.20140419812775723" />
    <synapse sourceNeuronName = "5" targetNeuronName = "15" weight = "-0.4316087235567645" />
    <synapse sourceNeuronName = "5" targetNeuronName = "16" weight = "0.0992499988355624" />
    <synapse sourceNeuronName = "6" targetNeuronName = "9" weight = "0.035652197277766806" />
    <synapse sourceNeuronName = "6" targetNeuronName = "10" weight = "-0.9236316240505371" />
    <synapse sourceNeuronName = "6" targetNeuronName = "11" weight = "0.38053658575569393" />
    <synapse sourceNeuronName = "6" targetNeuronName = "12" weight = "0.6928136428669212" />
    <synapse sourceNeuronName = "6" targetNeuronName = "13" weight = "-0.774528516502591" />
    <synapse sourceNeuronName = "6" targetNeuronName = "14" weight = "-0.1421805876375768" />
    <synapse sourceNeuronName = "6" targetNeuronName = "15" weight = "0.4642964397624949" />
    <synapse sourceNeuronName = "6" targetNeuronName = "16" weight = "0.957340620794737" />
    <synapse sourceNeuronName = "7" targetNeuronName = "9" weight = "-0.3515781880112925" />
    <synapse sourceNeuronName = "7" targetNeuronName = "10" weight = "0.4081012962994768" />
    <synapse sourceNeuronName = "7" targetNeuronName = "11" weight = "-0.0950846010807671" />
    <synapse sourceNeuronName = "7" targetNeuronName = "12" weight = "-0.4422959117132861" />
    <synapse sourceNeuronName = "7" targetNeuronName = "13" weight = "0.5592382280779862" />
    <synapse sourceNeuronName = "7" targetNeuronName = "14" weight = "-0.6746900670990317" />
    <synapse sourceNeuronName = "7" targetNeuronName = "15" weight = "0.4947808981777133" />
    <synapse sourceNeuronName = "7" targetNeuronName = "16" weight = "0.37089354618291304" />
    <synapse sourceNeuronName = "8" targetNeuronName = "9" weight = "-0.1598472842557992" />
    <synapse sourceNeuronName = "8" targetNeuronName = "10" weight = "0.2825379391746765" />
    <synapse sourceNeuronName = "8" targetNeuronName = "11" weight = "-0.7937592587728279" />
    <synapse sourceNeuronName = "8" targetNeuronName = "12" weight = "0.12491364654358872" />
    <synapse sourceNeuronName = "8" targetNeuronName = "13" weight = "-0.5828872665704286" />
    <synapse sourceNeuronName = "8" targetNeuronName = "14" weight = "-0.2546844057455495" />
    <synapse sourceNeuronName = "8" targetNeuronName = "15" weight = "-0.23242132378554303" />
    <synapse sourceNeuronName = "8" targetNeuronName = "16" weight = "-0.4848822285830967" />
</neuralNetwork>