<neuralNetwork>
    <neuron name = "0" type = "sensor" linkName = "Torso" />
    <neuron name = "1" type = "sensor" linkName = "BackLeg" />
    <neuron name = "2" type = "sensor" linkName = "FrontLeg" />
    <neuron name = "3" type = "sensor" linkName = "LeftLeg" />
    <neuron name = "4" type = "sensor" linkName = "RightLeg" />
    <neuron name = "5" type = "sensor" linkName = "BackLowerLeg" />
    <neuron name = "6" type = "sensor" linkName = "FrontLowerLeg" />
    <neuron name = "7" type = "sensor" linkName = "LeftLowerLeg" />
    <neuron name = "8" type = "sensor" linkName = "RightLowerLeg" />
    <neuron name = "9" type = "motor"  jointName = "Torso_BackLeg" />
    <neuron name = "10" type = "motor"  jointName = "Torso_FrontLeg" />
    <neuron name = "11" type = "motor"  jointName = "Torso_LeftLeg" />
    <neuron name = "12" type = "motor"  jointName = "Torso_RightLeg" />
    <neuron name = "13" type = "motor"  jointName = "BackLeg_BackLowerLeg" />
    <neuron name = "14" type = "motor"  jointName = "FrontLeg_FrontLowerLeg" />
    <neuron name = "15" type = "motor"  jointName = "LeftLeg_LeftLowerLeg" />
    <neuron name = "16" type = "motor"  jointName = "RightLeg_RightLowerLeg" />
    <synapse sourceNeuronName = "0" targetNeuronName = "9" weight = "-0.5252733309670525" />
    <synapse sourceNeuronName = "0" targetNeuronName = "10" weight = "-0.5506650242313933" />
    <synapse sourceNeuronName = "0" targetNeuronName = "11" weight = "0.8040409210309136" />
    <synapse sourceNeuronName = "0" targetNeuronName = "12" weight = "-0.9915237934077232" />
    <synapse sourceNeuronName = "0" targetNeuronName = "13" weight = "-0.4480852539742084" />
    <synapse sourceNeuronName = "0" targetNeuronName = "14" weight = "-0.41545434817098625" />
    <synapse sourceNeuronName = "0" targetNeuronName = "15" weight = "0.8231495784280387" />
    <synapse sourceNeuronName = "0" targetNeuronName = "16" weight = "-0.9083908738070869" />
    <synapse sourceNeuronName = "1" targetNeuronName = "9" weight = "0.7186181987032698" />
    <synapse sourceNeuronName = "1" targetNeuronName = "10" weight = "-0.150304428760353" />
    <synapse sourceNeuronName = "1" targetNeuronName = "11" weight = "-0.3054114418424294" />
    <synapse sourceNeuronName = "1" targetNeuronName = "12" weight = "0.09556153614812679" />
    <synapse sourceNeuronName = "1" targetNeuronName = "13" weight = "-0.32925837063373975" />
    <synapse sourceNeuronName = "1" targetNeuronName = "14" weight = "-0.7005520824991158" />
    <synapse sourceNeuronName = "1" targetNeuronName = "15" weight = "0.6361668043028179" />
    <synapse sourceNeuronName = "1" targetNeuronName = "16" weight = "-0.2229774161088791" />
    <synapse sourceNeuronName = "2" targetNeuronName = "9" weight = "-0.10888131522669542" />
    <synapse sourceNeuronName = "2" targetNeuronName = "10" weight = "-0.9451947643597374" />
    <synapse sourceNeuronName = "2" targetNeuronName = "11" weight = "-0.04151359973774582" />
    <synapse sourceNeuronName = "2" targetNeuronName = "12" weight = "-0.2386517871362459" />
    <synapse sourceNeuronName = "2" targetNeuronName = "13" weight = "0.8555277605630209" />
    <synapse sourceNeuronName = "2" targetNeuronName = "14" weight = "0.21549557359141636" />
    <synapse sourceNeuronName = "2" targetNeuronName = "15" weight = "-0.7413556999757687" />
    <synapse sourceNeuronName = "2" targetNeuronName = "16" weight = "0.10563624216267731" />
    <synapse sourceNeuronName = "3" targetNeuronName = "9" weight = "0.7465400595341933" />
    <synapse sourceNeuronName = "3" targetNeuronName = "10" weight = "-0.04866202723721447" />
    <synapse sourceNeuronName = "3" targetNeuronName = "11" weight = "0.7747224203299012" />
    <synapse sourceNeuronName = "3" targetNeuronName = "12" weight = "-0.04646395955899041" />
    <synapse sourceNeuronName = "3" targetNeuronName = "13" weight = "0.5773060488604049" />
    <synapse sourceNeuronName = "3" targetNeuronName = "14" weight = "-0.08392284240129988" />
    <synapse sourceNeuronName = "3" targetNeuronName = "15" weight = "0.58187370601406" />
    <synapse sourceNeuronName = "3" targetNeuronName = "16" weight = "0.07517297245728716" />
    <synapse sourceNeuronName = "4" targetNeuronName = "9" weight = "-0.33274619698015284" />
    <synapse sourceNeuronName = "4" targetNeuronName = "10" weight = "0.3305812558111041" />
    <synapse sourceNeuronName = "4" targetNeuronName = "11" weight = "-0.7947278892177887" />
    <synapse sourceNeuronName = "4" targetNeuronName = "12" weight = "-0.0015839621588638053" />
    <synapse sourceNeuronName = "4" targetNeuronName = "13" weight = "-0.6119920116970552" />
    <synapse sourceNeuronName = "4" targetNeuronName = "14" weight = "-0.1412821021829782" />
    <synapse sourceNeuronName = "4" targetNeuronName = "15" weight = "-0.4035893862472528" />
    <synapse sourceNeuronName = "4" targetNeuronName = "16" weight = "0.8189235657677691" />
    <synapse sourceNeuronName = "5" targetNeuronName = "9" weight = "-0.6455434533652822" />
    <synapse sourceNeuronName = "5" targetNeuronName = "10" weight = "0.6239090931052125" />
    <synapse sourceNeuronName = "5" targetNeuronName = "11" weight = "0.7150028215713402" />
    <synapse sourceNeuronName = "5" targetNeuronName = "12" weight = "0.7549786905758284" />
    <synapse sourceNeuronName = "5" targetNeuronName = "13" weight = "0.9262750496498657" />
    <synapse sourceNeuronName = "5" targetNeuronName = "14" weight = "-0.43448542408177016" />
    <synapse sourceNeuronName = "5" targetNeuronName = "15" weight = "0.9613275212210219" />
    <synapse sourceNeuronName = "5" targetNeuronName = "16" weight = "0.903128559206867" />
    <synapse sourceNeuronName = "6" targetNeuronName = "9" weight = "0.35178348324902475" />
    <synapse sourceNeuronName = "6" targetNeuronName = "10" weight = "0.5519605037735094" />
    <synapse sourceNeuronName = "6" targetNeuronName = "11" weight = "0.6858166154423675" />
    <synapse sourceNeuronName = "6" targetNeuronName = "12" weight = "0.8906451972341902" />
    <synapse sourceNeuronName = "6" targetNeuronName = "13" weight = "-0.42911808678582086" />
    <synapse sourceNeuronName = "6" targetNeuronName = "14" weight = "-0.1729179353118373" />
    <synapse sourceNeuronName = "6" targetNeuronName = "15" weight = "-0.3399792066984124" />
    <synapse sourceNeuronName = "6" targetNeuronName = "16" weight = "-0.7389129972530866" />
    <synapse sourceNeuronName = "7" targetNeuronName = "9" weight = "-0.3756099661177088" />
    <synapse sourceNeuronName = "7" targetNeuronName = "10" weight = "0.8023238663247705" />
    <synapse sourceNeuronName = "7" targetNeuronName = "11" weight = "0.8455094845075886" />
    <synapse sourceNeuronName = "7" targetNeuronName = "12" weight = "-0.5240448700272728" />
    <synapse sourceNeuronName = "7" targetNeuronName = "13" weight = "0.29398913122821946" />
    <synapse sourceNeuronName = "7" targetNeuronName = "14" weight = "0.34765344220269423" />
    <synapse sourceNeuronName = "7" targetNeuronName = "15" weight = "-0.4635548533684064" />
    <synapse sourceNeuronName = "7" targetNeuronName = "16" weight = "0.38627125454980304" />
    <synapse sourceNeuronName = "8" targetNeuronName = "9" weight = "0.567848528173226" />
    <synapse sourceNeuronName = "8" targetNeuronName = "10" weight = "0.6672879706554569" />
    <synapse sourceNeuronName = "8" targetNeuronName = "11" weight = "0.04457028868343782" />
    <synapse sourceNeuronName = "8" targetNeuronName = "12" weight = "-0.16095748026933165" />
    <synapse sourceNeuronName = "8" targetNeuronName = "13" weight = "-0.4873335852663736" />
    <synapse sourceNeuronName = "8" targetNeuronName = "14" weight = "0.49934325502732313" />
    <synapse sourceNeuronName = "8" targetNeuronName = "15" weight = "0.6338486047783187" />
    <synapse sourceNeuronName = "8" targetNeuronName = "16" weight = "-0.7667348260903815" />
</neuralNetwork>