<neuralNetwork>
    <neuron name = "0" type = "sensor" linkName = "Torso" />
    <neuron name = "1" type = "sensor" linkName = "BackLeg" />
    <neuron name = "2" type = "sensor" linkName = "FrontLeg" />
    <neuron name = "3" type = "sensor" linkName = "LeftLeg" />
    <neuron name = "4" type = "sensor" linkName = "RightLeg" />
    <neuron name = "5" type = "sensor" linkName = "BackLowerLeg" />
    <neuron name = "6" type = "sensor" linkName = "FrontLowerLeg" />
    <neuron name = "7" type = "sensor" linkName = "LeftLowerLeg" />
    <neuron name = "8" type = "sensor" linkName = "RightLowerLeg" />
    <neuron name = "9" type = "motor"  jointName = "Torso_BackLeg" />
    <neuron name = "10" type = "motor"  jointName = "Torso_FrontLeg" />
    <neuron name = "11" type = "motor"  jointName = "Torso_LeftLeg" />
    <neuron name = "12" type = "motor"  jointName = "Torso_RightLeg" />
    <neuron name = "13" type = "motor"  jointName = "BackLeg_BackLowerLeg" />
    <neuron name = "14" type = "motor"  jointName = "FrontLeg_FrontLowerLeg" />
    <neuron name = "15" type = "motor"  jointName = "LeftLeg_LeftLowerLeg" />
    <neuron name = "16" type = "motor"  jointName = "RightLeg_RightLowerLeg" />
    <synapse sourceNeuronName = "0" targetNeuronName = "9" weight = "-0.656673637605927" />
    <synapse sourceNeuronName = "0" targetNeuronName = "10" weight = "0.42103072522837515" />
    <synapse sourceNeuronName = "0" targetNeuronName = "11" weight = "0.8655682009881547" />
    <synapse sourceNeuronName = "0" targetNeuronName = "12" weight = "0.16151176380673338" />
    <synapse sourceNeuronName = "0" targetNeuronName = "13" weight = "0.6013504204446958" />
    <synapse sourceNeuronName = "0" targetNeuronName = "14" weight = "0.6319227498767286" />
    <synapse sourceNeuronName = "0" targetNeuronName = "15" weight = "-0.20378359735763474" />
    <synapse sourceNeuronName = "0" targetNeuronName = "16" weight = "-0.6232297008880814" />
    <synapse sourceNeuronName = "1" targetNeuronName = "9" weight = "0.35873582981138097" />
    <synapse sourceNeuronName = "1" targetNeuronName = "10" weight = "0.32530629167833647" />
    <synapse sourceNeuronName = "1" targetNeuronName = "11" weight = "0.5264209753541091" />
    <synapse sourceNeuronName = "1" targetNeuronName = "12" weight = "0.2600303352846669" />
    <synapse sourceNeuronName = "1" targetNeuronName = "13" weight = "0.30567879163321865" />
    <synapse sourceNeuronName = "1" targetNeuronName = "14" weight = "-0.9834303613754181" />
    <synapse sourceNeuronName = "1" targetNeuronName = "15" weight = "-0.31373749368379866" />
    <synapse sourceNeuronName = "1" targetNeuronName = "16" weight = "0.5077982214683578" />
    <synapse sourceNeuronName = "2" targetNeuronName = "9" weight = "0.5682222978958924" />
    <synapse sourceNeuronName = "2" targetNeuronName = "10" weight = "0.4321215352943879" />
    <synapse sourceNeuronName = "2" targetNeuronName = "11" weight = "-0.6310812769122782" />
    <synapse sourceNeuronName = "2" targetNeuronName = "12" weight = "0.3192775446995546" />
    <synapse sourceNeuronName = "2" targetNeuronName = "13" weight = "-0.44627671161278504" />
    <synapse sourceNeuronName = "2" targetNeuronName = "14" weight = "0.17734108613594657" />
    <synapse sourceNeuronName = "2" targetNeuronName = "15" weight = "-0.529716192799446" />
    <synapse sourceNeuronName = "2" targetNeuronName = "16" weight = "0.5838462001124032" />
    <synapse sourceNeuronName = "3" targetNeuronName = "9" weight = "-0.729684611013856" />
    <synapse sourceNeuronName = "3" targetNeuronName = "10" weight = "0.7673508286116453" />
    <synapse sourceNeuronName = "3" targetNeuronName = "11" weight = "0.5682532779066991" />
    <synapse sourceNeuronName = "3" targetNeuronName = "12" weight = "-0.01054544138935709" />
    <synapse sourceNeuronName = "3" targetNeuronName = "13" weight = "-0.6352124488336506" />
    <synapse sourceNeuronName = "3" targetNeuronName = "14" weight = "-0.8170003866960964" />
    <synapse sourceNeuronName = "3" targetNeuronName = "15" weight = "-0.0983804022202397" />
    <synapse sourceNeuronName = "3" targetNeuronName = "16" weight = "0.2447180613368094" />
    <synapse sourceNeuronName = "4" targetNeuronName = "9" weight = "0.19664205415827518" />
    <synapse sourceNeuronName = "4" targetNeuronName = "10" weight = "0.766540733691274" />
    <synapse sourceNeuronName = "4" targetNeuronName = "11" weight = "-0.5368024540558638" />
    <synapse sourceNeuronName = "4" targetNeuronName = "12" weight = "-0.19128149794719707" />
    <synapse sourceNeuronName = "4" targetNeuronName = "13" weight = "-0.6467808441431169" />
    <synapse sourceNeuronName = "4" targetNeuronName = "14" weight = "-0.12805825208195643" />
    <synapse sourceNeuronName = "4" targetNeuronName = "15" weight = "0.32238246988208186" />
    <synapse sourceNeuronName = "4" targetNeuronName = "16" weight = "-0.5992446334246524" />
    <synapse sourceNeuronName = "5" targetNeuronName = "9" weight = "-0.8095168147655287" />
    <synapse sourceNeuronName = "5" targetNeuronName = "10" weight = "-0.3534694764823707" />
    <synapse sourceNeuronName = "5" targetNeuronName = "11" weight = "-0.23431655703160303" />
    <synapse sourceNeuronName = "5" targetNeuronName = "12" weight = "0.622151044421017" />
    <synapse sourceNeuronName = "5" targetNeuronName = "13" weight = "-0.6013850927798234" />
    <synapse sourceNeuronName = "5" targetNeuronName = "14" weight = "-0.19354518987431812" />
    <synapse sourceNeuronName = "5" targetNeuronName = "15" weight = "0.6987885140575885" />
    <synapse sourceNeuronName = "5" targetNeuronName = "16" weight = "0.5261267783612458" />
    <synapse sourceNeuronName = "6" targetNeuronName = "9" weight = "-0.2810893949492994" />
    <synapse sourceNeuronName = "6" targetNeuronName = "10" weight = "-0.7209460406930583" />
    <synapse sourceNeuronName = "6" targetNeuronName = "11" weight = "-0.3899059735899766" />
    <synapse sourceNeuronName = "6" targetNeuronName = "12" weight = "-0.6680126543469291" />
    <synapse sourceNeuronName = "6" targetNeuronName = "13" weight = "0.6415860405536493" />
    <synapse sourceNeuronName = "6" targetNeuronName = "14" weight = "0.44473987837940165" />
    <synapse sourceNeuronName = "6" targetNeuronName = "15" weight = "-0.8874070993823504" />
    <synapse sourceNeuronName = "6" targetNeuronName = "16" weight = "-0.018427979867743804" />
    <synapse sourceNeuronName = "7" targetNeuronName = "9" weight = "0.6640867944197515" />
    <synapse sourceNeuronName = "7" targetNeuronName = "10" weight = "0.061234714458450856" />
    <synapse sourceNeuronName = "7" targetNeuronName = "11" weight = "0.4907760111611157" />
    <synapse sourceNeuronName = "7" targetNeuronName = "12" weight = "-0.351389050577942" />
    <synapse sourceNeuronName = "7" targetNeuronName = "13" weight = "-0.10100092645429815" />
    <synapse sourceNeuronName = "7" targetNeuronName = "14" weight = "0.8441204696336329" />
    <synapse sourceNeuronName = "7" targetNeuronName = "15" weight = "-0.056101250801096736" />
    <synapse sourceNeuronName = "7" targetNeuronName = "16" weight = "-0.3241330273046006" />
    <synapse sourceNeuronName = "8" targetNeuronName = "9" weight = "-0.7538928081633158" />
    <synapse sourceNeuronName = "8" targetNeuronName = "10" weight = "-0.8434334240222976" />
    <synapse sourceNeuronName = "8" targetNeuronName = "11" weight = "0.4025438410827198" />
    <synapse sourceNeuronName = "8" targetNeuronName = "12" weight = "0.29341470910886747" />
    <synapse sourceNeuronName = "8" targetNeuronName = "13" weight = "-0.8042554562014517" />
    <synapse sourceNeuronName = "8" targetNeuronName = "14" weight = "-0.08394311922500997" />
    <synapse sourceNeuronName = "8" targetNeuronName = "15" weight = "-0.7285191690233366" />
    <synapse sourceNeuronName = "8" targetNeuronName = "16" weight = "-0.19677691058473212" />
</neuralNetwork>