<neuralNetwork>
    <neuron name = "0" type = "sensor" linkName = "Torso" />
    <neuron name = "1" type = "sensor" linkName = "BackLeg" />
    <neuron name = "2" type = "sensor" linkName = "FrontLeg" />
    <neuron name = "3" type = "sensor" linkName = "LeftLeg" />
    <neuron name = "4" type = "sensor" linkName = "RightLeg" />
    <neuron name = "5" type = "sensor" linkName = "BackLowerLeg" />
    <neuron name = "6" type = "sensor" linkName = "FrontLowerLeg" />
    <neuron name = "7" type = "sensor" linkName = "LeftLowerLeg" />
    <neuron name = "8" type = "sensor" linkName = "RightLowerLeg" />
    <neuron name = "9" type = "motor"  jointName = "Torso_BackLeg" />
    <neuron name = "10" type = "motor"  jointName = "Torso_FrontLeg" />
    <neuron name = "11" type = "motor"  jointName = "Torso_LeftLeg" />
    <neuron name = "12" type = "motor"  jointName = "Torso_RightLeg" />
    <neuron name = "13" type = "motor"  jointName = "BackLeg_BackLowerLeg" />
    <neuron name = "14" type = "motor"  jointName = "FrontLeg_FrontLowerLeg" />
    <neuron name = "15" type = "motor"  jointName = "LeftLeg_LeftLowerLeg" />
    <neuron name = "16" type = "motor"  jointName = "RightLeg_RightLowerLeg" />
    <synapse sourceNeuronName = "0" targetNeuronName = "9" weight = "-0.5228743471319035" />
    <synapse sourceNeuronName = "0" targetNeuronName = "10" weight = "0.178193293554068" />
    <synapse sourceNeuronName = "0" targetNeuronName = "11" weight = "-0.7429271907122035" />
    <synapse sourceNeuronName = "0" targetNeuronName = "12" weight = "-0.9207722592079886" />
    <synapse sourceNeuronName = "0" targetNeuronName = "13" weight = "-0.5842102343991753" />
    <synapse sourceNeuronName = "0" targetNeuronName = "14" weight = "0.5762949605702581" />
    <synapse sourceNeuronName = "0" targetNeuronName = "15" weight = "-0.8988554951311531" />
    <synapse sourceNeuronName = "0" targetNeuronName = "16" weight = "0.44785994478461744" />
    <synapse sourceNeuronName = "1" targetNeuronName = "9" weight = "-0.5542259724295031" />
    <synapse sourceNeuronName = "1" targetNeuronName = "10" weight = "0.523686067053057" />
    <synapse sourceNeuronName = "1" targetNeuronName = "11" weight = "0.5225941693226062" />
    <synapse sourceNeuronName = "1" targetNeuronName = "12" weight = "-0.06542548859778319" />
    <synapse sourceNeuronName = "1" targetNeuronName = "13" weight = "-0.9848210660290388" />
    <synapse sourceNeuronName = "1" targetNeuronName = "14" weight = "0.21436696578282333" />
    <synapse sourceNeuronName = "1" targetNeuronName = "15" weight = "-0.6163652980071281" />
    <synapse sourceNeuronName = "1" targetNeuronName = "16" weight = "-0.7027808036763152" />
    <synapse sourceNeuronName = "2" targetNeuronName = "9" weight = "-0.571201778081379" />
    <synapse sourceNeuronName = "2" targetNeuronName = "10" weight = "0.6477360907768479" />
    <synapse sourceNeuronName = "2" targetNeuronName = "11" weight = "0.6633045576721945" />
    <synapse sourceNeuronName = "2" targetNeuronName = "12" weight = "-0.5142212932619532" />
    <synapse sourceNeuronName = "2" targetNeuronName = "13" weight = "0.35805273346448785" />
    <synapse sourceNeuronName = "2" targetNeuronName = "14" weight = "-0.6854067731652245" />
    <synapse sourceNeuronName = "2" targetNeuronName = "15" weight = "-0.4285253008212371" />
    <synapse sourceNeuronName = "2" targetNeuronName = "16" weight = "0.8232944490120251" />
    <synapse sourceNeuronName = "3" targetNeuronName = "9" weight = "0.7512008165595012" />
    <synapse sourceNeuronName = "3" targetNeuronName = "10" weight = "-0.29678451015330953" />
    <synapse sourceNeuronName = "3" targetNeuronName = "11" weight = "-0.7449650734102105" />
    <synapse sourceNeuronName = "3" targetNeuronName = "12" weight = "-0.7896917304660507" />
    <synapse sourceNeuronName = "3" targetNeuronName = "13" weight = "0.9832460205941373" />
    <synapse sourceNeuronName = "3" targetNeuronName = "14" weight = "-0.6392423626520554" />
    <synapse sourceNeuronName = "3" targetNeuronName = "15" weight = "0.6472613300986911" />
    <synapse sourceNeuronName = "3" targetNeuronName = "16" weight = "-0.8984279577418726" />
    <synapse sourceNeuronName = "4" targetNeuronName = "9" weight = "-0.419479940580044" />
    <synapse sourceNeuronName = "4" targetNeuronName = "10" weight = "0.14075192062759134" />
    <synapse sourceNeuronName = "4" targetNeuronName = "11" weight = "0.6741181638591389" />
    <synapse sourceNeuronName = "4" targetNeuronName = "12" weight = "0.6572271179899551" />
    <synapse sourceNeuronName = "4" targetNeuronName = "13" weight = "0.9671959019538865" />
    <synapse sourceNeuronName = "4" targetNeuronName = "14" weight = "-0.785293931013757" />
    <synapse sourceNeuronName = "4" targetNeuronName = "15" weight = "0.08011152735439109" />
    <synapse sourceNeuronName = "4" targetNeuronName = "16" weight = "-0.4612576198413467" />
    <synapse sourceNeuronName = "5" targetNeuronName = "9" weight = "-0.5406877271188393" />
    <synapse sourceNeuronName = "5" targetNeuronName = "10" weight = "-0.5255881832186517" />
    <synapse sourceNeuronName = "5" targetNeuronName = "11" weight = "0.7767597520990968" />
    <synapse sourceNeuronName = "5" targetNeuronName = "12" weight = "0.9013635477762176" />
    <synapse sourceNeuronName = "5" targetNeuronName = "13" weight = "-0.5330406757191306" />
    <synapse sourceNeuronName = "5" targetNeuronName = "14" weight = "0.40007178447250724" />
    <synapse sourceNeuronName = "5" targetNeuronName = "15" weight = "-0.03190019010214762" />
    <synapse sourceNeuronName = "5" targetNeuronName = "16" weight = "0.29638652030762036" />
    <synapse sourceNeuronName = "6" targetNeuronName = "9" weight = "-0.5290293148380509" />
    <synapse sourceNeuronName = "6" targetNeuronName = "10" weight = "-0.027605584997524524" />
    <synapse sourceNeuronName = "6" targetNeuronName = "11" weight = "0.6570010657760899" />
    <synapse sourceNeuronName = "6" targetNeuronName = "12" weight = "0.7587593023720778" />
    <synapse sourceNeuronName = "6" targetNeuronName = "13" weight = "0.6632263962972031" />
    <synapse sourceNeuronName = "6" targetNeuronName = "14" weight = "0.28788994246068134" />
    <synapse sourceNeuronName = "6" targetNeuronName = "15" weight = "-0.5512356955574027" />
    <synapse sourceNeuronName = "6" targetNeuronName = "16" weight = "-0.2095974431581873" />
    <synapse sourceNeuronName = "7" targetNeuronName = "9" weight = "-0.31077202082227884" />
    <synapse sourceNeuronName = "7" targetNeuronName = "10" weight = "0.14009776365531112" />
    <synapse sourceNeuronName = "7" targetNeuronName = "11" weight = "-0.032275859406513785" />
    <synapse sourceNeuronName = "7" targetNeuronName = "12" weight = "-0.9950428369185713" />
    <synapse sourceNeuronName = "7" targetNeuronName = "13" weight = "0.2742612446482602" />
    <synapse sourceNeuronName = "7" targetNeuronName = "14" weight = "0.28945486881047633" />
    <synapse sourceNeuronName = "7" targetNeuronName = "15" weight = "0.05760233583291274" />
    <synapse sourceNeuronName = "7" targetNeuronName = "16" weight = "0.3576548046504542" />
    <synapse sourceNeuronName = "8" targetNeuronName = "9" weight = "-0.9243674347030533" />
    <synapse sourceNeuronName = "8" targetNeuronName = "10" weight = "-0.41895424002729964" />
    <synapse sourceNeuronName = "8" targetNeuronName = "11" weight = "-0.18138009186983606" />
    <synapse sourceNeuronName = "8" targetNeuronName = "12" weight = "0.8118673800260996" />
    <synapse sourceNeuronName = "8" targetNeuronName = "13" weight = "0.2667514052026476" />
    <synapse sourceNeuronName = "8" targetNeuronName = "14" weight = "-0.12102699144181339" />
    <synapse sourceNeuronName = "8" targetNeuronName = "15" weight = "0.73949754395161" />
    <synapse sourceNeuronName = "8" targetNeuronName = "16" weight = "-0.10099395404986078" />
</neuralNetwork>