<neuralNetwork>
    <neuron name = "0" type = "sensor" linkName = "Torso" />
    <neuron name = "1" type = "sensor" linkName = "BackLeg" />
    <neuron name = "2" type = "sensor" linkName = "FrontLeg" />
    <neuron name = "3" type = "sensor" linkName = "LeftLeg" />
    <neuron name = "4" type = "sensor" linkName = "RightLeg" />
    <neuron name = "5" type = "sensor" linkName = "BackLowerLeg" />
    <neuron name = "6" type = "sensor" linkName = "FrontLowerLeg" />
    <neuron name = "7" type = "sensor" linkName = "LeftLowerLeg" />
    <neuron name = "8" type = "sensor" linkName = "RightLowerLeg" />
    <neuron name = "9" type = "motor"  jointName = "Torso_BackLeg" />
    <neuron name = "10" type = "motor"  jointName = "Torso_FrontLeg" />
    <neuron name = "11" type = "motor"  jointName = "Torso_LeftLeg" />
    <neuron name = "12" type = "motor"  jointName = "Torso_RightLeg" />
    <neuron name = "13" type = "motor"  jointName = "BackLeg_BackLowerLeg" />
    <neuron name = "14" type = "motor"  jointName = "FrontLeg_FrontLowerLeg" />
    <neuron name = "15" type = "motor"  jointName = "LeftLeg_LeftLowerLeg" />
    <neuron name = "16" type = "motor"  jointName = "RightLeg_RightLowerLeg" />
    <synapse sourceNeuronName = "0" targetNeuronName = "9" weight = "0.3616842018130304" />
    <synapse sourceNeuronName = "0" targetNeuronName = "10" weight = "0.10268458176035744" />
    <synapse sourceNeuronName = "0" targetNeuronName = "11" weight = "-0.3962093886164928" />
    <synapse sourceNeuronName = "0" targetNeuronName = "12" weight = "-0.2187208453728544" />
    <synapse sourceNeuronName = "0" targetNeuronName = "13" weight = "-0.1871749897323216" />
    <synapse sourceNeuronName = "0" targetNeuronName = "14" weight = "0.3987546699520528" />
    <synapse sourceNeuronName = "0" targetNeuronName = "15" weight = "-0.8279813313337439" />
    <synapse sourceNeuronName = "0" targetNeuronName = "16" weight = "-0.43211136856061194" />
    <synapse sourceNeuronName = "1" targetNeuronName = "9" weight = "0.5237907255452017" />
    <synapse sourceNeuronName = "1" targetNeuronName = "10" weight = "-0.06547096514752604" />
    <synapse sourceNeuronName = "1" targetNeuronName = "11" weight = "-0.43895923879164633" />
    <synapse sourceNeuronName = "1" targetNeuronName = "12" weight = "0.8289763650590216" />
    <synapse sourceNeuronName = "1" targetNeuronName = "13" weight = "-0.6532807396087108" />
    <synapse sourceNeuronName = "1" targetNeuronName = "14" weight = "0.9896202916178931" />
    <synapse sourceNeuronName = "1" targetNeuronName = "15" weight = "-0.10535008260073919" />
    <synapse sourceNeuronName = "1" targetNeuronName = "16" weight = "0.04549197535076566" />
    <synapse sourceNeuronName = "2" targetNeuronName = "9" weight = "0.5144060363133256" />
    <synapse sourceNeuronName = "2" targetNeuronName = "10" weight = "-0.9540359574643897" />
    <synapse sourceNeuronName = "2" targetNeuronName = "11" weight = "-0.7668701189975691" />
    <synapse sourceNeuronName = "2" targetNeuronName = "12" weight = "0.6236786292358278" />
    <synapse sourceNeuronName = "2" targetNeuronName = "13" weight = "-0.3331172078651683" />
    <synapse sourceNeuronName = "2" targetNeuronName = "14" weight = "0.6482538459343541" />
    <synapse sourceNeuronName = "2" targetNeuronName = "15" weight = "0.800753640177835" />
    <synapse sourceNeuronName = "2" targetNeuronName = "16" weight = "0.37480148346449726" />
    <synapse sourceNeuronName = "3" targetNeuronName = "9" weight = "-0.7754022284787105" />
    <synapse sourceNeuronName = "3" targetNeuronName = "10" weight = "0.7097276321527202" />
    <synapse sourceNeuronName = "3" targetNeuronName = "11" weight = "0.9159820549554443" />
    <synapse sourceNeuronName = "3" targetNeuronName = "12" weight = "-0.9697074471737193" />
    <synapse sourceNeuronName = "3" targetNeuronName = "13" weight = "0.16795034357824545" />
    <synapse sourceNeuronName = "3" targetNeuronName = "14" weight = "0.6938344841333302" />
    <synapse sourceNeuronName = "3" targetNeuronName = "15" weight = "-0.11724430160750154" />
    <synapse sourceNeuronName = "3" targetNeuronName = "16" weight = "0.31826693843115605" />
    <synapse sourceNeuronName = "4" targetNeuronName = "9" weight = "-0.8748286872953412" />
    <synapse sourceNeuronName = "4" targetNeuronName = "10" weight = "-0.7327403226962441" />
    <synapse sourceNeuronName = "4" targetNeuronName = "11" weight = "-0.7440957596905176" />
    <synapse sourceNeuronName = "4" targetNeuronName = "12" weight = "-0.01370427474082403" />
    <synapse sourceNeuronName = "4" targetNeuronName = "13" weight = "0.12162173887775829" />
    <synapse sourceNeuronName = "4" targetNeuronName = "14" weight = "-0.6173867086967755" />
    <synapse sourceNeuronName = "4" targetNeuronName = "15" weight = "-0.2663898963013289" />
    <synapse sourceNeuronName = "4" targetNeuronName = "16" weight = "-0.2827771037853535" />
    <synapse sourceNeuronName = "5" targetNeuronName = "9" weight = "0.2894163841426973" />
    <synapse sourceNeuronName = "5" targetNeuronName = "10" weight = "-0.5264727956709749" />
    <synapse sourceNeuronName = "5" targetNeuronName = "11" weight = "0.7700663094448377" />
    <synapse sourceNeuronName = "5" targetNeuronName = "12" weight = "0.9086321358461311" />
    <synapse sourceNeuronName = "5" targetNeuronName = "13" weight = "-0.697580843738677" />
    <synapse sourceNeuronName = "5" targetNeuronName = "14" weight = "0.9532218779805086" />
    <synapse sourceNeuronName = "5" targetNeuronName = "15" weight = "0.005253946181484448" />
    <synapse sourceNeuronName = "5" targetNeuronName = "16" weight = "0.680018832681353" />
    <synapse sourceNeuronName = "6" targetNeuronName = "9" weight = "-0.7855741207129934" />
    <synapse sourceNeuronName = "6" targetNeuronName = "10" weight = "-0.01406776253452291" />
    <synapse sourceNeuronName = "6" targetNeuronName = "11" weight = "0.9782481231110356" />
    <synapse sourceNeuronName = "6" targetNeuronName = "12" weight = "0.3564807634806897" />
    <synapse sourceNeuronName = "6" targetNeuronName = "13" weight = "-0.2174347877860503" />
    <synapse sourceNeuronName = "6" targetNeuronName = "14" weight = "-0.03799989485928057" />
    <synapse sourceNeuronName = "6" targetNeuronName = "15" weight = "0.6515261475043208" />
    <synapse sourceNeuronName = "6" targetNeuronName = "16" weight = "-0.587479969435097" />
    <synapse sourceNeuronName = "7" targetNeuronName = "9" weight = "-0.4311795612415743" />
    <synapse sourceNeuronName = "7" targetNeuronName = "10" weight = "0.6210001789115995" />
    <synapse sourceNeuronName = "7" targetNeuronName = "11" weight = "0.3616945119111694" />
    <synapse sourceNeuronName = "7" targetNeuronName = "12" weight = "-0.38805425000230187" />
    <synapse sourceNeuronName = "7" targetNeuronName = "13" weight = "-0.2987565247099664" />
    <synapse sourceNeuronName = "7" targetNeuronName = "14" weight = "-0.10557789552283192" />
    <synapse sourceNeuronName = "7" targetNeuronName = "15" weight = "0.6792859331017023" />
    <synapse sourceNeuronName = "7" targetNeuronName = "16" weight = "0.879438812151093" />
    <synapse sourceNeuronName = "8" targetNeuronName = "9" weight = "-0.47997137446862315" />
    <synapse sourceNeuronName = "8" targetNeuronName = "10" weight = "0.5811765943396441" />
    <synapse sourceNeuronName = "8" targetNeuronName = "11" weight = "-0.9896116290061352" />
    <synapse sourceNeuronName = "8" targetNeuronName = "12" weight = "-0.6140016387269294" />
    <synapse sourceNeuronName = "8" targetNeuronName = "13" weight = "0.003990301907199401" />
    <synapse sourceNeuronName = "8" targetNeuronName = "14" weight = "0.041760567060443066" />
    <synapse sourceNeuronName = "8" targetNeuronName = "15" weight = "-0.8394234645259522" />
    <synapse sourceNeuronName = "8" targetNeuronName = "16" weight = "0.14112617745036227" />
</neuralNetwork>