<neuralNetwork>
    <neuron name = "0" type = "sensor" linkName = "Torso" />
    <neuron name = "1" type = "sensor" linkName = "BackLeg" />
    <neuron name = "2" type = "sensor" linkName = "FrontLeg" />
    <neuron name = "3" type = "sensor" linkName = "LeftLeg" />
    <neuron name = "4" type = "sensor" linkName = "RightLeg" />
    <neuron name = "5" type = "sensor" linkName = "BackLowerLeg" />
    <neuron name = "6" type = "sensor" linkName = "FrontLowerLeg" />
    <neuron name = "7" type = "sensor" linkName = "LeftLowerLeg" />
    <neuron name = "8" type = "sensor" linkName = "RightLowerLeg" />
    <neuron name = "9" type = "motor"  jointName = "Torso_BackLeg" />
    <neuron name = "10" type = "motor"  jointName = "Torso_FrontLeg" />
    <neuron name = "11" type = "motor"  jointName = "Torso_LeftLeg" />
    <neuron name = "12" type = "motor"  jointName = "Torso_RightLeg" />
    <neuron name = "13" type = "motor"  jointName = "BackLeg_BackLowerLeg" />
    <neuron name = "14" type = "motor"  jointName = "FrontLeg_FrontLowerLeg" />
    <neuron name = "15" type = "motor"  jointName = "LeftLeg_LeftLowerLeg" />
    <neuron name = "16" type = "motor"  jointName = "RightLeg_RightLowerLeg" />
    <synapse sourceNeuronName = "0" targetNeuronName = "9" weight = "0.8159603380523055" />
    <synapse sourceNeuronName = "0" targetNeuronName = "10" weight = "-0.9744907575311712" />
    <synapse sourceNeuronName = "0" targetNeuronName = "11" weight = "0.8815218506805864" />
    <synapse sourceNeuronName = "0" targetNeuronName = "12" weight = "0.5690175202276988" />
    <synapse sourceNeuronName = "0" targetNeuronName = "13" weight = "-0.057042443156963385" />
    <synapse sourceNeuronName = "0" targetNeuronName = "14" weight = "-0.39545829753271344" />
    <synapse sourceNeuronName = "0" targetNeuronName = "15" weight = "-0.08007452478492105" />
    <synapse sourceNeuronName = "0" targetNeuronName = "16" weight = "0.5113169106539637" />
    <synapse sourceNeuronName = "1" targetNeuronName = "9" weight = "0.24882362890668897" />
    <synapse sourceNeuronName = "1" targetNeuronName = "10" weight = "0.3894312921390035" />
    <synapse sourceNeuronName = "1" targetNeuronName = "11" weight = "0.8714743126847575" />
    <synapse sourceNeuronName = "1" targetNeuronName = "12" weight = "-0.5999001812178679" />
    <synapse sourceNeuronName = "1" targetNeuronName = "13" weight = "-0.7197645710206453" />
    <synapse sourceNeuronName = "1" targetNeuronName = "14" weight = "-0.9494651664991285" />
    <synapse sourceNeuronName = "1" targetNeuronName = "15" weight = "-0.4938669425375597" />
    <synapse sourceNeuronName = "1" targetNeuronName = "16" weight = "0.6848634184027709" />
    <synapse sourceNeuronName = "2" targetNeuronName = "9" weight = "0.09082416081136446" />
    <synapse sourceNeuronName = "2" targetNeuronName = "10" weight = "0.3492125965557713" />
    <synapse sourceNeuronName = "2" targetNeuronName = "11" weight = "-0.22891825404091026" />
    <synapse sourceNeuronName = "2" targetNeuronName = "12" weight = "-0.3901875663838259" />
    <synapse sourceNeuronName = "2" targetNeuronName = "13" weight = "-0.5732585423149288" />
    <synapse sourceNeuronName = "2" targetNeuronName = "14" weight = "-0.9635403282874919" />
    <synapse sourceNeuronName = "2" targetNeuronName = "15" weight = "0.40307850185948646" />
    <synapse sourceNeuronName = "2" targetNeuronName = "16" weight = "-0.3883524904122677" />
    <synapse sourceNeuronName = "3" targetNeuronName = "9" weight = "0.48614686401083085" />
    <synapse sourceNeuronName = "3" targetNeuronName = "10" weight = "-0.38463043549364917" />
    <synapse sourceNeuronName = "3" targetNeuronName = "11" weight = "-0.907853369728745" />
    <synapse sourceNeuronName = "3" targetNeuronName = "12" weight = "0.2575026479275382" />
    <synapse sourceNeuronName = "3" targetNeuronName = "13" weight = "-0.7564150410027484" />
    <synapse sourceNeuronName = "3" targetNeuronName = "14" weight = "0.9997408748577505" />
    <synapse sourceNeuronName = "3" targetNeuronName = "15" weight = "-0.2734827918676155" />
    <synapse sourceNeuronName = "3" targetNeuronName = "16" weight = "0.18191340658379862" />
    <synapse sourceNeuronName = "4" targetNeuronName = "9" weight = "0.2824875773914588" />
    <synapse sourceNeuronName = "4" targetNeuronName = "10" weight = "0.8001200236350094" />
    <synapse sourceNeuronName = "4" targetNeuronName = "11" weight = "0.8491791648022589" />
    <synapse sourceNeuronName = "4" targetNeuronName = "12" weight = "0.07198527014655554" />
    <synapse sourceNeuronName = "4" targetNeuronName = "13" weight = "0.11737360093643767" />
    <synapse sourceNeuronName = "4" targetNeuronName = "14" weight = "-0.9361666687591965" />
    <synapse sourceNeuronName = "4" targetNeuronName = "15" weight = "0.21151258514295845" />
    <synapse sourceNeuronName = "4" targetNeuronName = "16" weight = "-0.05375525554191718" />
    <synapse sourceNeuronName = "5" targetNeuronName = "9" weight = "-0.7736770454092088" />
    <synapse sourceNeuronName = "5" targetNeuronName = "10" weight = "-0.6243974401131982" />
    <synapse sourceNeuronName = "5" targetNeuronName = "11" weight = "0.4179149462199516" />
    <synapse sourceNeuronName = "5" targetNeuronName = "12" weight = "-0.9257238919554052" />
    <synapse sourceNeuronName = "5" targetNeuronName = "13" weight = "0.24761077663936915" />
    <synapse sourceNeuronName = "5" targetNeuronName = "14" weight = "0.008446714312754011" />
    <synapse sourceNeuronName = "5" targetNeuronName = "15" weight = "-0.6756475998551184" />
    <synapse sourceNeuronName = "5" targetNeuronName = "16" weight = "-0.7191986299234239" />
    <synapse sourceNeuronName = "6" targetNeuronName = "9" weight = "-0.7730135361210557" />
    <synapse sourceNeuronName = "6" targetNeuronName = "10" weight = "0.24359334174045943" />
    <synapse sourceNeuronName = "6" targetNeuronName = "11" weight = "0.2625039386101935" />
    <synapse sourceNeuronName = "6" targetNeuronName = "12" weight = "0.2462995471867495" />
    <synapse sourceNeuronName = "6" targetNeuronName = "13" weight = "-0.07971997577373724" />
    <synapse sourceNeuronName = "6" targetNeuronName = "14" weight = "0.56477640976563" />
    <synapse sourceNeuronName = "6" targetNeuronName = "15" weight = "0.5585997120076787" />
    <synapse sourceNeuronName = "6" targetNeuronName = "16" weight = "-0.5254205050517371" />
    <synapse sourceNeuronName = "7" targetNeuronName = "9" weight = "0.30838241341031236" />
    <synapse sourceNeuronName = "7" targetNeuronName = "10" weight = "0.2826646397832482" />
    <synapse sourceNeuronName = "7" targetNeuronName = "11" weight = "-0.8675905620733819" />
    <synapse sourceNeuronName = "7" targetNeuronName = "12" weight = "-0.3365739358215034" />
    <synapse sourceNeuronName = "7" targetNeuronName = "13" weight = "-0.7875683556462092" />
    <synapse sourceNeuronName = "7" targetNeuronName = "14" weight = "-0.2915249632218524" />
    <synapse sourceNeuronName = "7" targetNeuronName = "15" weight = "-0.01666004561503054" />
    <synapse sourceNeuronName = "7" targetNeuronName = "16" weight = "0.6580377245515974" />
    <synapse sourceNeuronName = "8" targetNeuronName = "9" weight = "0.5924711493674621" />
    <synapse sourceNeuronName = "8" targetNeuronName = "10" weight = "0.7425179051036368" />
    <synapse sourceNeuronName = "8" targetNeuronName = "11" weight = "-0.22350534303812308" />
    <synapse sourceNeuronName = "8" targetNeuronName = "12" weight = "0.7766606023672342" />
    <synapse sourceNeuronName = "8" targetNeuronName = "13" weight = "0.857865114384764" />
    <synapse sourceNeuronName = "8" targetNeuronName = "14" weight = "0.36566411862220827" />
    <synapse sourceNeuronName = "8" targetNeuronName = "15" weight = "-0.1652195404211092" />
    <synapse sourceNeuronName = "8" targetNeuronName = "16" weight = "0.4091254338888437" />
</neuralNetwork>